3796 72
, -0.105597734 -0.13510787 -0.051959433 -0.19639999 -0.22986974 -0.10557848 0.1573784 0.122086756 0.23127425 -0.15353303 -0.042739604 -0.17482981 0.079366036 0.19162033 0.20890716 0.004471317 0.14311068 -0.008614248 -0.10708868 0.10012521 -0.017281163 0.024060337 0.018270247 0.058773477 0.05744407 0.09951042 -0.07407026 -0.066431224 0.03084728 -0.12462786 -0.09330143 0.08488943 -0.06393715 0.11437021 0.051448274 0.2205214 0.10981546 0.061544817 0.058207445 -0.16864417 -0.004266375 -0.22553326 -0.14567514 -0.14869185 0.034967348 0.10750288 0.08604722 -0.057319045 0.014077629 0.12262561 -0.042024683 -0.009174716 -0.0019160351 0.1615986 0.16466835 0.06039179 -0.0065224264 0.033171453 0.04715299 0.06364006 0.015703915 -0.08946479 0.032623213 -0.108025074 0.04331204 0.15713903 -0.19314279 -0.13353634 0.0799741 -0.25113747 0.014893875 -0.07975818
. -0.10416504 0.045747705 0.010248068 -0.07215599 -0.3502008 -0.107717045 0.14369103 0.021336397 0.18957475 -0.21514332 -0.08830939 -0.09153058 0.07973355 0.07964994 0.15524103 -0.036673672 0.09853751 -0.054363377 0.0035953668 0.17563297 -0.15988727 -0.05147187 -0.021528304 0.011812712 0.06824008 0.12973714 -0.16913147 -0.017900709 0.013200337 -0.15539534 -0.026404796 0.043916058 -0.09934504 0.06310029 0.21671496 0.15146264 0.12741424 0.08772205 0.08175555 -0.07999485 -0.13069503 -0.1661759 -0.0498155 -0.15623985 0.014808536 0.11351483 0.05588302 0.032531444 -0.0560101 0.12525752 -0.06430205 0.0051310835 -0.080589235 0.010226718 0.108865 0.09357485 -0.013271955 0.0789029 0.028769977 0.042914648 0.08556967 -0.004663696 -0.033893883 -0.10720214 -0.008994622 0.23982722 -0.16367161 -0.042111885 0.059549067 -0.15044588 0.11798314 0.0010598212
copper 0.10304465 -0.092136234 -0.023225255 0.09983011 -0.4579868 -0.045910865 -0.013317605 -0.058353964 -0.22127186 -0.17173 -0.14869174 0.050765153 -0.026824178 -0.28066817 0.40044358 -0.37947845 -0.06766567 0.013274937 0.097229354 -0.058560874 0.16415247 -0.17369843 -0.0122862095 -0.07770406 -0.091442965 0.274835 0.029406784 0.07227877 -0.2643026 -0.0052937884 0.06569334 0.034923557 -0.13494845 0.20559794 0.17459191 0.15439619 -0.1667957 -0.14968178 0.4395768 -0.39554808 -0.16877426 -0.553141 -0.13666092 -0.1292964 0.0959936 0.12608145 0.0871508 -0.09537881 -0.026352778 0.072444856 -0.031492375 -0.13628714 0.011522597 0.032768503 0.03229923 0.032738466 0.058872666 0.046620477 0.16083762 0.17885381 0.116244614 0.13055444 -0.09418378 -0.15843111 -0.15795337 0.4585066 0.06873955 0.07521573 -0.23412527 -0.1368404 0.07943154 -0.1353567
alteration 0.083456405 0.17207733 0.6364603 0.025145294 -0.41470957 -0.12179498 0.18773744 -0.0148732625 0.0667748 -0.32987112 0.049695093 -0.41263545 -0.07492284 -0.036845975 0.13234666 -0.12806943 0.118138 -0.016023442 -0.21537502 0.100801945 -0.29475662 0.07180954 -0.14691485 -0.12696661 -0.10047251 0.15001634 -0.23299187 0.17692518 0.3669169 -0.2520335 -0.18300322 0.112511694 -0.049969535 0.015244687 0.26134208 0.12193742 0.29360968 0.24270768 0.2183245 0.23576504 -0.43592864 -0.10634795 0.008927538 -0.16165802 0.1438266 0.06065192 -0.10408843 -0.0014523246 -0.09897571 0.020730378 -0.14214785 0.3178563 0.045918804 -0.0013595199 0.20694928 -0.053839404 -0.07264714 -0.0453977 0.13684055 0.19027224 0.11301779 -0.031293903 -0.22017035 0.14396425 -0.1570267 0.0990252 -0.07398169 0.064369395 0.11924166 0.027179077 0.12961535 -0.11139711
; -0.3021473 0.01021163 0.21470855 -0.43500027 -0.14646842 -0.5437608 -0.22549646 0.07145014 0.3482629 -0.11380943 0.16931991 -0.36256608 0.03256699 0.33190635 0.32394361 0.07056616 -0.11235329 0.17418471 -0.2620829 0.2894061 -0.21581835 0.018049715 0.048228957 0.33525747 0.077622816 0.47079802 0.16496785 0.068128645 0.27418765 0.011637681 -0.010243112 -0.03391432 -0.24048615 -0.05035907 -0.2777812 0.43330526 0.23486428 -0.121393114 0.014986311 -0.18721105 0.11262421 -0.28464282 -0.08996985 -0.21037412 0.06642105 -0.040257435 0.081061 -0.380811 -0.007714803 0.104856975 -0.1340186 0.025607828 0.048021864 -0.023578923 0.4144209 0.36643744 0.1274404 0.08519284 0.07658138 -0.12333673 -0.27737433 0.10524494 0.02730095 0.09439956 0.012473378 0.36310685 -0.06765809 -0.11224649 0.17019841 -0.37551415 -0.16970648 0.021683497
vein -0.31342176 0.26110423 0.20431581 -0.18620609 -0.27085277 -0.07676387 0.26285943 -0.054834243 -0.023733543 -0.2503779 -0.0075027556 -0.20304123 0.05223986 0.34294522 0.24642678 0.043150377 0.19463892 0.14900333 0.18969071 0.083037436 -0.46900022 -0.021244718 -0.16902907 -0.08790632 -0.034507822 0.034247406 -0.22948499 -0.19863324 0.12426809 -0.052016284 -0.004672292 -0.107898876 -0.4371331 0.17053424 0.5541429 0.16305284 0.10956522 -0.062002633 -0.095113374 0.30115405 -0.20588727 -0.10468165 0.19331259 0.016677137 -0.022519052 0.14541574 0.27587909 0.12106394 0.09275229 -0.032348063 -0.2776441 0.032760758 -0.55667424 0.029201232 0.22146806 -0.06889531 -0.108534046 -0.061376147 -0.0036557934 0.2817086 0.3833058 -0.095600076 -0.08365904 -0.06579243 -0.1138816 0.21578358 -0.24216282 0.012371395 0.045301072 -0.19248354 0.15342017 0.10430524
et 0.107629724 -0.019536186 0.15626892 -0.39009878 -0.21441716 -0.4397434 -0.042970877 0.056887142 0.31660378 -0.0440954 0.21247008 -0.19695938 0.31758922 0.21520858 0.33436397 0.24858294 -0.029230664 0.13439521 -0.36310163 0.09499237 -0.15074055 -0.033146378 -0.032341532 0.42916304 0.26625806 0.25057212 0.022063088 -0.12975682 0.054713365 -0.039977796 -0.02690373 -0.15403976 -0.2231373 0.095575064 -0.32199305 0.33637053 -0.03830584 -0.08085374 0.103927664 -0.31495994 0.068952315 -0.35655606 -0.19374299 -0.1804426 0.033255517 0.118374035 -0.017576624 -0.25634667 -0.0038953887 -0.05815504 -0.20967005 -0.1294852 0.043437943 -0.034827095 0.38276878 0.38898695 -0.0022351218 0.4678601 0.14397544 0.020610865 -0.25555405 -0.066211514 0.19766836 0.07875811 -0.1837448 0.2502351 -0.0628317 -0.22322468 0.038899027 -0.4698693 -0.42389375 -0.062222276
al. 0.10008935 -0.052148353 0.13887466 -0.38591155 -0.18078297 -0.47123024 -0.041380007 0.060420204 0.30369598 -0.058028758 0.18920659 -0.21606572 0.283154 0.29506862 0.33347508 0.29688206 -0.041544635 0.13429238 -0.37453392 0.10866302 -0.118817136 0.00711253 -0.022985227 0.40555108 0.2883415 0.24922317 0.017805872 -0.0927886 0.017294575 -0.06517648 -0.071968 -0.1544398 -0.28376836 0.0961337 -0.30545703 0.3562897 -0.016990185 -0.12778915 0.14647697 -0.35569 0.045541573 -0.35285363 -0.18908098 -0.1661412 -0.01895199 0.09419845 -0.08848644 -0.295137 0.030738492 -0.034779593 -0.19805712 -0.18015964 0.0879979 -0.028024793 0.3710994 0.401454 0.0263176 0.48475 0.13943493 -0.05761856 -0.34501263 -0.17725411 0.23525415 0.12717599 -0.15015972 0.24148539 -0.0445382 -0.23290378 0.08632095 -0.4399468 -0.39875227 -0.0747143
porphyry -0.07731689 -0.14037926 0.2405827 0.07274052 -0.4869046 -0.0443968 0.3649879 0.030188482 0.0434929 -0.10599397 0.15417787 0.019607576 0.025412709 -0.05364737 0.31511417 0.1795382 0.06450605 0.20768048 -0.22158301 0.102204904 0.15420105 0.13178371 -0.14986488 -0.016173204 0.0314406 0.23761232 -0.089740366 -0.22641271 -0.045726918 -0.05795502 -0.39408988 0.08622549 -0.14972611 0.037684128 0.19769503 0.19634911 0.2615324 -0.009027991 0.053485245 -0.0698899 -0.10143015 -0.18697771 -0.3278073 -0.22497544 0.059069812 -0.09373963 -0.05358955 0.20510842 -0.11146436 0.10494672 -0.094668955 0.15725626 -0.15540503 0.09191341 0.19140173 0.11914655 -0.21920049 0.044896375 0.019771708 0.3424264 -0.07506032 -0.09040984 -0.046540663 0.0904022 0.14141524 0.05214309 -0.20310104 0.17438814 0.18537457 -0.108882345 -0.19492736 -0.30043426
zone -0.10790035 -0.04028936 0.30240488 -0.05654281 -0.36537138 -0.022547703 0.09678696 0.092630126 -0.06376149 -0.5397384 0.07579017 -0.3171329 -0.27824378 -0.087741226 0.1499462 -0.22737679 -0.22627595 -0.36159536 -0.05369682 0.005763198 -0.14576468 -0.07320605 0.02490704 -0.21133256 -0.0130154705 0.22450432 -0.5012756 0.05972553 0.04688428 -0.21373552 0.1693919 -0.10912233 0.21792409 0.086199604 0.16620794 0.16063158 -0.09900905 0.33820662 0.24440752 0.10267197 -0.8087221 -0.2543294 -0.18130496 -0.0485318 0.29075503 -0.03249408 0.03984498 -0.05849119 -0.43940684 -0.1444915 -0.14220439 0.05725437 -0.2604167 -0.036516067 -0.32017562 0.057008956 0.28499028 -0.079537146 0.024455817 0.14082712 0.09820696 0.089140624 -0.20352751 -0.21957718 0.025515303 0.004425023 0.030710023 0.21128212 -0.10182957 -0.17195623 0.16274257 -0.04523986
deposit -0.11949263 -0.046958387 0.058893215 -0.057908952 -0.3012989 0.15869045 0.17851956 -0.0033059388 0.14589791 -0.20463826 0.016390353 -0.19713712 0.08454349 -0.2179873 0.27859282 -0.1443034 -0.07579983 0.07688964 -0.15977037 0.09981485 0.18191127 0.07579248 -0.010903353 0.090787396 0.064417236 0.014178412 -0.12511429 -0.2970068 -0.28693816 -0.04055013 -0.007458057 -0.094581544 -0.13240375 0.23342034 0.30965573 0.24235359 -0.040983886 -0.12135962 0.07435169 -0.12542038 -0.02043692 -0.3068103 -0.37564793 -0.16181925 0.072392546 0.032225978 -0.09463026 -0.0029777172 -0.17152356 0.11175086 -0.13479084 0.19143848 0.11241761 0.16587318 0.24151938 0.12912573 0.037121672 -0.18323414 0.059285935 0.21591443 0.05114802 -0.12894255 -0.079017825 -0.062536225 -0.042756673 0.231998 -0.018530281 0.060332797 -0.0811706 0.0070478003 -0.12055119 0.11925758
mineralization -0.053899936 0.038570784 0.0767951 0.16366234 -0.52382773 0.08407591 0.008083818 -0.10322983 0.11834072 -0.23843941 -0.15489101 0.029783832 0.27810863 0.15081759 0.30931482 -0.18326849 0.17675924 -0.026767774 -0.048390683 0.2910472 0.08465271 -0.004377661 -0.21981281 0.065110534 -0.26276496 0.21470284 0.062449824 -0.08869936 0.12044813 0.23557651 -0.27255142 0.048476163 -0.22801265 0.15391518 0.28143895 0.25882342 0.20149775 -0.061468758 0.011604398 0.092348784 0.09511703 -0.358755 0.23282622 -0.10934528 0.12784615 0.32998118 -0.2753234 0.31512198 -0.120295525 0.10931991 0.08189713 0.055001695 -0.09985105 0.12529916 0.18619253 0.02943714 -0.30885953 -0.019858606 0.23865944 0.28369242 0.2852065 0.0063625313 0.25879034 -0.1432589 -0.12829348 0.13642503 -0.042819675 -0.06302985 -0.056541894 -0.067110986 -0.1482444 0.13130848
hydrothermal -0.079944916 0.2009179 0.0950877 0.074361935 -0.3459708 0.104274906 0.21658924 0.2828477 0.035826385 -0.17090943 0.104414724 -0.15473275 0.029638393 0.08564074 -0.02540767 -0.055329036 0.22186519 0.2067403 -0.22098623 0.2646986 -0.052593913 0.102083765 -0.03135688 -0.039106425 0.33444196 0.1958073 -0.0075399834 -0.1601538 -0.009515852 -0.03213449 -0.2901007 -0.0115763815 -0.16744113 0.052666117 0.34564626 -0.057300135 0.2240057 0.16197017 0.026968306 0.06264386 -0.23955037 -0.36680788 -0.039776843 -0.22083998 -0.20260613 0.198689 -0.11187331 0.0032302192 0.11760987 0.2644295 -0.21937308 0.032297745 -0.2518623 0.000841213 0.054057386 0.059596132 0.15448773 0.24920999 0.08339686 0.054196175 0.16277488 -0.03947033 -0.109641254 0.05645781 -0.34513405 0.15595159 -0.25245097 -0.39353162 -0.13223822 0.034244858 0.13287485 -0.15557362
fig. -0.15053116 0.29164645 -0.22079325 -0.16309847 -0.23112951 -0.079664536 0.1342636 0.04991814 0.29451138 -0.12071125 0.052511096 -0.17071986 -0.01835196 0.3159222 0.3870856 -0.004083394 -0.11182997 -0.10672224 0.076707065 0.18123707 -0.3041033 0.06514631 -0.030402293 0.12966539 -0.0054288926 0.16231155 -0.07521794 0.1267212 0.020508759 -0.18133476 0.101178735 0.03355886 -0.095360465 0.27923197 0.35247615 0.21821491 0.27248937 0.024544362 0.063300446 -0.19900389 -0.11937875 0.08377883 -0.00586928 -0.11242751 0.06913554 -0.06697091 0.23252818 0.18689282 -0.40703228 -0.08699478 -0.0040525994 0.12419607 -0.2663322 -0.29516685 -0.009648087 0.18200995 -0.09065766 0.09780471 -0.23788135 0.043801945 0.0690668 0.10052003 -0.15518755 -0.33776963 0.21599571 0.10053731 -0.20405854 -0.111597925 0.027627213 -0.049337655 -0.13778973 -0.005651437
quartz -0.34799695 0.06557415 0.18946682 -0.41243502 -0.30660865 0.015213735 0.20289582 -0.11130631 0.24656689 -0.3958669 -0.09278139 -0.25637352 0.06680525 0.13327685 0.122738846 -0.040474433 0.077005506 -0.23848496 -0.00460655 0.23006482 -0.20702301 0.13197847 -0.1091089 -0.21248075 0.057289116 0.004130288 -0.43888602 0.0003585304 0.23854677 -0.2590542 0.06074942 0.22227336 -0.13202485 0.03403856 0.1472837 0.23720875 0.09268508 0.42439076 -0.07002258 -0.0046612876 -0.3206337 -0.24147047 -0.06390989 0.23284833 0.06635239 -0.14323843 0.07413752 -0.070372276 -0.0015573129 -0.12587813 0.081288576 0.3053929 -0.12832624 0.15827885 0.05907965 -0.04218582 -0.20901136 -0.101002716 0.013710307 -0.060888156 0.1497461 -0.12098598 -0.06349432 -0.13903737 0.09814351 0.3193972 -0.2730033 -0.026079113 0.14944324 0.20923401 0.43675447 0.0625521
fluid 0.25309172 0.32624492 -0.069133654 -0.18289867 -0.62431365 0.10765989 -0.19236135 -0.089828506 -0.14399558 0.070874505 0.22569537 0.27871388 -0.22868517 -0.12139122 -0.067991 -0.2700427 0.3569339 0.11656703 -0.025022652 0.13626383 -0.11401772 0.044962123 0.2340214 -0.0058115255 -0.10654209 0.32621285 -0.18768367 -0.31885278 0.2158816 0.05515798 -0.13682353 -0.0011401403 -0.22912282 0.36419567 -0.08020489 -0.2946316 0.1576383 0.036075097 0.00026112434 0.16416813 -0.10436988 -0.38703373 -0.28001556 -0.49452427 0.0028554215 0.014736457 0.0011235503 -0.044851847 -0.24567237 -0.18294582 0.0782506 0.03745279 -0.18858215 0.34175372 0.11546002 -0.06861671 -0.3700697 0.29265597 0.33264142 0.19784273 0.31282574 -0.09579539 0.4776634 -0.3177841 -0.23122188 0.24103586 -0.14360183 -0.55958456 0.049433816 0.0014629796 0.05880492 -0.15862213
late -0.24781787 0.05984719 0.0119386995 -0.123098835 -0.45252293 0.19483754 0.22835295 -0.0383878 0.12699565 -0.46170926 -0.05587254 -0.2591329 0.25824025 0.3639931 0.17150772 0.01571661 0.3919988 0.113836095 -0.0028426568 0.1841041 -0.26315495 0.12278833 -0.11805321 0.09092145 0.18696433 0.122432694 0.14524274 -0.18336374 -0.29638228 0.10068249 -0.12898904 -0.24507454 -0.21040295 0.20949432 0.33442667 0.29764476 0.47151694 0.13162157 -0.002328459 0.33119112 0.18801168 -0.47177687 0.13730425 -0.1357616 -0.15744533 0.13942361 0.15098748 0.18313245 0.18200314 0.37506184 -0.26598004 0.038262546 -0.46437913 -0.15368845 0.35793802 0.076551616 0.0491174 0.012957745 -0.029933628 -0.11029989 0.1775463 -0.09114036 -0.060090467 -0.04785402 -0.12932172 0.054680392 -0.08628607 0.006124568 -0.119211115 -0.24551682 0.034092613 0.18971016
2 -0.13538158 0.17273374 -0.2659627 -0.20884457 -0.09444571 -0.14563009 0.031467624 -0.10722938 0.16091579 -0.33885387 0.047242075 -0.21782407 0.014835487 0.37936297 -0.117882155 -0.09242417 -0.05630008 -0.31588405 0.25863114 0.3151945 -0.23885787 -0.09498002 0.08640173 -0.1846861 0.11604615 0.27663857 -0.11073264 0.050953433 0.28229517 -0.35424003 0.034803867 0.3692238 -0.14630896 0.18657996 0.2425904 0.3404091 0.41494083 -0.03326106 -0.14975587 -0.043648988 -0.22856554 0.2295276 -0.42100793 -0.120636515 0.052318975 0.073457435 0.28805074 -0.39427805 -0.25025263 -0.25156868 0.09272195 0.098848455 -0.33634436 0.03765385 0.10162815 0.15234067 -0.13425295 0.364511 -0.23368193 -0.048584122 0.25554946 -0.09393555 0.02903521 -0.19050334 0.11370579 0.025886176 -0.24331664 -0.10076008 0.29649058 0.15888025 0.09537188 -0.10656167
type -0.43965068 0.1686102 0.057393294 -0.28684688 -0.26833576 -0.0049195406 -0.023638299 -0.3172861 0.11161506 -0.5436373 0.039936565 -0.22589332 -0.2709184 0.058914594 0.035348658 -0.1129695 -0.101085536 -0.18691288 0.29376414 -0.08567272 -0.36413187 -0.004153407 0.20886022 -0.1667765 -0.011634605 0.24258286 -0.22859871 -0.24505158 0.33644408 -0.15200451 0.22959591 0.24865764 -0.19803931 0.60806483 0.2829724 0.2841739 0.32706144 -0.12977771 -0.1085844 0.17487137 -0.09898984 -0.05610701 -0.24052382 0.09347087 -0.16893852 -0.014959362 0.38137412 -0.14857528 0.04049215 0.067876525 0.08252645 0.34814295 -0.27460387 -0.049180537 0.47334442 0.114883564 -0.049901675 0.28875065 -0.53964597 -0.19809252 0.1464642 -0.16925047 -0.18319286 -0.040631652 0.24891117 0.109408475 -0.56342 1.7938823e-05 0.0045689666 0.008035672 0.05810274 -0.20485559
rock -0.112604134 0.06251236 0.25920948 -0.0494083 -0.4832903 -0.17567287 0.34583607 0.2515152 -0.18626826 -0.33746248 0.37189546 -0.31509638 0.064866416 0.0105660735 0.4418247 0.21359205 0.08269125 -0.0106180385 -0.16536158 -0.11514118 -0.06400357 0.07849604 0.028629033 -0.10967822 0.31158686 0.111285575 -0.23573418 -0.13722286 0.19257839 -0.17063203 -0.094239034 0.18391964 -0.029517421 0.091166586 0.034212872 0.2039556 0.119340755 0.2265044 0.39163822 -0.040130798 -0.15381674 -0.1481728 -0.37340418 0.107462384 0.065301284 -0.07095258 -0.20466466 0.049989928 -0.114526756 0.016448922 -0.07589151 0.013202935 0.051085785 -0.11152368 0.03487189 -0.06687076 0.13930993 0.039801646 -0.04005239 0.31639478 0.18821894 -0.2675571 0.0152770085 -0.1714405 0.66264105 0.022889784 -0.2813001 0.034245886 0.36951822 0.10339658 -0.03864336 -0.24542655
intrusion 0.0019160539 0.18023238 0.0010922407 -0.09367996 -0.28450084 -0.059108973 0.3526062 0.38452882 0.045881428 -0.31786638 0.029868651 -0.3750992 0.44649124 0.13531959 0.2536667 0.10421269 0.020456504 0.2297946 0.008789259 0.03650879 -0.042136427 0.15039773 -0.04855355 0.075909875 -0.10218446 0.29014292 -0.062008645 -0.03809171 0.4937165 -0.42688885 -0.2198954 0.08776204 -0.1360547 -0.086114086 0.5893687 0.24739835 0.15862665 -0.14166458 0.29524475 -0.100535035 -0.2057442 -0.07956823 -0.013183454 -0.19818157 0.15672658 0.13328552 -0.11283963 0.24881925 -0.10116739 -0.150215 -0.081966564 -0.104807846 -0.36532474 0.082997434 -0.07745907 0.1516645 -0.101296574 0.13233434 -0.458893 -0.0022408515 0.03836333 0.0075224163 -0.11128663 0.122561865 0.12435955 -0.2850472 -0.15657435 -0.39923602 0.40379214 -0.058317084 0.04017868 0.011332079
mineral 0.040781904 -0.13547154 -0.055562574 -0.14104825 -0.25885484 -0.14870997 -0.12343561 -0.09374799 0.04637548 -0.3840524 -0.17768693 0.03363088 -0.12960628 -0.13783138 0.04708292 -0.6652769 0.054474637 -0.16165899 0.19695047 0.020454204 -0.07854735 -0.06611015 0.17073797 -0.019205475 0.04651351 -0.15715891 0.2235989 -0.026872337 -0.23720309 0.04589775 -0.082708366 0.16308309 0.28130293 0.29113764 0.18827392 -0.05576417 0.16625068 0.18693955 0.31689176 -0.20483299 -0.25977263 -0.69134766 -0.28852832 0.02364081 0.15230006 0.09186041 0.19471018 -0.0574197 -0.16429408 0.030798767 0.18329567 0.13721254 0.16269824 0.2101355 0.19740932 -0.10844337 -0.20839114 0.11645696 0.4326417 0.15573512 0.29451674 0.068984956 -0.15498705 -0.06014123 0.057722524 0.14717643 0.26401812 -0.09394919 0.1400029 -0.10595741 0.11869701 -0.2784037
1 -0.25049224 -0.027917841 -0.3139875 -0.20089658 -0.1575431 -0.044888142 -0.09324823 0.08065442 0.13465576 -0.38986707 0.21260224 -0.2576303 -0.18855578 0.30465823 0.097912416 -0.09904873 -0.018959751 -0.19419463 -0.10397135 0.2578725 0.06652445 0.09397597 -0.02920995 -0.28311837 -0.18601091 0.20778674 -0.23969011 0.027355107 0.18337321 -0.2718644 0.009485283 0.13613491 -0.14603017 0.23921615 0.39732698 0.34111792 0.26122165 -0.14479692 0.14876634 -0.25559953 -0.008864368 0.12274324 -0.1706086 0.022425719 0.03299379 0.016101036 0.21398589 -0.060390677 -0.30864292 0.0066096555 0.22377965 0.23576364 -0.1645792 0.039571464 0.04657942 -0.052176233 -0.12616491 0.012468698 -0.33341014 -0.02565449 0.022301866 -0.12765153 0.20592023 -0.193013 0.058656096 -0.017670449 -0.29542482 -0.31777 0.32567373 -0.0035508105 0.17650168 -0.08175457
cu -0.15422212 -0.271179 -0.2884471 -0.2583787 -0.330429 0.41753155 -0.00076677575 -0.24431252 -0.029516013 0.08053745 -0.040965978 0.08538005 -0.25819522 -0.09401691 0.6023881 0.04034119 0.1518516 0.13818637 0.26745033 0.24346557 0.11336215 0.19358107 -0.030275788 0.22233807 0.045272417 0.39412138 -0.116131514 0.08775453 -0.2540112 0.06545708 -0.022110574 -0.23281474 -0.35531417 0.3196037 0.5182464 0.34317794 0.27766746 -0.3225498 0.011543534 -0.25716484 0.25811735 -0.11439923 -0.29349652 -0.034825817 0.21656579 -0.10697796 0.1372185 -0.075440936 -0.044994183 0.06860515 0.044310234 0.061689086 -0.060500816 0.14460708 0.23859856 0.30496496 0.13321654 0.21653733 0.18349755 0.22601375 0.06022762 -0.18980257 0.06807079 -0.4876201 -0.1630252 0.32298163 0.24251173 -0.024145404 0.04583566 -0.061261926 -0.11603267 0.14587088
ore 0.10273042 0.014841899 -0.0549155 0.06718896 -0.43675992 -0.077571675 -0.07321658 0.04848284 -0.012021139 -0.30947646 0.22927351 0.2086233 -0.016435003 -0.16403045 0.29010266 -0.118267186 -0.25769138 -0.19573194 -0.11374703 0.10439304 0.12532109 0.07612496 0.104067646 0.20978132 0.27207902 -0.1328631 -0.093281925 -0.0036002048 0.061741438 0.43720835 -0.014503917 -0.0047298227 -0.110539794 0.54214305 0.35150373 0.01840478 -0.280287 -0.10285793 0.16703725 0.22091407 0.04657197 -0.6180863 -0.30082354 -0.2577171 -0.063987695 0.12443827 -0.30818483 -0.07369239 -0.09025212 -0.10645327 -0.13811645 0.1120377 0.20161721 0.12045687 0.13148011 0.038456194 -0.0064279987 -0.02205425 -0.02774044 0.23860578 0.3723856 -0.4088123 -0.20558931 0.044307448 0.017078232 0.32991844 -0.20778929 -0.22432765 -0.46094903 0.049212493 -0.025354581 0.0071540982
inclusion -0.11271646 0.3627712 -0.16552556 -0.33496258 -0.3499307 -0.20889421 -0.4152369 0.0015168675 -0.12166041 -0.16748647 -0.1851754 0.34873128 -0.42149878 -0.20329084 0.1045228 -0.37177458 0.32642862 0.04561388 -0.0076301554 0.18391447 -0.09358668 -0.025108924 0.050345253 -0.12311926 -0.1352205 0.40803808 -0.38912714 -0.4450124 0.29111096 -0.50382996 0.37197244 0.35469362 -0.1544792 0.6208049 -0.21209186 0.22894607 0.65293 0.10890843 0.07624663 0.25662842 0.16065764 0.014657914 -0.45991626 -0.19754674 0.10725053 -0.0849426 0.21069224 -0.37950063 0.07372388 -0.57418287 -0.023696415 0.13615116 -0.09555568 0.014267284 0.3100783 -0.106918976 -0.42829672 0.36569217 -0.30991688 -0.47759843 0.21381672 -0.27902657 0.3453738 -0.26947567 -0.22379313 0.53723043 -0.5253558 -0.58488476 0.12981708 0.35280558 0.11034673 -0.19454715
magmatic -0.22162493 0.28366795 -0.06069553 -0.34567478 -0.5996797 0.2903728 0.1873617 -0.04125303 0.11690198 -0.3636872 -0.024319828 -0.16590373 0.055202737 0.105063364 0.14062485 -0.0041485853 0.14564548 0.22431275 0.083105884 0.13588968 -0.12027723 0.37303934 -0.0697072 0.11329732 0.41245875 0.2484781 0.25743875 -0.077143006 -0.18194672 -0.17142601 0.07343511 0.08184066 -0.054277904 0.15100859 0.35286835 0.39781073 0.42628607 0.1045445 -0.0029351332 0.53737915 -0.00018355537 -0.29103798 -0.052332163 -0.013812747 -0.32892793 0.17892554 0.06488348 0.027517695 0.3733278 -0.005228567 -0.07363736 0.28176287 -0.21211986 -0.13206078 0.2654987 0.03276085 0.023156038 0.38578138 -0.56114054 -0.2579121 0.060758658 -0.26365507 0.024777126 -0.007837942 -0.009535805 0.1329919 -0.2761519 -0.11599656 -0.29480183 -0.14986166 -0.10108227 -0.06590289
low -0.18174937 -0.17007953 -0.11813201 0.041744616 -0.12779985 -0.021504765 -0.043325823 0.13228686 0.079595976 -0.21038361 -0.32029906 -0.21807906 0.007194017 0.109222524 0.4435983 -0.24409379 -0.1895729 0.10943939 -0.09991394 0.012768506 -0.10431909 -0.014698217 0.26836416 -0.02192238 0.18125424 0.041692268 -0.10232463 -0.16897927 0.19918545 -0.12438987 0.017768824 0.14894126 -0.53482604 0.25197414 0.1175588 -0.3057836 0.06938581 0.33431584 0.31148943 -0.07512328 -0.061977196 -0.3605547 0.39254108 -0.19739972 0.13645175 0.08578097 -0.14398785 -0.29659438 -0.37243298 -0.057330675 -0.17601994 0.19904368 -0.24534686 -0.12542734 0.009413811 0.02948442 -0.04171767 0.09910864 0.34759578 0.06448332 0.038671438 0.17794038 0.2794584 0.020661924 -0.03589572 0.25843835 0.18665883 -0.10158983 -0.447351 0.06611041 0.12039027 -0.0037840484
stage -0.20111974 0.429554 0.25389305 -0.31506523 -0.48752522 0.28378612 0.35278216 0.15216932 -0.1360845 -0.38437635 -0.0010313255 -0.3147924 0.15999022 0.24294081 0.09837566 -0.07202916 0.4376761 0.36730224 0.027679056 0.09690765 -0.23621511 0.36962888 -0.60725206 0.43232146 0.23940185 0.059735652 0.22959085 0.07471181 -0.054060355 -0.09998053 0.16746809 -0.27620897 -0.15762594 0.292695 0.61325574 -0.03922592 0.6860831 0.26446497 0.1633684 0.4125505 0.034205552 -0.5641828 -0.16781998 0.08446038 -0.20805484 0.19286071 0.22854263 -0.05617673 0.43987158 0.41843268 -0.31004292 0.13508031 -0.4325315 0.014910302 0.11566508 -0.22639394 0.10310097 0.093692005 -0.065405525 -0.4842368 0.027072001 -0.016887948 -0.36253217 -0.06372596 -0.30434063 0.37484095 -0.025654666 -0.3463839 -0.01974469 -0.40984455 0.20031488 0.25429067
molybdenite -0.0032655064 -0.1696433 0.0977964 -0.23940343 -0.14432599 -0.44616875 -0.26768124 -0.10822016 0.13459179 -0.6048394 -0.65196145 -0.1493695 0.16786407 0.36365426 0.106257245 0.0627971 0.61856365 -0.17874762 -0.17845333 0.6472628 -0.34813935 0.104133435 -0.16042404 -0.07765764 0.18642071 -0.08856028 -0.25111675 -0.07830937 0.20947468 -0.1502265 -0.36695424 -0.017241128 0.0117824655 0.30175966 0.29306448 0.6463545 0.25606316 -0.102617145 -0.4007679 -0.0387482 -0.27076012 -0.22395486 0.06708066 0.3428508 0.3925959 0.4126042 -0.10803629 0.2907072 0.30437055 0.4090445 0.051046122 -0.17350838 -0.0445738 0.71442074 0.063430145 -0.31555447 -0.15523592 -0.07064715 0.41519156 0.121374294 -0.058466706 -0.10899338 0.36442563 0.2554626 0.009903471 0.18217075 -0.25174114 -0.1711649 0.3745002 -0.14280973 -0.419221 -0.24991253
occur 0.028665604 0.21012387 0.13649271 -0.3162519 -0.21874328 0.15978508 0.28288913 0.4308549 -0.11759977 -0.11270556 0.022372492 -0.1972044 0.2805932 0.07804999 0.31886557 -0.1796117 -0.35223302 0.007152845 -0.24721025 -0.012715489 -0.20201275 0.24936855 0.04540873 -0.023645975 -0.07100449 0.15929697 -0.28581923 -0.111384444 0.17276543 -0.24301611 0.10736713 -0.09639829 -0.24361709 0.004602589 0.19452618 0.22251281 0.088245414 0.37973288 0.1577999 0.06476093 -0.4263191 -0.40711778 0.077339835 0.00983303 0.19784354 -0.034589566 0.041317444 0.0673105 0.082235865 0.099446595 0.025794536 -0.48471165 0.048327632 0.05002895 0.13122559 0.09420702 -0.08708468 0.15542638 0.038724955 0.205672 0.14806262 -0.10433801 -0.17928363 -0.1247952 0.22765219 0.28324208 0.027060809 0.17906785 -0.103655644 -0.0006684823 0.19483207 0.07094175
high 0.19607532 0.09361196 -0.04739789 -0.05857664 0.0010799336 -0.26590002 0.13680479 -0.06426666 -0.07134376 -0.059520803 -0.22710961 -0.127411 -0.09939595 -0.14294423 0.17293987 0.029149016 0.07170634 -0.059164893 -0.13605294 0.17965917 0.043200057 0.033088 0.15341642 -0.19566788 0.0594119 0.26906312 -0.14004336 -0.17506206 0.34970462 -0.20828542 -0.15074113 0.15052512 -0.46246523 0.46248794 0.10060304 -0.31805536 -0.051712215 -0.005989729 0.1360212 0.27839413 -0.25868407 -0.25407168 -0.14938633 -0.3046004 0.014869978 0.19369946 0.037295014 -0.14899097 -0.24565399 0.149302 -0.07528338 -0.026954347 -0.05062832 -0.24598522 -0.054806348 -0.13971397 0.038253177 0.1935006 0.07992827 0.45960078 -0.15239425 0.17950805 0.38875178 -0.23348498 -0.22600521 0.2995395 0.16140041 -0.2461975 -0.34612378 -0.032604773 0.13960339 -0.27602133
system -0.1756987 0.17902936 0.32112697 0.17609257 -0.33842596 -0.16222778 0.061866656 0.1439968 0.3059387 0.13144857 0.05502147 -0.079261996 -0.45981872 0.018518198 -0.17133757 -0.33560643 0.12628962 0.085544504 -0.27161893 0.054985154 0.12241826 0.182388 -0.09254604 -0.15215185 0.37311468 -0.032436546 0.0735353 -0.105101295 0.0007847056 0.29871535 -0.7168999 0.3156424 0.035136834 0.23609714 0.18020964 0.21278317 0.26450258 -0.0092466045 0.12274606 -0.16643706 -0.17374238 -0.6618339 -0.3190614 -0.31924626 -0.047681764 0.09925631 -0.15840335 0.06754819 0.108456075 0.41787717 0.07080627 0.30759296 -0.23190404 0.32190156 -0.052494623 0.21305019 -0.055106148 0.34194914 -0.040423233 0.23374352 -0.09992128 0.1488483 0.01201095 0.23157075 -0.17638926 0.19308414 -0.35659757 -0.20904613 0.15490773 0.32670346 -0.38065326 -0.122927375
sample -0.12398951 0.11499532 -0.14672567 0.101307474 -0.08993818 -0.24252123 0.17756538 -0.033706047 -0.032416686 -0.009567227 -0.17934261 0.088325694 -0.05972914 0.1478475 0.2927912 0.7166211 0.6957526 -0.43853852 0.09433951 0.18142784 -0.11645409 -0.4672036 -0.48028734 -0.22583826 -0.21406652 -0.0854478 0.054835096 -0.14019603 -0.14851333 0.1913914 -0.25987822 0.121965 -0.44972962 0.3683276 0.49550822 -0.24931899 -0.26224452 0.0028555794 -0.04862548 -0.4531358 -0.11783328 -0.032064244 0.025595052 -0.046336584 0.33404696 0.044828515 -0.05600198 -0.061804075 -0.10353287 -0.22811332 0.19289921 -0.05965724 -0.119037285 0.17668922 0.47267568 0.08849388 -0.1615939 0.3952141 0.13652892 0.4561449 0.5861425 -0.1278279 0.7282495 -0.032227334 -0.15783603 0.82710177 -0.10433366 0.042082086 0.29342884 -0.253682 -0.084318906 -0.16076407
age -0.11218605 0.03921588 0.033684183 0.031138038 -0.08883528 -0.28358224 -0.082092114 -0.25165385 0.4490457 -0.6737578 -0.03594139 -0.07987394 1.0824145 0.09412236 0.24139754 0.38637322 0.17119683 0.25799716 -0.39540327 0.56890255 0.32754397 -0.3001546 0.053229585 -0.28887865 0.36111555 0.15210484 0.15655284 0.26713926 0.35175157 -0.22204947 -0.067925714 -0.14565834 0.38941213 0.43863043 0.23524003 0.1761696 0.33042374 0.17003866 -0.089630395 -0.23233573 -0.15439232 -0.44048452 0.13619113 0.037921604 0.2586203 0.047615968 -0.33791107 0.18677896 -0.236311 -0.038495075 -0.22444722 -0.029935839 -0.14979994 0.43618318 0.28422922 0.081832424 -0.27525327 0.42421535 0.25205222 -0.14779028 -0.35752177 0.06938816 0.112756886 0.4231121 0.22891615 0.09397761 -0.27560854 -0.10957764 0.35797194 -0.13540012 -0.53162533 -0.008979954
date -0.07970468 -0.04132518 0.35394606 -0.017543446 -0.04307371 -0.4288898 -0.32690057 0.167546 0.35151398 -0.6925493 -0.6749126 -0.0072611156 0.6483125 0.4378681 0.23775385 0.059111018 0.80681807 0.013489872 -0.52911043 0.42512143 -0.15690114 -0.10456661 0.16112405 -0.08467843 -0.0073273904 0.17237492 -0.06348827 -0.1437614 0.36341074 -0.1779837 -0.44644028 0.11372008 0.14267282 0.35722312 0.459925 0.64347374 0.40489772 -0.021358257 -0.11477313 -0.17947981 -0.33586612 -0.32359034 0.15146334 0.15957072 0.44571778 0.6036628 -0.27749148 0.402186 0.31372097 0.3769601 0.1658845 -0.06876135 0.3083572 0.59615797 -0.16728799 0.029576506 0.30045655 -0.1847332 0.15787949 0.33163774 -0.09827155 -0.17036293 0.12764221 0.37101698 -0.06658967 0.089210786 -0.14879826 -0.39792836 0.74619704 -0.0073768445 -0.38238522 -0.2528965
breccia -0.40989277 0.31602675 0.26304734 -0.14667557 -0.34388548 0.078435995 0.46938434 0.38414878 -0.18845706 -0.22108638 0.08950716 -0.03404701 0.21742462 0.17655753 0.39855468 0.41358888 -0.35144246 -0.04202074 0.03983288 -0.14089301 -0.3928953 -0.11400784 -0.068967216 -0.021026943 0.3822569 0.16909844 -0.44105524 -0.53349054 -0.073743284 -0.51634836 -0.22581229 -0.33816075 -0.344847 0.23304014 0.57966197 0.07621692 0.03149544 0.29376182 0.32734117 -0.66980356 -0.33275408 -0.2850605 -0.012397305 -0.1495012 -0.32739007 0.040661655 -0.20911214 0.4065339 0.39079684 -0.13949926 -0.06828965 -0.019372955 0.040432863 -0.0718678 0.12956186 0.37995076 0.6458098 0.06397054 -0.40143713 0.014058733 0.08736817 -0.16297571 -0.015429387 -0.16824128 0.11160479 0.0019022721 -0.3851709 -0.2795145 -0.19225772 -0.349369 0.40751278 -0.2994871
oxide 0.16335292 -0.53656256 0.08645938 0.22128661 -0.4322976 -0.11391544 -0.5485438 0.25089633 0.15813255 -0.5382466 -0.54204327 -0.4006124 -0.40544266 0.15332517 0.5708807 -0.5679607 -0.20043257 -0.41736192 0.5576716 -0.12618613 -0.074253775 0.18242823 0.36796206 -0.01571593 -0.04064072 -0.29351223 -0.032613542 0.10163608 -0.4833722 -0.62280244 0.27362493 0.38953766 0.21927796 0.35034743 0.56077397 -0.14088504 0.07785219 0.37826458 0.21913925 -0.5306098 -0.39498308 -0.58606946 0.2088723 -0.10252385 0.37749907 0.3620328 -0.054922134 -0.22032359 -0.32956648 -0.22027726 -0.08359499 0.020367704 -0.17623743 -0.14580496 -0.13944477 -0.26170325 0.16242982 -0.34733942 -0.07135507 0.37955144 -0.15892304 0.45318884 -0.0056744628 -0.38617128 -0.06288694 0.35170734 0.2857374 -0.07119801 -0.5298274 -0.012993977 -0.2578781 -0.18864018
associate 0.08349846 0.3787274 0.13241377 -0.33249977 -0.36938575 -0.037013173 -0.13288286 -0.1436477 0.33236286 -0.31614903 -0.3071495 -0.33727872 0.36465323 0.1640751 -0.017893134 -0.014309264 -0.12039533 0.15617745 -0.06625224 0.34739763 -0.2910431 0.09999471 -0.31643936 -0.055921607 0.18095136 0.1753017 -0.13907485 -0.1921123 0.35765815 -0.122868985 -0.38886723 -0.050975356 -0.061388444 0.26799187 0.58186233 0.043880317 0.2699986 0.21998169 0.001604004 0.21202783 0.108276285 -0.3184251 0.1824819 -0.20181383 -0.10220057 0.3069254 -0.1009103 0.193516 -0.13481289 0.12411308 -0.47373825 -0.117282785 0.004013899 0.02318109 0.1595056 0.3503458 0.21276784 -0.04585506 -0.037707195 -0.2572165 0.116882175 -0.17126694 0.011334155 0.17970808 -0.17089558 0.07603891 0.12528464 0.29052982 -0.112044945 -0.12942758 0.21245888 -0.12396826
chalcopyrite -0.1065045 0.10065277 -0.14470248 -0.31647372 -0.39889967 -0.09239587 0.13522324 0.20904164 0.25090897 -0.16862436 -0.21402442 0.109726466 0.14912991 -0.10828775 0.08921084 0.082734585 0.3469277 -0.20140128 0.25311592 0.33323258 -0.37936828 0.06095646 -0.365815 -0.24200836 -0.6388609 -0.07754451 0.12380916 0.090324074 -0.13844682 0.23892412 0.2208861 -0.23273826 -0.4515804 0.38048914 0.14935541 0.14769262 -0.23039508 0.15604551 -0.0033903457 -0.19060515 -0.2841637 -0.50047934 0.16284086 0.21835224 0.110923916 -0.1151983 0.15020117 -0.057872355 -0.26504374 -0.10249387 0.47303241 -0.26997003 -0.18617369 0.2836251 0.48699895 -0.12068326 -0.61280334 0.08451683 0.19149745 0.3933849 0.52417684 0.2069976 0.42442247 -0.17152824 -0.1944881 0.73858076 0.22262773 0.041648127 0.34657866 -0.40981925 0.30292857 0.006831729
3 0.03746822 0.20745915 -0.31965446 -0.10966834 0.1673109 -0.32352337 0.2837505 0.3047172 0.42044476 -0.40438995 0.17601727 -0.121701375 -0.08421268 -0.016333237 0.1815233 0.14674793 0.08186592 -0.12902641 0.08248435 0.56242937 -0.22306287 0.11438534 0.017804056 0.09171456 -0.119773164 0.2165754 -0.2302794 0.14632457 0.39822376 -0.12359246 -0.010063239 0.26319486 -0.16431159 0.12161777 0.42320502 0.12021584 0.21683818 -0.04855468 0.12809287 -0.23443249 -0.37733784 -0.08089558 -0.011268048 -0.06828581 0.01205084 -0.01121195 0.4612212 -0.08921322 -0.08109156 0.06591906 0.18140541 0.32767645 -0.26310974 0.3005454 0.18273054 0.08255125 0.186631 -0.037470862 -0.06267065 0.053686153 0.1115296 -0.12002742 0.16340771 -0.050860986 0.33635077 0.1435528 -0.0082942955 -0.12640318 0.1305135 0.011440689 0.045009833 -0.09972439
dacite -0.22860435 0.13650042 0.2933193 -0.099513784 -0.5902955 -0.18128502 0.8461201 0.08878991 -0.1730815 -0.06322506 -0.4777856 -0.31752846 0.41634828 -0.16440238 0.6251524 0.46439978 -0.3262725 0.21443339 0.04126388 -0.028901102 0.08761202 0.07013129 0.067745365 0.027071407 0.07389336 0.80181855 0.13287495 -0.15090282 0.13538988 -0.489764 0.08342771 -0.14350998 0.008771001 -0.07313828 0.47638655 0.24232282 0.13879102 0.23459692 0.14162414 -0.017996455 -0.50417006 -0.33735827 0.18312694 0.08402803 0.10039796 -0.22233169 0.25798666 0.42370448 0.2931827 -0.09874918 -0.060262844 -0.1219007 -0.3376063 -0.34281164 0.3370747 0.19937772 -0.08243588 -0.108024664 -0.3158169 0.07648186 0.06725347 0.10224402 -0.3867331 0.19707513 0.28879854 -0.19193871 -0.15928605 -0.23949909 0.19459264 -0.17782415 -0.0033662827 -0.50385857
biotite -0.20520833 0.28090572 0.30751398 -0.6251471 -0.51546884 -0.03012551 0.69467455 -0.060407635 0.04284484 -0.16308394 -0.1870192 -0.08612395 0.035131767 0.40113422 0.29427117 0.33160222 0.26736143 0.19654873 -0.070490904 0.40128952 -0.64893353 -0.47116515 0.13288632 -0.16305995 -0.1174656 0.03996158 -0.021345753 0.0125787165 0.3209829 -0.5046296 0.07238167 -0.029072652 0.27733985 -0.17742486 0.54564583 0.61483705 0.09376328 0.2589994 0.57774657 -0.5113071 -0.13190678 -0.25673503 0.3114878 -0.018519463 -0.30411252 -0.18914577 0.17000477 0.100151844 -0.15178338 0.120204754 0.2613728 0.5337046 -0.16512203 -0.12935223 -0.069600776 0.20048371 0.24734044 0.43979388 0.07136039 0.104682416 -0.42065287 -0.0001963187 -0.38847095 0.15209053 -0.33175313 0.05424929 -0.19012329 -0.45155764 0.11382643 0.12876308 0.16944945 -0.19659248
temperature 0.3790153 0.43344387 -0.21926287 -0.30223635 0.032980565 -0.26619008 0.040276807 -0.23035562 -0.13322525 -0.2089719 0.16650282 0.025350273 -0.28965777 -0.019514594 0.510287 -0.24433361 0.2822886 0.41151148 -0.42013377 0.07122115 -0.099745736 0.06118043 0.052377798 0.326899 0.032682784 0.2172293 -0.36254638 -0.38080993 0.22888844 -0.21174642 -0.37354314 0.19956887 -0.34933853 0.10725197 -0.4122939 -0.27570426 0.10339357 0.14211366 0.1368993 0.18411367 -0.32253635 -0.37507033 -0.48530313 -0.20716402 0.17701949 0.109791085 0.03151182 -0.10138382 -0.36664099 -0.32232258 0.20821343 -0.0041983994 -0.26307917 0.2594826 -0.25370583 -0.34142503 -0.18805216 0.2943728 0.6201404 0.48065022 0.07983066 0.059003685 0.56453 -0.22799622 -0.36814138 0.41433424 0.09356839 -0.85338974 0.18768765 0.38599873 -0.271984 -0.12764873
+ 0.058549155 -0.18696044 0.812131 -0.36614296 -0.4265469 -0.0085367225 0.16726775 -0.32578573 0.56579256 -0.6668496 0.24408528 0.0489255 -0.41221118 -0.4426035 -0.21292855 0.2603861 0.5243578 0.07601567 -0.07923292 -0.23997988 -0.49530232 -0.32053056 -0.4022624 -0.11018831 -0.076989874 0.10749681 0.090582415 0.36869758 0.30505198 -0.4165719 -0.03594084 -0.4044286 -0.44906467 0.5863449 0.1859662 0.025343206 0.19103123 -0.039793026 0.93697923 -0.27867073 -0.8329806 -0.3195786 0.10321433 -0.13415433 0.08253749 -0.2194404 0.5841745 -0.5086578 -0.20289549 -0.35403144 -0.043910608 0.05708748 -0.1006553 0.376837 -0.21316849 -0.30301705 -0.66267395 -0.13545197 0.40713134 -0.23711489 0.4954424 -0.83463687 0.12450844 0.13412671 0.3297469 -0.17512323 -0.33152193 -0.64106494 0.21665704 0.15045373 1.0710485 -0.23916827
fault -0.020359673 0.40914893 0.22997509 -0.28478515 -0.6944341 0.58674306 0.10843783 0.6044185 0.7398795 -0.18573116 -0.29129395 -0.65357924 0.14618954 0.13391967 -0.10983659 0.1319085 -0.30721703 -0.52860373 -0.22747716 0.033722673 -0.12996835 0.032495987 -0.11661517 0.05814588 0.1667257 0.012312014 0.12701768 -0.010037269 -0.036005113 -0.43144202 0.084762506 -0.14329368 -0.07099742 0.16586465 0.3084235 0.29906338 0.55866766 0.07499485 -0.27995715 0.061427616 -0.26709202 -0.25352374 -0.5270606 -0.4561593 0.2995929 0.050971612 -0.17317802 -0.16629785 -0.18990073 -0.021074822 -0.22137828 -0.5518941 -0.40871713 -0.49323782 -0.1979468 0.51988626 0.42552543 -0.16911155 -0.16973928 0.06366287 0.39696383 0.20024115 -0.35964796 -0.42081392 -0.014261399 -0.4346719 -0.13535446 0.33250442 0.30853543 -0.110895604 -0.22598705 0.25547782
sulfide -0.17421712 -0.0891421 -0.031264316 -0.36663812 -0.42117396 0.039729077 -0.1953665 -0.41998163 0.18293646 -0.23741727 -0.30105448 -0.0991583 0.2063883 0.03315188 0.6380947 -0.26973754 0.18479547 -0.025509195 0.26565823 0.24798521 -0.5313083 0.024899827 -0.08849983 -0.1281862 -0.44613338 -0.10396017 0.11250932 -0.056426995 0.07860988 0.20737666 0.015273418 -0.21802102 -0.48544496 0.33560425 0.3009994 0.2613794 0.09014719 0.062466975 0.13352942 0.074207395 -0.30066013 -0.24668287 -0.09895413 0.32339776 -0.40324008 0.020457765 0.10314996 0.13368243 0.006684714 0.48860785 0.36344486 0.10080458 -0.3003826 -0.060481556 0.10732555 -0.20202112 -0.015749136 -0.14225605 -0.09085452 0.3553328 0.20066828 0.24180429 0.25685713 -0.13830659 0.12101388 0.46794719 0.1526127 -0.19032235 0.06699723 -0.065597564 -0.32994327 -0.01888351
sericite -0.2497958 0.10074737 0.638211 -0.47976303 -0.27503687 0.026692241 0.6669754 -0.32770875 -0.092437245 -0.3476445 0.13512462 -0.37590045 -0.024981951 -0.13149002 -0.046016987 -0.064487614 -0.039924532 -0.16526984 -0.25808552 0.036580093 -0.10188651 0.0937426 0.017241998 -0.05672347 0.0682112 -0.12632024 -0.04878449 0.35292244 0.30781263 -0.30669788 -0.091564886 0.17841797 0.11519909 0.18484184 0.060507666 0.36975482 0.16695607 0.8413059 -0.13347688 -0.19462334 -0.5711336 -0.5859471 0.10097874 0.28374377 0.1959143 -0.009997694 0.23939964 -0.18067978 0.00072640186 -0.17917562 -0.042937554 0.3654362 -0.11237345 0.199329 -0.030500881 -0.06148418 -0.53451264 -0.110149354 0.10305022 0.17976928 0.14661823 -0.10507771 -0.097314924 0.2700293 0.1945218 0.4651482 -0.08148559 -0.0061606676 0.025835061 0.34576342 0.1644791 0.013495873
table -0.41227755 0.03268406 -0.1120109 -0.398964 0.19966243 -0.4162484 -0.102889895 0.044938065 0.28143144 -0.40659794 0.025655005 0.058444493 0.25884658 0.1727097 0.10606522 0.039351005 0.22806102 0.09409743 0.21960056 0.6096469 -0.13803977 -0.2601455 -0.17649399 -0.37144828 0.18085961 0.22522672 -0.09268796 0.3123777 -0.023687439 -0.2606765 0.31172252 0.027425455 -0.13063616 0.3123586 0.6334309 -0.17317428 0.27648222 -0.076288246 -0.058165926 0.02375409 -0.17754297 -0.21030708 0.00091616507 0.014271819 -0.05531792 -0.034882437 0.502856 0.11638644 -0.14092395 -0.31667677 0.08786204 -0.2782092 0.0063093877 0.10782799 -0.06763437 0.5320337 0.015906963 -0.07574261 0.20940667 0.046465456 0.24385491 0.11506595 -0.14568639 0.081386864 0.6553956 0.3882832 -0.3181134 -0.20984843 0.041404545 -0.18440922 -0.08792499 -0.18346338
form -0.3348295 -0.15765052 0.41968906 -0.3682392 -0.651032 0.014814899 0.07492176 -0.08457553 0.3518255 -0.11373322 -0.015496266 -0.12799416 0.121862076 -0.14708287 0.27584377 -0.085440524 -0.36646086 0.09446259 -0.15089318 -0.10408537 -0.18785132 0.055876736 -0.35518095 0.015922021 0.0500672 0.067513384 -0.17729872 -0.044770032 0.05533396 -0.10013326 -0.1243649 -0.20043151 -0.18081449 0.35300648 0.17912182 -0.26137736 0.0043988484 0.13473333 0.17659101 -0.020678936 -0.35555857 -0.15165901 -0.084100276 -0.24645357 -0.07466411 0.08576759 0.22989067 0.12139243 -0.024004962 -0.052485403 -0.28119168 0.04095855 -0.2173459 -0.09847339 -0.13685066 0.35473627 0.11703853 0.06133918 -0.039449837 -0.021218644 -0.009444285 -0.16336115 -0.179648 0.03730803 -0.21864648 0.058652587 -0.016086753 -0.03914547 -0.4996811 -0.20327069 -0.2556879 -0.2954491
host -0.13968751 0.080989346 -0.0036621024 -0.05936897 -0.63569796 -0.16652922 0.2751864 -0.15381119 0.36583292 -0.2649933 -0.12064655 0.11267258 0.662721 0.3256894 0.38532004 0.34305057 0.28905922 -0.047106322 -0.062310282 0.2631527 -0.112914786 -0.104055054 0.025002265 -0.007618498 -0.089184076 0.2529696 -0.14713421 -0.31034642 -0.1819087 0.20624472 -0.21044198 -0.34314984 -0.080668256 0.2530089 0.35505646 0.3962734 -0.0460973 -0.3524042 0.12495853 0.06105539 -0.01957988 -0.21325605 0.013525443 -0.023694552 0.12508653 -0.040352173 -0.03489816 0.39260435 -0.120034404 0.12345782 0.10061312 0.32757553 -0.16468933 -0.23178504 0.09754985 -0.062174812 -0.06030292 -0.041368127 0.034019224 0.0065775244 0.48630863 -0.56770104 0.29316473 -0.08590522 0.14650013 0.14010045 -0.004852087 -0.023963608 -0.25917318 0.11493963 0.08812677 0.13290577
- -0.1836653 0.16314782 0.4821448 -0.5964388 -0.066652805 0.0017360006 0.3860448 0.36628067 0.36221054 0.0050018127 -0.16299023 -0.2507328 0.36006036 0.2933704 -0.0025860376 -0.49814 0.07522343 -0.28503084 -0.13978717 -0.0050382335 -0.010985491 0.1590625 0.13106593 0.26832256 0.75333744 -0.06924339 -0.2268153 -0.019716166 -0.08102261 -0.15712887 -0.27718896 -0.34639046 -0.05114395 0.45700392 -0.08601676 0.14623705 0.44092396 -0.038457483 0.01057909 -0.23328085 -0.13374434 -0.24088112 -0.583027 -0.57730097 -0.13595484 -0.099768445 -0.024744276 0.17350842 -0.09613253 0.16137792 -0.078940384 -0.2832468 -0.27232566 -0.040647767 -0.5045239 0.45274106 -0.044753853 -0.23752229 -0.14501616 0.1990279 -0.104192704 -0.1489279 0.0933684 -0.020786162 -0.0056610047 0.15786642 -0.27266648 -0.28876895 -0.04069261 0.096573785 0.23821303 0.14477165
re-os 0.16086471 -0.029300831 0.2645422 -0.15547308 0.037444074 -0.28826448 -0.4653615 0.044508673 0.12698308 -0.73709714 -0.8340189 -0.29049623 0.3036272 0.4985767 0.2552108 0.07843852 0.53946656 0.045804713 -0.3983535 0.6594044 -0.10617346 -0.057246804 -0.11519395 -0.1744732 0.10930701 0.1862109 -0.1437003 -0.13350709 0.4531713 -0.06523918 -0.2990146 -0.08733039 0.17343651 0.3400525 0.23049998 0.7524609 0.49026424 -0.0058651436 -0.30276662 -0.12651005 -0.25984856 -0.55389315 -0.033203237 0.46005535 0.52538455 0.63542473 -0.17074281 0.46581697 0.26197964 0.5240875 0.0015977272 -0.38801703 0.021932663 0.80017006 0.05088299 -0.34643248 -0.08136385 -0.05300643 0.4714083 0.07476932 -0.14406392 -0.21354191 0.19602433 0.40902367 -0.1436516 0.06890078 -0.39273798 -0.4712157 0.49956176 -0.11557264 -0.7669086 -0.31544906
: 0.08325158 -0.46942705 0.06531725 -0.12536353 0.17903484 -0.1927733 -0.47275713 0.2191596 0.062405147 -0.44267112 -0.0995121 -0.1667617 0.10240522 0.15587927 0.09464091 0.006155314 -0.34397462 0.053473137 0.13359433 0.41582152 0.07025032 -0.28653386 0.28823593 0.36295652 0.10093063 0.4339145 0.035980746 -0.0045739682 -0.32039762 0.17949206 0.25681368 -0.0018252187 0.03680897 0.089144744 0.2853066 0.2765644 0.44510075 0.22052057 0.29375207 -0.49469683 -0.46120927 -0.31340575 -0.2808664 -0.24496946 0.30781797 -0.06882694 0.28088787 -0.06652688 -0.0839182 0.02249827 -0.2124365 0.40336758 -0.53431183 -0.16125953 0.48664847 0.05510354 0.34058118 -0.6652057 -0.3586938 -0.10982306 -0.15801844 0.31917992 -0.017466288 0.08857473 -0.02110263 0.3150921 -0.4879525 -0.16673413 0.5070698 -0.11494346 0.15055417 0.033395577
formation -0.13272004 0.44838747 -0.17167352 -0.22357944 -0.6725453 0.23249072 -0.15464993 0.1899237 0.3868101 -0.0495905 -0.08450358 -0.13285522 0.33367836 0.21827085 0.31499293 0.21185152 -0.19567731 0.24286574 -0.29628357 -0.018137565 0.05927907 -0.020000866 0.19551444 0.4591493 0.37298706 -0.15706934 -0.12924084 -0.09058532 0.26909685 -0.17233999 -0.2958659 -0.030361624 -0.1828904 0.0059495103 0.10646851 0.14266054 0.08560208 0.35808748 0.5851711 0.028077321 0.018281428 -0.31275392 0.006631098 -0.5421946 -0.15535745 -0.2911252 0.033097446 -0.006162232 -0.14127307 0.41601303 -0.38942304 -0.029556483 -0.11695731 -0.024036517 0.1606128 -0.20788932 0.32829988 0.06632383 -0.15444086 -0.26712707 0.391501 -0.2697233 0.24064972 -0.83727694 0.5217457 -0.061750684 0.36710247 -0.41885093 0.05500064 -0.25492632 -0.1973123 0.3508344
feldspar -0.37939546 0.1013697 0.6441381 -0.66696864 -0.4656338 -0.13197356 0.002631295 -0.12268714 -0.021429114 -0.113502674 -0.8300045 -0.10890514 0.29124773 0.07093663 0.02185603 0.07480764 0.18118757 -0.15262389 -0.12852594 0.11965945 -0.25086135 0.328751 0.27478096 0.004424722 -0.07120294 -0.45576155 0.32655644 -0.13119085 0.47728038 -0.9239012 -0.13326474 0.46110046 0.049564883 -0.32639086 0.082425974 0.5431913 0.03239 -0.15234774 0.24205124 -0.08868455 -0.6138739 -0.12295705 0.051617008 0.1653142 -0.010233187 -0.09767899 0.106738165 -0.0090483865 0.0913719 0.2883296 0.0662642 0.05351102 0.06045708 0.53416586 -0.07155756 0.2123527 -0.47904444 0.03160458 0.31223506 0.16314743 -0.18043156 -0.36394602 0.17734748 0.294616 -0.067196615 0.42614198 0.13797382 -0.3790201 0.50580823 0.22838214 0.34693852 -0.3387011
± -0.09832761 -0.30420035 0.123903535 -0.7940306 -0.25249043 0.10811815 0.8776274 -0.35745776 0.32485336 -0.4238474 -0.26772854 0.29585248 0.023649994 0.3207257 -0.0898837 0.25082695 0.3222718 -0.16185635 0.21478316 0.54472756 -0.5349024 -0.21311283 0.1773729 0.06741356 -0.44086933 -0.05315922 -0.38502488 -0.034834705 0.32059908 -0.20977423 -0.06469415 -0.35161585 -0.6301309 0.22611955 0.06078511 0.7363374 0.026336817 -0.17975968 0.031282015 -0.25531033 -0.2472785 -0.30223456 0.2390766 -0.14580382 0.13213815 -0.09548724 0.6460011 -0.3617378 -0.22261035 -0.20212728 0.037901 0.20667286 0.0444607 0.32071877 0.025274463 -0.22452974 -0.5588237 -0.18147054 0.3903848 0.17384559 0.10504661 0.034749296 0.22721146 -0.11412795 0.055469293 0.15357868 -0.21819445 -0.09667461 0.37885997 0.11628134 0.32623076 -0.04932317
indicate -0.010128577 0.15686373 0.3714076 -0.17532335 -0.0034214514 -0.020248588 0.056439642 -0.038855642 -0.18341729 -0.35084617 0.0019748718 0.34207737 -0.040813025 0.21555233 0.41993 0.18393368 -0.060154293 0.0061040227 -0.26679656 0.018339891 -0.12593576 -0.012576208 0.02892283 -0.10378742 -0.027308311 0.10674109 0.049213793 0.43717605 0.1483771 0.3684832 -0.066285156 -0.21821305 0.14786857 0.42912805 0.3625638 -0.04151994 -0.14924976 0.1164136 0.32299325 0.10258901 0.0017453214 -0.15005028 0.11578323 -0.39001802 -0.011011988 0.3579893 0.09246126 -0.043610465 -0.5769845 -0.29768598 -0.016037574 -0.09639855 -0.22454913 0.051920906 -0.06625171 0.28836805 -0.44333985 0.2080184 0.30990022 0.0984714 -0.06667384 -0.11437872 -0.10476067 -0.22934899 0.013907875 0.2615213 -0.20542276 -0.6472321 -0.27982903 -0.22819008 0.010880517 0.16426924
suggest -0.23326412 0.0966066 0.0773554 0.26212046 -0.5391601 -0.15535448 -0.22397073 0.096972175 0.08469638 -0.1686357 -0.34980682 -0.07521549 0.12849998 0.13750395 -0.08086994 -0.11884063 0.2522611 -0.050924364 -0.41031986 0.02389275 0.1773041 -0.27904716 0.21133406 -0.11081006 -0.19678186 0.40184474 -0.28497085 -0.13437107 0.37556866 -0.092233345 -0.48552206 0.012846461 -0.13558221 0.30541003 0.25240603 -0.16532445 0.046334144 0.038916215 -0.1484811 0.12201038 0.33219066 -0.18840866 0.06359802 0.06318862 -0.1320908 -0.17790182 -0.003778311 0.5213613 -0.2621983 0.08575191 -0.33661452 -0.039361816 -0.24342631 0.5081373 0.29129463 0.113371275 -0.10816725 0.15016355 0.21778509 0.10099207 -0.2213581 0.10385387 0.40030316 -0.049375556 -0.13304377 0.22388634 0.17263079 -0.5866882 -0.42819238 -0.06766201 -0.29686812 -0.37338442
fracture 0.07244339 0.69034404 0.13402414 0.10817298 -0.17327058 -0.24810402 -0.14978893 0.0075795744 -0.41398638 -0.11999337 0.49978694 -0.06996224 0.11743609 -0.15722558 0.12960072 -0.21887492 -0.23315617 -0.32373726 0.15031818 -0.12139732 -0.3461945 0.011218752 -0.19960795 -0.37729812 -0.107080035 -0.12153034 -0.68110913 0.2689944 0.37471762 -0.55188304 -0.03887644 -0.11248484 0.44587594 0.3570056 0.25525966 0.05347982 -0.27975175 -0.029377872 0.25195688 0.42937353 -0.38636333 -0.91700447 -0.43621057 -0.6648204 0.44991612 -0.58872 0.12725441 0.16474177 -0.32134128 -0.031761188 -0.46005324 -0.035031382 0.15493263 -0.14867227 -0.13348593 0.20390643 0.088308334 -0.47072655 -0.14112014 0.35365942 0.27216598 -0.08565602 0.089177825 -0.048421 -0.07514437 0.25760558 -0.009330669 -0.13660356 0.1630514 -0.39488986 0.058334943 -0.08855834
k -0.46475196 -0.093846634 0.7461916 -0.46490186 -0.25835976 -0.021661822 0.028405545 -0.051904682 0.39322668 -0.12635827 -0.3663699 -0.13958472 0.31703842 -0.025298638 -0.0658959 -0.06326074 0.3236256 -0.11832604 -0.23311277 -0.08375861 -0.1956244 0.21272804 0.227747 -0.07244851 0.052424267 -0.28440157 0.51248854 0.033243228 0.5773832 -1.0080906 -0.24185792 0.38218907 -0.14551821 -0.3514204 0.3152031 0.45381665 0.21734692 -0.050680358 0.31480676 0.078378916 -0.7867826 -0.18029107 -0.3048984 0.1691431 0.015306404 -0.023491275 0.037762802 -0.19662073 -0.024271568 0.29050422 -0.017826688 -0.018374149 0.28738257 0.26595232 -0.21057221 0.08888606 -0.58636475 0.18654364 0.5857564 0.1449583 -0.014483502 -0.29062226 0.29903394 0.57533234 -0.13606356 -0.02694731 0.10988804 -0.4194608 0.42258725 0.15673953 0.1319596 -0.37236294
range -0.29836816 -0.062201757 0.40934044 0.333382 -0.087029636 -0.26707304 0.22807252 0.098964185 0.18860404 -0.2532379 -0.15651405 0.2717558 0.15161133 0.34127608 0.37457484 0.13733701 -0.05334829 0.03542907 -0.02105384 0.4065557 -0.14351013 -0.10231359 -0.15710552 0.04065393 0.095950276 0.60632 -0.2589451 -0.37999144 -0.13747552 0.16322048 0.06438267 0.044245977 -0.106179364 0.4789242 0.21807107 0.27419373 -0.14305912 -0.42087314 0.23840538 -0.06401326 0.2760417 -0.4796537 0.04067068 -0.052028522 0.09742307 0.29936802 0.20663057 0.47465098 -0.21695189 -0.41336098 -0.24097808 -0.15025051 -0.009865541 -0.20841499 0.023169072 -0.2495002 -0.3794917 0.038957126 0.69735754 0.08051595 -0.43451995 -0.373025 0.5055647 -0.1658738 -0.31299075 0.13067915 -0.3295301 0.085634336 0.26649398 0.376796 -0.2100149 -0.24943821
isotope 0.17136472 0.06656051 0.03473376 -0.1546492 -0.2968935 0.17575262 -0.23692456 0.23744461 -0.13707589 0.009829788 -0.1033997 0.107370555 -0.1500508 -0.094583996 -0.08488916 -0.23938307 -0.10006778 -0.25899667 -0.57801735 0.3578779 0.042963333 -0.5797585 -0.08123007 -0.00012440057 0.2400597 0.5083331 0.20912126 -0.34850875 -0.103763424 0.16475882 0.02377635 -0.2043841 -0.38675928 -0.08039018 0.27023214 0.27125415 -0.26243448 -0.07778624 -0.06864035 -0.32865655 0.09848431 -0.5770118 -0.07056268 0.33580258 -0.018367032 0.25889292 0.006438468 -0.08040564 -0.08732197 0.12720923 0.21669517 -0.5847119 -0.29917312 0.6231874 0.042347755 -0.28980723 -0.10653586 0.29084706 0.7797245 0.83336526 0.20141792 -0.04058396 0.5784449 0.10003281 -0.22089233 0.956018 0.08138027 -0.30396652 -0.023664925 -0.08832181 -0.19778521 -0.26924172
control 0.47292608 0.6637117 -0.15859859 -0.20250711 -0.30628487 -0.28750044 -0.041088905 0.040484093 -0.11596452 0.19819304 -0.07818705 0.0147057995 0.00809534 0.10931223 0.000913054 -0.08437356 -0.30133015 -0.44795147 0.13366367 -0.15247634 -0.18226838 -0.29561356 -0.51907045 0.062974334 0.06603634 0.008436828 -0.45125753 -0.16072194 0.23787618 -0.10736279 -0.077497296 0.060734518 0.25202948 0.08024359 0.5850578 0.023103071 -0.2328328 -0.037426155 0.051887296 0.3160527 -0.5141288 -0.5282756 -0.31979302 0.010956778 0.25406498 -0.00857863 0.010493225 -0.025762446 -0.24991892 -0.057792354 -0.35366777 0.009199338 0.21867311 -0.03108058 0.07406684 -0.2213794 -0.3174366 -0.14229503 0.12625888 0.37123796 0.09530349 0.0040832837 0.06245605 -0.34555745 -0.040181026 0.39206362 -0.39235106 -0.124197096 0.02918047 -0.1674774 -0.45325184 0.108764425
atacamite 0.024524227 -0.19957778 0.277576 0.28561398 -0.3524962 -0.4965171 -0.5126504 0.07360982 -0.020903273 -0.39081344 -0.55240095 -0.4044836 -0.3055735 0.052065764 0.6194937 -0.5990291 -0.31153253 -0.15989213 0.5118256 -0.18863176 -0.0119693875 -0.07451675 0.5101095 -0.24611904 -0.3779099 0.019142475 0.16365007 0.57005155 -0.6422133 -0.57578707 -0.031258617 0.37675583 0.18294673 0.8401982 0.17194898 -0.13315256 -0.17647046 0.25961372 0.33353317 -0.38900897 -0.468338 -0.61389846 0.20285651 -0.050664112 0.49393255 0.24726647 0.39585158 -0.13342582 -0.065182485 -0.43880486 -0.3642421 -0.10745208 -0.06659876 -0.2194722 -0.200811 -0.073057346 -0.04034562 -0.57818043 -0.5291687 0.06966333 0.049082197 -0.1805139 -0.10063684 -0.44983494 -0.15196888 0.69317347 0.6091772 0.051375188 -0.59717864 -0.04589697 -0.4350182 -0.35719985
phase -0.09456399 0.34421337 0.16656445 0.04376213 -0.75164336 -0.0058710785 -0.09674905 0.3886036 0.17449382 -0.11888847 0.015225681 0.47289813 0.3021563 -0.06179066 0.4076654 -0.058109555 0.31587034 0.10062503 0.17056315 0.2056682 -0.18509091 -0.065722354 0.022851558 -0.36949772 -0.1468587 0.11750589 0.31174135 0.068858646 -0.075691596 -0.51475847 -0.10041856 0.41904956 -0.011500922 -0.08906131 0.23797049 -0.04291901 0.27770138 -0.06727448 0.060288593 0.030935014 0.049554892 -0.2944127 -0.3226956 0.29552278 0.24871075 0.24660769 0.34353152 0.09894087 -0.07464926 -0.6520639 0.58189535 -0.4339698 -0.005138649 -0.11755823 0.6342722 0.15346773 -0.48667878 0.5601482 -0.24928312 -0.44654685 -0.06486334 -0.032801006 -0.1905019 0.22812214 -0.09037839 0.31124923 -0.0070553767 -0.17405017 0.25481066 -0.045168363 -0.027899181 -0.77272284
2002 0.16022405 -0.15858892 -0.08170007 -0.5153724 -0.2983167 -0.44486856 0.14015286 0.12707648 0.0636373 -0.19263609 0.19582097 -0.32846132 0.10077408 0.09369741 0.4857795 0.50263864 -0.2924456 0.39837724 -0.4041342 0.24357 0.025034942 -0.29350755 0.24067448 0.5205146 -0.09687522 0.2870053 -0.019021729 -0.21902747 -0.2209946 -0.4864291 0.44282848 -0.33753955 -0.18266913 -0.2190292 0.12565394 0.07787543 0.3465088 -0.13014267 0.18295677 -0.40093216 -0.35792482 -0.40751565 0.2807636 0.113390364 0.040693853 -0.5269424 0.09285262 -0.25195223 -0.2181017 0.2546426 -0.29207706 0.0024245945 -0.14044131 -0.20450582 0.31979257 0.74569863 0.39421475 0.46452862 0.18551552 0.28966534 -0.055531465 0.15039521 -0.093251884 0.13743918 -0.1237155 0.08008011 -0.20501836 -0.5073907 -0.19150844 -0.91870064 -0.3937302 0.11366363
4 -0.10683398 0.12512326 -0.085171685 0.030742772 -0.034512524 -0.2788607 0.07418607 -0.1243465 -0.020301959 -0.19200496 0.26537627 -0.36872762 -0.42052573 0.2763148 0.44663337 0.2712666 -0.28261167 -0.11254878 0.2841514 0.70099044 -0.124865614 -0.005026982 -0.35296643 -0.09320724 0.118191615 0.48980933 -0.08016299 0.42828405 0.5130934 -0.10394486 -0.04327632 -0.15215622 -0.1330714 0.14435267 0.43189502 0.0423586 0.020962786 0.017419623 0.045699432 -0.4394669 -0.51117706 0.35979176 0.2638857 0.2566517 0.3681885 -0.3842839 0.05766736 0.014578524 -0.7189543 -0.0059874677 -0.061581213 0.09690653 -0.22372478 0.17947623 0.32935926 0.34584996 -0.2185356 -0.05202919 -0.13610101 -0.12649558 0.3424171 -0.22472256 0.22697143 0.02674601 0.05213564 0.23209085 -0.31426802 -0.17069785 -0.14511111 -0.2358628 0.18044004 -0.1544395
mine -0.015354867 0.13857383 0.35745808 0.07674982 -0.34004697 0.07339439 0.434291 0.42461577 0.3315787 -0.24445884 -0.08079123 -0.43220738 -0.28025487 0.28222337 0.37291405 0.45330504 -0.01719502 -0.17346956 -0.059635296 0.15722404 0.17328203 -0.14017725 -0.16071753 -0.27258223 -0.08306249 0.21915641 0.23120897 0.16720808 0.07365732 -0.26923212 -0.046419535 -0.3416797 -0.25308937 0.108559206 0.3953776 0.30399144 0.16823196 -0.30615205 0.44842765 -0.416918 -0.33687952 0.32251155 0.12225674 -0.14492278 0.08388907 -0.11441638 0.0046117646 0.5265839 -0.27045968 -0.0068592336 0.4279008 -0.08814671 -0.10358209 -0.35097617 0.20875873 -0.18621802 0.043257903 0.16817547 -0.07742672 0.4988071 0.41312987 -0.029160405 -0.113563865 -0.57539696 0.24345258 -0.08283797 -0.51379293 -0.066386014 -0.09120999 -0.63016033 0.13441911 0.015107303
teniente -0.2948351 0.35275534 -0.026217839 -0.050865393 -0.16281834 0.00046135916 0.33027628 0.38427106 0.41047236 -0.14586394 -0.28265586 -0.61036295 0.010352247 0.09593563 0.2321395 0.1618345 0.15577406 0.30473217 -0.107589245 0.41085705 0.1161531 -0.18921992 -0.29216972 0.13846472 -0.30381468 0.32570103 0.1200891 0.14381203 -0.27188072 -0.25548035 0.06341357 -0.58976644 -0.20610173 -0.076171964 0.5285232 0.26549074 0.6474062 -0.07949078 0.3472553 -0.07409327 -0.35100865 -0.062010318 -0.49350685 -0.39026204 0.80025023 0.10139801 -0.084611274 0.40902144 0.25363812 0.39892426 0.016483294 -0.1220428 0.014083384 -0.4748049 0.0771662 0.20485628 0.26740056 -0.17903806 -0.33843628 -0.077724755 0.5783228 -0.15783596 -0.11284294 -0.3756712 0.06368944 -0.30315685 -0.46187776 -0.37805015 0.11809775 -0.2780363 0.002367689 0.3573705
pipe -0.49705395 0.13127175 0.18265486 -0.31164962 -0.19924273 -0.19553816 0.90351933 0.4332034 -0.039822664 -0.15281653 -0.053278018 0.0012702442 0.58684206 -0.053167496 0.18692732 0.39113897 -0.42338106 0.4132279 -0.11531238 -0.23266426 -0.14457713 0.44974384 -0.13013743 0.14224958 0.13113263 0.13060422 0.15372322 -0.031703506 -0.46420246 -1.0075021 -0.06119956 -0.35284793 -0.25059354 0.4328557 0.7347383 0.053973816 0.3785324 -0.0987335 0.12762377 0.027879516 -0.6813073 -0.2471168 0.060870096 -0.16538456 0.06344748 0.1937187 -0.053699557 0.33194363 0.47183424 0.02188111 0.012270007 -0.67836994 -0.37710544 -0.29304245 0.36463082 0.04018736 0.5051978 -0.1483226 -0.39104924 0.4587226 0.13618718 -0.13723822 -0.15203469 0.35703763 0.06420109 0.029899271 -0.45848542 -0.44780263 0.1196495 -0.38777843 -0.041264895 -0.1543192
show 0.02850904 0.0398284 0.33306107 -0.0793435 -0.18922369 0.100115806 -0.33437356 -0.08121197 0.36294213 -0.17436923 -0.43784103 0.13483523 0.009876725 0.21179032 0.011314942 -0.28371972 0.26591933 0.14888552 0.22410125 -0.05881337 -0.21882464 -0.091613434 0.101243794 0.18861996 0.22837992 0.43732196 -0.32016584 -0.17716497 -0.070526004 -0.45811117 0.23495184 -0.045900732 -0.17738815 0.16840789 0.19054134 -0.3741573 -0.08672868 -0.22849676 0.046701048 -0.062488157 -0.12120748 -0.043406837 -0.1780612 0.4181674 0.21702628 -0.12774827 -0.34563372 0.31628504 -0.276092 -0.04277888 -0.121933766 0.31184188 -0.32113338 -0.31693482 0.33295164 -0.06362096 -0.124508604 0.27831885 0.32667166 -0.095789455 0.016036998 -0.058575347 0.17580715 -0.12340186 -0.33215186 0.48680764 -0.30855885 -0.002819976 -0.07669479 -0.08801676 0.069118224 -0.5485687
value -0.66848993 0.10829663 0.2367495 0.2504737 -0.05250389 -0.6276756 -0.23935929 0.2747688 -0.18310401 -0.14844301 0.026595943 -0.27973413 -0.42980278 0.36824888 0.063518494 0.44551995 -0.053029735 0.10274762 0.1198704 0.3135907 -0.22240092 -0.9726297 -0.42280725 -0.044127524 -0.53764474 0.41928935 -0.11367595 -0.65057313 -0.14907669 -0.03290108 0.08018336 -0.008788567 -1.0008787 0.7183303 0.2504832 0.03026984 -0.27217513 -0.0049529998 0.13149993 -0.32357523 0.26606214 -0.50912946 0.11693196 0.23352343 -0.4466918 0.1289583 0.4400358 0.33291343 -0.47252023 -0.41798332 -0.29362795 -0.06888106 -0.7258144 0.19877712 -0.15360485 0.05676696 -0.68641263 0.11746082 1.1490916 0.81953275 0.45905185 0.36667553 0.36454996 -0.06802752 -0.41882983 0.84078044 -0.03597444 -0.10543552 -0.09999588 -0.12879254 -0.17532411 0.1939356
part -0.25869137 0.16279139 0.18126367 -0.34842902 -0.33769482 0.10010389 0.123435155 0.28131887 0.39583308 -0.58709997 0.12050328 -0.09291442 -0.0145590985 0.14147668 0.5913551 0.34126326 -0.42049897 0.038508732 0.051549785 0.07989351 -0.04618423 -0.038539667 -0.07628811 -0.15996596 -0.16151589 -0.0661053 0.13311128 -0.035614688 -0.4404848 -0.08569427 -0.19263296 0.3264408 -0.16654979 0.009288833 0.4783712 0.21589936 -0.24826236 0.10194506 0.22065763 -0.32454643 -0.08047747 -0.4094336 -0.095978424 -0.2877693 0.021719832 0.42940602 -0.16376118 -0.15841225 -0.06533951 0.24302451 0.2447266 0.524388 -0.1514977 0.027724214 0.45488837 0.16446397 -0.25001508 0.2073582 0.24123402 0.13089225 -0.281872 0.53827304 0.08342409 -0.19257908 0.3108075 -0.03331797 0.14030679 0.88623786 -0.47643268 -0.036038302 0.24070928 0.044857156
volcanic -0.2628909 0.004010379 0.13814023 0.24219446 -0.9045855 0.09094786 0.20781094 0.48899403 0.0978933 -0.40051344 -0.10528148 -0.89107025 -0.016079484 0.20186913 0.5817927 0.45383558 -0.34835517 0.030970547 -0.28340685 0.34228835 0.34051308 -0.03861072 -0.32266515 0.48827624 0.44937223 0.21660818 -0.03439102 -0.17790158 -0.031926446 -0.011184442 -0.19745815 0.018022975 0.016807796 0.1003083 0.3328073 0.09539731 -0.35099363 0.36593685 -0.034562644 -0.2838474 0.1722084 -0.15970674 -0.22976728 0.18759044 -0.042889584 -0.5675746 -0.010242149 0.2697923 -0.4605678 0.116083406 0.02983754 -0.00967298 -0.289193 -0.094135605 0.08799886 0.41935036 0.15149412 0.19829589 -0.4303765 -0.0007572883 -0.07357747 -0.26313335 -0.0032301103 -0.41714552 0.7952404 -0.15504773 0.030513108 -0.0067901267 0.1856614 0.3217562 -0.07484253 -0.13266392
within 0.0040558167 -0.10503377 0.26052245 0.15481238 -0.38110074 0.21484485 0.0055398187 0.109328985 -0.03984246 -0.49073985 -0.3970889 -0.11520931 -0.1503543 0.23432153 -0.12524042 -0.08067128 0.19940183 0.046499915 -0.16765584 0.18048625 -0.45961136 -0.0036955457 -0.003266241 -0.16976753 -0.0104825 0.13039945 -0.47063297 -0.34313676 0.16347083 -0.16079849 -0.04295879 0.0055966782 -0.37166518 0.11336653 0.56365675 0.18395 0.5002047 -0.16218276 -0.11236906 0.22474907 -0.33371404 -0.29328838 -0.15930325 -0.043597475 -0.04386215 -0.06831516 0.40435633 0.43704522 0.010846138 -0.14464174 -0.19765186 0.019695742 0.028032675 0.058080148 -0.20787445 0.15542978 0.30412117 0.32162556 -0.04474055 -0.2232918 0.36920506 -0.11045658 0.23507978 -0.14362155 0.16179676 0.06448989 0.01840451 0.19540267 -0.2861679 0.20137206 -0.08472874 0.03296898
also 0.13992971 0.2904425 -0.07962957 -0.16364019 -0.295043 -0.2508205 -0.00035081225 -0.20520307 -0.1930492 -0.2633943 0.009794699 -0.23794186 0.44805604 -0.29199275 0.09306623 -0.2649955 -0.070644304 -0.10657665 -0.060730014 0.15489683 -0.54606014 -0.025909979 -0.039716084 -0.08932086 -0.051398885 0.31425795 -0.115160264 -0.19136488 0.018274987 0.07224746 0.0036896986 0.049280364 -0.119349055 -0.08843933 0.120721795 -0.031381346 -0.20921665 -0.085698165 0.15587495 0.3941045 -0.19135259 -0.7979343 0.27317744 -0.34048527 -0.0030114346 -0.25655016 0.25811547 -0.04781981 0.3721898 0.1072444 0.13245325 -0.23700637 -0.11622842 0.10280507 0.043461885 0.4552398 -0.007880838 0.18572384 -0.08921284 0.20730795 0.090877846 -0.47702965 0.12508719 -0.38742974 -0.11600514 0.32580215 -0.09934634 0.021670518 0.28307223 -0.033103283 0.027279882 -0.03847093
unit 0.18224537 -0.23648904 -0.038486745 0.5787629 -0.25351748 -0.1786768 -0.27873927 0.6638123 0.15765703 -0.57220525 -0.7212707 -0.07711886 -0.13220793 0.4450511 0.51821315 -0.30058298 0.026257053 -0.038538795 0.4985021 -0.23554215 -0.24096075 -0.17192449 0.14604124 0.29102474 0.30796716 -0.2219575 -0.30984926 0.07984134 -0.30171838 -0.6562781 0.042268515 0.20928077 0.13179284 0.43477854 0.46589896 -0.03670569 0.26883274 0.6840064 0.28391677 -0.544003 -0.19710283 -0.4633542 0.5637776 -0.60674924 0.3355146 0.050930135 0.0035384437 -0.12980409 -0.20279482 -0.10033618 0.10908581 0.27122012 -0.063235834 -0.24128628 0.002089759 0.027089477 -0.113667384 -0.08764335 -0.07578351 0.15976357 -0.12490364 0.15827468 -0.06679752 -0.35312352 0.4326627 0.17626457 0.27652037 -0.12538469 -0.9092039 -0.0636994 -0.262141 0.015398076
isotopic 0.07313945 0.05778823 0.12710296 -0.33061808 -0.47221082 0.28130168 0.086823314 0.13234666 -0.13874687 -0.30901718 -0.015372165 0.5637658 0.08330914 -0.059948012 0.17141639 -0.2924045 0.28474462 -0.23105656 0.03049607 0.09793324 0.44477466 -0.34246337 -0.32317322 0.00915857 -0.08894356 0.3991666 0.49597904 -0.15100019 0.23682937 0.56049454 -0.11758258 0.022166036 -0.10797293 0.2722034 -0.09607066 -0.30717048 -0.4323082 0.44167733 0.43239203 -0.27019724 0.11551758 -0.5651825 0.33961412 0.14402466 0.44874892 0.5009994 0.1417661 0.16411659 -0.16511618 0.09966326 0.6155544 -0.23836882 -0.288048 0.12321955 0.59576076 0.53186315 -0.5469633 0.52013665 0.7819523 0.5416446 0.6985689 -0.034062523 0.50517946 -0.32024696 -0.2994859 0.71256286 -0.5459975 -0.23372768 -0.29901338 -0.111165315 -0.34800225 0.0045363703
contain -0.22586463 0.2229693 -0.25420204 -0.4928561 -0.46373835 -0.2921549 0.23997276 0.08571803 -0.03502104 -0.25495437 -0.084832884 0.006412564 0.15350577 -0.17919832 0.25625587 -0.080586225 0.09144572 -0.2159512 0.21287374 -0.320901 -0.4495269 0.14938822 0.492404 -0.16411126 -0.22061157 0.123554185 -0.028557375 0.14590105 -0.058675148 -0.0726835 0.5431887 -0.083773114 -0.43434235 0.6381634 0.28673467 0.16394028 0.29832155 -0.3028762 0.058355488 -0.11983224 -0.16127278 0.09789854 -0.17077479 0.4673298 0.08863031 -0.14570168 0.19277303 0.16554607 0.49553117 -0.150352 -0.10250751 0.3360704 -0.22746201 0.25231567 0.28955707 0.2666178 0.05084458 0.11547416 -0.4463242 0.16818222 -0.013747643 0.015053433 0.32093883 -0.356234 0.09391217 0.48279563 -0.8192631 -0.1274363 -0.28292078 0.08917528 0.35247698 -0.46988404
east 0.04504026 0.36578408 0.4086358 0.22340202 -0.20190258 0.1451518 0.28743923 0.511023 0.1286673 -0.95865273 -0.3007555 -0.60177904 0.096862234 -0.18206659 0.68221265 0.01840195 -0.31856015 -0.5728539 -0.10555106 0.0043491265 0.48271826 0.08814373 0.3931757 0.09533571 0.3056451 -0.2959145 -0.32733747 -0.24305427 -0.107037045 -0.032092318 0.07012365 0.14814872 -0.06255731 0.48290062 0.13935396 0.29698873 -0.16851935 -0.181111 0.27933988 -0.13697556 0.14273503 0.010017612 -0.76239884 -0.037187498 -0.029991496 0.06130368 -0.2625233 -0.37863743 -0.6085683 0.26526484 -0.085998595 0.113242365 -0.6746387 -0.22412571 -0.0025588728 0.3973652 0.32186186 -0.18757461 -0.20086063 -0.30206648 0.28016394 -0.120784685 -0.39092252 -0.42018437 -0.030010724 -0.36827767 -0.31300706 0.34011394 0.38076875 -0.46362507 -0.0018202328 0.2880018
caldera -0.12685838 0.5085152 -0.12021002 -0.07466073 0.0892766 0.4169147 0.3012645 0.48042336 0.52552396 -0.17155685 -0.1240644 -0.32154953 0.2514698 0.04182763 0.58296716 0.25380334 -0.37239185 0.14435257 -0.5269004 -0.43826357 0.5491472 0.23309101 0.37017265 -0.079696044 0.0921218 0.3421746 0.2123117 0.25351316 0.76080996 0.10692213 -0.24125324 -0.2980935 -0.34793073 0.6050945 0.7869458 0.18069841 -0.20673697 0.6232468 -0.1395867 0.18507932 0.20264153 -0.98974353 0.4180151 -0.3527375 0.5511669 -0.093250684 -0.08011719 -0.11507486 -0.48608765 -0.16981655 -0.13580585 0.04349239 0.39478248 0.24923612 -0.52233016 0.52789766 0.021428883 0.04018212 -0.8768385 0.32675648 0.19354436 0.18274115 0.19961667 0.5840342 0.25423172 0.45873067 -0.07244053 -0.1158252 0.57745314 0.45233646 0.099084616 -0.19046725
silicate -0.31210744 0.24447882 0.23189919 -0.33684856 -0.8704478 -0.42906994 -0.19276696 -0.21659365 0.5510992 -0.1792133 0.09925105 0.39181405 0.071480684 -0.26791495 -0.30090058 0.030114392 0.31017622 -0.31473202 -0.2407256 0.505218 -0.24011506 0.1605452 0.19142993 -0.29202628 -0.10994 -0.0027990402 0.026677638 -0.564719 0.08263308 -0.17136912 -0.23817956 0.8442452 0.15850103 0.38610753 -0.0022077148 -0.20988648 0.621387 0.40083995 0.03479733 0.043953706 -0.0034991337 -0.047544595 -0.2828851 -0.38414946 0.08897222 -0.09832084 -0.08580544 -0.30075082 -0.09001184 0.017877465 0.5236752 0.35556206 0.26740587 0.04136042 0.39835703 -0.21440606 -0.118975535 0.5128471 -0.3514745 -0.011029627 0.4972939 0.07385599 0.40779072 -0.3645314 -0.60114706 0.1760179 0.059880145 -0.50149184 0.21901123 0.36156625 -0.12335916 -0.3810165
along 0.34920982 0.012989183 0.3744639 -0.24128024 -0.6500715 0.31456667 -0.23130094 0.71064603 0.18794073 -0.31611565 0.36680436 -0.64383364 0.21899271 -0.1722477 0.42433032 -0.10342127 -0.20058101 -0.48700035 0.053497393 0.17185877 -0.19747005 0.16220829 -0.10295526 0.046662547 0.048928548 0.045613945 -0.52142525 -0.14943068 0.42046264 -0.26407662 0.009093681 -0.11461579 -0.2547178 0.25322363 0.33181846 0.2413761 -0.27664298 0.34921703 -0.062906496 0.12166883 -0.033873588 -0.3348573 -0.282931 -0.3606413 0.3993876 -0.10450979 -0.056274116 -0.2106865 -0.25953773 -0.19898945 -0.24055612 -0.4122582 0.029414477 -0.15233155 -0.2064696 0.15665649 0.32004443 -0.13686246 -0.08576811 -0.04525399 0.28018013 0.5359533 -0.38916248 -0.15148506 0.055037305 -0.4181335 -0.27608657 0.2303105 0.2355403 -0.18406789 -0.07568138 0.16962239
dike -0.3522005 0.24298914 0.03745414 -0.6192822 -0.13682903 -0.19010063 0.7986399 0.6261431 -0.0027914534 -0.1890337 -0.3944929 0.18674032 1.0814047 -0.11301861 -0.004805983 -0.015390355 -0.36725035 0.29506424 -0.079466105 0.19790252 0.13902421 0.055163622 0.24631755 0.3608008 -0.044569336 0.47101492 0.27532688 -0.089130364 0.4433565 -0.09729682 0.112008885 -0.3185225 -0.33168593 0.16996951 0.7797491 -0.15124868 0.4235738 0.24345003 -0.08356687 0.32058215 -0.14943308 -0.24458337 -0.23457605 -0.46115524 0.20671396 -0.18438353 -0.12909566 0.16137199 -0.15032938 -0.03285599 -0.34503198 0.15059593 -0.5057796 0.0025840371 -0.219272 0.38556617 -0.10308594 -0.40179306 -0.5002581 0.14308348 0.3012376 0.36965787 0.30199423 0.274892 -0.050521065 0.13970715 0.20389459 0.034804847 0.35484374 -0.36190423 0.15634227 -0.42103747
casino -0.37864783 -0.27298075 0.7170829 0.11087542 -0.29878676 -0.6799394 -0.23292834 0.2659302 0.37835503 -0.9825071 -0.604428 0.17736278 0.2344337 0.8560819 0.059281398 -0.00980044 0.8609183 0.01101373 -0.2823573 0.43867612 -0.036410198 0.07311232 0.12551482 -0.49965262 0.1081558 0.37907776 -0.15048492 -0.41066697 -0.22721891 -0.40233043 -0.8809496 -0.19310977 -0.0061308104 0.3686583 0.025283847 0.33144206 0.39939916 -0.54696584 -0.0044439468 0.10360791 0.37923187 -0.97781736 0.4373393 0.5259729 0.62296987 0.6119097 -0.150745 -0.033608157 0.24943635 0.3141231 0.1630498 -0.11905504 0.0840062 0.4185682 0.15247013 0.18358983 -0.04189044 -0.44358522 0.31074843 0.18124287 -0.2097898 -0.48041165 0.19302803 0.45043084 -0.059417494 -0.018660014 0.057723314 0.012055228 0.5878613 -0.10428476 0.100988336 -0.2778282
bornite -0.2108364 0.1406811 -0.11921391 -0.25705707 -0.5357644 0.021867169 0.34138688 0.25372759 0.08945655 -0.32284474 -0.3322852 0.114444 0.31238717 -0.08794109 0.020780202 -0.17255878 0.29247877 -0.17193897 0.27157924 0.31677774 -0.39238524 -0.012626381 -0.33852363 -0.20245953 -0.7622964 -0.11060982 0.32913986 0.035035424 -0.28337777 0.37396634 0.23108421 -0.46772552 -0.23976222 0.42062455 0.09984868 0.14809956 -0.38796094 0.08558365 0.08551467 -0.24368048 -0.36781576 -0.6315906 0.061324347 0.26394206 0.28365442 -0.3586324 0.15085131 0.11317161 -0.2239864 -0.118213795 0.7724367 -0.2022007 -7.652852e-07 0.257662 0.6764201 -0.3557185 -0.6913238 0.3833945 0.33190283 0.732097 0.66734004 0.46813667 0.3791522 -0.07382368 -0.06281897 0.65176207 0.19740392 -0.00812565 0.5011833 -0.6216512 0.3554317 -0.36221796
present 0.12884021 -0.033141825 -0.18121491 0.22557424 -0.49288824 -0.2754276 -0.46880606 0.010867659 0.1735878 -0.5906519 -0.11137348 0.16791339 0.54158765 0.59511197 0.13618778 0.036449473 0.013997162 -0.28618813 0.30871028 0.17484373 -0.004185523 -0.14460264 -0.16462198 -0.15803453 0.039704535 -0.053386346 -0.41705304 0.18405183 -0.42357042 -0.19057237 0.19932027 -0.40718818 -0.2534699 0.33899513 0.19132857 0.26097274 -0.009037805 -0.18919857 0.19678734 -0.26195464 -0.3944314 -0.17575873 0.013427311 -0.47660065 0.043871522 0.37831044 0.08805191 -0.01029551 -0.30914173 -0.3367786 0.38784602 -0.2752285 -0.023536358 0.37652028 0.12767978 -0.04502898 0.09242943 -0.06075981 -0.009591752 -0.10595113 -0.10102417 -0.16464952 -0.3482588 -0.20137006 -0.58391476 0.54224783 0.065171584 -0.112856604 0.19128816 0.254316 -0.12211589 -0.011547947
~ 0.18594414 -0.39518595 0.50807977 -0.47881058 0.38963953 -0.375661 0.23659435 0.22667766 0.35459763 -0.48591486 -0.16453895 0.026261574 0.10380642 0.39505795 0.31912678 -0.20353882 0.44231877 0.40966183 -0.41293037 0.45955148 0.2616784 0.43943852 -0.24391596 -0.3893245 0.08634821 0.44877434 -0.27144587 0.015826894 0.31659883 -0.04775481 -0.76895773 0.038861327 -0.015695099 0.44658738 0.05475152 0.4385038 0.41580454 0.28181085 0.2322184 -0.2291166 0.20405257 -0.27440608 -0.3912876 0.046304747 0.012874242 0.23233473 0.054753054 -0.0045429436 0.082607865 0.40039268 -0.10797193 -0.5972441 -0.4558482 0.81319773 -0.25532308 -0.49643123 -0.17058052 -0.11396688 0.044943284 0.5927976 -0.050311305 -0.23611145 0.77345806 0.27565134 0.03296522 -0.013239413 -0.32314453 -0.53722525 0.14862375 0.40536904 -0.06272929 -0.33912632
5 0.08546612 0.3225489 -0.3527294 0.002131121 -0.05927257 -0.36017227 0.3131437 0.18155546 0.17230102 -0.20607351 -0.04888188 0.1060302 0.08984813 -0.1984306 0.51783377 0.15541594 0.29318777 -0.43701178 0.5035119 0.5036081 -0.44299847 -0.083702795 -0.262013 0.33539373 0.2651083 0.45926824 -0.1502293 -0.10066439 0.42782933 -0.47563657 -0.4664546 0.06319668 0.18681855 0.25702083 0.18293756 0.37470287 0.16773432 -0.22259453 0.026941143 -0.28423893 -0.11751234 0.27230164 -0.25339016 0.14076118 0.23648171 -0.5761178 0.6079024 -0.33895296 -0.17361048 -0.27589983 0.10723547 0.32370237 -0.1598058 -0.056441393 -0.0844473 -0.0011943891 -0.05423187 0.09592423 0.0687052 -0.102117985 -0.1385007 0.012292864 -0.16958578 -0.9435584 0.009048621 0.21953915 -0.2286403 -0.19666047 -0.2988092 0.24380714 -0.0076055205 -0.076767236
/ -0.43794814 0.10808462 -0.24362025 -0.34228155 -0.32691762 0.013170222 0.15821916 0.6469048 0.4247561 -0.22846915 0.0690378 0.60299164 -0.45497146 -0.26389128 0.035012547 0.26165986 0.060627434 -0.110890396 0.58777505 0.2878562 -0.15111096 -0.14755677 0.2640054 0.39729077 0.028859364 0.5629548 0.24222843 0.12332295 -0.30942833 -0.4289723 -0.67481047 0.6968221 0.18502529 0.2336824 -0.22595967 -0.15803109 0.59115416 -0.120485626 0.3965648 0.59389985 0.1729314 -0.2685246 -0.13613738 -0.13937871 0.60643697 0.3577198 0.1907454 0.3319205 0.11320091 0.4781322 0.009091516 0.0633215 -0.14404275 0.25652415 -0.47396603 0.037500124 0.10047568 -0.017848367 0.27198446 0.5037965 -0.57138085 -0.4171313 0.41957432 -0.23379107 -0.25145355 0.27394348 -0.061501548 -0.14519992 0.18013531 -0.18902242 0.45082787 -0.41678852
study 0.19367853 0.049039498 0.24135125 0.32465586 -0.386497 0.328384 -0.13984561 -0.17567608 -0.036277868 -0.49991345 0.20180598 -0.2066441 -0.015688604 0.36139333 0.38691086 -0.02508437 0.309246 -0.2961225 -0.030780762 0.05950953 -0.08144707 -0.2612138 0.114684045 -0.075049415 0.123415835 0.19770172 -0.21090958 0.32277736 -0.39564842 0.1953807 -0.20033473 -0.22611581 -0.091406845 -0.029535705 -0.019750433 -0.27347517 0.13683873 -0.30042422 0.14407784 0.0040601217 0.12191411 -0.2931855 -0.14121842 -0.1412904 0.33435565 0.07371135 -0.044828568 0.017426178 0.026522523 0.039030094 -0.26923993 -0.034216743 0.23970471 -0.07176779 0.49754316 0.104246356 -0.21744159 0.6064001 0.178401 0.0672527 -0.02990933 -0.021920249 0.06306254 -0.102833524 0.09704971 0.21011208 -0.48226294 -0.45185918 -0.06786378 -0.07390218 -0.1161704 -0.46996975
include 0.12480395 0.3387221 -0.104201764 -0.38039255 -0.6595347 -0.09552204 0.19809064 -0.048694566 0.0921377 -0.060625523 0.059090838 -0.4092318 0.19585302 0.14828977 0.05118193 -0.026096731 0.018756922 -0.46993563 -0.26626706 0.53186345 0.19491109 -0.3926984 0.14483581 0.01833296 -0.05570802 -0.29470885 0.103364564 0.09758731 0.02573832 0.14627923 -0.1424157 0.21744439 0.00292219 0.07185962 0.461756 0.1705278 0.17813323 0.17641936 0.3974419 -0.27961335 0.14000864 -0.5981801 -0.3688123 -0.009953178 -0.06998763 0.3101269 0.051908333 -0.32797796 0.08641964 0.27744436 0.20021528 -0.27592427 0.39697433 0.2652393 0.08092531 0.35220346 0.2929163 0.03960905 -0.14844297 0.41938782 0.8546538 -0.24170779 0.042030647 0.35989 0.21941286 -0.09078495 0.011283325 0.2204125 0.06761074 -0.19884071 0.30931857 -0.17021212
may -0.21656907 0.2667533 -0.102406956 0.13438846 -0.66911215 0.17111646 -0.09872604 0.34586063 -0.33713445 -0.01404062 0.1322125 0.035438385 -0.02662032 0.2009575 0.2259204 -0.3315081 0.23902798 -0.024586111 -0.014673515 -0.09641651 0.14534819 -0.34690708 0.2259692 0.5503784 -0.097307704 0.2266349 -0.131472 -0.1340277 0.47674325 0.2952943 -0.6018716 0.48575228 -0.004678359 0.2147063 0.041771438 0.07724957 0.0921242 -0.0046480405 -0.042395834 -0.21643315 0.02381367 -0.21863241 -0.12909567 -0.41643625 -0.0882081 0.07208711 0.26563978 0.18102852 0.32703513 -0.13078357 0.49932843 0.07530847 -0.49905264 0.4412193 -0.08207712 -0.07252784 -0.43114835 0.37799007 0.09522586 0.027019382 0.29908013 0.013175273 0.18868265 -0.052452758 -0.76683474 0.31888026 -0.16725817 -0.33659425 0.17799394 -0.19558494 -0.3056251 -0.3373714
two 0.13022158 -0.094843805 -0.24202241 -0.17221496 -0.011702977 0.3096738 -0.53171235 0.10910221 0.4605317 -0.53228855 0.00729928 -0.36737442 0.30303252 0.047639243 0.024729641 -0.035169367 0.35574332 0.21511993 0.05540943 0.070983164 -0.14194278 -0.15796515 0.07099785 0.08606995 0.15621224 0.15606932 0.09469526 -0.0952196 -0.2706501 0.12697491 -0.30942613 0.17325594 -0.16213484 0.31328574 0.5871353 -0.34112534 0.13438858 -0.06131533 -0.27142748 -0.39392075 -0.35570112 -0.31555402 0.16367982 0.136003 0.2534229 -0.122236155 0.22447003 0.1920943 -0.44260296 -0.19810283 0.2677086 -0.2066581 -0.30660915 0.19598413 0.36110932 0.2106163 -0.25402457 0.3040128 -0.080696605 0.16515103 -0.29352185 -0.15357722 0.13876659 0.16080554 -0.04302999 -0.041590407 -0.24258721 0.12666446 0.14140087 -0.3034154 0.052390695 0.061506193
result -0.046256773 0.58039486 -0.37425995 -0.18380485 -0.07459911 0.76885766 -0.18799432 -0.060780503 0.20024219 -0.1785577 -0.34453818 0.3174642 0.40308833 -0.31403172 -0.24843329 0.32466212 -0.18005145 -0.25465432 0.16819194 -0.31630617 0.073299214 -0.118749075 -0.17063484 -0.24695706 0.017212544 0.71588016 0.21984312 -0.20781481 0.3204589 0.097247355 -0.52957904 -0.124732144 -0.05272307 -0.22168599 0.7915685 -0.04405148 -0.27242342 0.007066607 0.1860782 -0.06619561 -0.1230661 -0.43626702 -0.2759593 -0.261015 -0.0055814 0.30856037 0.1561871 -0.19715975 -0.29829603 0.040683158 -0.19391847 -0.40561187 -0.0344496 -0.29681918 0.024615472 0.14710513 -0.2566789 0.3573665 -0.023259565 -0.31097916 0.18215893 -0.3981981 0.20624718 -0.2858711 -0.35029274 0.6336004 -0.14214632 -0.3093122 -0.065931655 -0.21020526 -0.11051386 -0.16626306
district 0.31744376 0.43781078 -0.19387083 -0.15710746 -0.42806152 -0.050093036 0.49250385 -0.041386653 0.48313504 -0.37229103 0.19247857 0.13660862 0.1538665 -0.033397567 0.07718823 -0.4492786 -0.4983187 -0.10100757 -0.5967844 0.24022013 0.24686104 -0.30419716 -0.38969886 0.11176608 0.20014763 0.078486644 0.33082396 0.14102082 -0.24826813 -0.0025378782 -0.12304944 -0.20425572 -0.4733026 0.15197821 0.33729714 0.035877936 -0.17881018 -0.3144862 0.37484133 -0.020317584 0.23368342 -0.37202266 -0.34456402 -0.40436488 0.16904108 0.22210555 -0.10791658 0.10939764 -0.15118203 -0.1210434 0.020801382 -0.058131084 0.082004435 0.02159999 0.0044353246 0.33207592 -0.44384018 -0.067388445 -0.46680656 0.41105807 0.5222897 -0.009544799 -0.04729506 -0.14660491 -0.095399186 -0.0008661904 0.085376725 0.06329587 0.3259736 0.09518647 -0.3777444 -0.07877535
°c 0.16276392 0.37519807 0.042802148 -0.40999764 0.21661688 -0.24298409 -0.1897304 -0.020424336 0.18875192 -0.3271936 0.27276656 -0.023037735 -0.18153559 -0.079863414 0.748487 -0.23553774 0.5701297 0.13281456 -0.47161573 0.086654365 0.19799253 0.18882848 0.06349774 0.4027029 -0.03177835 0.21395424 -0.19255075 -0.22846198 0.05215747 -0.26113108 -0.5071025 0.40388724 -0.293609 -0.03681142 -0.45894232 0.0075018452 0.38164356 0.19403544 0.17329685 0.4195749 -0.47016227 -0.22275344 -0.61591214 -0.23124479 0.4014436 0.0333111 0.4149237 0.03616522 -0.26362947 -0.09749072 0.18997338 -0.22049992 -0.72254705 0.23632723 -0.39043322 -0.6923723 0.1108449 0.118942216 0.57094973 0.41428268 -0.27166715 0.0091138445 0.80777955 0.27161556 -0.2921211 0.35005635 0.16113551 -1.1148484 -0.15800974 0.5267845 -0.038000338 -0.5042033
cretaceous -0.08021093 0.17092673 0.5520572 0.14368571 -0.7401576 0.11384708 -0.18301228 -0.21562147 0.45013595 -1.0843109 -0.038988106 0.0022851713 0.64409316 0.23722431 0.05339835 0.058359887 0.44924724 -0.4006031 -0.31210327 0.7221499 0.41929984 -0.10903449 -0.24954921 0.05341343 0.4609985 0.79436886 -0.3075304 -0.49180558 -0.21562485 0.24897008 -0.5612041 -0.3104989 0.24849108 0.35048044 -0.15063508 0.49939063 0.06777481 0.12747344 -0.1928707 -0.0065999073 0.7665505 -0.90047735 0.7540651 0.09998415 0.43173924 0.0028231388 0.073087834 0.4716617 -0.0027345594 0.32158425 0.36242175 -0.22774218 -0.4447291 0.11708496 -0.06008882 -0.3479066 -0.06524431 -0.27136132 0.078895606 0.13704564 -0.25500032 -0.51128167 0.58932763 -0.31345385 0.55604583 -0.0068311645 0.0025333837 -0.31111354 0.6025674 0.71107286 -0.14090988 -0.28831634
area -0.052105606 -0.17636068 0.12980975 0.044035938 -0.018668892 0.035250463 -0.17159465 0.19781567 0.36759222 -0.69968915 0.33638564 -0.33696732 -0.12758951 0.45816162 0.18146062 -0.024375182 -0.010260774 -0.06016751 -0.18606867 -0.22249866 0.58959836 0.67559755 0.15912017 -0.40765947 0.26427534 0.07376242 -0.3652326 -0.056295488 -0.17239001 -0.5301844 -0.69683605 0.14568718 0.5442839 -0.19361076 0.2126657 0.41213614 0.30477464 -0.09022148 0.26593098 0.23424506 -0.036480606 -0.84486634 0.10756278 -0.11621637 -0.234496 0.20812939 -0.1534422 0.040749464 0.25223193 0.060452823 0.22795978 -0.44810256 -0.34775764 -0.59112155 -0.053143423 0.022643793 -0.45566761 0.36476249 0.55293727 0.20469607 -0.067925125 0.07475585 0.3791968 -0.29442462 0.39818636 0.031172752 -0.18976155 0.21552053 -0.058139704 -0.12542196 0.26999742 -0.13519147
base -0.3240943 0.2865463 0.13039976 0.7827944 -0.25178295 -0.14650834 0.07815756 0.1286292 0.08268907 -0.040412027 0.1159447 -0.016104376 0.44076928 0.2021964 0.13172291 -0.20565909 0.029366244 0.28836533 -0.13592929 0.34235528 -0.25526068 0.00030552773 0.10641325 -0.18200454 0.37822136 -0.049194995 0.25646833 0.22145253 -0.21874465 -0.17880675 -0.3076218 0.3995993 -0.20750785 -0.3129512 0.51280856 -0.11135072 -0.054639656 -0.23865758 -0.018902123 0.14223386 -0.2973171 -0.5021406 -0.68725693 0.05009508 0.48345202 -0.15606332 -0.072302096 0.23193498 -0.2635026 -0.4320023 0.20964916 0.21673872 -0.041219335 -0.20363414 0.3698786 0.2717634 -0.310409 0.12955905 0.061450105 0.3273028 0.005956165 0.42649168 -0.118892804 -0.09294628 0.04493773 0.20480706 -0.103489876 -0.2168821 -0.052021567 -0.012927531 -0.24980062 0.1267808
north 0.18952258 0.23018926 0.0060750144 -0.19618812 -0.533299 0.08853508 0.15223293 0.24683546 0.20353301 -0.49116957 0.04001204 -0.94424224 0.1584022 -0.38287407 0.17540756 -0.26133257 -0.4716354 -0.4516131 0.098574474 0.34919813 0.3291762 0.2390039 0.1854167 -0.15297438 -0.10595143 0.03383515 0.10719779 -0.24676768 -0.12430563 -0.43354002 -0.28722477 0.31853992 0.3894299 0.32417524 0.066805065 0.41838914 -0.11867229 -0.23995447 -0.18222192 0.12722173 -0.3486831 -0.27537584 -0.1626254 -0.27389932 -0.003059104 -0.25744408 -0.24606603 -0.08823684 -0.62659323 -0.00053333165 -0.20132853 -0.5813342 -0.3542519 -0.5377489 -0.05768373 0.5047092 -0.16157727 -0.29658177 -0.09977575 -0.038104445 -0.06016868 0.38249522 -0.24621254 -0.4923168 -0.06992455 -0.2335549 -0.5675425 0.424845 0.21176496 -0.26993892 0.047412153 0.10565112
stock 0.10547555 -0.052122448 0.4926442 -0.26963475 -0.41640893 -0.0073926095 0.08426014 0.7672951 0.037187487 -0.47809395 0.1306657 -0.44984698 0.08128087 0.3165771 0.094322585 0.022313653 -0.2879034 0.09902093 -0.37268946 -0.36019006 0.08388778 0.49451342 -0.2231017 0.221001 0.17759353 0.38579032 0.16206756 -0.026806924 0.19591016 -0.26853025 -0.22782017 0.5320158 -0.50091934 0.3461069 0.77788436 0.24410355 -0.29654717 0.032449644 0.5168948 -0.3001916 0.19420719 0.12718384 0.06748481 -0.07070022 0.08451586 0.13238949 -0.39099258 -0.15811314 -0.26849288 -0.06657259 -0.010566141 -0.39321098 -0.20830505 -0.33902252 0.27576178 0.08045202 -0.17379548 0.46620294 -0.45083034 0.20865324 -0.49160644 -0.09353145 -0.45384312 -0.3034046 0.40744743 -0.14529337 -0.29522723 0.25035754 0.57661813 -0.14664763 0.36769247 -0.2907867
upper 0.020406503 -0.024614904 0.15328203 0.43045616 -0.39422902 -0.3322099 -0.46543017 0.48650765 0.121247075 -0.629201 -0.7351955 -0.336116 -0.119983666 0.2372637 0.49835718 -0.23972625 0.09618291 0.0398394 0.6905826 -0.08248858 -0.20611525 0.024174802 0.24397618 -0.058215745 0.23025268 -0.5378804 -0.18912636 0.17901152 -0.22653963 -0.71795005 0.074494965 0.46838483 0.028676355 0.04565477 0.27731308 -0.114943765 0.061944924 0.45895436 0.20154193 -0.2707255 -0.21486937 -0.59324056 -0.24592112 -0.50527656 0.33661598 0.051462606 -0.16927043 -0.2529995 -0.30936855 -0.17950805 -0.16899963 0.46059602 -0.4210287 -0.017257871 0.39586928 -0.42104608 0.32579604 -0.10341136 0.20946117 0.11194463 -0.004164489 0.07037624 0.07121974 -0.119425476 0.11791221 0.18025735 0.39132512 0.36537874 -0.7867472 0.19456914 -0.29769588 -0.102466844
principal -0.40702742 0.33619553 -0.01764983 0.014230165 -0.3103604 0.29986334 0.7087078 0.23145452 -0.3889245 -0.8471184 0.19303423 -0.22973926 -0.026592644 0.57153904 -0.10304911 -0.19506606 0.4081157 0.072358206 -0.3724092 0.23062101 -0.5031896 0.04989127 0.08961204 0.18036157 0.08669521 0.11774285 0.12205154 0.255863 -0.44483724 -0.100787126 -0.25267878 -0.35047615 0.22491565 -0.026131636 0.6386903 -0.023130814 0.4223227 0.40516093 -0.03345557 0.38981676 -0.46498814 -0.13427545 0.0719692 -0.24699943 -0.07887871 0.1785816 -0.16068326 -0.46730253 0.4876707 0.23812501 -0.112999335 -0.37142166 -0.72110736 -0.40747908 0.27528378 -0.1225797 0.256885 -0.11865301 0.044544183 -0.0053382097 0.33185142 -0.1049681 -0.14895219 -0.16334786 -0.2891944 0.64704883 -0.1413492 -0.21394919 -0.37217608 -0.6003605 0.32393202 0.1331522
contact -0.24874628 -0.4387746 0.14645039 0.00312996 -0.46435425 -0.13828468 0.22941133 -0.4194018 -0.69639623 -0.6484658 0.42203888 0.47771394 -0.19328648 0.16846853 0.45541734 0.007493443 0.16582377 -0.049670428 0.14226457 -0.6476577 -0.32412773 -0.03110415 0.52123123 0.021888109 -0.30241984 0.26263484 -0.50169456 -0.012261479 0.015411358 -0.76653284 -0.36209616 0.003376359 -0.028237967 0.18996622 0.4756529 0.35421637 -0.31697795 0.5490338 0.6207707 0.435783 -0.9303117 -0.100853726 -0.66697145 0.061961748 0.09227099 -0.06563535 -0.38215658 0.15437748 -0.18584096 -0.11143864 -0.1616638 -0.14006877 -0.4568236 -0.36251515 -0.47513044 0.10050128 0.12072803 -0.25188038 -0.45668805 0.19838195 -0.15454622 -0.021923482 0.17506842 -0.15601178 0.09759274 -0.24230866 0.10553357 -0.47300935 0.35086906 -0.75770736 -0.18272479 -0.18523636
pyrite -0.38483813 -0.43369117 0.17059124 -0.6659043 -0.5555453 -0.31575143 0.12943713 0.23480529 0.7028431 -0.58102804 -0.022308549 -0.26689106 -0.230672 0.026814904 -0.16790412 0.09592797 -0.027580189 -0.20887022 0.17486002 0.31786084 0.06712792 0.27906978 -0.24285166 -0.21044284 -0.44933188 -0.40135226 -0.9783085 0.3798306 0.4024325 -0.10446266 0.06472548 -0.060679838 -0.36549795 0.34789956 0.040205874 0.48794997 0.11661839 0.43901032 -0.05486622 0.19496474 -0.52715737 -0.58437395 0.28902248 -0.027724948 0.07103105 0.020820767 0.48104692 -0.4491677 0.11536541 -0.10450963 0.11628798 0.08898543 -0.1260734 0.26105967 -0.2550939 -0.4921978 -0.18770571 -0.21140179 0.33018646 0.11642931 0.46911648 0.3258597 0.041236572 -0.31309596 -0.13521063 0.6482994 0.27014226 0.09675628 0.21985872 -0.015674334 0.660008 0.17962024
percent -0.33152083 -0.0032903408 -0.73234296 -0.060277466 0.15824437 -0.51829314 0.14863233 -0.3337703 0.14336278 -0.8255503 -0.16448468 0.37918997 0.4086189 0.23401694 0.6504031 0.22631323 0.5267292 -0.116509065 0.051490128 -0.11490209 0.10619262 0.26629022 0.0075081224 0.11789092 -0.681918 0.42606223 -0.30032867 0.29834798 0.03687229 -0.3477607 0.2639122 0.7520958 -0.176578 0.42720455 0.75968194 -0.3329939 0.2567424 -0.56862915 0.5156822 -0.09630756 -0.6217295 0.124183424 -0.15348767 0.06138657 0.62119114 -0.6543009 0.6594658 -0.5684569 0.44038683 0.14020865 -0.0448679 -0.019715067 -0.033538476 -0.25053388 0.06979274 -0.012304034 0.06519882 -0.24321324 0.49322504 0.015956072 -0.07450366 0.08662022 0.40785083 0.01164758 -0.20532216 0.29837897 -0.4245313 0.10223146 -0.68158585 0.12751652 0.2560613 -0.07800406
plagioclase -0.17179973 0.3389945 0.4525616 -0.60087395 -0.23821954 -0.12224273 0.32409045 -0.22372277 0.008511288 -0.20290925 -0.4549794 0.038760982 -0.07329241 -0.03728005 -0.022926008 0.15924583 -0.09352823 0.010751291 0.08503431 -0.006523262 -0.19202222 -0.19794561 0.16438986 0.25890008 -0.03396183 -0.12903829 -0.09538125 0.74016386 0.24756733 -0.74337506 -0.2591503 0.3762956 -0.23196277 -0.043943398 0.40474293 0.63357556 0.10074495 0.15500565 0.7262942 -0.5536468 -0.363337 -0.24050903 0.24057603 -0.17281765 -0.028419955 -0.46663028 0.31510445 0.37786794 -0.43810272 0.029883994 -0.21518624 0.0099032065 -0.11285341 0.4103075 -0.09768965 0.04823729 -0.6943238 -0.06041878 0.00090525596 -0.15646486 -0.020753887 -0.1739454 -0.43836623 0.25068557 0.22594938 0.2477912 -0.15493906 -0.42979386 0.44273707 0.2506039 0.4784726 0.013602638
skarn -0.024225468 0.14457363 -0.051613625 -0.14619423 -0.6632116 0.07897521 0.23409367 -0.1232348 -0.031699248 -0.12412852 0.30744454 0.41265494 -0.39763448 0.28271735 0.424213 0.2888889 0.022424703 -0.10925445 -0.06902677 0.50136274 0.090413816 -0.44098976 -0.3287224 0.13131312 -0.47346237 0.26691988 0.48144823 -0.63999677 -0.001677221 0.15087539 -0.19435285 0.08833438 -0.4608578 0.6570799 0.6884459 0.3866581 -0.051790264 -0.21062323 0.117415965 -0.35304618 0.27075785 -0.25129357 0.06770001 0.16660805 0.050000917 0.50623566 0.08204061 -0.23242982 -0.42277792 -0.014366832 0.102787875 0.03817077 -0.025567602 0.4675171 0.09482018 -0.27037534 -0.1477709 -0.05503616 0.33493954 0.95348436 0.99696505 0.06457177 0.44620523 -0.5873297 -0.13564016 0.25597382 0.37417698 0.073354796 -0.16769625 -0.2459087 -0.062484674 0.47277647
km -0.34824216 0.36405867 -0.29236516 0.1260883 0.22038323 0.024506265 0.5212163 0.7814834 0.42815906 -0.20259555 -0.032372214 -0.78943163 -0.26796445 0.022393113 0.86037415 -0.13979316 0.28121254 -0.25201532 -0.3936463 0.3858786 0.31999353 0.5034768 0.24099886 -0.029363867 -0.078668304 0.17758302 -0.033287443 -0.2613783 0.33921534 -0.28186783 -0.501585 0.43945938 0.40784496 0.36845803 0.32498685 0.57312644 -0.10699249 -0.33853188 0.5111682 0.25284722 0.2942904 -0.022056842 -0.37740886 -0.3116301 0.16124792 -0.15393327 0.171062 0.31912026 -0.42460322 -0.08471175 0.31080362 0.10001975 -0.39939126 -0.25144175 -0.7669631 0.27109239 0.27842852 -0.22864021 0.33131558 0.27771243 -0.5072304 -0.045653984 0.1386695 -0.051957127 -0.2856712 -0.09339336 -0.10714728 -0.09433095 0.56182677 -0.0069283675 -0.050997812 -0.053272717
braden -0.5318752 0.3059921 0.10181786 -0.3522518 -0.1052891 0.030817786 0.8634004 0.5939171 -0.057764266 -0.3213785 -0.0038912967 -0.00062466203 0.39475685 -0.14554311 -0.026147155 0.20750876 -0.48244116 0.17091025 -0.13613155 -0.2677676 -0.32143816 0.56691223 -0.17134798 0.076733656 0.31538254 -0.27575064 -0.06340659 -0.09934982 -0.5224187 -0.939735 -0.19624852 -0.50558424 -0.39740765 0.5995575 0.76269937 0.030403713 0.5006334 0.18877031 0.3536584 -0.04259141 -0.7209645 -0.246782 0.054161478 -0.2897203 0.03681857 0.32894567 -0.19541861 0.48915073 0.4112326 0.07719692 -0.053622216 -0.68112105 -0.4101334 -0.21511042 0.33678252 -0.10243013 0.82835746 -0.12672673 -0.46565053 0.38941097 0.1033235 -0.2741948 -0.05943077 0.16771623 0.0068013705 0.19449985 -0.44587913 -0.4921773 0.01602363 -0.4091894 0.023880495 0.073309846
early 0.12598473 0.39579105 0.05836616 -0.15868303 -0.5982569 0.17681776 0.026668996 -0.25169376 0.16530408 -0.06772244 0.17373095 -0.27392602 0.2259655 -0.009446545 0.63806885 0.27158666 0.19284017 -0.046897102 -0.14741808 0.094016746 -0.21791989 0.3598293 -0.22060904 -0.07616468 -0.47168088 0.03582197 0.078387946 0.01614327 0.068463676 0.18028185 -0.18951172 -0.025155686 -0.16800144 -0.010579935 0.4737253 0.27425438 0.2871622 0.265036 0.6903925 0.013612471 0.4087967 -0.5160513 -0.13942531 0.30961204 -0.1175716 0.056322847 0.04839697 0.25217736 -0.17581157 -0.0263928 -0.4351033 -0.025273627 -0.13698088 0.04683702 0.16938701 -0.051181905 -0.31703845 0.009982064 0.017724343 0.0008007169 0.08718092 -0.074565515 0.1925504 -0.08220158 0.32489517 0.07787913 -0.057560347 -0.5352154 -0.45776612 0.09645211 -0.061965413 0.24607229
mo -0.5201993 -0.4731822 0.050511505 -0.287349 -0.3699492 0.5615328 0.114029005 -0.32644385 0.058610234 -0.009121128 0.09754712 -0.08978641 -0.093062155 0.009277585 0.42599592 0.08023515 -0.008512882 0.18164574 0.009675919 0.29903162 0.30519897 0.85566276 0.3082305 -0.18372525 0.1304844 0.32710543 -0.35324848 -0.027577689 -0.15633632 -0.090606175 -0.3739487 -0.19201405 -0.43486395 0.44027948 0.41401294 0.6495534 0.4745459 -0.37077194 -0.18673557 -0.101131424 0.2167042 -0.11259863 -0.3364161 -0.35444874 0.6224764 -0.18027607 -0.04313177 -0.0060853246 0.11458234 -0.028149538 -0.10289587 0.08728223 0.31768543 -0.026163822 0.3949768 0.4425621 -0.04315701 -0.1785326 -0.12353393 0.27360442 0.1216298 -0.3156925 -0.13756241 -0.22728842 -0.09508208 -0.073360436 0.032529972 -0.08411402 0.25780234 -0.07802999 -0.17651011 0.23542577
au -0.24905191 -0.058496956 -0.16764764 0.07835283 0.015827872 0.41236997 0.1071367 -0.5065154 0.3561063 -0.1813194 0.08923083 -0.103022866 0.17169894 0.13975811 0.73694855 0.0014958302 -0.44785738 -0.07017183 -0.3847507 0.1890278 0.3738129 0.40611488 0.61765885 -0.071975864 0.19731843 0.026193706 -0.0941362 0.097956 0.05156174 0.2204221 -0.47961703 -0.539499 -0.563299 0.6476291 0.5110304 0.4605699 0.24964559 0.10908529 -0.11090459 -0.055413008 0.33182058 -0.46056047 -0.39070323 -0.10470208 0.42761284 0.03721426 0.26407525 -0.12397324 -0.5571834 -0.15514311 -0.51359624 0.2638906 0.2304769 0.16083206 0.27474606 0.5218281 0.02403666 0.12201696 -0.2238192 0.03695017 0.1678542 -0.30552465 -0.14497674 0.23329188 -0.37560767 0.16370493 0.28132495 0.2966959 0.115600996 0.3727409 0.09638276 -0.14390695
park -0.053605508 0.23691878 0.89629674 0.39012888 -0.6052132 0.13927831 -0.021651492 1.0830975 0.15949462 -0.74869 0.58354026 -0.67222226 -0.5006784 0.26994362 0.22421752 -0.14158885 -0.8313973 -0.24196364 -0.47093594 -0.01908954 0.043412324 0.3796298 -0.35377973 -0.59936374 0.26722434 0.38821507 0.30171838 0.058418196 0.3261266 -0.01284051 -0.24985251 0.80100656 -0.62317085 0.0026406122 0.6921762 0.012682898 -0.35193905 -0.39290893 0.4077876 -0.21920092 -0.45789742 0.16142778 0.022880226 0.22548576 0.36183384 0.041897688 0.17120811 -0.09926092 -0.17237715 -0.23750836 0.547459 0.23171483 -0.28516358 -0.06971686 0.40720892 -0.021740755 0.049941204 0.43491837 -0.26499927 0.28936258 -0.17875826 0.2068817 -0.27560896 -0.52309406 -0.07526114 -0.41251308 -0.6387826 -0.08185221 0.7790747 -0.43572342 0.05552076 -0.20520702
large -0.15972626 -0.13738547 -0.22021066 0.30544388 -0.16672087 0.19907795 0.20018966 0.33960938 0.05552737 -0.26656014 0.017103583 -0.3969301 -0.30896175 -0.21297294 0.55989945 0.061093327 -0.47224748 0.42523974 0.05062744 -0.18142937 0.5493105 0.022663722 -0.3394921 0.51471823 0.01886545 -0.35099 -0.38815853 -0.1614705 0.16163209 -0.27058092 0.3108075 -0.3937775 -0.5904007 0.45625982 0.5390412 0.29007393 0.13787086 -0.34252086 0.2569964 0.33876553 0.007232356 -0.518303 0.0067725787 0.25837624 0.002714557 0.365973 0.21240616 0.12880984 -0.27974525 0.28229487 -0.25402224 0.061703987 -0.019082524 -0.28901795 0.16447353 0.09964489 -0.059982207 0.14988159 0.023470609 0.16563721 0.297085 -0.015405862 0.20834379 -0.17823395 -0.1199404 0.17670454 -0.59331775 0.3496583 -0.027755043 -0.12383183 -0.017165227 -0.15591249
wall 0.06887577 0.2729148 0.32018155 -0.28342608 -0.36054432 -0.2398755 0.26166356 0.11643736 -0.59183145 -0.11681164 0.57824117 -0.11900519 -0.42207325 -0.03547509 0.42047942 -0.090606816 -0.07329076 -0.13926034 0.016057376 -0.2826299 -0.35822102 -0.008762224 -0.22727427 -0.24296175 0.5531636 0.13070667 -0.53391194 0.0068809907 -0.037687078 -0.32423338 0.10414491 -0.016081981 -0.36706376 0.37468106 0.4419785 0.29323295 -0.0902955 0.22325018 0.5979193 -0.29790485 -0.7192724 -0.12463746 -0.37555557 0.122758284 0.19013008 -0.11031691 -0.023344517 -0.06279289 -0.04169295 -0.042735904 -0.24905086 -0.0925434 0.1464779 -0.02305096 0.0640727 -0.18200405 0.18752496 -0.05260386 -0.06755201 0.7311318 -0.027925855 -0.11354727 -0.052811913 0.28094018 0.7032715 -0.08550597 -0.492049 -0.04154925 0.2880842 0.031583775 0.1459376 -0.57357836
similar -0.5683273 0.21871534 -0.13087371 -0.042144064 0.021122877 -0.6222363 -0.016917286 -0.14943181 0.06590307 -0.22813295 -0.13611966 -0.121952824 0.040965702 0.17794198 0.3117221 -0.24934219 -0.19215006 -0.030587887 -0.31767654 -0.0055234367 -0.39044577 -0.18870258 0.15573728 -0.19545725 0.18971154 0.4912707 0.49714303 -0.30602744 -0.25361982 -0.0764319 -0.19404404 -0.05292963 -0.43158472 0.6650489 -0.21039125 -0.12356643 0.29593214 -0.3614846 -0.057747345 0.033730637 0.0027610417 -0.29839587 0.3953577 -0.113536105 0.2442506 0.02607929 -0.1666733 0.1702548 0.06612522 -0.03819796 -0.09801514 -0.17596234 -0.2935528 0.1318357 0.3517593 0.72992325 -0.7150857 -0.22442022 0.017823737 -0.14307655 0.058817964 -0.06202257 0.32040963 0.13240732 0.32640132 0.30158108 -0.0022245012 0.055945106 0.007876676 -0.00468006 0.06040137 -0.1352377
