2979 68
, -0.08553493 0.15175147 0.0588051 -0.0007893388 0.03634479 -0.007075113 -0.021947768 0.0060340953 -0.007824639 -0.29943472 -0.0690728 0.17611408 -0.116458975 0.09988633 0.081602365 -0.19296086 0.12154335 0.0734358 -0.0059903916 0.029155847 0.09852456 -0.22856736 0.08755835 0.15030637 -0.19580033 0.18906707 -0.0588201 0.1486596 -0.020922951 -0.03693151 -0.012776793 -0.04137015 -0.021285862 -0.047224265 0.17937422 -0.13555937 -0.11400088 0.0076647387 0.05439525 0.21322018 -0.03344098 -0.11707204 0.10893853 0.034107573 0.33810925 -0.17492238 -0.107404456 0.08173785 0.0674916 0.033116885 0.005015784 -0.10538364 -0.105933495 -0.0701549 -0.09593782 -0.18181251 0.026174089 0.04674315 0.094962426 0.061049044 -0.09181047 0.041767016 0.23006612 -0.024917109 -0.015760759 0.16063103 0.22370267 -0.068239294
. 0.10968847 0.13327931 0.119829595 -0.023661073 0.0002734108 -0.015889795 0.075187065 0.035826873 -0.10322866 -0.18082477 0.06438516 0.23094983 -0.10462902 0.0847856 -0.01724384 -0.028133918 0.053888034 0.01269049 0.013785818 0.07674695 0.04632499 -0.014586355 0.06745155 -0.061911695 -0.121302456 0.12088596 -0.005841064 0.11487974 0.08923718 -0.015597895 0.013107719 -0.038986254 -0.049423933 0.0055963895 0.25021818 -0.00501263 -0.028631466 0.07130511 0.011923104 0.2667386 -0.16652653 -0.08930008 0.13145824 0.027272766 0.27479002 -0.117102414 -0.023703797 0.079525895 -0.0037370326 0.005942374 -0.12148646 -0.1374741 -0.1365576 -0.13410425 -0.044062003 -0.06701025 0.021477947 0.075133115 0.08446614 0.061269227 -0.008856455 -0.11843934 0.18315735 -0.08986773 -0.06916342 0.21556494 -0.034425747 -0.12083517
copper -0.05184597 0.33986142 0.15400536 -0.22576025 0.003268476 0.23037764 -0.026274532 0.071123786 -0.17573221 -0.273581 0.37460926 0.01664369 -0.10066095 -0.06308716 0.06591305 0.0090449415 0.11625477 -0.2672404 -0.08006622 0.029716022 0.2103409 0.14510107 -0.106851205 -0.12075666 -0.4812768 -0.06243454 -0.003954149 0.17398165 -0.020196341 0.16160457 0.05078712 0.11469442 0.14120285 0.20533994 0.0943562 0.12446026 -0.09091726 0.13615704 0.22541198 0.13937025 -0.30282062 -0.2980122 -0.13306917 0.2501142 -0.30005184 -0.2858732 -0.40270528 0.06067701 -0.02334761 0.048150778 -0.31734917 -0.1213996 -0.18060833 -0.27651963 0.092386216 0.061285295 -0.031686317 0.44148716 -0.0014222836 -0.24284327 0.3892347 0.007358253 0.29525 -0.26163244 -0.29274455 0.19048391 -0.2028307 -0.34940338
porphyry -0.1799791 0.2888834 0.3268271 0.027670566 -0.03778115 -0.30229685 -0.045917377 -0.03578493 -0.32505882 -0.3006036 0.20819055 0.15120268 0.084955014 0.41400898 -0.2192973 -0.32068947 -0.1500732 -0.00031546317 0.039238185 0.14001589 0.10496352 0.043780215 0.16596095 0.008087462 0.11050994 0.33630568 -0.04042949 0.27756354 0.19221939 -0.16626719 -0.3344097 -0.042215645 -0.11408586 0.015316402 0.015234134 -0.053829134 -0.2726988 0.10025313 0.18276702 0.33633712 0.029140573 -0.13830812 0.09332594 0.015230251 0.21186893 0.05607027 0.020428607 0.1930608 0.08546115 -0.018771252 -0.1690384 -0.3021072 -0.18196759 -0.052261498 -0.0007050957 -0.15215081 -0.07192867 0.07395912 0.40076292 -0.029232102 -0.02184058 -0.09844482 0.07745808 -0.050249036 0.026751373 -0.065557465 0.17243989 -0.2286761
vein -0.036798608 0.22882135 0.5501269 -0.3129927 -0.0056941803 -0.038937595 0.093585305 0.41279784 -0.26189283 -0.31778866 -0.08493821 0.30789298 -0.2117477 0.15978457 -0.2638655 -0.21937145 -0.07369736 0.09559112 -0.09022599 0.07505837 -0.27441657 0.24898429 -0.060046438 0.0071935803 0.18588144 -0.112427615 0.15538594 -0.13762039 0.18452758 0.029921826 0.21770021 -0.084996924 -0.44179145 -0.078537226 0.378982 0.054319937 0.1265435 0.29486442 -0.17707916 0.051876213 -0.102132775 -0.18386088 0.23606822 -0.20395498 0.3213524 -0.07933939 -0.0092113195 0.25838462 -0.15612887 0.110696614 -0.33600998 -0.0793182 -0.15503389 -0.14173631 0.0012930155 0.03274591 -0.04704082 0.29922855 0.2953253 -0.23349941 -0.054731026 -0.1405822 0.03254442 -0.13948978 0.11888342 0.658865 -0.06794822 0.2629653
alteration -0.0037054603 0.26873443 0.3180177 -0.12343109 -0.107339814 -0.28901613 -0.09609294 0.21655203 -0.3396786 -0.056514487 -0.0943492 0.31985566 -0.25014913 0.30776402 -0.10459324 -0.2737244 -0.013510631 0.1175223 -0.18139203 0.1915455 0.17502022 0.3580152 0.03188763 0.09421507 0.10083024 0.1045422 -0.0708722 -0.09726905 -0.3530684 -0.20245649 -0.16860569 -0.10600664 -0.13513152 -0.2305487 0.22807756 -0.14929202 0.042221207 0.1684049 -0.07187898 0.3545575 -0.07872026 -0.27879876 0.22317275 -0.14830497 0.46297133 -0.23025872 0.34555224 0.029578641 0.11486335 -0.17968743 -0.10007641 -0.28192952 -0.13166004 0.100258954 0.22394052 -0.20921685 0.13813391 0.10472049 0.052112706 -0.056739744 -0.10069626 -0.009326658 0.11969417 0.18888126 0.024468102 0.37205392 0.1827227 -0.29127553
et -0.47675982 0.16725549 -0.0064108227 0.012820725 0.17463931 0.071789846 -0.07696617 -0.016641347 0.07355423 -0.43287256 -0.29134434 0.082066625 0.21988223 0.27988178 -0.01701637 -0.11324868 0.08434667 0.055758566 0.12897176 -0.3281209 0.28458837 -0.104413964 0.23914768 0.33238295 -0.36913434 0.004406768 0.13985333 0.2451962 0.3306525 -0.104274295 -0.47038618 -0.12562351 -0.1735555 0.48466614 0.04357933 -0.038125504 -0.070936516 0.133468 0.23894143 0.20245174 -0.11476339 0.14205362 0.28461498 0.30132294 0.31742746 -0.24985714 -0.026629535 0.20956808 0.095981255 -0.091423064 -0.15526783 -0.1578873 0.01603458 -0.0759159 -0.62826204 -0.10523509 0.12595603 -0.027283035 -0.35973483 0.12722147 -0.11516307 -0.14422117 0.7335468 -0.064070396 0.1603012 -0.34191525 0.26668322 -0.060311873
al. -0.4516794 0.27277038 -0.026652846 0.025360722 0.21034853 0.0735822 0.024532821 -0.07513813 0.010600149 -0.39363194 -0.26951206 0.16343787 0.20220314 0.20101923 0.1031105 -0.12989609 0.08402922 0.15370435 0.1994062 -0.30028188 0.29497987 -0.16986696 0.22372937 0.3816526 -0.29421452 0.061420247 0.09812696 0.26624706 0.37472668 -0.12767021 -0.4613924 -0.028191892 -0.07752826 0.5112114 0.07643442 -0.0040849266 -0.14662251 0.107007325 0.23094828 0.19601186 -0.09048333 0.14696082 0.25627127 0.28170523 0.3047282 -0.25693035 -0.10790006 0.2829891 0.12878656 -0.1637872 -0.10988267 -0.20234174 -0.05875849 -0.11978371 -0.5365295 -0.16617663 -0.048792195 -0.05404768 -0.4073126 0.16547985 -0.14467739 -0.011279402 0.7163555 -0.018916914 0.15544079 -0.31106266 0.2649003 0.008967314
; -0.17516716 0.11900949 0.006880763 -0.017535117 0.16905278 -0.08195762 -0.18360262 -0.11966723 -0.045490876 -0.49555033 -0.53383046 0.23731275 0.05709233 0.24448356 0.041036043 -0.0823941 0.04873541 -0.055644516 -0.008236886 -0.23619178 0.3440476 -0.17823529 0.38100737 0.1971515 -0.43129638 -0.06241309 0.09588978 0.09002006 0.11288751 -0.11485757 -0.2809838 -0.15007848 -0.12985149 0.19855954 0.13047877 -0.30169114 0.16189425 -0.018995564 0.16783004 0.18099175 -0.14116788 0.0351786 0.1951471 -0.055082023 0.42167538 -0.29301187 -0.052829176 0.08504733 0.15004756 -0.14137293 0.026336327 0.0027578694 -0.0946296 0.041612294 -0.44433674 -0.11380144 0.2771911 -0.08145093 -0.35079175 0.031411503 -0.19646478 -0.3179244 0.48859662 0.041135013 0.04894627 -0.21288213 0.24494667 -0.06447384
quartz 0.13245754 0.10270401 0.049044345 0.025266608 -0.22825252 0.004670246 -0.038106564 0.038346626 -0.1114473 -0.05676326 -0.3094591 0.12620868 -0.30226308 0.15675785 -0.14075387 -0.04783091 0.3393968 0.07995564 -0.0763135 0.008649922 -0.17261119 -0.18163978 0.28254133 0.17806707 -0.16942684 0.45553848 0.1539824 0.056517143 0.13430806 -0.27612147 0.2943625 -0.18085155 -0.17039059 -0.29772294 0.47356346 -0.056351215 -0.018705782 0.07695139 -0.053579528 0.29271635 -0.23664933 -0.124758534 0.08954425 0.020432867 0.3800528 0.084346496 0.17786543 0.27950287 -0.016807199 -0.11909681 -0.07134802 -0.34102964 -0.25683355 -0.10357693 0.07946613 -0.14561948 0.07841224 0.10236793 0.32271048 0.20352371 -0.39755124 0.0034629772 0.082851805 -0.024459822 0.07296941 0.4882335 0.03968144 0.14200538
mineralization -0.0066816616 0.15184921 0.23501784 -0.21613817 0.28936386 -0.17097905 -0.040626574 0.21666113 -0.17992853 -0.05018907 0.060741473 0.2551075 -0.092905916 0.2191702 -0.052762795 0.3176887 -0.34736556 -0.16068918 -0.1355002 0.0039972523 0.08725062 0.34681076 -0.05066326 0.011859499 0.2764438 0.2202222 -0.10754137 0.008643072 0.20690173 0.02959066 -0.2357062 0.100898966 -0.23669611 0.401563 0.24270363 0.3691027 0.2230204 0.16360253 0.25565693 -0.108682394 -0.15086688 -0.15868214 0.08769445 0.38182575 -0.02312922 -0.26113933 -0.016522253 0.27317393 -0.29483843 0.051436726 -0.43858904 0.058426775 -0.01739613 -0.29196483 0.06687763 -0.19263294 0.28469998 -0.1860431 0.15398236 0.05859629 0.1031417 0.15417036 0.15744795 -0.124928065 -0.0071872296 0.32333314 0.10054941 -0.19838293
zone 0.06322689 0.29078722 0.22928233 -0.15133244 -0.21994917 -0.03321525 -0.38907018 0.067948855 -0.24135733 -0.047896 0.040746 0.20898743 -0.21559012 0.016775744 -0.22347641 -0.32049736 0.20960489 -0.04898454 -0.112068675 0.120538965 0.21255118 -0.010309439 -0.14433518 -0.14030805 0.029248448 0.15353186 0.04272407 0.24274342 -0.34260604 -0.11449619 0.24784504 0.088326976 -0.072739445 -0.20425503 0.21019693 0.21281831 0.08547067 0.045058057 0.06981785 0.3319533 -0.05454311 -0.19233586 -0.2510591 -0.09221982 0.3727828 -0.21372971 0.033730574 0.20620573 0.29192325 -0.13990785 0.04317051 -0.4544563 -0.42746317 -0.022223942 0.088622734 0.11173862 -0.13776039 0.19654153 0.15360336 -0.08167754 0.3076712 0.07584977 -0.17310628 0.2680122 -0.1046394 0.5799443 -0.05964412 -0.40197566
deposit -0.094896525 0.37253982 0.11562759 -0.3125771 -0.035291612 -0.2526812 0.165382 -0.15609737 -0.36820775 -0.018419812 0.079127505 -0.07811636 -0.208078 0.37707597 0.026725987 -0.22725722 -0.21994698 -0.21212989 -0.10725643 0.039697044 0.004385196 -0.0858606 -0.0054376265 -0.21983904 -0.11064657 0.19270465 0.25992998 0.036734298 0.20710255 -0.2823465 -0.30771315 0.37319368 -0.14887713 0.1088257 0.09486712 -0.04649782 0.00014496164 0.21035895 0.2369795 0.35270527 -0.19313852 -0.016611544 0.12664753 0.27434573 -0.2860962 -0.17883077 -0.23718922 0.08774403 0.08877537 -0.006198812 -0.38959336 0.12819728 -0.16120948 -0.29797035 0.055833634 -0.08768803 -0.24848345 0.24083702 -0.033199277 0.13729727 -0.154309 0.1087345 0.29555166 -0.15901726 -0.0067892647 0.19928855 0.055634238 -0.14591248
fig. -0.019501047 0.10220221 -0.1032338 0.045072462 0.100166366 0.010623744 0.1401157 -0.08525979 0.09043742 -0.3241801 -0.041098386 0.33119875 -0.0062829163 0.15275645 0.044985875 0.024349904 0.06333205 -0.1404008 -0.00025273935 -0.039399795 -0.12074462 -0.11827337 -0.05217801 -0.14776835 -0.009609149 0.12616593 -0.014894153 0.24632 0.0713669 0.09517233 -0.06829529 0.00254205 -0.197633 0.3382178 0.2943089 -0.2856648 0.12877145 -0.029758837 0.038351562 0.35527238 0.049886197 -0.063281074 -0.052836176 -0.18821822 0.3475323 -0.35162005 -0.004193702 0.10398457 0.17355083 -0.037251852 -0.32282728 -0.1595949 -0.24443065 0.10448843 -0.38287482 -0.043439604 -0.11706544 -0.030622192 0.19603123 0.1375798 0.07798655 -0.18265098 0.026060695 -0.09644522 0.09940315 0.41172102 -0.09726459 0.16480076
hydrothermal 0.09406687 0.43624783 0.560483 -0.10860252 -0.0070970166 0.13174556 0.2008153 0.115256585 -0.42682552 -0.0012288115 0.5017383 0.14073098 0.117750406 0.45238024 -0.012944767 -0.19888295 0.017285721 0.11922264 0.13215446 0.20836762 0.005958867 0.072038956 0.017484317 0.21446064 -0.020541513 0.17303443 0.078092895 -0.10273283 0.039411858 0.07781515 -0.14886789 -0.19463083 -0.2540593 0.3629433 0.40059802 -0.08287858 -0.0777816 0.24842906 -0.028078923 -0.093329236 -0.44494686 -0.17466024 0.27097815 0.13222729 0.105220184 0.08185825 0.35205212 -0.12362797 0.22548647 -0.15856174 0.16712616 0.119488545 -0.011207915 -0.16460542 -0.06347649 0.0042641526 -0.28015906 0.05650913 0.21061803 0.11663005 0.20014709 0.03586768 0.36542603 -0.16350172 0.022581011 0.32210365 0.35144308 -0.065048866
mineral 0.3225743 0.17416815 0.17285061 -0.16324066 -0.0350181 -0.02416059 -0.45056185 -0.16140528 -0.115677364 -0.47556487 0.25245845 -0.012469682 -0.28278592 0.21325794 0.022861788 -0.10706728 0.2939882 -0.227115 0.14334899 0.32496154 0.05777056 0.07300841 0.20021456 0.029615179 -0.40977126 0.08509838 -0.0925636 0.13495483 -0.37676036 -0.116630495 0.35354096 0.1965797 0.2744715 0.010778787 0.44101146 0.22086072 0.17458978 0.32538834 0.046805844 -0.015185365 -0.12763615 -0.48720795 -0.15508997 0.2267546 0.2358136 -0.22534989 -0.1503241 -0.19879691 -0.029492669 -0.15871169 -0.16102748 -0.14957501 -0.053338 0.094388455 0.3332027 -0.45879838 0.14942189 0.092876896 0.19961046 -0.08550825 0.2243321 0.055853933 0.16932751 -0.12142514 -0.19286455 -0.0556326 -0.09897498 -0.16652572
rock -0.064737335 0.21661107 0.2683161 0.023567518 -0.061028875 0.16482367 -0.035183147 -0.004097073 -0.30469725 -0.25352362 0.13440894 0.19698785 -0.06875503 0.566164 -0.09309512 -0.23055 0.08545332 -0.009685539 -0.052339762 -0.2022486 -0.03162817 -0.06647849 0.38412648 -0.068905585 0.23375699 0.22963046 0.25830108 0.2474043 0.32232723 -0.3359851 0.15233783 -0.023003222 -0.20474346 -0.15371148 0.15059142 0.07927115 -0.27047372 0.1511969 0.05469953 0.2475878 0.21789561 0.15517434 0.08961584 -0.104872696 0.24119467 -0.12190051 0.26213643 0.10287276 0.32388446 -0.19223012 0.044371 -0.31811225 -0.09688653 0.09659582 0.21294819 -0.27742913 0.13446599 0.042857606 0.20030124 0.34071398 -0.26350707 -0.14125386 0.2836732 -0.07774612 -0.008253581 0.27511868 0.044193745 -0.5032313
intrusion 0.00410406 0.3753671 0.24384922 0.1875016 0.07980685 -0.18315654 0.4329654 0.18260774 -0.24291147 -0.27231082 0.110686086 -0.015594933 -0.17571786 0.20164257 -0.05948998 0.13994443 -0.21638536 0.015420404 0.03948845 -0.014524367 -0.14641818 0.029557012 -0.1709874 0.1060856 0.16083692 0.26235983 -0.011483345 0.14617552 0.07290633 -0.3806871 -0.29103413 -0.22902992 -0.19187863 0.06739986 0.027071483 -0.24874826 0.06749539 -0.08136329 0.21490866 0.17313097 -0.36844063 -0.14932765 0.06802392 -0.060596947 0.5883348 -0.06795984 0.06292912 0.40227792 0.16449523 -0.13736163 -0.45343345 -0.22831841 -0.065914586 0.1649336 -0.2136661 -0.17211303 0.17858943 -0.33742595 0.27681437 -0.12446218 0.10648615 -0.24173756 0.31075916 0.20025575 -0.0698764 0.41534677 -0.20113535 -0.17604575
2 0.3557455 0.16005558 0.056529183 0.14422162 0.115242645 0.16042185 -0.004881507 0.20104215 0.15151994 -0.6531208 -0.24029449 0.24680264 0.01332139 0.040200844 0.12992178 -0.23580842 0.45713994 -0.10531835 0.09835461 -0.00030448864 -0.43138266 -0.09119683 -0.03319613 0.2594953 -0.38534272 0.46357545 -0.051033486 0.18588452 -0.027068788 -0.14442986 -0.2433078 0.05599634 -0.09406592 -0.14817639 0.11964389 -0.20686029 0.15780844 -0.22847882 -0.021941584 0.31131917 -0.43984392 -0.20660558 0.11454747 -0.3964574 0.572644 -0.012830693 -0.031095706 0.14398746 0.01335588 -0.27872002 -0.110756 -0.2780998 -0.15714778 -0.0621728 -0.09203542 -0.058813076 0.120676875 -0.22053815 0.0781184 0.07396095 -0.2905051 -0.14947695 -0.11243294 -0.03678676 -0.37541702 0.398105 0.23736769 0.11008857
molybdenite 0.15469423 -0.33949476 0.11787082 -0.3672473 0.20599948 -0.18559255 -0.06933356 0.16679733 -0.16680719 -0.29386535 -0.18715753 0.2537181 -0.2955934 0.2119477 -0.12932943 -0.08852779 0.43979278 0.37395474 0.051737394 0.06295349 0.395796 0.005760557 -0.1982363 -0.060441926 0.22290905 0.23360686 0.35307333 -0.1893908 0.38119388 -0.5306541 0.035724115 -0.15991469 -0.23042777 0.54552805 0.43710726 0.21057488 0.37709868 -0.26207897 0.21972287 -0.5573534 -0.36147475 -0.04204995 0.16796899 0.12936543 0.5985269 -0.32398576 0.38160348 0.21181324 -0.11378143 0.10932397 -0.14057386 0.20882809 0.2828619 -0.41725537 0.3026505 -0.1493585 0.10638311 0.5588647 -0.12815055 0.19532304 0.10567138 -0.16054589 0.0340438 -0.11720785 -0.17869917 0.04137834 0.3437164 0.3299193
cu -0.18927917 0.30291095 0.16043097 -0.0023348618 -0.08972928 -0.22967967 0.03253466 0.08476322 -0.25167918 0.013240029 -0.0954756 0.32359707 -0.21949197 0.29044214 0.03522381 -0.579556 0.049342785 -0.4125246 -0.0025551505 0.19939195 0.069610454 -0.07221682 -0.1717145 -0.21497262 -0.34516826 0.27687326 -0.2440418 0.07049589 0.22349904 0.052712813 0.042906724 0.21181378 -0.24009824 0.5847078 0.0321097 -0.0046362 0.12093789 0.0093537485 0.25829586 0.26261523 0.04408122 0.0072630993 0.21380131 0.14183266 -0.33188197 -0.31262335 -0.5570763 -0.016322242 0.076161034 -0.026515763 -0.46835738 0.06394054 -0.36607996 -0.18425359 -0.02052313 -0.24928807 0.11360948 0.40283552 0.29871804 -0.048386514 0.028127886 -0.057052553 0.089879066 -0.40638587 -0.47646227 -0.075663485 -0.05796586 0.17627992
type 0.24769092 0.1807814 0.13695484 -0.044390533 -0.17399393 0.06155913 -0.022821091 0.20835605 -0.08486406 -0.56302226 -0.25656718 -0.16783747 0.14436191 0.1131536 0.21012843 -0.3153273 0.22734587 -0.21299195 -0.15290155 0.13273196 -0.24401471 -0.12184192 0.23190123 0.1902451 -0.28017065 0.31172696 0.2412724 0.014579825 0.10915459 -0.1292286 -0.16642903 0.26719654 -0.25637606 -0.12927108 0.6386097 -0.661766 0.04024465 0.05467588 -0.14611483 0.4428394 -0.18193676 -0.11941154 0.14121486 -0.24830021 0.44787192 0.08836131 -0.24424419 -0.20894527 -0.043825913 -0.15243047 -0.070440404 -0.17796026 -0.30904523 -0.24236552 -0.07834571 -0.025129514 -0.11954095 0.15108408 -0.0036474897 0.013086856 -0.5774293 -0.4452141 -0.054824788 -0.537412 0.0080402205 0.6351094 0.033631243 0.52167267
1 0.48744097 0.11531428 -0.11348896 0.2205275 0.26226488 0.13930196 0.19348188 0.0023424854 0.094294116 -0.280966 -0.12377088 0.5048157 -0.025548426 0.042534124 0.22456543 -0.07359841 0.109166786 -0.028692111 -0.06696843 -0.07414494 -0.45846212 -0.21186142 0.07472658 -0.081740156 -0.060941517 0.3174699 0.23745717 0.3177195 0.08716472 0.072256155 -0.22840929 -0.19706433 -0.23067397 0.1898476 0.22065741 -0.21594764 0.15241885 -0.18921216 0.069015965 0.5057082 -0.11598585 -0.4750843 0.05680841 -0.30904138 0.43318862 0.03817241 -0.07147423 0.32624325 -0.0813365 -0.066005275 -0.007143403 -0.1826311 -0.26992634 -0.015991287 -0.017992983 -0.300101 0.4311922 0.029245842 0.16200052 -0.030827023 -0.24369782 -0.14131749 -0.10546535 -0.09908348 -0.35062325 0.3915914 0.17913197 -0.19126213
sample -0.21226268 -0.13711056 0.48807287 0.08365163 0.17407592 0.09156788 -0.0107208835 0.34359902 0.41188756 -0.014371293 -0.25659272 0.40488786 -0.25189954 0.1211568 -0.05836042 0.2243083 -0.1698392 0.4185128 -0.09910518 -0.18783316 0.13485536 -0.31880182 -0.24704532 -0.28931496 0.27943674 0.18152939 0.12345581 0.1397358 0.5657335 0.2509805 -0.02137713 0.42425457 -0.05888597 0.11522437 0.09222702 0.33720192 0.025164036 0.4093521 -0.08239948 0.079024084 -0.2575441 0.19491239 0.39049637 0.16332856 -0.056164466 -0.43985316 0.11799601 -0.056824386 -0.51064634 0.22300315 -0.1393871 -0.2960039 -0.20036347 -0.3112458 0.15313092 0.105733976 0.14185895 0.3033873 0.43259916 -0.026076494 0.20723233 0.12004247 0.34015852 -0.30524215 -0.5362221 0.29906872 -0.08386848 -0.036549404
chalcopyrite 0.18738276 -0.2603904 0.43790716 -0.3910474 0.06525399 0.18783483 -0.00085850013 -0.015639449 0.32545605 -0.04073007 -0.06877407 0.481733 -0.3750259 -0.02640277 0.03985268 0.066157475 -0.038565643 0.28124523 -0.17436413 0.13128209 0.31380966 -0.09383975 0.20060605 -0.20881315 -0.18588462 0.005502489 0.10715493 -0.030800266 0.3386564 -0.21198739 0.2448991 0.3495475 -0.24691755 -0.12063838 0.6852125 0.64821655 0.1791146 0.5158575 0.025450919 0.077577755 -0.19622512 0.026373025 0.35350198 0.3583522 0.14157856 -0.24000639 -0.10608477 0.25016987 -0.6739615 0.2261713 -0.22420159 -0.24493012 -0.2080268 -0.10335473 -0.047865286 0.010562506 0.06645515 0.04655881 0.36717877 -0.11626522 0.004906054 -0.09371114 0.30833808 -0.12738146 -0.4207717 0.2755626 -0.45458752 0.13603091
dacite 0.0058192876 0.50028735 0.6531427 -0.13655053 -0.27081186 -0.20854352 0.23313901 0.12727101 -0.48398522 -0.7508038 -0.24247381 -0.11123739 -0.21154164 0.57895815 -0.2104824 -0.027866762 -0.33573133 0.30215275 -0.071359955 0.38453498 -0.11727657 -0.21478419 -0.17865764 0.27521503 0.29868454 0.010207651 -0.1774968 0.12804155 0.061831445 -0.06209 0.23644947 -0.050428964 0.15263723 0.30619067 0.037334014 -0.19337155 -0.45175624 0.11258929 0.2695002 0.12844902 -0.016263967 -0.031139174 -0.042105727 -0.034287076 0.33501887 0.12585042 -0.2349344 0.51919806 0.33914632 0.10098646 -0.29270306 -0.3784363 -0.24521667 -0.15472591 -0.1381801 0.05706732 -0.20187128 -0.022859856 0.22149411 0.06444403 -0.19960016 -0.3715124 0.1024997 0.3151169 0.16315657 0.34619898 -0.019418495 -0.06589373
fluid -0.09234712 -0.3361003 0.6243494 -0.114418365 0.039039545 0.20710582 -0.30113906 0.22292121 -0.3544198 -0.28544417 0.08345326 0.32869372 0.20550789 0.20930505 0.16620436 0.05689623 0.05087281 -0.13658182 0.15678263 0.10293903 0.5004685 -0.17900485 0.4961779 0.25513223 -0.45587677 0.2173106 0.07180585 0.03745539 -0.07450961 0.5724043 -0.37017927 -0.12269949 -0.21587205 0.3033465 0.19578409 0.2693054 -0.10888101 0.107764624 -0.015857272 0.07241281 -0.5269635 0.05547317 0.11962027 0.44251567 0.05198803 0.13002056 0.0479543 -0.12757754 -0.34992814 0.1601024 -0.22842315 0.061990142 -0.094068155 -0.0062146336 0.24406172 -0.25787836 0.12826066 0.11733505 0.38086262 -0.35195106 -0.019663408 0.37434793 0.2621201 -0.57757825 -0.029400753 0.18401045 0.34505084 -0.20991841
high -0.17132176 0.07977746 0.06837979 0.1062592 -0.16496241 -0.08129958 0.13874878 0.17147265 -0.04934215 -0.28162655 0.3206864 0.4222029 -0.049576815 -0.19056751 -0.12156251 -0.17311372 -0.29874814 0.025282918 0.042713977 0.14083213 0.111467466 -0.27034485 -0.19197781 -0.08869491 -0.28263435 -0.09299918 0.078457475 -0.04232266 0.04641437 0.104791574 -0.1663716 -0.0746573 -0.1304014 0.28305075 0.24363348 0.4629229 -0.2114922 0.13369934 -0.1648027 0.023670904 -0.034840208 -0.08168583 -0.21703938 -0.11855361 0.18857484 0.080102004 -0.21588595 -0.13112438 -0.027772643 -0.11686933 0.09974512 -0.18820271 -0.14149208 -0.25264356 -0.3872854 -0.24118817 0.13253109 0.3003229 0.23779976 0.07891477 0.009581149 0.16659762 -0.011629476 -0.40162787 0.26355413 0.4254157 0.118524164 -0.38616824
date 0.033328373 -0.3847794 -0.16056634 -0.19276021 0.111473456 -0.13265358 -0.07998122 0.06518958 -0.40602583 -0.40029496 0.05922463 -0.035987925 -0.30446172 0.24490798 -0.10522745 0.006415713 0.2466625 0.18268897 0.19431643 -0.034085397 0.5815395 0.4049127 -0.4717101 -0.11868343 0.4121623 0.37871665 0.42349735 -0.2776116 0.48946005 -0.71734494 -0.59782284 -0.3310563 0.193805 0.6020029 0.1771966 -0.10326878 0.23050322 -0.35093504 0.41872868 -0.44437522 -0.32085767 -0.10525086 0.13963877 0.23883952 0.970355 -0.38404456 0.59978217 0.105545454 0.32500362 -0.09664087 0.1456622 0.003900196 0.09518646 0.0035104922 0.084661484 -0.11406376 0.19113159 0.6431431 -0.007077115 0.2772454 -0.01145811 -0.08006331 0.12624252 -0.14152472 -0.40252876 -0.011706051 0.42018586 0.42333624
age -0.2954903 -0.057157364 -0.1871664 -0.49065924 0.14232875 0.034067135 0.3155881 -0.06221655 0.0725321 -0.39374748 -0.27504703 -0.03675946 0.3027444 0.93934023 0.029184202 0.28298977 0.3681485 0.32323644 -0.19645303 -0.2371469 -0.17630002 -0.3687902 -0.36915416 0.16061427 0.49829715 0.047312953 -0.10079498 0.05644435 0.34790754 -0.6016264 -0.20331073 0.018115446 -0.049463715 0.27061933 0.18390405 0.0023643344 0.15975817 -0.3164624 0.11225791 -0.024274837 -0.5887704 -0.1754535 -0.19229087 0.6896834 0.71693987 0.014167663 0.6506765 0.27962095 0.5951162 0.15678473 -0.13052522 0.18047765 -0.22119154 0.014821664 -0.31782377 -0.21187884 0.24204226 0.24981508 -0.0013493525 0.057921715 0.20382152 -0.2395105 0.59853435 0.15180048 -0.083173454 -0.11072042 0.35328057 -0.25459048
biotite -0.0139317745 0.4521378 0.2867902 -0.037830476 0.046233784 0.22063002 0.28491732 0.009399494 -0.1480985 -0.057858855 -0.05868928 -0.04074016 -0.48228595 0.32027563 -0.3175526 -0.21535277 0.17213234 0.20693742 0.24980816 0.6164976 0.07924913 -0.11214489 0.018589426 0.1570011 -0.06461062 0.008023253 0.0008537575 -0.17059276 -0.11500023 0.13553159 -0.14391902 -0.44749847 0.28494596 0.214303 0.22080186 -0.21257868 -0.037685204 0.008480936 0.3875195 0.42682877 -0.14932993 -0.12762602 0.4099979 0.058324277 0.7163924 0.10904962 0.4535099 0.12624408 0.46611091 0.15847628 -0.46930927 -0.394183 -0.37998584 0.15404058 0.06367724 0.2099145 0.06545867 -0.057277057 -0.21495172 0.3722449 -0.11556178 -0.2220195 0.4453898 -0.05835756 -0.05559975 0.24035637 -0.42169815 0.18059935
low -0.28529522 0.10783765 -0.32484382 -0.45328012 0.09229833 -0.13396165 0.12153148 -0.003119059 -0.055646904 -0.438844 0.16936138 0.3355179 -0.16407259 0.04790359 -0.07461239 -0.017640848 -0.08995947 0.24617645 -0.38026294 0.4942757 0.17858884 -0.07562212 0.140353 0.05597376 -0.37448955 -0.07569933 -0.07222969 -0.04640936 -0.24135482 0.3515381 -0.14170909 0.16197066 -0.14908709 0.5153142 0.14569853 0.47985858 -0.06299431 0.1658819 -0.15596542 0.37650388 -0.08655678 -0.30635408 -0.01371016 -0.14220761 0.03797329 0.28710535 -0.06344305 -0.13445102 0.0147758 -0.21684349 0.02681822 0.042541634 -0.22357322 -0.17845434 -0.33032346 0.07818044 0.12686515 0.1260863 -0.0149682425 0.42092845 0.35679367 0.31630668 0.09645914 -0.17532904 0.055795424 0.39226702 -0.04551655 -0.37945157
oxide -0.10216634 0.51638335 -0.3525587 -0.65483195 0.13533436 0.4012567 -0.07058921 -0.17954879 0.2303525 -0.47353637 0.27100635 0.22691153 -0.55752397 -0.27563488 0.10720079 0.18765478 0.19144966 -0.23057958 0.027368825 -0.003120036 0.46963963 0.16983551 0.06466017 0.01861642 -0.23198971 0.081382886 0.15071964 0.28868985 -0.62055546 -0.08497039 0.3003765 0.30664235 -0.0019369373 0.41758662 0.28278443 0.1243957 0.23877467 -0.042226482 0.43404356 0.5600277 0.1704258 -0.78071475 -0.13839373 -0.10473415 0.18315592 -0.55658036 -0.47654185 -0.13826235 0.21755238 -0.40904188 0.23310766 -0.10542762 -0.23157372 -0.16643971 -0.0017664129 -0.32017523 -0.3414912 0.40103954 0.27116394 -0.30607828 0.76390165 -0.026567461 -0.105769284 -0.2123511 -0.07298528 0.54438686 -0.28875363 -0.36669135
+ 0.39019907 -0.061119787 0.54797673 -0.43237728 -0.27588367 0.18428987 -0.4896711 0.22042567 0.27824757 -0.28295335 0.3514472 0.48665285 -0.34412178 0.30096093 0.24161015 -0.68025035 0.24824211 0.39615545 -0.46706074 0.23929974 0.17872137 -0.4135014 -0.32047066 0.30162543 -0.16738491 0.60375345 0.14363189 0.3675681 -0.54603404 -0.08049067 -0.03639326 0.23533966 0.0053267563 -0.66186106 0.5054507 0.044427466 -0.16999117 -0.3367959 0.14884768 0.019851211 -0.06683185 -0.089008704 0.10237167 0.27213892 0.77006036 0.005825262 0.7175849 0.3928322 -0.59443575 -0.09705315 0.12582546 -0.336119 -0.60206455 0.36948514 0.21428637 0.14767455 0.78581953 0.46023697 0.065677695 -0.16080819 -0.5125912 0.34816194 0.35081837 -0.054899745 0.21869747 0.13159078 -0.36680755 -0.73466754
sulfide 0.35748976 0.2608636 0.1418886 0.06494049 0.3829138 -0.48871288 0.04497928 0.17977889 0.03568344 -0.26781178 -0.0133332135 0.5103297 -0.3702315 -0.036717337 0.013952463 -0.32671404 0.029724922 0.11916621 0.050476823 0.2974249 0.23023175 0.145389 0.123006776 -0.12363958 -0.24783872 -0.31009936 0.1908696 -0.112975135 0.22084337 0.14591119 0.026686013 0.2025769 0.032709915 0.2640591 0.51668894 0.44036004 0.08402109 -0.025595777 0.050256304 0.3825052 -0.048726562 0.074886836 -0.123852365 0.3356823 0.39408946 0.03401236 -0.34039402 0.29684576 -0.15405586 0.34633714 -0.32335895 0.05924535 0.0062032887 -0.2453468 0.076647036 -0.09479379 0.1382678 0.38841653 0.22422643 -0.089161545 0.15296647 -0.12882449 -0.07721403 -0.4141068 0.20298216 0.4023272 -0.37016004 0.4427732
feldspar 0.25007194 0.0954924 0.061022643 -0.3335077 -0.16033714 -0.220942 0.18808874 0.21615456 -0.062318396 -0.34318495 -0.098339744 0.33348593 -0.7322106 -0.18628 -0.31859776 -0.51754165 0.32947564 0.21368483 0.10105916 0.1455281 0.26916373 0.012299489 0.32681552 0.46232477 0.0771005 -0.04828697 0.07081028 -0.3073301 0.104154035 0.05039348 0.31465137 -0.18861763 0.7654583 -0.47734642 0.4126424 -0.20219915 -0.11967846 -0.16134876 0.1771214 0.045930367 -0.41247073 -0.5457113 0.068437636 0.16006343 0.80240875 -0.14840358 0.05978373 -0.1841243 0.3308381 0.20399174 -0.010058618 -0.5142227 -0.066543825 0.087796226 0.28278363 0.09608784 0.50882363 -0.05581048 0.275227 0.47834975 -0.46176404 -0.072781585 0.23932005 -0.11202889 0.14828205 0.12042376 0.19200365 0.04059485
occur 0.008681576 0.27487126 0.3070785 -0.0633022 -0.39772135 0.0146728745 0.01674159 0.08644892 -0.31806067 -0.24641992 -0.13045928 -0.07668954 -0.44575867 0.0467234 -0.2597517 -0.21998613 -0.07221368 0.29128358 0.05577156 -0.02279916 -0.030518336 0.28879693 0.21086499 -0.020565717 -0.0392848 -0.2281587 -0.17755903 0.15379994 -0.09019345 -0.11828635 -0.14542381 -0.08984735 -0.12225255 -0.14567235 0.52289945 0.097335406 0.07332078 0.13025321 -0.15886891 0.13706572 -0.07834777 -0.1494804 0.13595685 0.14097783 0.27667835 -0.40915322 -0.19739227 0.1724657 -0.031314343 -0.036527 -0.21946171 -0.39135134 -0.29709956 -0.02276121 -0.28649563 0.16687727 -0.1773749 -0.19262913 0.11367449 0.036829263 0.027147897 0.010263187 0.041745186 0.27793428 0.009513872 0.43010193 -0.11810823 -0.44998628
ore -0.011071983 0.3274181 0.034121603 0.3225382 -0.10403772 0.06321013 -0.40905535 0.14000508 -0.5713007 -0.085216895 0.07144764 -0.19242246 -0.081832565 0.14323168 -0.0041100024 0.2840785 -0.26249534 -0.15060116 0.08583475 -0.15573905 0.09973995 0.3290689 0.19450662 -0.12914355 -0.14591977 0.15700951 0.16025735 -0.05089535 -0.06203178 -0.11297571 0.16715182 0.46311936 -0.12946798 0.5163121 0.28546944 0.1371445 0.09353885 0.23262325 0.07963283 0.39420497 -0.4189486 0.16814119 -0.24986272 0.3286133 -0.08942534 -0.26586905 -0.17450047 -0.416939 -0.16529766 0.20947212 -0.118009575 0.11204698 -0.20920351 -0.17992705 -0.26119334 -0.5431673 0.1951589 0.3095926 0.17292976 0.22139646 0.28399372 0.1324559 0.43871218 0.02475376 0.018546358 0.20251974 -0.15104955 -0.54740155
3 -0.02219866 0.23739898 0.049765103 0.07288516 0.13282448 -0.23273265 0.32706246 0.32735863 0.11667382 -0.48253953 -0.22789618 0.0013496305 0.1779568 0.032578915 -0.07364281 0.14219245 0.08831862 -0.17766924 -0.044483706 0.16750091 0.19531876 -0.12791038 -0.008758766 -0.073839925 -0.16678745 0.3897563 0.09803274 0.24775171 -0.15632156 -0.2035601 0.02706921 -0.21198472 0.15009727 -0.0644446 0.33591512 0.11582511 0.17682749 0.06654266 0.14795332 0.1753423 -0.6082858 -0.12901998 0.18915999 -0.5387164 0.25522506 -0.045686085 0.41979825 0.12438837 -0.27170962 0.022332786 -0.086993106 -0.1794695 -0.2846449 -0.1103827 0.1664924 -0.40115955 0.25669384 -0.094567746 0.24846886 0.100959584 -0.06485402 -0.15676084 -0.07135434 0.40534824 -0.12774427 0.11106296 -0.037348866 -0.046336684
system 0.07775588 0.2892597 0.2979273 0.06920623 0.085583284 -0.15095699 0.18668133 -0.26962128 -0.2812855 -0.07339656 0.16355088 -0.20909362 0.14924113 0.23601538 0.105731644 -0.26877737 -0.1945808 0.0029116967 0.34262204 0.11324715 0.17336042 0.017066354 0.42220852 -0.19187084 -0.2221861 0.50364494 0.0937129 -0.058234613 0.06642545 -0.22423692 -0.30805787 -0.15019923 0.09437242 0.37527555 0.1328069 -0.041391395 -0.19552104 0.28250584 -0.050910234 0.028647566 -0.18508923 -0.39107463 0.21185915 0.0633555 0.46811995 0.02107922 0.25632533 -0.4382878 0.10128886 -0.4038909 -0.10624513 -0.14037633 0.037083846 -0.12833734 -0.062306315 -0.10530063 -0.14311497 0.1800955 0.13382536 0.11912214 0.57376885 0.15893891 -0.011027194 -0.24396701 -0.012918475 0.17807367 0.63355035 -0.24749804
late 0.1892843 0.22465515 0.51552975 -0.1226402 0.010139907 -0.10062399 0.17189458 0.25767672 -0.4550259 -0.22099683 0.11079506 0.13208695 -0.23046985 0.36855817 0.14892797 -0.067383185 0.2545499 -0.019831587 0.011875076 0.281921 -0.3428346 0.3239111 -0.17117403 -0.08300011 0.35774967 -0.09511866 -0.15003265 -0.07606049 -0.033898517 0.35097474 0.013493088 0.11991098 -0.28297052 0.41417727 0.47970074 0.15321766 0.027392132 0.2506934 -0.21410848 0.28951684 -0.0013716214 -0.02504553 0.29334718 0.12783708 0.08370049 0.0022757032 0.17434183 0.56170213 0.19660117 0.5826489 -0.54361457 0.038013726 0.078738496 -0.15913375 -0.027813718 -0.010924274 -0.106510304 0.48863357 0.19415957 0.109613016 -0.01756604 -0.33893463 0.47869614 -0.2888147 0.05493439 0.40860695 0.3084526 0.37099135
re-os 0.12708683 -0.52091163 -0.018808553 -0.6699758 0.3514288 -0.15455048 0.045610625 0.3317888 -0.2937247 -0.65556407 -0.111273065 -0.2080676 -0.2097073 0.45659542 -0.11242444 -0.13410546 0.31038472 0.3687564 0.106349975 0.03502814 0.7100101 -0.05824033 -0.20737238 -0.21365227 0.26902443 0.3792847 0.42811102 -0.30318692 0.33628032 -0.37022558 -0.3369915 -0.33246747 -0.32737833 0.9392606 0.01942037 0.1664354 0.38245142 -0.25908002 0.15989651 -0.787279 -0.4156933 -0.043914247 -0.033728514 0.68408 0.6888206 -0.6454565 0.6308921 0.37577495 0.43974054 -0.071532734 -0.231199 0.17789751 0.22723886 -0.23479688 0.15463702 -0.13311149 0.17115681 0.71553564 -0.114726186 0.27955502 0.19126286 -0.22238904 -0.039016422 0.07494325 -0.18266565 -0.16243578 0.4649611 0.25646082
sericite 0.2691675 0.3217725 0.2709568 -0.37395737 -0.23408926 -0.09782425 -0.34511182 -0.21727547 -0.015934156 -0.06965678 -0.08959182 -0.20883252 -0.3506139 0.57652855 -0.0140638985 -0.52457875 0.48530242 0.38625595 0.4517438 0.20623104 -0.2758108 -0.13379452 0.05299216 0.4469913 -0.13170132 0.26499912 0.12890033 -0.4023045 -0.09971393 -0.44887123 0.21613629 -0.20597225 -0.0076691695 -0.39254236 0.37711072 0.12917385 -0.096315786 0.08036409 -0.30879056 0.422757 -0.4212608 -0.1995828 -0.01380767 0.04301691 0.3570206 -0.11741678 0.098590665 0.12619376 0.21041514 0.14400204 -0.13880977 -0.25825116 -0.11345561 -0.13845423 -0.20527145 -0.015296736 0.23880786 0.056042787 0.13928269 -0.0938685 -0.17348537 -0.12133757 0.0852725 -0.03644269 0.11189057 0.38914257 0.12273023 -0.63587177
atacamite -0.06436464 -0.018508414 -0.24463609 -0.43570095 0.35651782 0.503434 -0.4665031 -0.014779138 0.4307879 -0.67228204 0.36722597 -0.06672191 -0.6756936 -0.098345615 0.5236171 0.31908834 0.14851294 -0.2968091 -0.03476333 0.38623106 0.29283556 0.23727214 -0.030302012 0.15918154 -0.23082554 0.12462432 0.2041294 0.13681675 -0.56025577 0.0005431907 0.2203747 0.6096207 0.08475154 0.15803245 0.33455434 0.15700392 0.25462595 -0.103525646 0.48823327 0.47073624 0.16896541 -0.436988 -0.06974527 -0.21950664 0.049403213 -0.55175734 -0.72523546 -0.086759545 0.40412188 -0.20916303 0.056284428 -0.47586924 -0.38953212 -0.40628567 0.10912347 -0.022697749 -0.16802688 0.80118495 -0.00104236 -0.47623572 0.92723256 0.09543528 0.156746 -0.15330683 0.031708024 0.39649674 -0.10414368 -0.81629735
associate -0.17165032 0.2156333 -0.028918233 -0.06634823 0.11135828 -0.26799873 0.27610683 0.24587277 -0.5432532 -0.34898403 -0.027107695 -0.28489035 -0.1742399 -0.036766533 -0.111206174 0.1449151 -0.24179645 0.026047064 -0.02383029 0.29629752 0.30511376 0.1671997 -0.058094516 0.50159496 -0.008522613 0.1458875 -0.08140873 -0.2612802 0.21781166 -0.23146853 0.04439948 -0.11815375 -0.20066588 0.34252527 0.204422 -0.016501116 0.19376807 0.057899628 -0.15661082 0.088494405 -0.25748897 -0.36086592 -0.0366543 -0.1026011 0.22685832 -0.078619726 0.6987869 0.37033418 -0.30669284 0.12163054 -0.049343575 -0.24186267 -0.1617519 -0.11863723 -0.064614944 -0.24127819 -0.12579009 0.21344796 -0.14793348 0.18423305 -0.15251552 0.22376221 0.4992429 -0.30725855 0.13375165 0.2377857 0.071621805 0.3085594
± 0.022132313 0.10902182 0.3197497 -0.65822077 -0.2558197 0.26467675 -0.13236491 0.43992844 0.5028422 -0.06902322 -0.1575864 0.14877431 -0.8182157 -0.18544419 -0.259157 -0.45801914 0.025484487 0.2948438 -0.17548876 0.32576117 0.45275944 -0.21774866 0.075574465 -0.006113241 0.23304123 0.30169177 0.051882256 -0.004603783 0.24424206 -0.29818308 0.44713175 -0.28671324 -0.14292145 -0.20608023 0.6050935 0.55889195 -0.08716279 0.32127333 0.1888509 -0.078815885 -0.6500467 0.065261886 0.37033448 -0.34674013 0.5647337 0.41887763 0.099133395 0.17172837 -0.44474038 -0.10453868 -0.47495073 0.13912505 -0.20094278 -0.15794063 0.18640587 0.28027752 0.6980433 -0.076325074 0.04841107 -0.025283722 -0.42423564 -0.19534607 0.15624943 -0.2626056 -0.031600066 0.32846892 -0.43842512 -0.18940875
isotope 0.06377697 -0.10058332 0.53355795 -0.18895087 -0.0070914594 0.32235116 -0.10260908 0.3092036 -0.28575686 -0.122481465 -0.12081907 0.3017245 0.23029432 -0.08327091 0.051188894 -0.05128786 0.13590612 -0.17304353 0.15620464 -0.0971702 0.55787617 -0.42440078 0.17104165 -0.21779837 -0.35612738 -0.20362568 0.568874 -0.36726838 0.27176577 -0.15765059 -0.394045 0.041534957 -0.0038853306 0.31749478 -0.02543147 0.41998044 0.3287116 0.26043993 0.30263624 -0.14860535 -0.18959056 -0.33676165 0.008498058 1.1418582 -0.23775357 -0.6324869 -0.058994234 0.020472273 -0.4098749 0.25339684 -0.3355394 -0.13298056 -0.101863354 -0.44283813 -0.35262063 0.20087259 0.4019891 -0.13589878 0.207385 -0.1020073 0.24630857 -0.23762041 0.25209013 -0.016581804 -0.59228563 0.2511275 -0.02064111 -0.2321308
breccia -0.2046319 0.815638 0.2620779 -0.0545122 -0.1991912 0.5453171 0.12522136 0.18185098 -0.7210193 -0.401838 0.22043478 -0.15283954 -0.20243669 0.27368972 -0.103218295 -0.2556822 -0.04042161 0.35960406 -0.3001533 -0.28573304 0.046410047 -0.359759 0.07112336 0.46959162 0.13988598 0.18985987 -0.060864665 -0.06355509 0.3972954 0.10930093 -0.17468941 0.13812764 -0.23090988 0.41323304 -0.22736959 -0.4285308 -0.3273092 0.3735686 0.3463605 0.44130737 0.032250687 0.11841939 0.18111564 -0.3222392 0.49555388 0.22000605 0.06679963 0.35217723 -0.17517084 0.16612507 -0.21399023 -0.42305508 -0.23364015 -0.08154479 -0.12902756 0.085641585 -0.46837133 0.28770664 0.22690663 0.26585355 -0.18867332 0.0818876 0.8287348 0.43650824 0.12095118 0.43907183 -0.53797024 0.29250053
value -0.30123758 -0.36743942 0.4822329 -0.6844533 0.049098644 0.22525199 -0.26725316 0.5774714 0.39652127 -0.45597333 -0.3998543 0.22068244 0.0344298 -0.008575708 -0.5663155 -0.40845755 -0.2590867 -0.0774461 -0.053068645 0.3292097 0.07039591 0.35626212 0.001326319 -0.43840706 -0.36424407 0.20636508 0.88603646 -0.30061102 0.48541328 0.15944684 -0.4609961 0.18614314 -0.14561675 0.08306078 0.17699374 0.5017164 0.2358617 0.30162176 0.06604947 0.15047354 0.44188383 -0.022113983 0.27478206 0.9658756 -0.56709045 -0.28518212 -0.29258615 0.03323777 -0.4873526 0.14355665 -0.054193188 0.37471414 -0.8801063 -0.09075251 -0.47966373 0.33151338 0.19392039 -0.14598714 0.6145932 0.24107361 0.6657075 -0.47139838 0.60897034 -0.37774858 -0.0068433792 0.64782226 -0.0995466 -0.091696486
table 0.49566504 -0.014423529 -0.18532854 -0.26115808 -0.1838194 -0.45122385 0.028921623 0.13370022 0.20821854 -0.51018786 -0.36996543 0.09623436 -0.124851316 0.36649212 -0.029374005 0.3996033 -0.035345215 0.20096074 -0.31077498 -0.18198217 -0.04305932 -0.46070683 -0.4152314 -0.21626107 -0.06053554 -0.18898383 0.026330354 0.31663153 -0.020912213 -0.0711104 0.16108398 -0.08292304 -0.042222135 0.12804179 0.23048948 -0.21476984 -0.31985682 0.044331823 -0.3036368 0.119069934 -0.12171587 0.040329035 0.3317315 -0.023905868 0.38601723 -0.31961578 0.17915171 -0.15918775 -0.07508278 0.470394 -0.07935455 -0.047726516 -0.45618773 -0.4006729 -0.06109862 0.039096933 0.01059786 0.26490805 0.4472057 0.079556726 -0.03990259 -0.08531077 0.4404204 0.008744468 -0.18800624 0.016644008 0.1877375 0.015602313
k 0.34756315 0.21960606 0.009126185 -0.3008956 -0.26165873 -0.24718453 0.29366237 0.37752926 -0.26281884 -0.42156175 0.11668559 0.4876632 -0.60205305 -0.17158146 -0.15839155 -0.6547963 0.26625654 0.22412796 0.2957945 0.031559337 0.1593835 -0.1337917 0.044747323 0.27563143 0.1807342 0.1490815 0.113293596 -0.20361212 -0.32773456 0.08563255 -0.061583698 -0.12142691 0.6814628 -0.4683595 0.30266172 0.059628773 -0.19130465 -0.12815504 0.2510212 0.02754112 -0.32659432 -0.5231188 0.119462475 0.39662313 1.0380881 -0.31923762 0.24245572 -0.17719907 0.20410022 0.12568916 0.20172353 -0.1255989 -0.043689597 0.3573452 0.08798992 0.017867906 0.53099996 0.050243538 0.36278245 0.16297981 -0.3900613 -0.036891922 0.19765745 0.047162957 0.08935311 -0.051224414 0.43284017 -0.037919976
magmatic 0.28431314 0.5058644 0.27672774 0.18299088 -0.0778392 0.039128635 0.2580197 0.22445402 -0.5392596 -0.43950132 0.06025386 -0.052690152 0.0016340599 0.29129583 0.2763027 0.09339989 0.008910208 -0.09381027 0.17035073 0.20888042 -0.59705025 -0.107447945 -0.08640396 0.12712583 0.1996996 0.3843519 -0.25069976 -0.055735126 -0.16610965 0.30430868 -0.23949036 0.41735443 -0.25378418 0.3998952 0.41883928 -0.45168653 -0.03633572 -0.019235728 -0.45290378 0.38349754 -0.15337947 -0.09466466 0.24377948 0.2105299 0.2004623 -0.13911422 0.064675175 0.32254758 0.30780646 0.3552625 -0.04309563 -0.17439446 0.08367369 -0.22579168 -0.06476792 -0.1448884 -0.052778248 0.31026095 -0.18240152 0.121263474 -0.48654404 -0.32473353 0.46719503 -0.24175575 0.079202175 0.6480563 0.5346354 0.30539387
host -0.2575533 0.12926455 0.14435965 0.110270925 0.63138 0.20371683 -0.08591585 0.4607724 -0.25600055 -0.06739832 0.026001394 0.006743061 -0.035989713 0.3647666 0.31620887 0.1152586 -0.04733602 0.0049108635 -0.41370508 -0.011532947 -0.123550214 0.12534906 0.024994517 -0.47509754 0.4788136 0.2987925 0.11677074 -0.0948944 0.3370028 -0.027348826 0.020184869 0.18178537 -0.18718618 0.15636396 0.1070743 0.5924644 0.29502508 -0.024853632 0.094534755 0.070399426 -0.2979146 0.22307342 0.33389634 0.03946267 0.26751924 -0.052469514 0.1444838 0.43082693 -0.036421545 0.02420092 -0.8128922 -0.053205106 -0.25779414 -0.03323563 0.015251018 -0.2773633 -0.037650406 0.37183473 0.0879772 0.6145477 -0.50632477 0.037658613 0.47912297 0.25473925 -0.009488716 0.45485237 -0.20599191 0.12760483
stage 0.25141078 0.4449287 0.75341374 -0.43702427 -0.31912145 -0.38783762 0.22504324 -0.26626256 -0.5900045 -0.20575242 0.3950354 0.30870524 -0.27699277 0.32092372 0.36034986 -0.66531 0.13017552 0.05075026 -0.25107312 0.14057292 -0.13131993 0.45134023 -0.22422445 0.22912405 -0.040000837 -0.033681117 -0.06351997 -0.29530072 -0.28020713 0.20169462 0.388387 -0.22025932 -0.47400805 0.40646303 0.695719 -0.21852778 -0.022022052 0.308735 -0.38742518 0.07160266 -0.4916062 0.5022479 0.41814452 0.15684167 0.31143743 -0.21176983 0.08034159 0.42156932 0.59925985 0.22328758 -0.35657096 -0.011014716 -0.29842275 -0.06069607 -0.03737152 -0.10378539 -0.2521016 0.51900977 0.22690794 -0.22220105 0.030187115 -0.30877036 0.43788236 -0.10730502 0.23181039 0.23419757 0.4770487 0.5591383
suggest -0.03791851 -0.47877464 0.20647146 -0.07253499 0.08595546 0.078339465 -0.011745559 0.20009871 -0.075804874 -0.4560932 0.47404236 -0.029228063 0.2238469 0.10846782 -0.046786755 0.031360142 -0.099787116 -0.19608633 -0.27232093 0.32103926 0.36471096 0.05760346 0.10601209 0.3185952 -0.020492166 0.60087353 0.059339367 -0.5091639 0.4188243 0.21269816 -0.3706415 0.031180505 -0.16695394 0.27685085 -0.10735917 -0.033354107 -0.17239912 -0.109242655 0.4264367 0.37825364 -0.4031794 -0.5176709 -0.07580199 0.24437399 -0.08579 -0.31536624 0.054207955 -0.25098625 -0.23871897 0.28929275 0.082862884 0.22889642 -0.45927343 -0.061326824 0.025406696 -0.035651673 -0.060542103 -0.06775333 0.047002677 0.20928177 0.12397017 -0.33401573 0.06926523 -0.24542615 0.25972277 0.15308434 0.37675816 -0.2590326
bornite 0.24871384 -0.32557726 0.69128764 -0.24788645 0.031333335 0.2676374 -0.104705505 -0.08974206 0.15441652 -0.095219254 -0.10271876 0.5240845 -0.44977394 0.01078698 0.09939478 0.26538354 -0.15488346 0.24184807 0.0515444 0.022974906 0.22209783 -0.26019564 0.47666395 -0.4243506 -0.09135556 0.0006659306 -0.07978519 0.14175001 0.25416636 -0.5668206 0.46357018 0.68593055 -0.106943175 0.009374376 0.61539745 0.858692 0.28295842 0.68049604 0.2742848 0.31171024 -0.3591644 0.15502948 0.29878294 0.58882296 0.39667216 -0.24198467 -0.22806738 0.33930212 -0.7620379 0.2668697 -0.13138664 -0.23696718 -0.11574912 0.118462294 0.17200863 0.18665496 -0.028456096 -0.10565919 0.43264988 -0.4420825 0.11109304 -0.3251713 0.34438482 0.017847808 -0.5653104 0.3132282 -0.42061627 0.15258805
temperature -0.3483679 0.17915486 0.42533946 0.027096998 -0.19400135 0.2131363 -0.294075 0.37231454 -0.021508673 -0.34469038 -0.013354215 0.49626467 0.031057084 -0.16060978 0.17683558 -0.573458 0.25388992 -0.043952484 -0.09362165 0.26364195 0.23142923 -0.5954095 0.30399275 -0.13901876 -0.15640453 0.010789657 0.30671155 0.014381486 0.403497 0.5082981 -0.55747116 -0.18909758 0.13332959 0.26197773 0.30635098 0.797937 -0.052135773 0.13744327 -0.23590574 0.11245791 -0.4269703 -0.0021675588 0.16221437 0.37755683 0.12474108 0.05502925 0.3485512 -0.12499249 0.3038308 -0.18143746 0.13030595 -0.27091977 0.5103472 0.15388171 -0.15482919 -0.32510787 0.34703046 -0.21610063 0.11052442 0.054713197 0.25001454 0.60483587 -0.22327055 -0.604895 0.13769035 0.25899407 0.062124353 -0.83449227
indicate -0.17421731 0.20090927 0.5555469 0.024713311 -0.19109206 0.11391797 -0.50989187 -0.050331406 0.16711798 -0.1598293 0.36651045 0.40525952 -0.03543197 0.3457326 0.151719 -0.07859595 -0.32815623 0.11357376 -0.14403704 -0.14846098 0.0075912885 0.19540767 -0.28286532 0.06333906 -0.102369554 -0.25382674 0.1885454 -0.18612202 -0.072754055 0.42229235 -0.0028019205 0.026593933 -0.190573 0.2959526 0.31943288 -0.36743736 0.23194005 -0.17075938 -0.053875722 -0.07470631 -0.60969746 0.24809413 0.26186 0.24498062 -0.0011218006 -0.3203324 -0.037755262 0.0066171912 0.038651593 0.07159559 -0.40149823 -0.047100715 -0.37747315 -0.28785232 0.031974524 -0.12213197 0.5925579 0.10309428 0.33315283 0.15495528 0.21840826 0.105727136 0.18378937 -0.312628 0.24682844 0.011046737 0.074497595 -0.22455084
4 0.28467315 -0.045130517 0.085159145 -0.4254303 0.16867582 0.27555346 0.34780926 0.76110816 0.17196211 0.0017707194 -0.4097202 0.50817955 -0.07717187 0.56694597 -0.19860321 0.0012161201 0.23158556 0.058726028 -0.38306534 0.22417416 -0.17775048 -0.23745796 0.09735621 0.015857575 -0.19805399 -0.17303656 0.022030061 0.4079193 0.40147415 0.04940446 -0.45383736 -0.32135344 -0.13012537 0.37016663 0.45071355 -0.17470309 0.3046316 -0.2667884 0.4331432 0.51585627 -0.1185114 0.0025112738 -0.10027617 -0.27859306 -0.022059834 -0.27506548 0.64421904 -0.09643436 -0.41400596 0.16657546 0.16907199 -0.17219524 -0.4153113 -0.33726156 0.0008007485 -0.15918365 0.060572945 0.073241554 0.14483747 -0.27119824 0.05580102 0.06868895 0.02919341 0.75892204 0.0010030707 0.29918975 -0.01523605 0.0022236253
mine 0.030982347 0.42337665 0.38616207 -0.31046367 0.11778539 0.2279075 0.36001188 0.056440055 0.29471985 -0.3899804 0.4497558 0.49801755 -0.005407467 0.05809372 -0.12343642 -0.11077821 -0.40946946 -0.042203117 -0.12932369 -0.08849582 -0.21066369 0.1283102 0.49362424 -0.38222435 0.32455897 -0.35809872 0.12347812 0.16124605 0.05550674 0.16788377 -0.32828745 0.25274995 -0.04666396 0.2692722 -0.12833522 0.047040585 0.32135835 0.13363643 0.68989855 0.3810592 -0.1536784 0.14771982 0.3448454 -0.6616889 0.7697119 -0.53858274 0.27669135 0.33110008 -0.314737 0.005167021 -0.6312569 -0.059526615 -0.35427633 -0.2978243 -0.14908803 -0.27288482 -0.333049 -0.02844388 0.5155342 -0.18116093 -0.026300756 -0.09355708 0.07261622 0.22173229 0.08077964 0.08697334 -0.27591407 0.05163798
inclusion 0.31160617 -0.48602605 -0.18751325 0.23089343 -0.15540767 -0.009592043 -0.24050249 0.21298821 0.5647696 -0.66269463 -0.60661304 0.09328084 0.11171923 0.02967623 0.4671494 -0.29164565 0.39023522 0.05311841 -0.28096586 0.16979687 0.3922132 0.09134962 0.5918467 0.46653605 -0.7022151 0.9431733 -0.56904787 -0.023044167 0.13098368 0.3036487 0.1474382 0.1728832 -0.12896056 0.099084966 0.61406714 -0.7685109 0.3967654 0.086960256 -0.22800463 0.3737957 -0.37327176 -0.029537203 0.113500535 0.012208849 0.2738919 -0.060843278 -0.20258078 -0.21101381 0.16728327 -0.19636992 0.04903114 -0.52926415 -0.14273748 -0.025390988 -0.21871081 -0.13569747 -0.010005298 0.31778026 0.2464972 0.16263822 -0.76384 -0.18104713 0.28297952 -0.6877774 -0.1536826 0.6101005 0.21680532 0.043547906
: 0.28653044 0.41539073 -0.2536528 -0.14650556 -0.1475807 -0.4061455 -0.48707667 0.12698615 -0.08250386 -0.62641335 -0.046539508 -0.33304358 -0.21382906 0.55397815 0.20947044 -0.012905732 -0.063260324 -0.4734137 0.18004487 0.31438872 0.078042015 -0.23271795 0.24835357 0.4726362 -0.44149658 0.41516498 0.27139127 0.6641802 -0.057551615 0.18649557 0.054332137 0.21204548 0.4109345 0.54132974 0.47176132 -0.20851585 -0.076770686 -0.28214365 -0.2582218 0.08970688 -0.42508706 -0.22752433 -0.19960225 -0.24828234 0.10796562 -0.08905839 0.12725744 0.4474271 0.21195117 -0.1845816 -0.34030467 0.27072886 0.11391517 -0.38396645 0.00011006293 -0.05143165 -0.07304946 -0.17479207 0.07177149 -0.31013212 0.51359946 -0.033396285 0.06321034 0.16741963 -0.39520994 -0.0895898 0.27681187 0.09747812
form -0.5488038 0.0016186831 0.42029327 0.06907947 -0.2639678 -0.08990955 -0.37767398 -0.043838646 -0.37942874 -0.44070292 0.32659796 -0.023269536 0.046685826 0.14425394 -0.011922685 -0.19695175 -0.38423324 0.034098536 -0.21855515 0.55693936 0.0688534 -0.15934594 -0.043125786 0.14845358 -0.21949525 0.20318212 0.02228471 -0.12637378 0.19815142 -0.28319106 -0.15161708 0.21918477 0.015499076 0.2318124 -0.045128524 -0.42509258 -0.094871 0.5255054 0.24658306 0.2527369 -0.29873106 -0.18545887 0.18108355 0.069846205 0.016472498 0.16777335 -0.29573485 -0.39174005 0.04509459 0.09799934 -0.4797051 -0.019857585 -0.13361046 -0.1131426 0.22564061 -0.26978496 -0.019937487 0.69039756 -0.03800472 -0.13113424 -0.07220912 0.15161459 0.3297783 -0.1984677 0.62208587 0.11936869 -0.44912744 -0.26258028
isotopic 0.25226697 -0.2730786 0.5194059 -0.36600974 -0.08934912 0.40743792 -0.32428554 -0.12453795 0.034362104 -0.71254224 0.18858585 0.01072714 0.009629773 0.3171879 0.08862162 0.38052872 0.019826315 -0.52035815 -0.031548794 -0.15465482 0.42894796 0.07758551 -0.028410926 -0.6671916 -0.58079815 -0.1948784 0.09408648 -0.64937204 0.60837054 0.60551983 -0.46142668 0.22470644 -0.029735032 0.44109908 0.39364508 0.7443736 -0.06554514 0.4409086 0.146595 0.08904626 -0.30377805 -0.048134994 0.33567613 0.87126786 -0.30277765 -0.5186978 -0.16008565 0.12499302 -0.575759 -0.04620483 -0.6369127 -0.38021612 0.26571548 -0.06797633 0.09245966 -0.10158694 0.25887623 -0.31796095 0.25531745 0.21594846 0.17895572 0.58750844 0.4490279 -0.28510436 -0.3204275 0.04766414 0.0043438794 -0.12036701
contain 0.5398225 0.01950278 0.13366722 0.030944273 -0.17756575 0.11641672 -0.08357078 0.08926733 -0.20228752 -0.37753192 -0.1921067 0.08483477 -0.2696102 0.31785917 0.1148646 -0.11595304 0.13377413 0.15730391 -0.54008585 -0.32135072 0.005309905 -0.013453072 0.0443084 -0.10462303 -0.44884259 0.08470946 0.4732261 0.17905588 0.13019222 0.39598975 -0.010873185 0.21753646 -0.052335687 0.024198782 0.5303776 -0.34857535 -0.10451709 -0.060671236 -0.044164088 0.53646725 -0.47387812 0.1347134 0.17866164 -0.2912717 0.4272452 0.11134859 -0.7735324 -0.27505872 -0.20636249 0.15345487 -0.12724027 -0.41351932 -0.38526148 0.044524528 -0.066636264 0.060467973 -0.2751055 0.35320458 -0.10434139 0.08679744 -0.22975339 -0.13399765 0.08893568 -0.33485255 0.013374651 0.6485299 0.011140249 0.49935493
pyrite -0.03259433 0.1292486 0.13820311 -0.58014333 -0.52346957 -0.15758553 -0.24662174 -0.3975119 0.30098003 -0.0061016064 -0.25342563 0.3714258 -0.4726064 -0.10261144 -0.30131835 -0.42055157 0.43413392 0.17912638 -0.20639542 0.16163304 0.3754859 -0.03946679 0.40691304 0.340486 -0.19680761 0.14956121 0.2850748 0.13410142 0.16556448 -0.4643094 0.73207825 -0.101707615 -0.7346438 -0.26020265 0.6025092 0.6123523 0.12102775 0.41222066 -0.35668826 -0.4247899 -0.3126087 -0.34496307 -0.11253658 -0.33598757 0.3752264 0.0044644405 0.017922692 0.45613733 -0.3486829 -0.12235534 -0.14204787 0.11839635 -0.7163307 -0.17749678 0.23398964 -0.2159614 0.3478832 0.36590564 -0.076867975 0.012150886 -0.21217747 -0.13202164 -0.23493022 -0.12396136 -0.035057552 0.71350336 -0.4530203 -0.54482067
plagioclase 0.3800444 0.28006366 0.16140503 -0.4666134 -0.116840206 0.2298468 0.19155045 0.18232965 0.15515755 -0.11527782 0.013287544 -0.12095984 -0.43475676 0.020207172 -0.12298442 -0.46397007 -0.11761195 0.11005626 0.29914793 0.23404273 0.28561154 0.0029327364 0.055978116 0.24454792 0.14581697 0.3537242 0.14057367 -0.024103684 -0.13455193 -0.055379566 0.19714294 -0.24586995 0.45296076 -0.74287397 0.35939282 -0.32189906 -0.17266418 -0.2788598 0.17076899 0.41308555 -0.5191593 -0.17257152 -0.04299706 -0.040279627 0.5415578 -0.1767921 0.3159527 -0.041327655 -0.008881741 0.28463763 -0.53255415 -0.69218594 -0.19018863 0.004513243 0.19842471 0.0929637 0.6878813 -0.07104619 0.24484201 0.24437562 -0.035407424 0.0014340471 0.4749497 -0.17785585 0.043040182 -0.00029621884 -0.21037018 -0.5251766
phase 0.75891197 -0.09664006 0.082543366 0.069539666 -0.051245008 0.4136332 -0.21596488 -0.25643873 -0.09154045 -1.0138032 -0.25728804 0.1104001 0.08230157 0.07450152 0.47652432 0.4816579 0.066785865 -0.07179625 -0.21669541 0.109163806 -0.22392774 0.1826551 -0.020960651 0.033790056 0.14675224 0.19801545 -0.8084851 0.093787946 0.099349044 0.27128184 -0.23323737 -0.29907274 -0.23039013 0.2810108 0.5000502 -0.3436901 -0.4459935 0.5197197 -0.035059653 0.3162381 -0.3045103 -0.5354956 0.57687426 0.47562438 0.40928504 -0.27336615 -0.3376476 0.2849157 0.3055663 0.2667993 0.004574227 -0.15327129 -0.21990572 0.34692615 -0.14107855 0.27360553 0.031131525 -0.23960416 0.3765081 0.1349143 0.24933004 -0.3991496 0.4708138 0.008730791 -0.20673896 -0.42638206 0.16829091 0.0104515655
show -0.0075591737 -0.17673245 -0.47798583 -0.14014553 0.25450188 0.27064717 -0.4067929 0.24119066 -0.22309054 -0.48428887 -0.05669568 0.28166074 0.2702599 -0.23528247 -0.13465552 -0.25064573 0.059078753 -0.38211164 -0.5644319 0.20870128 -0.26819748 -0.25917885 0.04447831 0.080853686 -0.013198744 0.3603897 -0.43864197 -0.32802948 0.17410256 0.34826648 -0.13031541 -0.028805308 0.30717698 0.21106757 0.5135158 0.21271467 0.21547002 0.106017806 0.3232053 0.06266395 -0.1866502 -0.1572267 0.025659593 0.40508944 0.34152806 -0.3957104 -0.19636664 -0.11556404 -0.29063922 0.06898745 -0.204998 -0.26634252 -0.0020957252 -0.06410661 0.061833072 0.20946059 -0.34906816 0.47986042 0.2569264 -0.0023125194 -0.26699972 -0.07045666 0.10663088 0.08908661 0.019076895 0.25060186 0.0074531897 -0.2370018
part -0.44159526 0.96346647 0.15546313 -0.12342937 0.101954095 -0.18479799 0.1251793 -0.24665071 0.17234905 -0.3590068 0.5345234 -0.109990925 -0.44680658 -0.15142378 -0.43529907 0.34373218 -0.14439452 0.13080777 0.11720398 -0.4234419 0.67108786 0.22326091 0.64513636 -0.1903002 -0.26937085 0.25093085 -0.24742277 0.008508222 -0.27502602 -0.24769203 -0.45071736 0.31668702 -0.10258852 -0.005603376 -0.06595313 0.046058897 0.13679427 0.34336045 0.3211936 0.19494437 -0.031717822 -0.37552837 0.04019983 -0.0674954 -0.23087753 -0.09713505 0.101128556 0.14088392 -0.06645657 -0.37745678 -0.018010687 -0.045968138 -0.24303298 0.3228391 -0.25485888 0.2593941 0.25283757 0.11841039 0.6254559 -0.23040888 0.26442403 -0.22848758 0.6534848 -0.027412627 0.03245592 0.35891253 -0.035633452 0.35848647
- -0.039285395 0.018772803 -0.08871042 -0.2557481 -0.39408123 -0.5019849 0.22012512 0.1341103 -0.539747 -0.109228075 0.42964455 -0.22532354 0.042932034 0.22439474 -0.0012784231 -0.6027951 0.037721258 -0.17443623 0.27597648 -0.31176654 0.2933186 -0.7459088 0.19014263 0.13045685 -0.009513336 0.35389936 0.37073112 -0.278446 0.13828364 -0.5166025 -0.09736204 -0.3317691 0.017693484 0.3100888 0.48013505 -0.26275834 -0.06446044 -0.026958045 -0.54755545 0.19167544 0.16833963 -0.19049859 -0.1462971 0.021457952 0.2751482 -0.07538612 -0.25272048 -0.06409994 -0.049859088 0.22903246 -0.7558729 -0.10165403 -0.23729002 0.430254 0.15404515 -0.4087446 -0.052115425 0.011226228 -0.008267055 0.29827276 0.0335105 0.2528515 0.47638932 -0.19923161 0.37176698 0.4783041 0.30075938 0.030438403
present -0.24587753 0.40058517 0.035493866 0.009684811 0.3419287 0.61398727 -0.055782985 -0.10628498 0.22841577 -0.46397445 -0.17909822 -0.19307058 -0.1862826 -0.010654921 0.6111011 0.16720425 0.41734195 0.10365308 -0.060719687 0.29525018 0.1878402 0.36998683 -0.056959953 -0.18583806 0.04042485 0.29541144 -0.047332507 0.4371275 0.28350428 -0.09803786 0.045771122 0.2924968 -0.007084717 0.065689325 0.6270185 0.012376078 0.28396747 0.11483637 0.046168238 -0.25209928 -0.3310525 -0.37364307 0.27618632 0.16087031 -0.09577419 -0.4853844 -0.100984536 0.28401688 0.24436216 -0.14560676 0.12594607 -0.03445997 0.09906607 0.005082709 0.3654648 0.11292147 0.28517714 0.1330684 0.011428525 -0.43158337 0.4190378 0.04871835 0.26530796 -0.31798545 0.2582914 0.23190826 -0.73584723 -0.22092511
2002 -0.5026705 0.44968423 0.03856441 -0.07328848 -0.20754656 0.23481064 0.070633054 0.13403314 -0.16736159 -0.6144806 -0.3764467 0.28249565 -0.38440734 0.6480405 0.13702825 -0.06772166 -0.2843265 -0.18189262 -0.35133147 0.14163509 0.15720014 0.08858751 0.016452385 0.44558227 -0.4997233 -0.25219983 0.4707136 0.8725969 0.23232973 0.1688223 -0.29695794 -0.34129307 0.07699914 0.60411835 -0.0063988194 0.1383586 -0.18298633 -0.027833235 0.33246064 0.07403887 -0.09447881 -0.025536444 0.6139474 0.28504795 0.22951387 0.023624562 0.11545374 0.31759098 0.1695812 -0.060889702 -0.4410365 -0.26182756 -0.16719994 -0.061412863 -0.35161698 -0.2808859 -0.47597277 -0.24251711 -0.566797 0.17128554 -0.15112893 -0.4268365 0.59343046 0.117452316 0.13054907 -0.23625158 -0.04089806 -0.0020402148
dike -0.25254956 0.15570295 0.13454744 -0.17033266 -0.1511354 -0.52750784 0.41355675 0.060710724 -0.44376677 -0.66354066 0.07757312 -0.14964199 0.017831186 0.39757568 -0.1002482 0.08036458 -0.6751186 0.14914517 0.16255853 0.054820273 -0.030188957 -0.28540653 0.0013723988 0.13356292 0.49022007 0.061926212 -0.020602634 -0.1264931 -0.055953544 -0.2145056 0.21581146 -0.09297894 -0.20671214 0.23166654 0.09866195 0.378385 -0.19018587 0.08544601 -0.4459915 -0.04352969 -0.6668829 -0.21306048 -0.16247799 -0.028753197 0.44852158 0.42374974 -0.048055355 0.51906955 0.24471498 0.32724574 -0.413387 0.019306567 -0.6476171 0.016470289 -0.52249 -0.3751071 0.10399168 -0.67909527 0.31770012 0.33263296 0.08944818 -0.04705469 0.44177154 -0.030048989 0.009311248 0.7195616 0.08975099 0.085047826
unit -0.47642243 0.16825908 -0.4779753 -0.6146437 -0.15388092 0.21741086 0.20347887 -0.02384417 0.5648739 -0.7670227 0.44172904 -0.27100256 -0.38766453 -0.23180772 -0.06896988 0.46549538 0.18461737 -0.27782348 0.009904407 0.1520738 0.44643274 0.36267656 -0.12211953 0.31782922 -0.34737515 0.08128016 -0.13401945 0.28036946 -0.8321908 -0.030399472 -0.16156822 0.42099607 -0.4653185 0.63177943 -0.006990449 0.19279346 -0.14678086 0.106571056 0.051307276 1.137925 0.029333387 -0.4226105 -0.13639857 -0.31978452 0.25803688 -0.63001364 -0.21094939 -0.33590546 0.109476015 -0.23233977 -0.163664 -0.0803528 -0.25047058 -0.082398385 0.25714058 -0.062030345 -0.2877439 0.42819053 0.40847954 -0.024709182 0.7618018 -0.24813193 -0.13414787 -0.016990533 0.03995326 0.604476 -0.38089463 -0.7127887
clay 0.27480188 0.26405853 -0.2062433 -0.48557985 -0.08506455 0.5664944 -0.13158154 -0.12787642 0.5172152 -0.5379143 0.38718012 -0.5373017 -0.74351907 -0.24285239 0.20832233 0.13588996 0.23412487 -0.15722354 -0.2951437 0.14004914 0.4384368 0.000830554 0.014245615 0.08591915 -0.7333589 -0.21773347 -0.1237979 -0.15394394 -0.19146422 -0.10849238 0.4642723 0.2834998 0.094894454 -0.0035890155 0.32628664 -0.039514363 -0.012771526 -0.067023315 0.0037794616 0.18945885 -0.13206974 -0.5690286 -0.19056477 -0.047161587 0.091922455 -0.26479506 -0.26722732 0.04361926 0.70467657 0.017080376 -0.42033398 -0.38547143 -0.24784908 -0.38250396 0.47276765 0.07024617 0.046050403 0.66512907 0.20240359 -0.5210303 0.82653624 0.35924146 0.48706016 -0.08353719 -0.5966812 0.2510811 -0.25403717 -0.9682906
volcanic -0.21114737 0.4493885 0.28760386 -0.35483605 -0.09118287 -0.06133158 -0.10230801 -0.21452783 -0.74086934 -0.1929235 0.08196287 -0.24207598 0.061901845 0.787253 0.23678324 0.29259473 0.035603162 -0.12540385 -0.34909064 -0.8477743 -0.5120882 -0.6077275 0.2975132 0.07880178 0.32248744 0.36599016 0.15904067 0.33584085 0.34964234 -0.429029 -0.47071528 0.18673086 -0.5947377 0.23487045 0.34115598 -0.2813779 -0.4281941 0.32863638 0.7575392 0.3767381 0.17772506 0.13637748 -0.5223141 -0.07595797 -0.32859656 -0.35457093 0.09025389 -0.028996678 0.14658593 -0.35467124 0.006358115 -0.34482113 -0.327859 -0.1443416 0.42973348 -0.10811076 0.11669522 0.46174493 0.68394166 0.823682 -0.28137064 0.038681563 0.10920646 0.51335883 0.20008421 0.3264369 -0.1300139 -0.26129946
caldera -0.1379693 -0.11494534 -0.004296763 -0.24296765 -0.56206656 0.104118034 0.7054609 -0.12635346 -0.17892233 -0.36622113 -0.033343386 -0.4257331 0.055934213 0.65534884 0.283944 0.5870714 -0.7094401 -0.1038149 0.0678023 -0.08791797 -0.2494489 -0.25333223 0.20789151 0.44004974 0.79417366 -0.37083915 0.67858213 -0.17855538 0.35923538 -1.049901 0.23519558 0.3048983 -0.17502443 0.30695683 0.92640364 -0.29872325 -0.15311135 0.11329456 0.33217296 0.17202973 -0.37641823 0.3410318 -0.31543636 0.12567012 0.20603289 -0.4751557 0.22260241 -0.105655104 0.1828426 -0.2955035 0.4658032 -0.47321296 -0.8335726 0.12989637 -0.7414442 -0.6647204 1.032616 -0.12983179 0.13427538 0.26274347 -0.06676748 0.15221344 0.116653055 -0.14705694 -0.123568036 0.71876305 0.28823167 -0.31229147
within -0.47627342 -0.081089474 -0.025075646 -0.23069109 -0.086771056 -0.49594608 0.14856134 0.49626648 -0.78262883 -0.07801518 -0.07187147 -0.025529275 -0.11338516 -0.032855194 -0.23924553 -0.05019778 0.056653135 -0.36123803 -0.2698209 0.29370376 -0.64020187 0.3427101 -0.14039092 -0.18667203 -0.03294185 0.4142466 0.14125088 0.15036203 -0.34902316 -0.17490463 -0.13132605 -0.16794871 0.08475471 0.35324782 0.04620415 0.0029202076 0.4817616 0.017074125 -0.096206516 0.05638563 -0.31392005 -0.07000614 0.18891898 -0.111028954 0.6760429 -0.23768863 -0.049415912 0.42189094 -0.10554652 0.19252592 -0.32487085 0.13379835 -0.38121098 -0.11505009 0.20589483 0.3907505 -0.07406565 0.2475461 0.088800915 0.21515353 -0.009391258 -0.0435623 0.03131882 -0.078058615 0.06666761 0.6029032 -0.022975408 -0.13591976
percent -0.15179552 0.7334395 -0.09676685 0.46363422 -0.045014676 -0.35650018 0.24316794 0.70088255 0.6986367 -0.41225263 0.19415294 0.45035267 -0.41850182 0.08095224 -0.030275887 -0.12922138 0.46232146 0.09696863 -0.7583998 -0.21032465 -0.073823705 0.2675652 -0.49268267 -0.8746131 -0.28676772 0.15765265 0.075494684 0.39770564 0.5112983 -0.14825672 0.41768125 0.011387028 0.655405 0.32098284 0.76177657 -0.074166425 0.16673812 0.031970866 -0.15307122 0.53250945 -0.93939376 -0.47659546 -0.06905096 -0.81188124 -0.40936643 0.0708184 -0.10780268 -0.022256037 -0.14472724 0.37645748 -0.20418912 0.2607863 -0.38870448 0.5629717 0.03026388 -0.028107187 -0.06752602 0.4471455 -0.019091656 -0.14215103 -0.32535294 -0.085184336 0.3470863 0.027802646 -0.35563552 0.23535201 0.11137088 -0.22182678
~ -0.0038853493 -0.23599443 0.1680277 0.2666815 -0.112945214 0.13598593 0.5385873 0.26949885 0.09591893 -0.5755299 0.36439407 0.20159039 0.02894603 0.20937845 0.085189335 -0.74212307 0.36238715 0.22970816 -0.024587192 0.13024187 -0.025220552 -0.5171681 0.18073717 0.0042576115 -0.08656501 0.42874834 0.6599244 -0.40170804 0.36581618 -0.78492624 -0.38642165 -0.5245473 -0.054263975 0.73949087 0.20015414 0.38428962 0.44456536 -0.095941804 -0.4194661 -0.6522123 -0.18585035 -0.19105588 0.6740379 0.26870075 0.1985851 0.22432554 0.5200697 -0.0014283496 0.0041147983 -0.12122596 -0.12118201 -0.2503567 0.09313311 0.19711095 0.12137006 -0.71593744 0.6938109 0.6893973 0.018250464 0.13370687 0.3249169 -0.059898812 -0.29803938 -0.21369448 0.044597395 0.26636955 0.60363454 -0.5269775
chrysocolla -0.09394978 0.39937553 -0.38531634 -0.5942127 0.052053038 0.58775073 -0.20767675 0.23846565 0.432256 -0.6950663 0.37214065 -0.29210573 -0.8373624 -0.32651323 0.27230448 0.5118761 -0.010540668 -0.50819033 -0.34934348 0.12074434 0.53632724 0.00088821154 0.1313271 0.14600536 -0.43263945 -0.19054535 -0.27579176 -0.09164063 -0.33531544 0.04187689 0.27619964 0.48039907 0.1502648 -0.2692099 0.238075 -0.032446705 0.18686973 -0.14642726 0.21808998 0.19986978 -0.10721965 -0.63239026 -0.43179923 -0.2895955 0.0042981273 -0.6742704 -0.4854003 0.20085493 0.9006098 0.0210752 -0.34431362 -0.3928474 -0.3004329 -0.39509305 0.5100216 0.49300113 0.070160635 0.5487263 0.07333753 -0.47442305 0.87066966 0.46171784 0.77359927 -0.08143413 -0.5239782 0.2663968 -0.03861447 -0.8739506
range -0.2273363 0.35638753 0.20152017 -0.31922612 0.19339618 0.067678094 -0.54155195 0.23498775 0.23103769 -0.6552354 0.1136809 0.3825962 0.22653909 0.29806057 0.054723304 0.113355555 -0.28483889 -0.49791786 -0.29335076 -0.52554095 0.038748585 0.1166144 -0.21449138 -0.4123354 0.37955362 0.34829864 0.31450102 -0.21742125 0.106154054 -0.19222596 -0.47745895 -0.10085915 -0.005592242 0.23650488 0.49812025 0.18398084 0.5758752 0.28634912 0.33926943 -0.22462529 0.3913046 0.3438294 0.22281364 0.21734916 -0.11123367 -0.22537902 -0.65234524 -0.13076717 0.0073832674 -0.26654324 -0.54753894 0.50343794 -0.28423342 -0.0029548886 -0.24624434 0.62288886 0.55628234 0.49315152 0.36013192 0.41846558 0.19062838 0.02551904 0.2678819 -0.06344103 -0.117157996 -0.094780736 0.1632467 -0.13869072
also -0.05024593 0.21997094 0.45205984 0.24587813 -0.011541012 0.13813911 -0.033052176 0.027657501 0.09321867 -0.19046435 -0.09053979 -0.18437402 -0.11878361 0.18254481 0.095012665 0.20565271 0.26174054 -0.047802817 0.14372703 0.28280348 0.2026407 0.42938226 -0.16490006 -0.091009036 -0.29110226 -0.43468893 -0.010789978 0.13777903 0.21401943 -0.0628486 -0.23607035 0.18259178 -0.03057982 -0.21051624 0.6129215 -0.088411 0.22297302 0.55745363 -0.15494947 0.07367949 -0.18225703 -0.37197238 -0.12064043 0.13156992 0.31553236 0.13590309 -0.26042813 0.03115422 -0.3314114 -0.40184605 -0.114479035 -0.8955816 0.3429486 -0.39290017 -0.094139956 0.054949425 0.24587768 0.45050964 0.3806501 0.24738118 -0.33029068 0.040759414 0.39258358 -0.056252863 -0.18009011 0.2375301 -0.529656 -0.15982564
minor 0.060504567 0.26375133 0.3815948 0.45987853 -0.30996072 0.10011061 0.19429213 -0.095978685 -0.17636323 -0.20964397 0.052296083 0.4448138 -0.4695366 -0.06328674 -0.12314299 -0.05074624 0.57770216 0.36421534 -0.23487933 -0.6264984 0.008710301 0.042553395 -0.0496739 0.34576464 -0.5136291 0.25961876 -0.24815018 0.045132335 -0.06710499 -0.31624597 0.49543813 0.24449204 -0.2000593 0.26121888 0.6217591 0.12347254 -0.22483447 -0.07002092 -0.06721075 0.26410168 -0.063250564 0.305838 -0.24911636 -0.03366879 0.58446145 0.21687214 0.036695544 -0.02031337 -0.22093056 0.7849823 -0.241941 -0.006614438 -0.21823217 -0.07564664 0.24699768 -0.17881404 0.53099954 0.44579855 -0.11272643 -0.07491071 0.07368244 0.0731418 0.6398187 0.3109643 0.01326428 0.69258547 -0.3876464 0.10069782
andesite -0.5781181 -0.035443053 0.13563032 -0.41605523 -0.6370081 0.01800297 0.37684467 0.3724693 0.22002836 -0.060226843 0.53082335 0.20095468 -0.07796592 0.4495128 -0.27338144 0.13571331 -0.11985984 0.20753093 -0.5406453 -0.29027393 0.010283879 -0.05030014 0.53282565 0.014554352 0.063416824 -0.3053153 0.015398552 0.22305125 0.062166333 0.2804737 -0.49466434 -0.26409873 0.09381191 0.359975 0.14128098 -0.1519742 -0.5189641 -0.48986208 0.8509079 0.57308596 0.1516732 0.25331354 0.40735483 -0.6831362 1.0053436 -0.5817456 0.048395373 0.23473264 0.18875207 -0.2960689 -0.41612473 -0.17782329 -0.7340583 -0.14911847 0.8607903 -0.09771285 -0.46025437 0.10870444 0.8194816 0.94439423 -0.2803137 -0.9394409 0.2030823 0.8363857 -0.18530379 0.14672267 0.036823213 -0.084543504
fractionation -0.058123406 -0.19002631 0.6273577 -0.29782024 -0.5215287 0.3199134 -0.55890113 0.044316422 -0.083305866 -0.42951736 -0.07188839 0.005133104 0.5135091 0.06665373 0.35983247 0.446933 -0.19963446 -0.38541886 0.047181483 -0.035988532 0.6075795 -0.08466162 0.068339415 -0.2920201 -0.82822317 -0.34333876 0.28211853 -0.20911221 0.41018766 0.03870594 -0.26019907 0.002728463 -0.0590831 0.39500734 0.29270405 0.8807171 -0.120165214 0.5639552 0.35053757 0.17587933 -0.63185 -0.6022829 0.2282577 1.2255399 -0.15010142 -0.7370381 -0.19379738 -0.138266 -0.86454093 0.33029863 -0.5279424 -0.4138926 0.10060618 -0.20017111 -0.29703835 -0.02900892 0.15703653 -0.3305206 0.1560195 -0.0025633383 0.57728076 0.12448341 0.4848896 0.12074765 -1.0490773 -0.05063392 -0.31092882 -0.17426425
total 0.29992697 0.77972704 -0.5822373 -0.099400304 -0.28799933 0.09755399 0.104041725 -0.043471217 0.16139634 -0.45106062 -0.06515056 0.5613796 -0.30180237 -0.16388705 0.6051828 -0.2667231 0.09227014 0.10448537 0.12145729 -0.40250468 0.31809503 0.08901153 -0.18822892 -0.4103706 -0.23419961 0.67845625 0.4340146 0.27135304 -0.42851987 -0.024046393 0.7332628 0.13536538 0.73729366 0.6657255 0.40414044 0.24829753 -0.022694139 -0.28633463 0.3140269 -0.19728214 -0.39435267 -0.354906 -0.21019691 -0.23411317 -0.50509036 0.021738483 0.109125644 -0.21735333 0.0013469347 -0.17520157 -0.090919495 -0.15184331 -0.66375387 0.028411644 -0.47223365 -0.63726306 0.1690608 0.8216188 -0.053798452 0.18287733 0.3317547 0.039900154 0.17681246 -0.20267057 -0.34886393 -0.1071571 -0.06978692 -0.4391978
include 0.68707925 0.16167864 0.6251493 0.093913734 0.046142157 0.22282422 0.094027855 -0.11604647 -0.064651005 -0.023112426 0.33962122 -0.39618823 -0.28041145 0.18820041 -0.026702464 0.4815034 -0.26050043 0.020698965 0.35765582 0.19626755 0.1141551 0.10871093 0.22069822 0.47262487 -0.7228872 -0.393617 0.14976041 0.13242836 0.055819783 0.024935631 -0.11076289 -0.13950892 -0.26538548 -0.002149052 0.23428683 0.22292492 -0.30623838 0.11548894 0.36481944 -0.4458473 -0.46784154 -0.0753999 0.0005048826 0.13255383 0.44454128 -0.04832834 0.40615478 0.045061827 -0.11352989 0.19248609 0.012278182 -0.13512327 -0.45861557 -0.49551752 0.057540234 -0.5068256 0.07111779 0.15034842 0.21207982 0.1629166 -0.16027552 0.3870403 0.47781736 -0.3508536 -0.50358295 0.15476544 0.13937157 -0.16142423
skarn -0.28988805 -0.029829945 0.6906685 -0.17351106 -0.27735177 0.5114909 -0.06496821 0.2838782 0.2223367 0.3705624 -0.26393774 0.77895635 -0.21013123 0.011415729 -0.17141335 -0.02316692 -0.5942258 -0.06405475 -0.15960461 0.13038947 0.284026 0.154253 0.11408073 -0.6271169 0.019440504 0.17164665 0.24757436 -0.08003678 -0.045391206 0.13606535 -0.26043025 0.08213151 0.12731972 0.2888344 0.18294393 0.5163697 0.4427407 0.61165494 0.7106771 0.24811155 -0.077467285 0.122712806 0.37880915 0.57630336 -0.42209366 -0.30179715 0.012741311 0.15294021 -0.2532238 0.28542957 -0.7873247 0.0632747 -0.37438402 -0.43609804 -0.028068965 -0.014032526 0.4947804 0.46117058 0.36530706 -0.28761923 0.19830514 0.11514381 0.3561063 -0.7093146 -0.35696238 0.8029173 -0.07939931 0.2810521
may -0.65051746 -0.19447213 0.84432036 0.09480748 0.08298673 0.3093557 -0.40133274 -0.4091632 -0.2728525 -0.28014785 -0.39213926 -0.035545845 0.29763347 0.14218949 0.33609006 0.19499764 0.10568465 -0.15957053 0.4479587 0.1632992 -0.007988887 -0.2312194 0.47352263 0.09467138 -0.022442602 0.59044707 -0.11586459 -0.20307383 0.6092695 0.5513714 -0.04931261 -0.35582694 0.02924499 0.6026775 0.517847 0.15737544 0.098644055 -0.002385755 0.2672766 -0.12761928 -0.6496456 -0.29489705 0.29716143 -0.0072474647 0.11895565 -0.22161305 6.112244e-05 -0.05448505 0.126524 0.28956774 -0.04893484 0.21410954 -0.020824604 0.055422194 0.040995087 0.14928855 -0.0020023785 -0.45557052 0.3175819 -0.2531756 0.5988732 -0.049813572 -0.12513742 -0.4200497 -0.21908589 0.3423768 0.13318603 -0.45451924
δ65cu -0.62241596 -0.48104474 0.5296819 -0.64968497 -0.30906186 0.23814213 -0.15141283 0.4011395 0.45986956 -0.28101742 -0.46127498 0.5381863 -0.15753728 0.05254877 -0.18197198 -0.25716162 -0.69537044 0.09167615 0.015255103 0.40547284 0.29422748 0.25888848 0.032622214 -0.2545339 -0.06582205 0.12016183 0.768872 -0.18692572 0.388409 0.09800775 -0.45969975 0.37278917 0.11595804 0.36635038 0.20832069 0.64240366 0.18520904 0.685043 0.039672058 0.051416535 0.26553568 0.042599395 0.3518046 0.81316215 -0.64044434 -0.38656425 -0.22220618 0.3762095 -0.4957094 0.17648478 -0.72287595 -0.1665881 -0.4205934 -0.3487386 -0.6299319 0.6006713 0.58518857 0.21264617 0.6082624 -0.17923698 0.693018 -0.24157615 0.42154112 -0.1973651 -0.59121865 0.7468374 -0.428601 0.31975847
alunite 0.11748796 0.28886783 0.3564241 0.15564722 -0.6463844 -0.23308313 -0.20288667 -0.23337105 -0.1287967 0.33055177 -0.37959647 0.18159506 -0.24119121 0.5364248 -0.4684846 -0.014647806 0.3227846 -0.2835687 0.07869275 0.13179624 -0.5722191 -0.7719606 -0.018544879 0.41399065 -0.21042176 0.4179529 0.25848454 -0.76548207 0.5300317 -0.54381585 -0.42556098 0.49555573 0.002776512 -0.3266438 0.5248804 0.029974313 -0.1228735 0.0409571 0.1624422 0.1358126 -0.18122256 0.19906348 -0.6002788 -0.08435315 0.23514359 -0.083165124 0.25355572 0.18207066 0.1330686 -0.682928 0.35056743 0.029197827 -0.84903806 -0.40832937 0.1887838 -0.14583267 -0.19783261 0.41590312 -0.14726703 -0.18730359 -0.24870078 0.2224279 0.32226735 0.1732294 -0.22538339 0.813572 0.30262625 -0.5916534
two 0.028729847 0.011380293 -0.4252717 -0.25886586 0.36860907 -0.03459501 0.0011664624 -0.14728715 -0.156717 -0.62787753 0.3230079 0.028411001 0.22777632 0.0054336465 0.2543017 0.1762471 -0.19453162 -0.23089036 -0.37493202 -0.09793743 -0.6835651 -0.2887672 -0.11673586 -0.46322656 -0.069749095 -0.01016959 0.14344038 0.37201038 0.033433586 -0.6595768 -0.6218119 -0.23118046 -0.15303306 0.12348135 0.42285964 0.37456307 -0.15383804 0.41417044 0.059162352 0.102374114 -0.3384664 -0.32267192 0.5756167 0.134089 0.25087473 -0.37722558 0.39573303 -0.042199627 -0.10858727 -0.2680742 0.041651133 -0.039208706 -0.34276485 0.213889 0.3962564 -0.34069237 -0.27832037 0.09891953 0.38493514 -0.6571958 -0.009598181 -0.29951248 0.0016822575 0.029940102 -0.14438051 0.17142454 0.2530202 0.27524948
5 -0.25922683 -0.019915674 0.35694993 -0.0908107 -0.15551805 -0.026229614 0.13703439 0.4602251 0.5224472 -0.3522459 -0.17970754 0.07141467 0.19308262 -0.050144475 -0.38701528 -0.37741494 0.5892487 -0.25447333 -0.014955749 -0.09088698 -0.102739446 -0.21713367 -0.49757138 0.24711783 -0.40893114 0.6909323 -0.53509456 0.28615314 0.40626773 0.03157235 0.12516922 -0.6023892 -0.27668053 0.5830392 0.39459175 -0.23183852 -0.023445353 0.33883443 0.27095246 0.64710426 -0.21355271 0.39523125 -0.29831025 -0.58491856 0.28800225 -0.2237189 -0.14265682 -0.34873492 0.19633761 -0.022406386 -0.11205456 -0.20473902 0.07746213 -0.16164556 0.28025836 -0.009002621 0.4441765 -0.0065703886 -0.0768711 0.30319616 0.02298284 0.21131669 0.12667406 0.435882 -0.31173864 0.5139319 -0.36475098 0.13648221
distribution -0.027578002 0.20243077 -0.3411321 -0.31939456 -0.15015067 0.08852624 -0.30736166 -0.114485174 -0.05041034 -0.9648398 0.20779599 0.30216655 -0.2741892 0.038773075 0.03189704 -0.48175254 -0.36328313 -0.081636555 0.0084842425 0.24083544 0.2983598 0.2430094 -0.28863883 0.08384587 -0.35619193 0.20524625 -0.18554284 0.46244654 -0.35477102 0.11830004 0.6009154 0.46569517 0.004304964 0.3382038 0.5810581 0.052848708 0.09226239 0.2170129 0.4051542 -0.10977767 0.13655977 -0.16251196 -0.30192524 -0.09377207 0.17946681 -0.73448294 -0.13130209 0.055887505 0.32543513 -0.5254416 0.08397211 -0.2616048 -0.15160204 -0.103611946 -0.08978861 -0.48351118 -0.36265194 0.11150622 0.30971506 -0.62361026 0.48964435 -0.052033693 0.076713264 -0.14793961 0.55691785 -0.048979465 -0.36825708 -0.27462587
casino 0.012100484 -0.68255526 -0.055340335 -0.73575544 0.011737568 -0.13815026 -0.31773448 0.1924415 -0.160008 -0.78401667 -0.36530837 -0.08245962 -0.44611767 0.15085404 0.025857737 0.24286671 0.24610555 0.28753877 0.19951493 0.44747666 0.5989267 0.6214534 -0.31722906 -0.17612714 0.31045064 0.4461493 0.5507093 -0.56179863 0.19259663 -0.37886745 -0.753486 -0.2529814 0.1484757 0.21530713 0.4964989 0.051824186 0.24825428 0.2044245 0.652979 -0.890285 -0.23092939 -0.38403985 0.33560547 0.17798693 0.54716367 -0.39634627 0.5477263 0.80106807 0.17900507 -0.2744611 0.5188019 -0.093470976 -0.01038558 0.22303133 0.10381713 -0.106281005 -0.14652897 1.3049828 -0.029413762 0.29250026 -0.26728317 -0.19069938 0.32789844 -0.3942975 -0.53116006 -0.3512125 0.4548358 0.4640303
base 0.2077649 0.2978974 -0.057684086 0.34455267 0.16912219 -0.17094441 -0.3799985 0.18302944 -0.33135796 -0.10536422 0.19586445 -0.021451402 -0.15992719 0.27455446 0.62291414 0.41491872 -0.37696365 -0.02973005 -0.66740936 0.45012623 -0.19716163 -0.028439937 0.03999855 0.10065012 -0.32888764 0.1806578 -0.23734693 0.3693452 -0.073543146 -0.24778683 -0.32608983 0.34148744 -0.27207497 0.2275543 -0.3469789 0.06952467 -0.3194389 0.37224138 0.11399022 0.3624017 -0.05991358 -0.5017424 0.4678316 0.3392642 0.63867855 -0.4190566 -0.23545296 0.3254139 0.1797219 -0.21613799 0.038967345 0.3697545 0.25403336 0.019562028 -0.108180836 0.06385638 -0.09845241 -0.22083615 0.6228388 0.088824145 0.2694057 -0.19717385 0.6431186 0.029870585 0.036575917 0.25131416 0.13006316 -0.30143163
formation -0.8449741 0.026307052 0.019309102 -0.29794127 0.06403034 0.2504219 0.2540204 0.15202281 -0.2764548 -0.3323657 0.21505256 0.32822558 -0.34774396 -0.26223204 0.65199435 0.2613299 -0.282187 0.09104106 0.0015338055 0.19031638 -0.068156324 -0.26829797 1.0940032 -0.13858673 -0.01152895 -0.38021642 -0.21409708 -0.38368222 -0.5065192 -0.31187707 -0.10861328 0.34110022 -0.3191439 0.5995832 -0.12943052 -0.057227768 -0.423266 -0.26036313 0.18486978 0.5755164 -0.9433724 0.7736259 -0.027333094 -0.04863718 0.014348237 0.0014973526 0.39450073 0.29183286 0.5279256 -0.5400201 -0.53394294 -0.09220701 -0.66707724 -0.2778732 0.2974683 -0.25428033 0.32414174 0.4830673 0.14478104 0.28456894 -0.2242858 0.19944021 0.33614177 0.20529199 0.38163897 0.18602358 -0.034378186 -0.06877265
control -0.11735868 0.33219776 0.46775916 0.061900575 0.03712925 0.14306882 -0.3746358 0.49840096 0.19985464 -0.20578562 0.20019549 0.18852076 -0.20698678 -0.60212106 -0.41937318 -0.038096808 -0.3756365 0.0009037779 0.4533402 -0.22973081 0.26376462 0.18266082 -0.21846417 -0.006387421 0.5018901 -0.1326137 -0.07973102 0.5200794 0.27433005 0.23130696 0.017486213 -0.024482818 -0.281167 0.37074047 0.09179199 0.17770746 0.117837965 0.32398027 0.3390083 -0.011423808 -0.5245064 -0.008565295 -0.36832595 0.47784233 -0.015485102 -0.90717477 0.22953379 -0.2849985 0.010942754 -0.13942795 -0.5469388 -0.36587784 -0.10584173 -0.0036142976 0.03129934 -0.10608605 -0.08874525 0.27856678 0.099973835 -0.32369578 0.109745726 0.81591475 -0.056931853 -0.007422222 0.043639697 0.41622046 -0.03559953 -0.1690966
upper -0.40968546 0.3722688 -0.6643976 -0.58828884 -0.2160316 0.35407636 0.26934126 0.22665049 0.036373023 -0.6816013 0.2558563 -0.098328486 -0.66558903 -0.062443566 0.04985181 0.45207196 0.26281136 -0.37868416 -0.23626952 -0.0554101 0.7688066 0.29252532 0.13236926 -0.008422761 -0.34278348 0.19008698 0.008289599 0.24245425 -0.5939265 -0.17679183 0.085123494 0.4921635 -0.4373158 0.13304497 -0.15991357 0.374776 -0.14814545 0.11410692 0.10600922 0.7717836 0.1370339 -0.6041602 0.03066772 -0.091379695 0.19529143 -0.4469086 -0.4658205 -0.18600342 0.31120002 -0.50248194 0.17579862 -0.06715598 -0.35918394 -0.0056036357 0.45859158 0.12705293 -0.33014834 0.44042677 0.30192766 -0.29021853 0.815217 -0.18944761 0.18562104 -0.09340439 0.30826244 0.64437073 -0.09604325 -0.3400289
1998 -0.67615724 -0.57577574 -0.4149293 -0.18761696 0.0041128974 -0.5173554 -0.6756548 0.3079958 0.28445506 -0.450942 -0.40825436 -0.23481207 -0.2875201 -0.005580444 0.09050074 -0.1524391 -0.31245986 -0.2597635 -0.09492201 -0.5200236 0.2116401 -0.5409531 0.5976425 0.48538542 -0.17538406 -0.12626109 0.26598123 -0.14983158 0.4011519 -0.2901472 -0.0732539 -0.26396543 0.31044126 0.4741684 0.22058867 -0.30736306 0.3568958 0.48578647 0.068125926 0.044428308 -0.008091105 -0.20337376 0.0011681771 -0.20839629 0.27709633 -0.26062244 -0.31495997 0.43550014 0.095019646 -0.18165703 -0.2984381 -0.29408485 0.30887383 -0.23229055 0.07873788 -0.0034993677 0.16403838 0.5553078 -0.6561766 0.1322063 0.57606757 0.38765815 1.0599427 0.08464296 0.20158277 -0.23456983 0.71411556 -0.5338534
/ 0.21724214 0.15054482 0.060749434 -0.28613058 -0.39820746 0.2875492 -0.44726 0.47055778 0.009098195 -0.4492843 0.36393353 0.5547271 -0.38316357 0.08240633 0.27212104 -0.015854707 0.17425142 -0.83710825 0.26237518 -0.39391544 0.76554245 -0.5885116 0.029391022 0.40643162 -0.10658355 0.1043421 -0.07210684 -0.30128762 -0.13246174 0.15273812 0.36827108 0.19193625 -0.22140235 0.534628 1.1604617 0.3847267 -0.120615005 -0.03139786 0.13420923 -0.32169303 0.05012711 -0.52059084 -0.34137172 -0.47342646 0.10480619 0.17486922 -0.14600603 -0.70673114 0.18049648 0.15524393 -0.5794919 0.22736773 -0.13651025 -0.20491453 -0.37450802 -0.35215148 -0.27727857 0.90664256 0.7185319 0.52628374 -0.33408868 -0.32205802 -0.099939495 -0.15613376 -0.707614 -0.89030945 -0.0155764 -0.5050168
°c -0.19002102 -0.038899146 0.39214548 0.4056605 -0.49754402 -0.16563652 0.0633325 0.74812895 0.17249922 -0.49362054 0.33648425 0.72550666 -0.03464846 -0.071186006 0.40675893 -0.38915583 0.58051515 -0.17589206 -0.2124771 0.3404897 0.35083663 -0.7867021 0.2727568 -0.058029227 -0.30745757 0.29950833 0.35385188 -0.30442205 0.6731333 0.16520931 -0.6543389 -0.03979476 0.21566655 0.33011973 0.33615738 0.6347006 0.17951456 0.14886707 -0.4607763 0.31013286 -0.39148661 -0.1384908 -0.30678645 0.520713 0.47709972 -0.03997433 0.3533335 0.17507774 0.31142908 0.09134874 0.1996669 0.042746276 0.34847453 0.31768483 -0.05269344 -0.12260866 0.1741688 0.12366567 0.1062385 0.14801353 -0.23876047 0.38872498 -0.53334486 -0.014002608 0.1354909 -0.101119645 0.4595973 -1.0045344
silicate 0.5549024 0.2528193 0.6977396 0.25091484 0.10632903 -0.22866303 -0.4199425 -0.2047104 0.25743723 -0.056942873 0.0779448 -0.08102441 0.049767118 0.076061174 0.22978503 -0.041780207 0.30303288 -0.07681568 -0.15662187 0.69299 0.3796187 -0.18783201 0.7756031 -0.65027183 0.20838891 1.1215603 -0.5064957 0.22916223 -0.11502945 0.16926898 -0.70119786 0.44396544 0.3682037 0.043263547 0.7176269 0.19641869 0.0010618082 0.18034232 -0.24480797 0.17649768 -0.19869381 -0.2982338 0.2926035 -0.1048309 0.4854531 0.26496854 0.12105011 -0.5777958 0.4652059 0.0937186 0.290178 -0.6031847 0.642153 -0.10371885 0.025680227 -0.74272484 0.26077268 -0.16920382 0.053838402 0.6921283 -0.28432605 -0.14994586 0.3374594 -0.7602235 -0.3592605 0.8182635 0.033430047 0.1201535
pipe 0.09818752 0.7047342 0.40513757 -0.15808514 -0.4670884 -0.395753 0.7016198 0.22697614 -0.5583959 -1.1268651 -0.30574515 -0.058554206 -0.20433329 0.37968346 0.020307984 -0.43234518 -0.5170158 0.32643345 -0.3467704 0.17061119 -0.15730938 0.011731466 -0.24322367 0.07232853 0.4008191 -0.16634499 0.090137996 0.43849996 0.020726446 0.23790804 0.12551193 0.17443204 0.23723234 0.20155928 0.5283969 0.2895854 -0.6999417 -0.08851191 -0.11209176 -0.17683837 0.06690262 0.12053722 0.5080125 -0.15883215 0.87047786 0.08653645 -0.31719887 0.5355675 0.3045881 0.30642918 -0.4319621 -0.18448089 -0.21186303 -0.19991902 -0.41736835 -0.35868374 -0.6464521 -0.112870924 -0.041108306 -0.18080184 -0.36070746 -0.17744474 0.56180006 0.04848226 0.34292033 0.25279984 0.1391548 0.15426016
40ar/39ar 0.28572506 -0.26007345 -0.4795832 -0.24961822 0.11786951 0.18171045 0.32917526 0.4437452 -0.40779608 -0.4891603 0.14156726 -0.16004217 -0.43153244 -0.03383809 0.16116668 -0.23922847 -0.22514471 0.06273561 0.40684128 -0.00070661935 0.5011341 0.023600489 0.18162878 0.33323586 0.71050024 0.20815742 0.35405403 -0.25682268 0.19984853 -0.64211005 -0.9934356 0.0826284 0.6106432 0.40048316 0.3469963 -0.3733053 0.14353408 -0.028793478 0.22961383 -0.39260316 -0.69644505 -0.22296385 -0.33047175 0.7261911 0.8461745 -0.44983712 0.27665466 -0.114770085 0.35589793 -0.19109158 0.46647334 -0.028765185 0.050522055 -0.00103083 -0.2797864 -0.004908876 0.3981043 0.3676118 0.12084115 0.52304786 0.17012426 0.18220976 -0.019155981 -0.14923361 -0.16399021 0.11652531 0.707986 0.36186987
study 0.13556072 0.6400333 0.114342466 0.2546545 0.16944978 -0.014568957 -0.46758744 0.3762265 -0.16999018 -0.12309006 0.34991333 -0.10372853 -0.08558421 0.12759437 0.37478265 0.38077825 0.34355262 0.130049 -0.22777367 -0.46688405 0.4354798 -0.37409815 0.0079438845 -0.3311608 0.022151612 0.24859789 -0.48005965 0.13520752 0.31398308 0.26682827 -0.38990512 0.11260201 -0.33233035 0.60692406 0.1113649 -0.18240051 0.1199972 0.023113031 0.3970371 -0.34455034 -0.21892355 0.18806604 -0.3224146 0.1639877 0.24293202 -0.61999226 -0.20013697 0.30782625 -0.30276996 -0.30194214 -0.28863537 -0.48937118 0.30291957 -0.2915308 0.24253696 0.3460346 -0.14451265 0.34398705 0.19468927 0.08554356 0.28146955 -0.33882114 0.27161902 -0.6986001 0.24107361 -0.09766039 -0.19289957 -0.47276688
wall 0.40605083 0.38631922 0.43738505 0.1434882 -0.5105284 0.3042167 -0.112751015 0.39536142 -0.42852357 -0.50661755 0.42885086 0.24734698 -0.20426433 0.5991968 -0.031728763 -0.87594754 0.40972367 -0.06515972 0.0024255884 -0.18306985 0.29165322 0.05289148 0.13821088 0.21210061 -0.12756048 -0.25321364 0.548622 0.52518815 0.45869312 -0.25788048 0.023398316 -0.09100816 -0.18724501 0.04213257 0.23191926 -0.09534509 -0.3773932 0.037656303 -0.23403484 0.4582962 0.50181144 0.45512095 0.015161445 -0.3720927 0.39578232 -0.13556671 0.68964255 0.07611318 -0.18360038 -0.4392275 0.21496323 -0.8354666 0.088846736 0.38838387 0.22626698 -0.00904834 -0.14671007 0.1303784 0.77019256 -0.34363014 -0.013228764 0.14594035 0.26695257 -0.11514328 0.0062433006 0.35459554 0.17482162 -0.4123292
similar 0.0780915 -0.7052318 0.17030741 -0.8641433 0.009850372 -0.55907327 0.15622891 0.5085047 0.13937151 -0.951352 -0.11503083 -0.10873167 0.06612637 0.5349082 0.0694524 0.30552477 -0.25661477 0.32217795 -0.16089961 0.50784457 0.17035903 -0.09727131 -0.32935172 -0.38176918 -0.05934936 0.08883672 -0.07437987 -0.2916103 -0.096080236 -0.13698387 -0.36300498 0.6081532 -0.025609853 0.14789614 0.6229528 -0.17200704 0.26807514 0.11473867 -0.5564772 0.6005537 0.25690782 -0.21559943 -0.18479715 -0.46551883 0.05047019 0.14414428 -0.3001885 -0.35965315 -0.5243119 0.20346932 -0.116174445 -0.65454 -0.005648952 -0.07073961 -0.4854128 0.3787962 0.33693218 -0.030439334 0.06851045 0.4480026 -0.3235198 0.12971474 0.5899445 0.014170265 -0.11034653 -0.09320205 0.3249618 0.21745744
chlorite 0.24065183 0.39519334 0.40042308 -0.4157242 -0.26814917 -0.122159086 -0.12928519 -0.06457903 -0.01184156 -0.3820515 -0.7913626 -0.38653186 -0.376657 0.5370732 -0.2519343 -0.64249307 0.52201706 0.2733721 0.5913023 0.22640428 -0.459434 0.06518799 -0.053856127 0.121839985 -0.25261882 -0.1661648 0.10738148 -0.5381834 -0.07787722 -0.22446498 0.3480977 -0.5097423 0.26723066 -0.3600082 0.8513125 0.36923558 -0.20712592 0.047561184 -0.39664528 0.75668734 -0.03706947 -0.4403669 0.40285993 -0.20087005 0.664593 0.1223013 0.33112115 -0.13993 0.20981365 0.38666302 -0.5211064 -0.28265697 0.1484205 -0.26642075 0.25251105 0.12049352 0.10998179 0.28936943 0.09625934 0.021249829 -0.34484234 -0.2971098 0.021723658 -0.070619375 -0.14749691 0.6745511 -0.07334798 -0.36452872
assemblage 0.5382985 0.22853398 0.4407579 -0.27888995 -0.405027 -0.51575273 -0.46167937 0.19244047 0.19988167 -0.4848257 -0.25310427 0.42698914 -0.9088317 0.42320666 -0.31882387 -0.39690346 -0.39796066 0.09870205 -0.1370809 0.5060343 -0.022482647 -0.04447769 -0.038700923 0.16064449 -0.10640608 -0.13673058 -0.35852063 -0.30029663 -0.27767158 0.0096581625 0.20078352 0.078534245 -0.027133428 0.14331953 -0.008925418 0.040065948 -0.010007958 -0.11995578 0.17266232 0.5822001 -0.09396927 -0.30285075 -0.20337087 0.15411404 0.43693486 -0.38971853 -0.20880198 0.84006995 0.5065062 0.3211332 -0.26021743 0.6305615 -0.3727651 -0.0719855 0.58890605 0.0059930207 0.3447955 0.109981924 -0.11686161 -0.662122 -0.8296097 -0.19863416 -0.18066877 0.40851697 0.030851679 0.78806967 -0.46985757 -0.69346225
magnetite 0.49715096 0.5519339 0.42842993 -0.47255543 -0.2542977 0.041928492 -0.23628363 0.35351494 0.7066619 -0.18675064 -0.18359402 -0.026455311 -0.5672879 -0.48409766 -0.38084814 -0.32774413 -0.23968877 0.42196035 -0.19998708 0.7335153 0.04196689 0.2403384 0.5947816 0.04621133 -0.38285112 0.29723114 -0.0582243 0.3986032 -0.35358667 -0.24901025 0.07535642 -0.43531847 -0.5222473 0.013178094 0.6986532 0.19293775 0.18420435 0.39443764 0.24673659 0.8775353 -0.74892193 -0.2423689 0.18576145 -0.18154265 0.5691587 -0.014620807 0.6150957 0.65256435 -0.102742985 0.1017587 -0.6665999 -0.006844806 0.052153233 0.32621837 0.28636816 -0.1553775 1.0449561 -0.26128173 -0.18070547 0.15320514 -0.6332873 -0.29020715 -0.07323035 -0.22631267 0.24016403 0.15764518 -0.8100468 -0.61027974
teniente 0.099076375 0.41753325 0.38865384 -0.19624831 -0.23880534 -0.28935307 0.5262405 0.107242696 -0.15631954 -0.29792526 0.28221473 0.022700865 -0.06526306 0.5055857 -0.19097815 -0.23421335 -0.20625478 -0.058428627 -0.23034373 -0.15977913 -0.0060417545 0.21637167 -0.20049052 -0.16215083 0.20711443 0.020696776 0.058925744 0.635787 -0.02040694 0.22438584 -0.16693442 0.4097562 -0.16506867 0.9358361 -0.14681822 -0.1832645 0.12965874 0.21482304 0.36514091 -0.16633248 -0.2993444 0.108187236 -0.020866761 -0.177658 0.77555096 -0.28825793 0.27853793 0.4144325 0.028501298 0.14956458 -1.0557175 0.06025712 -0.21603127 -0.24833871 -0.3225689 -0.6797867 -0.7832107 0.21053539 -0.22803724 -0.41727072 -0.27085 -0.060344033 0.57362443 0.56381404 -0.29464576 0.20499022 0.20063876 -0.25225073
content -0.0102415765 -0.3358923 -0.23981883 -0.1986345 -0.4573557 0.0066013555 -0.1014843 0.06508469 0.390051 -0.2605688 0.2530399 0.55873936 -0.09957659 0.14826909 -0.51776886 0.032890946 0.20222785 -0.04654898 0.021372225 0.64619684 -0.12670505 0.332663 0.26446262 -0.03876067 -0.8729503 0.01585707 -0.3649092 0.11551437 0.5166489 0.1913841 0.25407562 0.035223484 0.41788605 0.5910467 -0.1371905 -0.45627436 -0.30408302 -0.31082106 -0.26209572 0.37356114 -0.3026331 -0.615135 -0.32880047 -0.18061884 0.39003375 -0.22745651 -0.52843475 -0.25205556 -0.08852791 -0.306675 0.488987 -0.5462978 -0.3827414 0.024083924 -0.12310404 -0.2949951 0.015660085 0.7949439 0.19084232 0.0672774 -0.21727191 0.08802577 0.22082528 -0.22653332 -0.31624362 0.40646204 0.014835932 -0.26435828
2004 -0.0006804452 0.66374534 0.0996042 -0.30943936 -0.037052743 -0.17905857 -0.28328 0.019632392 0.3473875 -0.5217775 -0.5202306 0.034997508 0.33509797 0.53878766 0.36880457 -0.024841568 -0.25824437 0.32604066 0.003994285 0.09065218 0.385888 -0.36068848 -0.21458597 0.39687517 -0.23979503 -0.107024 0.11601496 0.24983485 0.05429095 0.6652246 -0.30321994 -0.05520138 -0.010589861 0.7279216 0.3471054 0.51402867 0.32456386 -0.10132139 -0.16053255 -0.32972726 -0.3816648 0.50694686 0.20400456 0.5737757 0.34884363 -0.4439376 0.47786188 0.2870074 0.15865006 0.025141962 -0.6702678 -0.15606229 -0.014290947 -0.6991652 -0.8691694 0.22429669 0.0019869087 -0.40790936 0.12569337 -0.5196585 0.05036064 -0.39729276 0.66244 0.17070912 -0.12036214 -0.13042466 -0.36737007 -0.255601
locally 0.1803907 0.8524768 0.21365327 0.1233293 -0.49101415 0.49987617 0.05247698 0.6233806 -0.21849124 0.03788583 -0.46698704 0.5640336 -0.16959776 0.23965256 -0.031464625 0.16761638 -0.062725 0.03210038 0.3115892 0.69665027 -0.42847055 -0.16263787 0.31386343 0.12850644 -0.15457325 -0.071796015 0.09032287 0.27386293 -0.24630918 -0.3393604 -0.006652499 -0.54379606 0.09842723 0.111662015 0.7089119 0.27316314 0.19691665 0.6147307 0.2415276 0.18704632 -0.18290031 -0.55855453 0.10988428 -0.4310832 0.7156353 0.1573376 -0.5725116 0.80903214 0.3066221 0.4442668 -0.31750834 -0.44902053 0.30931532 -0.12931113 0.41150546 -0.014917934 0.15228364 0.011037808 0.2371685 0.05817658 -0.23836562 -0.057187468 -0.048011992 -0.13749711 0.7124035 0.46773884 -0.9352959 -0.09400565
– 0.1613625 0.3950953 0.14524803 -0.5308043 -0.2578619 -0.82335645 0.16831702 0.055673093 -0.12870207 -0.23300073 -0.14442721 0.4231483 -0.28354272 -0.14994325 -0.1064979 -0.17283817 -0.29758096 -0.44884694 0.4556775 -0.3120744 0.21231093 -0.28435254 -0.104597814 0.69090056 -0.45209444 0.085809685 0.23076944 0.31249917 0.09572289 0.6021292 0.6972128 -0.3385277 -0.28359228 0.30301446 0.8349519 -0.4511778 -0.73060066 -0.5396755 -0.31822938 -0.020735385 0.05594712 -0.42683196 -0.03922203 -0.53477305 0.62309384 -0.08313228 0.5959895 0.53366375 0.13820094 0.43966535 -0.44892487 0.026948083 -0.1324678 -0.4580008 -0.171234 0.5494339 0.38254863 -0.07101412 -0.052416984 0.82257044 0.116841085 0.2626788 0.5092808 -0.13583094 -0.56188184 0.50220966 0.09616478 0.32870668
potassic 0.089000024 0.57410467 -0.03987711 -0.547898 -0.35607523 -0.1405504 -0.0900113 -0.115767 -0.7393489 -0.25751567 -0.19273852 0.078332566 -0.2996504 0.27792406 -0.33876917 -0.12475304 0.31410235 0.2834127 -0.41431174 0.46561477 0.3099684 0.5520459 -0.070270665 -0.16347228 0.13982187 0.34339565 -0.09800312 -0.16494189 -0.1897421 0.09939473 -0.47411317 -0.2722455 -0.010545851 -0.1401705 0.11200604 0.32120723 0.22782075 0.34699327 -0.39705753 0.05689451 0.015507573 -0.8411379 0.64587444 -0.24993636 0.8855505 -0.6347833 0.19476666 -0.08460893 0.13821262 0.06340416 0.3088456 -0.3743951 0.41899267 0.14642188 0.3011915 -0.04980931 0.04920049 0.56364816 0.01676112 0.15785213 0.13899463 -0.45952255 -0.17162606 0.29289562 0.018506616 0.30551377 0.6311467 0.20945589
gold 0.14336857 0.7443159 0.1568857 -0.57643574 -0.54112273 0.30693227 0.24040884 -0.3733834 -0.5767608 0.05883749 0.03795745 -0.17570598 0.039682936 0.16997421 -0.9736621 0.06708515 -0.071362585 -0.24610429 -0.5076705 0.7371785 -1.0140465 -0.07411404 0.19917561 0.5234972 -0.67809296 0.29057246 0.40199676 0.278158 0.34325787 0.0031257793 -0.24046972 -0.120037794 -0.31001633 0.059080586 -0.032878015 -0.081979744 -0.14169565 0.03998051 0.58356726 -0.10355576 -0.5797251 0.013054358 -0.5575463 -0.020810245 -0.14735983 -0.27189517 -0.09187037 0.6510328 -0.00028110866 -0.52935034 0.60577536 -0.45175785 -0.7731302 -0.6102507 0.15192023 0.28916097 0.091034666 0.462112 0.2952749 -0.30896178 -0.18751763 -0.23372072 0.23832457 -0.12189242 -0.24880502 0.7610256 0.41366947 -0.07137791
ratio 0.35688537 0.28365585 -0.10081024 -0.52555496 -0.8402445 0.42175236 -0.76560205 0.30737656 -0.28564838 -0.75098795 -0.006814475 0.5616053 0.08708468 0.12087247 -0.32144538 0.2162145 0.005334043 -0.42432925 -0.0125641255 0.074164376 0.45914587 -0.3185989 0.38588205 -0.045419045 -0.054596942 0.6745492 0.19057922 -0.18247953 -0.041013293 0.07996872 0.050852247 0.2045074 0.5809109 0.753702 0.118193656 0.32796952 0.17964587 0.039811056 0.20651917 -0.093000114 0.24532731 -0.054869313 0.35890734 0.03188611 -0.5158081 -0.54644674 -0.26315102 -0.21250698 -0.038990326 0.11430087 -0.25922692 -0.06519247 -0.5310349 -0.25174594 -0.72813493 -0.07238561 0.25956002 0.7779602 0.29215273 -0.050940387 -0.037593443 -0.035892554 -0.33584562 -0.19879057 -0.51899296 -0.45450717 0.18088077 -0.32052532
km -0.21079318 0.17230172 0.40240803 0.44092318 -0.4690804 -0.85932904 0.69872403 -0.14997786 0.03751054 -0.22065298 0.0233234 0.39258817 0.26811877 0.028453818 0.1448785 0.5923974 -0.3923633 -0.26585507 0.3068299 0.09810409 -0.16199955 -0.43910515 -0.3338692 -0.4656297 -0.12209853 0.12447459 0.22502777 0.118174955 0.18638153 -0.87389094 -0.40116987 -0.5633647 -0.23504806 0.46826288 0.20067292 0.1122721 0.18748166 -0.05557002 0.84241176 0.530575 0.4727284 -0.5525306 -0.13205819 -0.6451471 0.75287795 -0.40441906 0.4248357 -0.054908916 0.4882199 0.34217128 -0.18646507 0.07844833 -0.5822246 0.1494751 -0.3349913 -0.07149554 0.028140405 0.25014234 0.221256 0.4369201 -0.32024387 0.22313628 -0.3273063 -0.07167914 -0.7099668 -0.01280536 0.38607705 -0.38257888
grade 0.1408104 0.7891053 0.32156897 0.29895544 0.103691965 -0.2739043 0.37325087 0.3692472 -0.2750264 -0.04429504 -0.53401756 0.36235747 -0.2991185 -0.18984194 -0.38971525 0.023113392 -0.7019255 0.49464372 -0.26349172 0.2754289 0.42383733 -0.08878398 -0.14053775 -0.16582897 -0.32144833 0.004361074 -0.4939391 0.2054622 -0.026082743 0.18627192 -0.13557012 0.014547205 0.04701799 0.44217008 0.24861598 0.58875716 -0.2707301 0.26685324 0.9687048 0.2939875 0.035079535 -0.28146997 -0.316742 -0.705934 0.2053759 0.21074669 -0.519902 0.79652244 -0.0157719 -0.0053953175 -0.22059612 -0.2739361 -0.20858024 0.08773294 0.28041694 -0.09179304 -0.04600132 0.326969 0.17637809 -0.09677516 0.47949126 0.37202188 0.06646529 -0.04173397 -0.13313627 0.40276945 -0.4228735 -0.41549006
early 0.30456796 0.09200039 0.47348535 -0.05642093 -0.19642664 0.1269828 0.14512883 0.2547366 0.03745745 0.07556689 0.2932723 0.43365413 0.0378174 0.4096365 -0.18121114 -0.036336962 0.17078865 -0.3741991 -0.16574511 0.5178311 -0.52518284 0.14590302 0.22225714 0.22757001 -0.24317086 0.1647193 0.17530057 -0.102350414 0.08385419 0.1836574 -0.5301857 -0.047471497 -0.29205495 0.6076043 -0.07612162 0.19741422 -0.40101978 -0.050253186 0.05508425 0.68319976 -0.39996022 0.44781017 0.17514487 0.26748726 0.27708033 -0.23863931 0.09624932 0.2899704 0.47559032 0.40766275 -0.9072018 0.0001477386 -0.24409299 0.073322035 0.11678587 -0.36018774 0.5762051 0.34647402 -0.075558715 0.38091466 0.27767336 0.41919184 -0.023355504 -0.45367053 0.76045454 -0.08754914 0.29293612 -0.0136415465
body 0.1138504 0.20611604 0.5603705 -0.44659567 -0.8176622 0.1673991 -0.2637421 -0.36290655 -0.6252861 0.11270517 0.26189 0.87333196 -0.30607247 0.24047387 0.29327807 -0.66730225 0.1409404 0.2320523 -0.06279952 0.23092677 -0.3874987 0.48055354 -0.44496915 0.28770024 0.058933794 0.6182206 0.05604146 0.64751554 0.29670367 -0.47367233 0.13314386 0.18420681 -0.58563906 0.021057852 0.25752345 0.2986869 -0.63524306 0.47515815 -0.041466698 0.50281924 0.5185328 -0.012482002 -0.23217236 0.14619033 0.41035807 -0.4155445 1.0025973 0.08247716 0.07094915 0.21205908 0.061107278 -0.91074526 -0.37076283 0.16365047 0.32984036 0.23194243 0.33290675 -0.10266825 0.48659346 0.13954432 -0.18324691 0.14344986 0.039543107 -0.38795406 0.0933588 -0.11165642 0.7638596 -0.7934043
composition 0.31000876 -0.204963 0.05237865 -0.5681165 -0.036916308 0.4258175 -0.19611177 0.07329096 0.01414835 -0.1935384 -0.20318362 0.13281134 -0.33364934 0.06199508 -0.16100992 0.07937893 0.1525664 -0.098780684 -0.47553706 -0.20061901 0.20345502 -0.26857433 0.50489974 -0.55942184 -0.267223 -0.38723436 0.12567756 -0.11991894 0.1907246 0.60817957 -0.29707977 -0.23087703 -0.21224046 0.48111317 0.27131587 0.042444132 -0.1917042 0.086951904 -0.25096342 -0.08234299 -0.14075072 0.04255631 0.6216327 0.18187447 0.34764615 0.27879852 -0.2609321 -0.27818817 -0.2517219 0.0036524772 -0.32330042 0.057925146 -0.5542927 -0.23683949 0.37345934 -0.087992646 0.30167565 -0.23676783 0.31218487 0.7888742 -0.24858844 0.5812583 0.49792457 -0.3901122 -0.63795495 0.2619204 0.25436473 -0.41801444
result -0.26897508 0.14736365 0.024167294 -0.063311644 0.2944239 0.26790968 0.12123177 0.50520164 -0.1950527 -0.45591354 0.07536554 0.005774742 -0.045797158 -0.20023209 0.2266716 -0.44241658 -0.31906828 -0.24704346 0.577997 -0.31447515 0.13667376 -0.3034388 -0.86068743 0.112875916 0.8148145 -0.6343992 -0.11755107 -0.16219077 0.34051228 0.2430217 -0.2898393 -0.039555915 0.052564625 0.533552 0.047610156 0.15574718 -0.60646254 0.26690787 -0.015848674 -0.10527327 -0.9767266 -0.26723513 -0.14224635 0.25863558 -0.5133934 -0.8856186 -0.2238509 0.038647253 -0.560103 -0.2736562 -0.11658692 -0.8918725 -0.594372 -0.23562181 -0.21384805 -0.064225 0.04812645 -0.23756556 0.6431384 -0.26518494 -0.35375342 0.06246347 0.38012913 -0.28281248 0.12330131 0.23756012 -0.20933795 -0.2493295
