2548 68
, 0.06893928 -0.030995278 0.027314167 0.04353157 0.019223474 0.10688853 0.04617977 -0.109078154 0.05832206 -0.15009774 -0.29668266 0.24769801 -0.16135171 -0.030949103 0.026614096 0.17058034 -0.11743924 -0.028626064 -0.13917767 0.116827615 -0.011413831 0.05906953 -0.02056925 0.10126681 -0.025477707 -0.12809186 -0.086129196 0.024589209 0.09896105 -0.15948074 0.07184356 -0.013428499 0.2100408 0.25806177 0.24617332 0.01515422 0.20316987 -0.067802265 0.21799211 0.114443116 0.08934138 -0.061414037 -0.08886077 -0.12915912 0.2224447 -0.07911402 -0.22108547 -0.08843468 -0.007820944 0.26003832 -0.005628228 -0.17517328 0.015153821 -0.06393528 0.17328557 -0.1037122 0.07326644 0.15372396 -0.2023343 0.00780168 -0.0032227836 -0.1322678 0.06883608 -0.047742672 0.11946817 0.06545027 -0.1167237 0.095640644
. 0.10909648 0.1948293 -0.097365245 -0.05280867 -0.06584676 0.03976168 0.048136797 0.03427926 0.12725906 -0.064343035 -0.28858855 0.050699707 -0.004580377 -0.2578037 0.07698259 0.07480253 -0.089290835 -0.051676575 -0.08647198 0.0400065 -0.09324847 -0.03317605 0.1018826 -0.0073275105 -0.017307693 -0.022767922 -0.09446129 0.051548347 0.13351835 -0.070959084 0.12646058 -0.032342575 0.13732705 0.20438315 0.1930932 0.16999507 0.16409951 -0.006566147 0.25559342 0.073642194 -0.033000477 -0.24213827 -0.11412594 0.048282344 0.11527381 -0.13100791 -0.12601745 -0.08402604 -0.12187111 0.18029569 0.11430307 -0.2250081 -0.064885065 -0.04716852 0.081919536 0.039684683 -0.031712204 0.13282514 -0.014321868 0.043546233 0.026766304 -0.2699062 -0.044553787 -0.092388146 -0.11684557 -0.025924379 -0.042654447 -0.063071035
al. 0.1532263 -0.06774521 0.2511201 0.18550582 -0.10501726 0.16993408 0.0796493 0.039705046 -0.06554917 -0.18692654 -0.33577013 0.17835923 -0.11417104 -0.017425956 0.2687174 0.20137359 -0.25219405 -0.14476795 -0.017557565 0.010298578 -0.0629954 0.010501302 -0.045356356 -0.048099045 0.24356446 0.001992395 0.38743827 0.23578733 -0.0069903047 -0.09660774 -0.14305733 0.354558 0.12954134 0.48683548 0.16258259 -0.08273433 0.17185868 -0.06342916 0.22325557 -0.14587377 0.29654068 -0.2573642 -0.22824574 -0.15481614 0.31862456 -0.1223306 -0.0964788 -0.28775433 0.3064369 0.25725552 -0.21071054 -0.44838274 -0.24645495 -0.0043778257 -0.22605641 -0.15662293 0.21401833 0.4077773 -0.20872885 -2.0306321e-05 0.07485359 0.03217654 0.37333223 -0.21967444 -0.17463131 0.028969942 0.0429215 0.52394956
et 0.13851672 -0.061904546 0.3294633 0.20930728 -0.10967725 0.2752733 0.015955124 0.13539933 -0.104467675 -0.31167156 -0.2660939 0.14424339 -0.1565625 0.051189464 0.2070354 0.20607723 -0.2551638 -0.19406627 -0.06978375 0.09212054 -0.07049198 0.071207136 -0.06664625 -0.14818026 0.23888803 0.027788661 0.39478108 0.16320837 0.07219754 -0.16042449 -0.1794329 0.4522024 0.18635574 0.5463501 0.08785286 -0.02605324 0.2463289 -0.09572967 0.1470077 -0.3030451 0.2682703 -0.2709076 -0.19921166 -0.21202563 0.2918568 -0.13357338 -0.12727365 -0.22320727 0.21415058 0.40496513 -0.22758198 -0.41934597 -0.2470526 0.08126808 -0.25522792 -0.062153313 0.27341783 0.3993474 -0.2634307 0.044561256 0.03609833 -0.008124998 0.3120201 -0.24608481 -0.19199312 0.10376127 -0.008644276 0.5077
; 0.16183943 -0.015779547 0.3115829 0.21125369 -0.11166667 0.13417894 0.0024660002 -0.040189795 -0.28326586 -0.10839733 -0.24131422 0.23613156 -0.2571775 -0.091481194 0.124226525 0.22883 -0.24706753 -0.02360764 -0.5209982 0.24189603 -0.20369758 0.04328001 0.109806485 -0.06496316 0.4205554 -0.2792232 0.46041727 0.15009637 0.15439782 -0.011055966 -0.20980355 -0.06482697 0.309024 0.41734603 0.17534195 -0.053322025 0.21350232 0.021747546 0.06694352 -0.062284134 0.14427866 -0.4337996 -0.22756335 -0.28081113 0.30857518 0.09093576 -0.161511 -0.2076483 0.3671881 0.010662956 -0.16979386 -0.35912088 -0.43099225 0.070713215 -0.19887808 -0.12926124 0.29753312 0.29789907 -0.07178289 0.13469249 0.089370005 0.044983342 0.24371003 -0.15633889 -0.025566742 -0.17039831 -0.18745464 0.4645135
deposit 0.1941389 0.007438223 0.091071576 -0.21890664 0.25746092 -0.20460428 0.20128398 -0.08070704 0.122651 -0.38397068 -0.4193234 0.1026196 0.13884442 -0.31816712 0.1381678 0.2566664 -0.3769894 0.0064971703 0.06407766 0.17191285 0.29306677 -0.32860374 -0.003976122 -0.039559286 0.11091173 0.20298928 0.14037591 -0.46785438 -0.027904328 -0.111117184 -0.13140306 0.0653328 0.18649119 0.2091256 0.054920048 -0.0049562813 -0.09931775 0.01564042 0.10709134 0.1811421 -0.11411827 -0.22795253 -0.13599598 -0.11616623 0.119168885 -0.2550505 -0.28974363 -0.31085947 -0.17132996 0.24291904 0.06656736 0.07606328 -0.014667348 0.07465965 0.0026105503 0.062476117 0.18442369 0.15403698 -0.13553397 -0.07181804 -0.012070728 -0.33022195 0.29995137 0.07038689 -0.2409646 -0.03209334 0.18333803 0.08503821
porphyry -0.05731811 0.13265482 0.16450834 -0.12057587 0.157132 0.058458753 0.14593092 -0.059901264 0.068933696 -0.33629552 -0.33448845 0.34968477 0.2141967 -0.047548376 -0.055889595 0.12678967 -0.2986658 0.057479907 -0.27902848 -0.0645999 0.06798511 -0.20336166 -0.03425595 -0.09030448 0.12059284 0.04687635 0.23912314 0.16166507 -0.20247853 -0.13413222 -0.11177466 0.06212518 0.12848438 0.1454473 0.45123434 -0.11851291 0.3096717 -0.016377745 0.16621752 -0.0028439055 0.1429375 -0.26227897 -0.10964453 0.051035535 0.038879845 -0.42578804 -0.15607448 -0.06545563 0.06963957 -0.14611883 0.08443754 0.047924343 -0.13808629 -0.10709976 0.2614973 0.10796011 0.12307821 0.22634447 -0.027290942 -0.19129266 0.17608619 -0.3393426 0.072513714 -0.031147627 0.0027634648 0.119149454 -0.13713883 -0.007694991
hydrothermal -0.19244386 0.28845617 0.15172745 0.04052821 -0.09437827 0.30564135 0.12779406 -0.029323328 0.5562729 -0.17388436 -0.44611275 -0.067447186 0.097107306 -0.1609805 0.1978675 -0.5014723 -0.04446361 0.37276596 -0.35611823 -0.11771779 0.0948384 -0.09199631 0.077788465 -0.046798483 0.10794642 0.08234311 -0.5420578 0.13638124 -0.026610758 -0.17026488 -0.057798024 0.15010251 -0.03162208 0.054169364 0.431996 0.11872738 -0.020838173 0.14777389 0.02471592 -0.33385816 -0.21477267 -0.12164554 -0.2625231 -0.081336714 0.20867456 -0.07577978 -0.25428852 0.14521208 0.09979938 0.03695049 0.34978986 -0.13003913 -0.4190435 0.031318646 0.20740297 -0.029274793 0.042863667 0.12921771 0.0014933286 -0.016396439 0.006921391 -0.4368511 -0.19257888 -0.22490224 0.07942983 -0.060924582 -0.012362095 -0.3419045
alteration 0.31376442 0.2634965 -0.07711753 -0.12542048 -0.39958853 0.2084792 -0.06771874 0.35826334 -0.1387429 -0.020645414 -0.21074273 0.14891788 0.02091934 -0.1905073 0.096958205 0.21025056 -0.14795269 0.32605672 -0.21945064 0.2974669 0.13579182 0.24801095 -0.008111206 -0.10203211 -0.15241528 -0.10693033 -0.23772098 0.1356107 0.15022928 -0.3968803 0.010677674 0.044452343 -0.18567103 0.09721498 0.10295036 0.2041013 0.08217696 0.09386015 0.3764872 -0.020388402 -0.35170284 -0.23179063 -0.16424155 0.30171707 -0.11337213 -0.39368954 -0.20403305 0.014274148 -0.2778631 -0.054989796 0.13041669 -0.1938676 0.01706498 0.2312967 0.1588502 0.073275045 -0.16889293 0.034781177 -0.35136175 -0.11446051 -0.28187454 -0.40366435 0.07261375 -0.41334853 0.32617503 0.06166551 -0.11946395 -0.39635888
vein -0.009595936 0.48192522 0.028779587 -0.24913925 -0.0505416 -0.08533778 0.09888501 0.23822148 0.29073155 0.3190606 -0.38498452 0.046053533 -0.055590935 -0.08364242 0.07533259 -0.25049886 0.010331935 0.4852456 -0.18858105 0.32476658 -0.032796472 -0.1274525 0.1519902 0.2691348 -0.08780914 -0.16612002 -0.57483333 -0.18673563 0.18817627 -0.05593699 -0.019854644 -0.39524826 0.0999316 0.19604102 0.044256266 0.3049771 -0.05970631 -0.16146754 0.58116025 -0.13412197 -0.09985779 -0.035892215 -0.2168441 0.30073726 0.2792983 -0.21518144 -0.14200218 -0.090121895 -0.046169974 -0.16266169 0.41149285 -0.13944708 0.0656545 -0.15594149 0.00591422 0.32865834 0.17049842 0.32082132 -0.13703619 -0.0008901543 0.07809834 -0.22461578 -0.008783036 -0.18216626 0.20410308 0.14121203 0.028875777 -0.1338276
zone 0.23686498 0.38073325 0.11149765 -0.0070517464 -0.12632874 -0.15542771 -0.23342323 0.1365282 0.40393963 0.056002375 -0.06317316 -0.100275785 -0.15216674 -0.19363546 0.06456746 -0.15015657 -0.42477265 -0.09399446 0.09557957 0.18061633 -0.12688076 -0.13766348 0.47218305 0.04198312 0.017099872 0.11344964 -0.1775565 0.2148999 0.3697522 -0.12873374 0.09084272 -0.124061294 -0.03252624 0.06415567 0.089261755 0.21749638 0.30399847 0.34802404 0.3030172 0.50389445 -0.3524127 -0.39122698 -0.012956624 0.12885089 -0.118323535 -0.37987986 -0.15369068 -0.063720375 -0.32298988 0.15493415 0.306806 0.026254913 -0.011332012 -0.04898936 0.065504126 -0.1953695 -0.072123796 -0.11620743 -0.4579332 0.22412688 -0.18318242 -0.7165575 0.004424188 0.016034478 -0.15877688 0.025576524 -0.24232902 -0.56221396
fig. 0.119406216 0.262126 0.27975205 -0.015225305 -0.3342375 0.15552314 0.27779126 -0.041702993 0.039782077 -0.12860379 -0.0910132 0.040254377 -0.009796928 -0.30506837 0.013701737 0.016892655 -0.15242107 0.15895815 0.12066672 -0.13499917 -0.27196822 -0.022741098 0.05725843 0.0146522345 0.27092877 -0.17335613 -0.08666631 0.14293468 -0.063082255 0.20612486 0.2041423 -0.33979234 0.10971868 0.28947318 0.12680948 0.08989741 0.39242882 -0.19938338 0.32917333 -0.092593946 -0.2898315 -0.4763742 0.12204744 0.33865315 0.24219951 -0.15280266 -0.07035395 -0.28213882 -0.08100642 -0.14563376 0.2817039 -0.12213899 -0.18352318 0.18273152 0.002517714 0.34714454 0.06261705 0.09171736 -0.0090789115 -0.046415266 0.04228361 -0.13203299 0.12043996 -0.10857841 -0.2708707 0.13156612 -0.20973797 -0.15714815
mineralization -0.1521759 -0.14399748 -0.26694134 -0.15731832 0.08905631 0.04666226 0.031013472 -0.22409868 -0.13510023 -0.21266587 -0.43164355 -0.052638676 -0.18789622 -0.009283395 0.10233895 -0.05084151 -0.3576128 0.13591969 -0.5660394 -0.14328623 0.11400973 -0.050894663 -0.065611854 0.2865767 -0.22551489 -0.08299797 -0.1469905 0.28413245 0.2192487 -0.02458537 0.23178379 0.0048027835 -0.2625116 0.049900662 0.24777411 0.3153236 0.13637197 -0.09560714 0.16013987 -0.22970505 -0.0311082 -0.5277848 -0.31336355 0.059881397 0.06109676 -0.402351 -0.24829453 0.09301313 -0.43494642 -0.04265386 0.012612066 -0.23106205 -0.14952312 -0.07176644 0.3249058 0.33104548 -0.03650497 0.12524824 -0.14091867 -0.15395501 0.21358669 -0.20787436 0.17779747 -0.15124565 -0.2301124 0.10515446 -0.25567544 0.4012438
intrusion -0.21594909 0.39587632 0.11923015 0.16695198 -0.013177128 0.29782334 -0.0784833 0.07442808 -0.068077125 -0.17667909 -0.22772102 0.2972938 0.16317517 0.010421039 -0.07677146 0.03129775 -0.08938451 0.36170036 -0.20054553 -0.13491555 -0.11461824 0.18699838 -0.2168385 -0.35176057 -0.23862037 0.081362665 -0.022476781 0.38927856 -0.099822484 -0.11383873 -0.005810416 -0.22053571 -0.31923604 0.5524668 0.13135335 -0.028499613 -0.15936606 0.068293415 0.33429512 -0.30016604 -0.27361456 -0.15623486 0.012319921 -0.022170464 0.46588585 0.04745332 0.17769457 -0.30176583 -0.09978805 -0.34826493 0.09295699 0.11812807 -0.13998668 -0.036680575 0.28352883 -0.074323855 0.1213063 0.39562994 -0.083357684 -0.057217285 0.09766794 -0.46927714 0.07948776 -0.38827717 0.27465343 0.3313828 -0.12116821 -0.20972972
late -0.10127285 0.11917972 0.003848969 0.07682798 -0.007500331 0.18343864 0.28621787 -0.13930197 0.45857787 -0.23338391 -0.40190035 0.0067216824 0.007965345 -0.2335125 0.19982116 -0.06868146 -0.026983626 -0.005324898 -0.11443513 0.038325842 -0.058593802 0.010046773 -0.037183564 0.24989317 0.028841887 0.018933903 -0.28458655 0.10241384 0.03415227 -0.093852326 -0.08637736 -0.24025078 0.20748618 0.110587046 0.18061018 0.5090562 0.16251732 -0.219657 0.13558243 -0.26326123 0.18280782 0.077706486 -0.4042003 -0.05071471 -0.039854754 -0.5061994 -0.33051032 0.31595814 -0.19436088 0.00393592 0.25448436 -0.2815616 -0.37722006 0.29658067 0.078662425 0.19268344 0.1628212 0.23849837 0.031795837 0.124793634 0.32450613 -0.3572932 0.26961142 0.08246736 -0.17918931 -0.06006465 -0.12172575 0.06411282
rock 0.30910447 0.14584391 0.54001987 -0.10316276 -0.11419763 0.07477578 -0.015046318 0.19749285 -0.15630649 -0.28182778 -0.2103392 0.18555656 -0.04055553 -0.5320587 0.17143871 0.06904727 -0.006896055 0.058443647 -0.0020012436 -0.0881513 -0.21728352 -0.24371932 0.38118836 0.1537507 -0.059367638 -0.052142434 0.09805863 -0.058061533 -0.006138474 -0.0615365 -0.061929386 0.10496742 0.3100178 0.292381 -0.29674548 -0.02470979 -0.16930924 -0.046039578 0.23364684 -0.05035727 -0.05114144 -0.10207098 -0.11672805 0.07633512 0.19582038 -0.055709347 0.021697976 -0.08338103 0.08866093 -0.31847182 -0.014224995 -0.09663904 0.023944972 -0.055391356 0.2548151 -0.037900772 -0.17227298 -0.2909744 -0.13079481 -0.13963588 0.09353759 -0.16489603 0.12826654 -0.5858164 0.1345517 0.55091137 -0.4590923 -0.0013613
breccia -0.35630396 0.42596593 0.2329084 0.09412701 -0.23379317 0.26990217 0.17654294 0.1233962 0.71659625 -0.04445434 -0.079213865 -0.34587494 0.4491482 -0.10127928 0.32134557 -0.22419198 -0.12451406 0.13925342 0.33653122 0.2541565 0.07079389 -0.11605281 0.39682224 -0.3346701 0.27634403 0.023256624 -0.4504156 -0.12010345 -0.2348889 -0.3898467 -0.5251688 0.07224989 0.3639578 0.3764148 0.27459592 0.3046087 -0.26795635 0.07300177 0.05741239 -0.49484724 -0.10330709 -0.2308702 0.051786266 0.32159165 0.27592367 -0.03525424 0.12091263 -0.373364 -0.047975063 0.14473727 0.11673055 -0.32258496 -0.09588871 -0.42671382 0.21093315 -0.13066174 0.036856204 0.11260325 0.40571943 -0.1612317 0.15562296 -0.42731306 0.29017213 -0.42037427 0.16414163 0.10044512 -0.21023391 -0.30247307
fault 0.3459938 0.34249437 0.33904028 0.46250466 -0.2840343 -0.18195571 -0.03568093 0.025942275 0.4934905 -0.22171329 -0.07293544 -0.048153333 -0.213704 -0.22917376 -0.31050488 -0.36273596 -0.21480379 -0.051413856 0.1873253 0.12303479 -0.62749577 -0.159159 0.30356044 0.056088604 0.09074806 -0.14340892 -0.46818793 0.09767873 0.28432542 0.10838331 0.15540138 -0.17562865 0.42139715 0.29421425 -0.011371319 0.34065107 0.34808096 0.17081015 0.18998204 0.20928201 -0.5835436 -0.2689905 -0.089309216 0.2192826 0.00913893 -0.26963764 -0.51819164 -0.11195883 -0.055318873 0.22239627 0.22990136 0.07996344 0.03298069 0.42550498 -0.108136326 0.057810493 0.4750021 0.47439182 -0.08843956 0.10098187 0.25307918 -0.33480152 0.011149094 0.048774213 -0.3344066 0.23895273 0.14100033 -0.14054038
copper 0.16784537 0.3019615 0.091599695 -0.3419975 0.66617596 -0.52300215 0.022283085 0.1596008 0.1780594 -0.43604696 -0.28698206 0.1944364 0.0058460617 -0.060661122 0.24063614 -0.06683517 -0.33032066 -0.005372103 0.038439773 0.2461205 0.5104104 -0.27536723 -0.19529453 0.15897988 0.28047845 0.60893047 0.22459254 -0.26971084 0.21215318 -0.12901284 0.21656182 0.079642445 0.5234601 -0.056550436 0.16876437 -0.02760853 0.3688848 -0.1374717 0.09511217 -0.029104073 -0.49230567 -0.59041166 0.018041639 -0.05048804 0.054260757 -0.18389603 0.0018225875 -0.14309812 -0.5658891 0.34811488 0.07890589 -0.17737792 0.23718289 -0.12779988 0.0017007312 0.042147547 -0.009679409 -0.20577204 0.027294356 -0.019929975 0.01487128 -0.7361444 0.16516344 -0.07481388 -0.14885278 0.060084987 0.1553405 -0.11938084
ore 0.22303616 0.329627 0.043488175 -0.4899622 -0.13400477 -0.22454113 -0.36166817 -0.067085885 -0.17552722 -0.15196006 -0.21690714 0.28991118 0.026733622 -0.26693103 0.50171864 0.066877276 -0.049180597 0.106947236 0.12820312 0.28450334 0.21523923 -0.508663 0.33813414 -0.027037403 0.24161333 0.4865222 0.053256694 -0.355281 0.15963724 -0.29091057 0.03362592 0.063647546 0.032792084 -0.014748279 0.005950186 -0.13664058 -0.4705296 0.21818548 -0.090716965 -0.14504516 -0.3106883 -0.27705115 -0.3909564 -0.19512425 0.2519594 -0.15645842 -0.20456736 -0.024523547 -0.3291033 0.64651924 -0.24838044 -0.25185713 0.19492914 -0.13240774 0.30073124 0.20313911 0.21852243 0.07583278 -0.37133744 -0.1739227 -0.04437819 -0.28617528 0.42583385 0.19945449 -0.36621168 -0.38376072 0.37310386 -0.10033918
date -0.22966117 0.122849695 -0.318129 0.07874141 -0.051723853 0.6716912 -0.18893373 0.06529023 -0.056102276 0.07934601 -0.69081235 0.14642154 -0.14089912 -0.16578043 0.01793903 0.27551118 0.1169801 -0.2410627 -0.5860136 -0.658558 -0.15599121 0.2895595 -0.58071417 0.12526825 -0.4621105 -0.40139243 -0.39233622 0.48264694 0.37302604 -0.2950013 -0.02367158 0.21500528 0.3810733 0.43080562 0.64219415 -0.118312046 0.14814048 0.08280307 0.053859085 -0.10306447 0.27442145 -0.44753385 -0.48853466 0.04606461 0.37179175 -0.5383369 -0.0017925899 0.10970204 -0.2007541 -0.28686047 0.061313152 -0.38629088 -0.15226363 -0.14369956 0.25973615 -0.39182845 0.061938938 0.8223843 0.00554673 0.21199527 -0.14159349 -0.13538468 -0.06914927 -0.39280644 -0.20932071 0.03318288 -0.24753194 -0.058937296
age 0.21036245 0.22219816 -0.16299063 -0.28609008 -0.3979241 0.05469249 -0.049754687 0.034682605 -0.46655992 -0.70283365 -0.26753598 -0.090787426 -0.36747235 -0.40372255 0.20174254 0.024379766 -0.05458781 -0.16682556 -0.49528956 -0.3713138 0.051428996 0.35611042 -0.3092865 0.25841087 -0.08930895 -0.24954095 0.16903742 0.31362617 -0.20448333 0.10667565 0.083990455 -0.032210514 0.4069646 0.24009077 0.14670725 0.22091345 0.25358704 0.13604459 -0.17474946 -0.06524679 0.18622561 -0.2330417 -0.22491884 0.20644136 0.43132338 -0.636965 -0.08243443 0.3467666 0.31472638 0.166295 -0.00090171315 -0.31294712 -0.38130552 0.07305626 0.3679618 -0.2612181 0.11559749 0.2423501 -0.102515504 0.36217993 0.15014382 -0.26626116 0.4134603 -0.17351478 -0.057249185 0.27349025 -0.1193446 0.11783605
fracture 0.530825 0.29708123 0.024198014 -0.5015783 -0.025545176 0.13471793 -0.27241576 0.4036373 -0.020766294 -0.1346227 0.18307553 0.15533783 0.12553383 -0.12845485 0.21451613 0.66887844 0.07356725 0.26013386 0.20302275 0.43915275 -0.11484086 -0.24516532 0.28183097 -0.4058174 0.21020295 0.5857285 -0.09435841 0.25410604 0.5490719 -0.012998958 0.13121177 0.34404096 0.014308928 0.19390796 0.28394878 0.41502047 0.1371244 0.08002381 0.06616343 0.2917582 -0.18569745 -0.5056683 -0.332209 0.14472437 -0.0703859 -0.5804924 -0.085782595 -0.35441637 -0.58252144 0.050951846 0.17256431 -0.35145655 0.38782293 -0.3077764 -0.18273188 0.1883515 0.05701898 -0.46917284 -0.25651813 0.2811642 -0.29211968 -0.5299028 0.019864282 0.050556544 0.6706881 -0.060481142 0.06435766 -0.5084957
1 0.018156646 0.20011814 0.1243639 0.10271664 -0.20457466 0.010872307 -0.120114505 0.21276791 -0.18516885 -0.08925955 -0.3391235 0.37581182 -0.04334409 -0.4280339 -0.1651821 0.316322 -0.062033646 -0.058264934 -0.47492462 -0.022852372 -0.1275865 0.12569338 -0.25071377 0.16665529 0.71817553 -0.4882532 0.14333622 -0.084966294 -0.00055063854 -0.048632417 -0.15516637 -0.17384304 -0.082495145 0.35538068 0.17441386 -0.00630043 0.083766416 -0.2792118 0.33907163 0.1100464 -0.18173666 -0.48478293 0.07507186 0.2812951 0.045553338 0.046787877 0.13395761 -0.09140079 -0.23531711 -0.23708618 0.05434601 -0.08711475 -0.12931205 0.030590476 0.0861296 0.5164518 -0.08570095 -0.05243225 -9.0428104e-05 0.21861528 0.17731658 -0.321285 -0.08130599 -0.40551224 -0.029300263 0.46441886 -0.23531733 -0.4432543
2 -0.05464226 0.5015492 0.014941817 0.35214505 -0.25852743 -0.23601463 0.14289546 0.19064826 -0.06166783 -0.11036309 -0.17828515 0.11927653 0.59841454 -0.27171272 -0.17766123 0.107674755 -0.29577252 0.17098978 -0.2115041 0.40479672 -0.61068195 0.3546685 -0.022976624 -0.08226848 -0.086066924 -0.44460216 -0.123293824 0.20327574 0.5833475 0.09678412 -0.1260195 -0.34468868 0.18759719 0.024031663 0.46426263 -0.09398947 0.0924926 -0.09697922 0.31903026 -0.052182272 -0.33396253 -0.68015194 0.14584716 0.037195247 0.5303957 0.104178675 -0.07261797 0.012001206 -0.037608292 -0.0861112 0.20218624 -0.04137246 0.05667652 0.13229147 -0.11595739 0.028323468 0.12706383 0.22528578 0.010259177 0.12347373 0.15780768 -0.16419062 -0.081749566 -0.24115786 0.080099456 0.05246508 -0.16866599 -0.36266777
quartz 0.11799719 0.15000105 0.4875145 -0.66555506 -0.10517218 0.057186037 0.5288809 0.38023084 -0.25534472 -0.19634828 -0.17242421 0.3352768 -0.037713654 -0.54848593 0.31709602 0.07989117 0.006827304 -0.05517786 -0.46403384 0.16563338 -0.08993555 0.016775837 0.33443 0.023821775 0.05344228 -0.71190727 -0.56398106 -0.17811342 0.15833925 0.12858091 -0.43373707 -0.34986588 0.1525079 0.12898795 -0.11205966 0.085549235 -0.047154672 -0.014489872 0.5841381 -0.09402671 -0.17027971 0.051506717 -0.29092154 0.49787968 0.08091777 -0.21170208 0.12569748 0.16888866 -0.2743943 0.105454974 0.031140402 -0.13242786 0.4686524 -0.16623405 0.26204824 0.002487376 -0.19847018 0.23459396 0.08822254 -0.3844272 -0.3501229 -0.16271 -0.013058115 -0.29214975 0.0871639 0.038223166 -0.012320653 -0.35938078
formation 0.609117 -0.05531753 0.6880621 0.40924218 -0.40800533 0.43342805 0.07327331 0.259769 0.3110926 -0.18635142 -0.31241775 0.08112783 0.05359657 -0.14416665 -0.07451115 0.111588456 0.2972105 0.0058854097 0.16677073 0.42021993 -0.3977151 -0.19628306 0.47508964 -0.054900922 0.041288894 0.61442757 -0.45894516 -0.19465204 0.21410938 -0.1908101 -0.03720927 -0.1899167 -0.21791139 0.37249142 -0.06906425 0.19800799 -0.057805914 -0.0662365 0.24593154 -0.20904411 -0.10018915 -0.15158282 -0.36197832 -0.20551838 0.15997197 0.017052326 0.065288395 -0.11782443 -0.09760116 0.09142632 -0.06909574 -0.03487392 -0.07079499 -0.19015431 0.17028435 0.19200762 -0.13533886 -0.1903527 0.1494002 0.107823774 -0.21249339 -0.20844933 0.53045535 -0.19817844 -0.33987075 0.03869107 -0.21550533 0.4766287
associate 0.14438216 -0.12325995 -0.15879124 0.061258264 -0.50762564 0.14028873 0.0146258185 0.12134972 0.027874127 0.08849802 -0.62915546 -0.33117384 0.027290806 -0.2664073 0.07374749 -0.04600041 -0.24351995 0.4405135 -0.06639954 0.27830502 0.032933097 0.047214597 -0.22931574 -0.18989252 -0.20580097 0.01578814 -0.4883486 0.19534373 0.14590536 -0.24805667 -0.22001097 -0.15876009 0.22607444 0.17698821 0.1702697 0.22595158 0.24804117 0.17784439 0.34121633 0.2210337 -0.039331015 -0.20720355 -0.30100882 0.13851507 -0.104299106 -0.23326588 0.1432368 -0.05587953 -0.31719416 -0.1474405 -0.20797223 -0.39714807 -0.04026168 -0.00943425 -0.101938814 0.003474802 0.22629297 0.25599417 0.3185267 -0.06107178 0.20616016 -0.3495721 0.104502745 0.13342504 0.19863302 -0.30555755 -0.10992195 -0.22317655
occur 0.24782848 -0.047341686 0.010353216 -0.32391343 -0.41281843 0.059425004 0.11594344 0.045333628 0.2714193 -0.07010529 0.15262173 0.2586268 0.20389885 0.09400418 0.296648 0.057441786 0.019874223 -0.15897995 -0.14424556 0.33252683 0.1471905 -0.3763315 0.04061328 -0.08536381 0.19235577 0.4126047 -0.2659111 0.012439288 0.42914295 -0.015650952 -0.27432814 0.3897808 -0.004397071 0.38402462 -0.06940102 0.25451016 0.038334426 0.50193185 0.17609468 -0.13406417 -0.35604313 -0.10230223 -0.2452538 0.08394486 -0.10825596 -0.24323471 -0.016873384 -0.083250046 -0.14239162 0.16551755 0.26166886 -0.42714995 0.24590059 -0.21116711 0.14511384 0.18081328 0.037690565 0.056548927 0.24542199 -0.07064412 0.35788617 -0.5314705 0.13844208 -0.3891666 -0.34386078 0.1570852 0.0055660107 -0.06267579
- -0.11787773 0.12058681 0.3336904 -0.13238697 0.086170346 0.19042325 0.060502354 -0.37680188 0.2570637 -0.009946416 -0.10996554 0.47779956 -0.034410335 -0.46977353 0.13772354 0.4024328 0.006018497 0.19727911 0.2995883 0.0007442288 -0.367003 -0.036137667 0.27546933 -0.15586983 0.2465528 0.057312015 -0.4961455 -0.4754751 -0.038254928 0.32680637 -0.13913576 0.27372506 -0.010780054 0.0900656 0.22279644 -0.26562592 -0.25108662 0.25577646 0.45377228 -0.13853444 0.25422964 -0.4506166 -0.10697668 -0.059527084 -0.094624124 -0.22305669 -0.58316696 -0.008686063 -0.22191788 0.47380948 0.3788979 -0.15224214 0.24731864 -0.04609952 -0.24173418 -0.4127191 0.5277683 0.13873863 -0.07477028 0.079874 0.57449996 -0.27604264 -0.001313695 0.1657595 -0.17746808 -0.022509426 -0.2239516 -0.38464755
molybdenite -0.26465812 0.40359938 -0.39692283 -0.2379593 -0.051052094 0.5244034 0.07393594 -0.18854249 -0.08028524 0.20165549 -0.86929333 0.21784478 -0.026642546 -0.15536343 -0.1871781 -0.017326426 -0.28287658 -0.18109098 -1.0842359 -0.41232085 -0.18733166 0.29197317 -0.6636782 0.6386329 -0.38739595 -0.5159327 -0.415696 0.73870754 0.29895616 -0.15608525 -0.049395446 -0.015746212 0.418699 0.3257554 0.7871615 -0.26013088 0.047759876 -0.35791376 0.4630641 0.016439615 0.22265176 -0.1515433 -0.74173003 0.019571822 0.31799984 -0.39418596 0.16339463 0.09940263 -0.2656304 -0.19096038 -0.038512837 -0.4834898 -0.17727163 -0.19229026 0.255379 -0.21634772 0.25857526 0.52408695 -0.28238025 0.4921629 -0.36266747 -0.06244007 0.25362793 -0.18917331 -0.28537342 -0.1105058 -0.13034515 -0.033166315
caldera 0.32364058 -0.32573864 0.08045483 -0.28321418 -0.41545808 -0.08241898 -0.17386095 -0.15103827 -0.7892345 -0.8277622 -0.050770756 0.2477386 -0.29362622 -0.3743614 -0.04831919 -0.28455374 0.4001559 0.10226042 -0.19734381 -0.07587405 0.09546013 -0.20770289 0.13429423 -0.010819185 0.49581245 0.24636881 -0.56070274 -0.020764053 -0.469999 0.10961941 0.14274314 -0.14644244 -0.428274 0.6927172 0.24730901 -0.12122677 -0.26624644 0.56903803 0.15732136 0.016958496 -0.46750572 -0.47716966 -0.12410913 -0.4521939 0.07273107 -0.33562043 0.41040137 -0.5734996 0.023491176 -0.0005848056 -0.23714127 0.37005487 0.2976746 0.010531118 0.4273129 0.076845676 0.04113221 0.54542875 -0.10827723 -0.07196574 0.4846306 -0.210307 0.12988839 0.03519945 0.3393286 -0.0143011585 -0.030496651 -0.12153371
magmatic -0.11515061 0.14180064 0.18506564 0.17284544 -0.20349398 0.39057535 0.11859998 0.18900795 0.26089975 -0.2896447 -0.61306053 -0.036071282 -0.15732884 -0.3327843 0.10156498 -0.27808976 0.020788763 0.4531582 -0.34544533 -0.022839691 -0.057791974 -0.06522909 0.11052664 -0.21823062 -0.058840193 0.088184774 0.0039342055 0.15739876 -0.10157814 0.18556128 -0.25047335 -0.1534586 0.18045935 0.0815382 0.2206823 0.32754964 0.13753995 0.083576165 0.008289587 -0.28994477 -0.07916047 0.21490861 -0.5024613 -0.17486714 0.110757835 -0.2872946 -0.12594484 0.13198516 0.07363427 0.1418816 -0.027423088 0.027977135 -0.3927888 0.035672933 0.34999263 0.30355757 0.029808097 0.17939621 -0.19019587 0.01317393 0.47530493 -0.28812253 0.35572273 0.4556018 0.066693336 0.034108408 0.10826884 -0.011894774
volcanic 0.1286339 -0.12003076 0.7508962 0.07307144 -0.078798406 -0.10266036 0.15102857 0.026275676 0.05230059 -0.58590084 -0.4525072 0.230711 -0.030377438 -0.73796475 -0.11409749 0.017639546 -0.22619547 -0.2331096 -0.2755186 -0.065404944 -0.73137283 0.006041678 0.32785466 -0.5298383 0.5859044 0.03224991 0.14330205 -0.009579404 -0.23071736 0.18966924 -0.003907658 0.06856619 0.0153732365 -0.04719075 -0.022781923 0.08555413 -0.3134332 0.19648093 0.04734491 -0.14121182 -0.37822938 -0.38154578 -0.44458288 0.112832606 0.31789497 -0.04121849 0.21213974 -0.20277776 0.12682922 -0.3634016 -0.22145611 0.1944567 -0.55183965 -0.031038107 0.5193589 0.16646673 -0.079270676 -0.20805347 0.2720966 -0.20596191 0.061738327 -0.48203456 0.28078383 -0.0075591127 -0.28346667 0.4744171 -0.004080177 0.2726087
cu -0.48315898 -0.20425072 0.30505648 -0.07630408 -0.13891889 -0.17726856 0.15577 0.20885457 0.05595663 0.09859949 -0.43768567 0.3082826 0.3341374 -0.36728045 -0.17844851 0.5732522 -0.40296468 0.21813692 -0.23213217 -0.10262238 0.23117343 -0.7457135 -0.2411486 0.23309253 0.6856579 0.40578526 0.43730655 -0.17402554 -0.09726474 -0.040704947 -0.5200721 -0.31708905 0.28904307 0.2507224 0.37864032 0.043526 -0.058109555 -0.15536278 0.16220179 -0.05410201 -0.44505396 -0.41956246 -0.53273463 0.041169718 -0.18466373 -0.11528773 -0.58217144 -0.11758919 -0.07689651 0.025112955 -0.31618997 -0.31058568 -0.5838941 0.6320629 0.08899418 0.30500954 0.29757267 0.25486642 0.4231107 -0.34205088 0.10429566 -0.274553 0.24159753 0.133927 -0.15039286 -0.0016098722 -0.2629832 0.39073
type 0.24878262 0.24624045 -0.0082193175 -0.32306987 0.23451757 -0.2362807 0.12124041 0.5704366 0.22957195 -0.224627 -0.30774444 0.029023677 0.5734583 0.01709463 0.124793954 0.112019084 -0.4681018 0.11306424 -0.51948404 0.11257689 -0.12455423 0.08420234 0.0032827214 -0.27755746 0.22295235 -0.1372629 -0.37030023 -0.008347928 0.5735481 -0.4175401 -0.40952206 -0.60627276 0.38504657 0.33587885 -0.16143723 0.16350028 -0.5326398 0.022016367 -0.12588413 0.15726788 -0.6160397 -0.082639165 -0.5057081 0.08639522 0.16073601 0.103295974 0.19652429 -0.22973435 0.08993131 -0.025180629 0.25182354 0.045844745 -0.1555296 0.19517957 0.03374791 0.3678222 0.33177868 -0.0016139981 -0.067407124 0.07221788 0.07709069 -0.25478888 0.5714025 0.10033477 0.042451583 -0.023116527 -0.1897245 -0.06709876
host -0.13165736 -0.08950347 0.037367474 -0.12219101 0.27092242 0.053841732 0.21696195 -0.39160258 -0.12905739 -0.31037483 -0.34678733 -0.060615957 0.422103 -0.10327516 -0.020882167 0.24053717 -0.2409833 0.10810951 -0.345586 -0.38326725 -0.1552248 0.11927051 -0.0505668 0.68656725 0.04876121 0.077250704 -0.18312019 0.060769364 0.022325614 0.29607087 0.18883446 -0.21577968 0.23215711 0.42700422 0.12438753 0.28109962 -0.01708594 -0.039452966 0.30670655 -0.33207926 0.09557866 -0.7075516 -0.13640141 0.55980027 0.2650821 -0.16725093 -0.095540814 0.4156865 -0.4420526 -0.06110044 0.010059257 -0.16826814 0.18648519 -0.27872455 0.06166587 -0.048760355 0.08565237 -0.08970783 -0.09405741 -0.0213829 0.04834536 -0.07636003 0.5561586 -0.061060984 -0.48287666 0.29973695 -0.53281343 0.6418747
pipe -0.06703953 0.5948508 0.0439025 -0.43923083 -0.15816261 0.413928 0.290876 -0.32128322 0.9074259 0.07238133 0.009401888 -0.02045885 0.14845593 0.0059350473 0.2643162 -0.15008603 0.06564045 0.43330646 -0.021431917 0.37806952 -0.03019518 -0.07616756 0.20731744 -0.25191298 -0.17440045 0.4579812 -0.45934376 0.07917207 -0.12320736 0.019709732 -0.45251712 -0.4896372 0.21460468 0.3410444 0.5255349 0.7874361 -0.0061165406 -0.10390945 0.06411308 -0.21382637 -0.18486129 0.13299295 0.028788492 0.06568433 0.3935316 -0.43779013 0.24627864 -0.8088695 0.074955404 0.15315586 0.83397263 -0.39774916 0.008626829 -0.15245743 -0.091359176 0.53191406 0.26707116 0.48449782 0.33204567 0.27478892 0.71338654 -0.22584683 0.20284362 -0.30427828 0.18178777 0.45761436 -0.20335944 -0.25831324
fluid -0.1754026 0.23429208 0.41103193 -0.10851041 0.03120593 0.13284141 -0.023743166 0.1931953 0.10389587 0.16413759 -0.41676366 -0.34079805 -0.12241562 -0.08743918 0.49504933 -0.019965585 -0.4229541 0.6064779 -0.25389853 0.3037825 0.1223484 -0.14790985 0.29231963 0.27530745 0.66755784 -0.082013994 -0.4791611 0.2822148 0.23954344 0.045541365 -0.032649748 0.045075033 -0.2765884 -0.13071185 0.32204375 0.068393506 0.004168793 -0.34496415 0.29799458 -0.1310019 0.24151258 -0.26257098 -0.24231184 -0.40212655 0.09148068 -0.30056125 -0.15815467 0.117508166 -0.5951436 0.328376 0.19781497 -0.26252013 0.3895231 -0.25592873 0.22790055 0.1903487 0.06206648 -0.4628131 0.038439836 -0.053166907 -0.29284397 -0.23892358 0.03742394 -0.06507253 0.6517975 -0.3717605 -0.36991644 -0.22076842
stage -0.32985055 0.77674747 0.2850247 0.25610155 0.009788042 0.70727336 0.24928175 -0.0097006075 0.50084037 0.026456362 -0.1680271 0.14934635 -0.16873349 0.105352364 0.11183599 -0.45802805 0.099584304 0.40050682 -0.11532776 0.30272794 -0.2566818 -0.103426926 -0.016787782 -0.15903579 -0.16319597 0.6062525 -0.6908715 0.19595094 -0.22400835 -0.14677855 0.32351324 -0.010173015 0.17868643 0.1999492 0.29327646 0.014673746 0.14286669 -0.29243776 0.36595842 -0.22142343 -0.34691405 0.5932057 -0.5964948 0.029071558 0.23138043 -0.17879033 -0.3226846 -0.17554155 -0.042320617 -0.03500292 0.46770975 0.0046113217 -0.10725599 0.1837348 0.16729449 0.26617628 0.5032606 0.37516928 0.1256319 0.13351282 -0.10611805 -0.8116392 0.53936106 -0.29706502 0.018567823 -0.15293932 -0.37691382 -0.31898466
cretaceous 0.21243548 -0.21578842 0.13212863 -0.13024142 0.2784898 -0.050973855 0.20446122 -0.18232669 0.040161595 -0.50287867 -0.30730322 0.14883313 -0.28592685 -0.59005064 0.29959437 0.06758016 -0.5820428 -0.5161947 -0.7801496 -0.10937557 0.19223942 0.22226004 -0.31437293 0.5341138 -0.32851458 -0.18080096 -0.47772062 0.34015304 0.27004045 0.15260914 0.039512735 -0.03242091 -0.41562417 -0.0030091307 0.0941245 0.4879001 -0.032943446 0.1550166 0.47325653 0.105252504 0.4364576 0.042155974 -0.41381103 0.091600046 0.32441044 -0.6088012 0.43304646 0.3993165 -0.33629742 0.120054334 -0.39230704 -0.16590801 -0.33846158 -0.645372 0.40149966 0.32345322 -0.15811686 0.26962912 -0.051472582 0.1264071 0.054494068 -0.24454492 0.58038485 -0.07497246 -0.07209155 0.16058472 -0.6159129 0.24879755
east 0.20459583 0.09614672 0.12135129 0.099024646 0.11754127 -0.46507478 -0.09134021 0.013244516 0.5356865 -0.9712103 0.013803171 0.6333667 0.08345405 -0.12675917 0.15379962 0.5549201 -0.5080116 -0.24307123 0.29600418 -0.05890195 -0.6276046 -0.29939443 0.24743351 -0.22701356 0.13759638 0.116929874 -0.12805972 -0.42298147 0.5967789 -0.09584651 0.15821981 -0.7671022 0.35857123 0.37464514 -0.35733345 -0.3346537 -0.2137835 0.061510887 0.3513425 0.50657284 -0.43334556 -0.06283182 -0.469452 -0.009059077 0.23214458 0.080690354 -0.29072198 0.08884577 -0.018504959 0.46329507 -0.2283268 0.346416 -0.08945899 0.35099915 -0.001540878 0.21609823 -0.08617229 0.33202112 0.18543088 -0.22486699 0.13948318 0.14049703 0.21817233 -0.081171304 -0.22674173 0.196283 0.023655212 -0.40836442
along 0.5228038 0.17648487 0.30710486 0.03654802 -0.40894026 -0.1794541 -0.50110376 -0.025885358 0.05722737 -0.21625736 -0.102563456 0.32419568 -0.3166641 0.033000037 0.3188283 -0.23532604 -0.08014668 -0.016403433 -0.1400533 0.11309678 -0.08517982 -0.37684304 0.4377721 -0.31185976 0.056865383 0.2471952 0.1044185 -0.022435041 0.14859076 -0.16108362 0.18219574 -0.25365472 0.3570594 0.4752206 -0.38597387 0.08934446 0.58959836 0.48400933 0.43184218 0.30697125 -0.59684014 -0.19447163 -0.15360533 0.3643416 -0.16326763 -0.10083059 -0.2970848 -0.043280493 -0.19180565 -0.057542 -0.29770696 0.18592176 -0.061196223 -0.22248375 -0.12535276 -0.11213059 0.5489189 0.14384197 -0.1004728 -0.26185513 -0.033219688 -0.6275739 -0.0575294 -0.25360936 -0.23894946 0.14486837 -0.009272368 -0.059815228
re-os -0.16519222 0.43718913 -0.19579458 -0.24614432 -0.12839177 0.6475952 -0.18140881 -0.14672443 -0.013420862 0.2317443 -0.8728672 0.029295517 -0.2588799 -0.30911803 -0.08687967 -0.06947998 -0.15854667 -0.12822048 -0.8396245 -0.43205106 -0.20468062 0.15896516 -0.6517708 0.5238199 -0.613988 -0.55036134 -0.2924646 0.82161444 0.4086571 -0.26273134 0.034480914 -0.041623857 0.38144228 0.34608355 0.7635206 -0.23803979 0.106600426 -0.2619487 0.1436686 0.16689946 0.15479553 0.019992076 -0.8106388 0.04305851 0.37753257 -0.41384295 0.19550946 -0.027750617 -0.22536832 -0.26218754 -0.022854893 -0.67696726 -0.045250308 -0.14895076 0.37106657 -0.32330284 0.352891 0.606344 -0.28064206 0.60003656 -0.32524034 0.019292608 0.29919654 -0.16069658 -0.4452412 -0.1955163 -0.1828829 0.11801475
system 0.299026 0.40080896 0.30842608 -0.15361682 0.09511576 0.5579097 0.090171464 -0.39876947 0.07680921 -0.06881395 -0.36191562 0.10051828 -0.20634343 -0.121881016 0.3215707 -0.3787371 -0.57002264 0.15681225 -0.358414 -0.42866674 0.13746914 -0.05440648 -0.27589723 0.23188828 0.03123412 -0.11573527 -0.1990936 -0.121862 -0.16445449 0.031580023 0.22740933 -0.24441482 -0.37722 -0.25553536 0.78000754 -0.43965572 -0.29651564 0.399958 0.21594316 -0.23785946 -0.2516054 -0.0658891 -0.26459867 -0.33801454 -0.02563764 -0.18143556 -0.59085184 0.2016787 0.30779245 0.3680885 -0.06471415 -0.0646914 0.06233828 -0.25294754 0.13653134 -0.08944029 0.34355533 0.31657606 -0.12826264 -0.1676118 -0.013427398 -0.43867978 -0.12024867 -0.40158504 0.32186678 -0.12608029 -0.0431335 -0.13868953
district 0.47646365 0.06685467 0.2128629 0.096302606 0.041348577 0.06916538 -0.30626312 0.058450513 -0.16668361 -0.1072349 -0.35115278 -0.14977507 -0.28534517 0.13501345 -0.2688695 0.04072085 -0.3780015 -0.44308838 -0.042825878 0.41834876 -0.23667234 -0.4372535 -0.3070466 -0.086081475 -0.03888009 0.6370258 -0.43706056 -0.3040028 0.11038096 -0.0027197686 0.09634815 0.14012767 -0.5957885 0.31900886 0.19591771 -0.25482973 -0.3014613 -0.1454657 0.22848514 -0.10436035 -0.42954057 -0.72299063 0.26860976 0.15211804 0.27018115 -0.28510374 -0.24518326 0.25292328 -0.089100346 0.5825109 0.08275032 0.073756106 0.251965 -0.06696718 0.29781553 0.46613607 0.20138171 0.36427236 0.06671891 -0.114653125 0.5180702 -0.14482847 0.09822052 0.21697612 0.22412941 0.035838865 0.17106444 0.37636146
braden -0.06588641 0.56223017 0.07134647 -0.35192198 -0.113175906 0.57941455 0.22770141 -0.18899144 1.1318249 0.1399586 -0.11404133 -0.22317912 0.22259845 -0.009927457 0.38919055 -0.14772883 -0.0062108417 0.5659587 0.16659269 0.34653938 0.0032992489 -0.14850344 0.17311165 -0.09775773 -0.121906206 0.34503552 -0.5891358 -0.13921463 0.0055307657 -0.06968112 -0.42420956 -0.48875582 0.06355077 0.3157203 0.46823153 0.77935797 -0.031193944 -0.19902366 0.07279422 -0.33123365 -0.19013026 0.20485477 0.0029063465 0.055030987 0.36417043 -0.41902962 0.24128516 -0.85192937 -0.02116475 0.19921678 0.6522239 -0.41849837 0.123830006 -0.17648023 -0.048003066 0.5041513 0.3726517 0.42074472 0.38445207 0.31403908 0.54271746 -0.24061438 0.07941854 -0.4596298 0.12022015 0.34331557 -0.27566826 -0.42094985
form 0.19420864 0.17157371 0.3785027 0.22340548 -0.023711607 0.030690327 -0.36837736 0.35693118 0.43281046 -0.031652417 -0.22105703 -0.2506834 -0.36640552 -0.1141822 0.260341 -0.14025111 -0.045030836 0.34552887 0.3154121 -0.03632985 0.23135825 0.3214211 0.3384079 0.19950643 0.43325076 0.39393547 -0.20442109 -0.03184131 0.02223114 -0.21005374 0.0337327 -0.1937852 -0.21112104 -0.018746633 0.21107836 -0.14434893 -0.12702495 0.11406503 0.291847 0.28988197 -0.34189534 -0.0013234136 -0.033939444 0.14884742 0.007732765 -0.28992262 -0.05109114 -0.3965142 -0.08916322 0.50210863 0.2961271 -0.23021886 -0.36662164 0.20795421 0.16980253 -0.06342927 0.26425022 0.097086675 -0.0803581 -0.10438613 -0.11539705 -0.786875 0.67123526 -0.13977145 -0.27409625 -0.06859626 0.16367958 -0.04739206
3 -0.13064127 0.2818197 0.069687456 -0.3577228 -0.5758808 0.21117286 0.47659925 -0.21892542 -0.1003258 0.3538078 -0.3836822 0.45708585 -0.015236149 -0.08092283 0.06719596 0.22749734 -0.22995667 -0.124628626 -0.6998413 0.1036914 -0.19722573 -0.27228868 0.04086771 0.20665972 0.21770442 -0.27438504 0.24220498 0.2209472 -0.009896901 0.15424326 -0.41023836 -0.55227786 0.062494736 0.45603082 0.48981553 0.3794067 0.03623254 -0.33052987 0.042440213 -0.19886437 -0.3158001 -0.67726636 0.29623792 0.27790737 0.1593045 0.11148375 -0.37559643 -0.5941656 0.3325814 -0.25729522 0.27227893 0.21757367 0.16809621 -0.21709557 0.1350812 0.20955858 -0.53306085 -0.27516252 0.01208752 0.48833558 0.049599394 -0.06084221 0.47571352 -0.4344395 0.15979964 -0.02343101 -0.26063368 -0.27810663
casino -0.209738 -0.32927236 -0.2720329 -0.19555476 0.09067657 0.72520614 0.3043414 -0.22656658 0.03288683 0.011364161 -0.68122894 0.6234829 -0.17665319 -0.26417303 0.33982325 0.45516548 -0.57049304 0.019346382 -0.8185409 -0.503471 0.015719708 0.14636804 -0.43804112 0.6461079 -0.70544046 -0.4003995 -0.46553838 0.253389 -0.16985701 -0.29560998 -0.002140629 0.35014987 0.5431737 0.20705058 0.6217166 0.14585514 0.0065949783 0.2501871 0.55503494 0.46355325 0.35680136 -0.4028999 -0.68305486 -0.07477156 0.48112252 -0.6259988 0.28838044 0.48034424 -0.013874994 0.07267068 -0.36599082 -0.4904468 -0.20911878 -0.3333241 0.25758383 -0.22456487 0.09884556 0.45838773 -0.32306364 0.51278186 -0.20575461 0.15274993 -0.20277175 -0.0394027 0.050130274 0.43481615 -0.13429083 -0.06446521
high -0.33774707 0.15309973 0.14066464 -0.16876438 -0.21757336 0.117485926 0.3613412 -0.31442815 -0.18072186 -0.2481825 -0.359966 0.4325409 0.18467163 -0.3861765 0.5175735 -0.30010444 -0.12120508 -0.13761668 -0.06556423 -0.021147233 0.3775945 0.0005351589 0.061071754 0.11498669 -0.07340454 0.4082283 0.1989946 -0.26777014 -0.013308749 -0.20342192 -0.0067600473 -0.05584118 -0.29540312 0.1404662 -0.20357668 0.11899278 0.35333455 0.026484616 0.44765192 0.3194779 -0.33643907 -0.593794 0.11951452 -0.25457418 0.06373366 0.024988968 -0.114473365 -0.4758037 -0.6853329 -0.21212704 0.5919237 -0.34875455 0.25532272 0.28705546 0.35162252 -0.04250272 0.054409415 -0.04261176 -0.3137703 -0.042701345 -0.5363441 -0.017066712 0.32309604 0.074594736 0.27585205 -0.29964623 -0.17575294 -0.5812915
teniente -0.015423488 0.67564476 0.2768099 0.41431582 -0.2522285 0.0566934 0.29296562 -0.07720424 0.36618915 0.28535905 -0.30297855 -0.1853531 0.4967502 -0.29584426 -0.011576154 -0.3326066 -0.29545766 0.0034801436 0.027200337 0.3731252 -0.6505433 0.061764445 -0.05898444 0.15865423 -0.21655965 0.22484949 0.04849023 -0.04612888 -0.34992772 -0.14977045 0.34649724 -0.5243558 -0.13779828 0.5111566 0.5094135 0.10877752 0.044292994 0.03650195 0.5872091 -0.08700069 -0.22461554 -0.16873194 -0.39303982 0.14333293 0.21941169 0.12633206 -0.36397 -0.48955938 -0.20141396 0.6436089 0.7060531 0.1297878 0.12976564 -0.12720759 -0.4108841 -0.12207692 0.4218572 0.46291822 0.20223324 0.18000273 0.104667276 -0.42232808 0.105140135 0.15432002 -0.049360745 0.3239235 -0.2208459 0.10571337
control 0.25646633 0.6597937 0.29028547 -0.66194713 -0.45502973 0.18862419 -0.35288274 0.24443725 0.005593271 0.19362758 -0.23609443 0.21262483 -0.60664195 -0.27810457 0.25137362 0.5483687 0.13619271 0.15190525 0.46610996 0.35684934 -0.14349087 -0.2295278 0.37837568 -0.020776723 -0.099587165 0.07041616 0.02144364 0.16153988 0.60315037 -0.0122524565 0.086581774 0.3377929 -0.16849485 -0.08889149 -0.022684187 0.1433243 -0.23429601 -0.43826908 0.6836516 -0.06807041 -0.23702158 -0.20149639 -0.34955642 0.2454622 0.0970137 -0.35145408 -0.2592679 -0.34753203 -0.37860674 -0.10238105 0.03626771 0.0073750946 0.524228 0.017700983 0.24087244 0.42714942 -0.16044937 -0.08635817 -0.23720582 -0.084232025 -0.37319362 -0.5520293 0.09245148 -0.071225345 0.4645678 -0.117125414 0.121379025 -0.16543786
au 0.3764135 -0.34175155 0.014085647 -0.10620193 -0.020329373 -0.7370417 0.040665753 -0.2349979 -0.35008124 -0.07875204 -0.29537603 0.33948833 0.46193588 -0.1687027 0.020132722 0.33307588 0.0091006765 0.79567033 -0.2870785 0.03312626 0.060810037 -0.44630855 -0.30967668 0.03649588 0.45489594 -0.01901526 -0.03668995 -0.4644026 0.13517527 -0.23616745 -0.3250084 -0.2719942 -0.27586553 0.50392616 0.09498734 -0.12659834 0.07439027 0.3720221 0.058541667 -0.036102578 -0.012128476 -0.6825959 -0.48761317 -0.44507998 0.15925902 -0.6397446 -0.037063897 -0.12975457 0.014346262 0.14946122 -0.48792386 -0.0016597795 0.029599054 0.6687704 0.5832006 0.06485297 0.17878973 0.14558733 0.16529348 -0.19327042 -0.14170608 0.0022775987 0.2568516 0.3003664 0.07960774 -0.023632968 -0.1235018 0.0065890066
dike -0.21904388 0.27645874 0.20906629 -0.22720073 -0.107375704 0.21079093 0.37609708 -0.20842549 0.05727068 -0.3976048 0.3723403 0.14454584 -0.17909057 -0.07202045 -0.14117429 0.08007297 0.30307215 0.6222385 0.08714663 0.6179986 -0.5731695 0.06487428 -0.16700599 -0.3250688 0.1644283 0.23573764 -0.40889588 0.0034288995 -0.45065156 0.519369 0.02016329 -0.47341624 -0.12160556 0.79046196 0.22041503 0.3081255 -0.17204571 0.24981093 -0.07407887 0.074965104 0.010591994 -0.3516767 -0.30779952 0.12897232 0.22686304 -0.34379518 -0.2715151 -0.6644019 0.09803856 -0.19145082 0.13570553 -0.34047183 -0.04870941 -0.3238568 0.14935304 -0.5326755 0.55719763 0.55432683 0.40178964 -0.13882194 0.342384 -0.3133598 0.1288762 0.16171964 0.0034727661 -0.017367184 -0.2517135 -0.5614005
park 0.104403324 0.56988674 0.31309694 0.3108271 -0.21833575 -0.14091459 -0.17130707 0.5982084 0.7360279 -0.12025407 0.036681913 0.31107402 -0.10134386 0.16501105 0.4953765 0.012313484 -0.1488412 -0.46780345 -0.3616378 -0.22536382 -0.13428903 -0.054880243 0.41941223 -0.5355847 -0.086957306 -0.7038036 0.3030586 0.5882108 -0.09382465 -0.76249903 -0.4116142 -0.71145415 -0.50156915 0.5312212 0.50134164 -0.14959803 0.26863962 0.5715584 0.7058174 0.30029133 -0.8039393 -0.7742468 -0.30509996 0.007877179 0.5348657 0.17354448 0.086404145 0.27153558 -0.31292307 -0.18200618 0.08394737 0.1858942 0.19001618 -0.35384825 -0.07619771 0.6267685 0.14317594 -0.5609491 0.11427522 0.20586798 0.32791144 -0.2555771 -0.29589418 -0.9228938 0.28114176 0.06481341 -0.085285194 -0.05310783
tianshan 0.41037774 0.0425996 0.073339716 0.4056203 -0.4490882 -0.35189798 -0.14953539 -0.14684369 0.54727995 -0.6629441 -0.37773418 0.23774898 -0.317509 0.00952997 0.54856944 0.70761 -0.012595022 -0.41030434 -0.5352875 0.52018756 -0.34685215 -0.52222 0.05067453 0.07429972 0.3102063 0.276822 -0.022717424 -0.6889162 0.57709616 -0.39723572 -0.052513592 -0.44601178 0.48624793 0.27110133 -0.11156627 -0.084087655 -0.2790044 -0.114167064 0.28445238 0.3127602 -0.25360635 0.62060034 -0.8108304 -0.16525231 0.321222 -0.19992389 -0.116820455 -0.015911905 -0.12860075 0.46648604 -0.71102077 0.1960484 -0.39969072 0.4673087 -0.12175677 -0.1265598 -0.26274002 0.12283823 0.09938685 -0.084577575 0.62120694 0.31694666 0.8085344 0.2954033 -0.08710574 0.34154075 0.4175912 -0.20275044
: 0.23657176 0.36928773 0.018606883 -0.11649166 0.5650833 -0.18107915 0.464199 -0.13485464 0.28498977 0.13371241 -0.24791561 0.24700993 -0.2737365 0.22743925 -0.22989479 0.06135379 0.083373025 -0.0913834 -0.26708272 0.68691367 -0.29526383 -0.26046717 -0.2395858 -0.45315355 -0.03404255 -0.54475904 0.7928996 0.1354637 0.022962077 -0.17489487 -0.26817557 -0.53011656 0.21425681 0.93013287 0.36960053 0.26838115 -0.39109558 -0.13639861 0.036083035 0.034901485 -0.068496175 0.11943839 -0.13929759 -0.30455095 0.25252968 -0.3825623 -0.1883269 -0.045785163 0.12411174 0.5142678 -0.07932223 -0.51485735 -0.15300371 -0.13003826 0.17091863 -0.43485698 0.027317436 0.4038736 0.099583976 0.10849271 0.04535918 -0.3751499 0.2877933 0.18138131 0.15875758 -0.68552464 -0.3778329 -0.47154176
dacite -0.060262688 0.02259412 0.38749173 -0.4136191 -0.25135368 0.110044874 0.7607889 -0.3756365 0.37457794 -0.82618135 0.20016271 0.22510383 0.28977704 -0.13715804 -0.03752546 -0.24992767 -0.23315074 -0.044803943 0.06496815 0.31824872 -0.12819676 0.15324122 0.15706636 -0.3297604 -0.3171544 0.10699317 0.056293763 0.7928115 -0.03262387 -0.15512343 -0.44808075 0.020856276 0.017666072 0.6047974 0.33895254 0.26645917 -0.42938268 0.021310994 0.47010675 -0.13654827 -0.4575702 0.03573932 0.29274434 0.097936526 0.37649888 -0.1572653 0.5445662 -0.4232823 0.43232822 -0.2047736 0.50747764 -0.05443117 -0.37610853 -0.10173354 0.5763108 -0.045818403 0.003469567 0.26223737 0.41744715 -0.16476169 0.24750903 -0.54102975 0.7645287 0.3644436 0.48998296 0.28083915 -0.18809271 -0.27405697
range -0.37383854 0.16413073 -0.02983171 -0.057600185 0.6370442 -0.4687205 -0.2310718 -0.56369436 0.03912431 -0.3787345 -0.5846476 0.20490123 -0.0534772 0.027318971 0.46873647 -0.032298483 -0.13371003 -0.08105441 -0.4564681 -0.729449 -0.008723536 -0.15532814 -0.09938427 0.4762801 -0.13607526 -0.44488242 -0.2150281 0.41433513 -0.0741679 0.14260393 0.09204148 0.32108817 -0.250519 0.44897255 -0.010355899 0.24532925 0.12274875 0.14388268 0.33151966 0.13297269 0.32769227 -0.39848995 -0.49215865 0.04804883 0.029339546 -0.3623714 -0.13278322 0.40655527 0.1610926 0.37762505 -0.33909306 -0.87863976 -0.11785693 -0.36975747 0.19748645 0.24252611 0.34260458 -0.19101958 -0.064290926 -0.06852637 -0.42150408 -0.17975025 0.2598867 -0.29140833 -0.20340425 0.34167877 -0.13908769 0.15711538
north 0.30843726 0.4024796 -0.07620887 -0.26358655 0.268355 0.2094822 -0.125859 0.06192615 0.16868052 -0.85535645 0.14537153 0.27983782 -0.17805274 -0.14257735 0.018280795 0.12985417 -0.0966008 -0.16067712 0.08608372 0.05664013 -0.18622431 -0.48118013 0.16994692 -0.6671776 0.32947174 -0.4179177 -0.17686057 0.113547355 0.62524533 0.18409134 0.030609531 -0.3018298 0.03855527 0.06619027 -0.18003568 0.23710988 0.6029123 -0.045331303 0.50456405 0.56044006 -0.7962677 -0.20978184 0.1192629 0.098381855 0.104084626 0.06089851 -0.24377915 -0.29391873 -0.046108562 0.4396645 -0.6283482 0.2967942 0.033940215 0.17764008 -0.52507496 0.10246642 0.5567026 -0.08588365 0.20623292 0.033019476 0.09166288 -0.42129532 -0.02280631 0.12186672 0.24940659 0.5517585 -0.15633596 -0.058678977
stock -0.23963618 0.31654602 0.24279213 -0.043366328 -0.48707408 0.027156403 -0.0015499876 -0.124442995 0.32934588 -0.07976062 -0.18723337 0.65610236 0.04863032 -0.3280514 0.15082881 -0.0032094917 0.12534206 -0.18328644 -0.3257508 -0.088359974 -0.45183954 -0.0043779714 0.17954472 -0.51589215 -0.005691289 0.02700928 0.2674219 0.1709567 -0.44219992 -0.40208814 -0.22741894 -0.12888025 -0.32766697 0.3033555 -0.115172334 -0.3607125 0.24644126 0.62812537 0.8930015 0.020931793 -0.36031798 -0.53984016 -0.25050092 -0.10210515 0.33427235 -0.05602747 0.14344752 0.34216323 -0.28402212 -0.3745003 0.043707885 0.058687117 -0.29512775 -0.1440322 0.21616785 0.43041727 0.081100345 -0.2830353 0.15573235 0.11442592 0.5481498 -0.3421201 -0.17120793 -0.77038395 0.3226919 0.16323738 -0.4227652 0.11202789
area -0.44685116 0.28961998 -0.058479782 -0.0595633 0.21797374 0.09971187 0.021860346 -0.1531658 -0.17006876 -0.6931039 -0.14345686 0.10999303 -0.44733447 -0.7584912 0.22817586 -0.09929659 -0.8225789 -0.28261757 -0.12979011 -0.13444069 0.43017882 0.050639056 -0.44975623 0.10950809 0.1839118 0.16179837 -0.25019282 0.29422724 0.37652233 -0.102072775 0.020995833 0.004572597 0.15986049 -0.07969365 0.027723605 0.7592856 0.52139 0.60385746 0.6976861 0.11535285 0.18764867 -0.2634151 -0.5502182 -0.7243016 0.037753727 0.00020752221 -0.14643781 -0.049182247 0.15975657 0.22216357 0.051549107 -0.0050479667 0.15471154 -0.29731494 -0.0276066 0.11100098 -0.89777374 0.07429235 -0.08518616 0.32422704 0.13071316 0.19547404 -0.43323368 -0.10862296 0.3324213 0.5525188 -0.40485877 -0.00445904
km -0.21778569 0.16808723 0.44686136 0.16858843 -0.12464681 0.080324806 -0.057071224 -0.22925134 0.37010968 -0.28216335 -0.5321359 0.34277183 -0.45034978 -0.14556761 -0.41900465 0.15424384 -0.2885172 -0.16794161 -0.47360024 -0.6372815 -0.03014788 -0.20156696 -0.4703216 0.23116614 -0.21848582 -0.30702186 0.11623227 0.13227074 0.10842085 0.18592216 -0.43832844 -0.478545 -0.42181018 0.8231919 -0.16390432 -0.29735616 0.399091 -0.019435868 0.30824727 -0.19657214 -0.23170651 -0.3026922 0.26932386 0.106606714 0.07094469 0.3152527 -0.45008656 -0.82176846 -0.77599776 -0.1449357 -0.5870761 -0.026862483 0.25654784 0.29776263 -0.0721618 -0.03347113 -0.14833923 -0.12661308 -0.3505288 0.24332096 0.2943063 -0.03924621 0.20538564 0.19547538 -0.07336456 0.3582156 -0.42567506 -0.8086726
2002 0.19272114 0.38235623 0.26231748 0.1886692 -0.4635235 0.3806802 -0.066413194 0.19180292 0.18836431 -0.36158437 0.05581898 -0.39641446 0.041878007 -0.23488222 0.61158717 -0.06267393 -0.2288361 -0.1350043 0.31646058 0.3818374 0.0056446134 0.120280474 -0.091178834 0.28921255 0.32839745 -0.17167874 0.7795701 0.34292224 0.014986798 -0.54039365 0.20343153 0.08738646 0.4442599 1.022011 0.22438523 0.33314967 -0.24490255 0.022112727 0.41758332 -0.18826549 0.024515318 -0.17201452 0.27821285 -0.18349819 0.26018018 0.06314348 -0.17739026 -0.7783848 -0.10617456 -0.09789433 0.22109279 -0.31209067 -1.0444489 0.5399094 -0.51571083 -0.45740598 0.25387353 0.2609913 0.16669735 0.20570445 0.035692826 -0.19786726 0.9855605 0.036893263 -0.21414278 0.2452633 -0.10213317 0.93661636
mine -0.29379734 0.17039634 -0.15835941 0.08726102 -0.029352233 0.25025317 0.19391917 0.20410137 0.8691287 -0.33620206 0.20738184 0.02861328 0.45223773 0.30835387 -0.2761166 -0.14758968 -0.07306467 -0.54361254 0.51183826 -0.25343654 0.036602702 -0.5276002 0.20948964 0.123953745 -0.1810857 -0.12525783 -0.54104084 -0.10121995 0.2607208 0.05183783 -0.21176025 -0.53843576 0.023444302 0.46737432 0.6460834 0.084111705 0.23579651 0.090414 0.8827244 -0.19200669 -0.54209447 -0.4123135 -0.61743563 0.4358535 0.52751994 0.57012856 0.028508391 -0.2426434 0.17382155 -0.09460856 0.3096902 -0.050800417 0.03172726 0.0709932 -0.05086547 0.45233598 -0.14391638 -0.051491935 0.0064153057 0.20535983 -0.010557164 -0.4992168 -0.28788212 -0.4095043 0.2346353 0.30309212 -0.55172306 0.18413864
~ -0.45787108 0.4306162 0.18294282 -0.3639654 0.16991349 0.950455 0.05289163 -0.30635652 -0.041498713 -0.08203475 -0.8253769 0.6380845 0.18036203 -0.2352723 -0.125624 -0.347021 -0.064488605 -0.25656146 -0.7416937 -0.38704097 0.14218768 -0.18270268 -0.42810693 0.2849677 -0.47382945 -0.018109258 -0.40582037 -0.20936932 0.16305085 -0.0074093575 -0.43099618 0.11001929 -0.66810185 0.17447644 0.48102698 -0.6466042 0.064382106 -0.058373675 0.20898099 0.34461483 0.54508686 -0.0544772 -0.5156513 -0.49796623 0.051701337 -0.37884644 -0.43848112 0.12905456 0.18033655 -0.10688572 -0.17241015 -0.8160543 0.12931079 -0.15262432 0.008236657 -0.44194907 0.17026825 0.049789026 -0.21309043 0.31691745 0.17757979 -0.054011144 -0.019052759 -0.19987932 0.033225212 0.38815975 -0.84112066 -0.29234514
table -0.102587864 0.6665199 -0.14575875 -0.61822045 -0.56684345 -0.23234454 -0.18098715 0.24019483 -0.17798653 0.43329158 -0.112240955 -0.28721333 -0.20501782 -0.17326982 0.22186531 -0.080347836 -0.039931502 -0.1789651 -0.56304026 0.07817262 -0.1952531 0.12148455 0.0804839 -0.17097145 0.3159151 -0.2897132 -0.22249578 0.32306296 -0.16930449 0.25318387 -0.16226675 -0.4384185 0.5707068 0.29452384 0.54846925 0.008272493 0.23911339 -0.64173603 0.34157336 0.035672076 0.024895094 -0.8048398 0.27754033 0.32677874 0.45859206 -0.21418221 -0.10062404 -0.3136686 -0.08522038 -0.0034317404 0.6736476 -0.21497269 -0.18003827 -0.5282961 0.126218 -0.04054096 -0.010631373 0.070255116 0.27583632 0.23190162 0.05627911 0.0929756 0.54694015 0.13412386 0.14663999 -0.2144254 0.036577996 -0.27201837
suggest -0.10949414 0.4607282 -0.37810743 -0.7108262 0.06864285 0.024822911 0.31095856 0.0049105575 0.09211283 -0.2488911 -0.8449754 -0.36098424 -0.062419675 -0.19440198 0.4616222 -0.31999403 -0.27986372 0.14693874 -0.16861384 -0.46265724 0.544588 0.32972637 0.31254646 0.043058593 0.06385378 0.09714762 -0.5890765 -0.099634364 -0.124083646 -0.6416737 -0.011484762 0.2901053 -0.66767955 0.1847863 -0.1925326 -0.087203585 0.30960837 -0.19132704 0.094039515 0.039871234 0.10855861 -0.7461218 -0.30557567 -0.10132041 0.10142376 -0.49822935 0.28216052 0.34975266 -0.26975086 -0.29091302 -0.40344843 -0.35739684 -0.20983066 0.018019043 0.37016928 -0.52242064 0.23519337 0.043455236 0.06417139 0.28296128 -0.16343859 -0.043840077 0.34748083 -0.071750335 0.51914674 0.27144635 -0.09540896 0.6475036
mineral -0.05592494 0.40462753 -0.010515075 -0.28113693 0.21079333 -0.13409403 0.10280489 -0.6423412 -0.442947 -0.1110931 0.14746828 -0.26376817 0.10087883 -0.5253786 0.8189436 0.21828972 -0.1759555 0.15271656 -0.62048733 0.23044224 -0.2518461 -0.010912446 -0.7516369 0.7015981 -0.052023463 0.2718415 -0.3658136 -0.5316314 0.6813437 -0.3368211 0.35806388 0.0066888668 0.3798589 0.1441798 0.28285134 -0.33346948 -0.019848015 -0.08366446 0.54573405 0.42039546 -0.013294912 -0.20523016 -0.18297537 0.09323931 -0.04947669 -0.023580177 -0.33881024 0.5051383 -0.46912804 0.1647625 -0.31297737 -0.5565223 -0.09169791 0.19557035 0.106286004 -0.09385015 -0.2841419 -0.98311853 -0.27371326 -0.516787 0.75580454 -0.01605513 0.4797226 -0.26648214 0.6554305 0.10749208 0.2919357 -0.12678275
low 0.31029955 -0.3276754 0.32547662 -0.3129049 0.088131554 0.018779559 0.52897114 -0.047535595 0.08373563 -0.027086305 -0.44527465 0.34228602 -0.4039733 -0.14624897 0.5605846 0.1176965 0.618915 0.4855255 -0.32986462 0.2478658 0.081553675 0.05531246 0.32438084 0.36549595 -0.5226436 0.0955398 -0.26101488 -0.084453814 -0.11371834 -0.05559265 -0.29998568 -0.52265114 0.11271426 -0.19172692 0.027039772 -0.05133448 0.73053896 0.45758823 0.28664213 0.024621358 -0.7714388 -0.761027 0.03549134 -0.21030535 0.3911194 -0.42888364 0.16665505 -0.21905932 -0.5117012 0.20350797 -0.45099077 0.03428221 -0.08266665 -0.05986359 0.044578075 -0.7494649 -0.52281445 -0.6178875 -0.07847322 0.40327188 -0.07418095 -0.0894336 0.34101912 -0.4524029 -0.21603543 0.07422939 0.32754606 -0.16563764
4 0.036536917 0.49058262 -0.39912745 -0.35024786 -0.5312742 -0.04251161 0.15796189 0.39185765 0.045776352 -0.017551979 0.17044419 0.26648438 0.18519269 -0.2666437 -0.027886825 -0.027887492 0.2749848 0.016402971 -0.44800088 0.20541446 0.00068513106 -0.7915854 0.14492626 -0.057770424 0.9514404 -0.55772704 -0.55252534 0.059319403 -0.18233098 0.16311948 -0.3520267 -0.47846493 -0.4133853 0.14378771 0.5845057 -0.2666279 0.37258488 -0.1859969 0.04911806 -0.36097306 -0.54320717 -0.36240223 -0.0999064 0.7223884 0.5516197 -0.060850106 -0.19570087 0.06708637 0.44963405 -0.4971916 0.062118653 -0.15200587 -0.4723688 -0.14219128 0.013436228 0.06451533 0.0056678145 -0.08436962 -0.19074854 0.061104015 -0.27629682 0.027873548 1.208681 -0.23588634 0.6039107 0.07636912 -0.019360363 -0.48162937
northeast 0.27979207 0.41597944 0.23464887 -0.049505655 -0.43921942 -0.17405468 0.13655593 0.22514705 0.6138475 -0.45566782 0.11720214 0.028440585 -0.26382318 -0.3204522 -0.4811842 -0.02073987 -0.5690768 0.24650583 0.45230234 -0.102868326 -0.7154878 -0.16799852 -0.011914109 -0.55002594 0.23557797 -0.03934282 -0.39525706 0.10496443 0.18620686 -0.16164352 -0.19076753 -0.37813178 0.3018905 0.8614997 0.01888716 0.0008255896 0.038388964 0.26535085 0.5668637 0.23253888 -0.50891376 -0.16240229 -0.2983677 0.562175 -0.05789885 -0.17463319 -0.5328057 0.13969009 -0.5113417 0.5859641 0.5192599 0.14838457 0.44204935 0.059057027 -0.3195185 0.19313033 0.50104016 0.15880747 0.13400295 0.25169793 0.2534342 -0.34861502 -0.3308218 0.0100572705 -0.088413484 -0.14224003 -0.04437981 -0.42822662
structure 0.516294 0.0386724 0.22440262 -0.3485287 -0.33351207 -0.38261354 -0.052580196 0.26462135 0.724328 -0.081778966 0.104253516 0.16937515 -0.8394502 -0.65576106 0.24966079 -0.3916397 -0.34189323 -0.08100975 0.31452638 0.4588615 -0.45796543 -0.22861606 0.31577793 -0.18222946 -0.51163965 -0.04629249 -0.48315868 -0.080615066 0.8922091 -0.043037493 0.11864405 -0.24476674 0.2549597 0.08238286 0.33351067 -0.02839421 0.9219971 -0.26016077 0.094427876 -0.692884 -0.1908207 -0.64785606 -0.56850755 0.28979462 -0.285118 -0.33277723 -0.5897228 0.4168077 -0.11239107 0.33765528 0.0875408 0.14886075 0.8215125 0.10959252 -0.31913856 -0.024504356 0.28390804 0.24353585 0.19687107 0.04843128 0.196629 -0.5966919 0.09604735 0.12631363 0.3876812 0.5900323 0.8226294 0.28534576
indicate 0.04610626 0.28069338 -0.194327 0.37537414 -0.0071498095 -0.03084256 -0.45829836 0.062250372 -0.6539145 -0.007099667 -0.061698254 -0.20480452 -0.4950977 -0.30224293 0.36387148 0.43160662 0.4755162 0.26836964 0.34840575 -0.2609929 -0.5290976 -0.02117758 0.4018404 0.85069436 0.21248414 0.23611946 -0.106548086 0.14147875 0.0015930937 -0.0069781668 -0.69123113 -0.35705677 -0.18852776 0.33656403 -0.28603646 -0.058771305 -0.2034614 -0.25356168 0.581106 -0.42706212 -0.42284617 -0.35144663 -0.14457701 -0.104017586 0.118059434 -0.21748254 0.099174455 -0.12158812 -0.01179556 0.19902974 -0.30825445 -0.48355943 -0.24650331 0.043366067 0.7181248 0.14682774 0.047779374 0.5598725 -0.22130798 0.023323799 -0.24040346 -0.07694794 0.24709518 -0.3779333 0.31531402 0.20559873 -0.4072443 -0.18270284
premier -0.02120388 0.59344155 0.33693773 0.36585057 -0.22746967 -0.02827233 -0.09836264 0.49229634 0.6883681 -0.03817234 -0.09669874 0.2703402 -0.09435663 0.16537236 0.41073188 0.025691405 -0.23619471 -0.27196318 -0.48537984 -0.16912441 -0.19935112 0.075712755 0.2785855 -0.67434806 -0.18847126 -0.64526284 0.5160985 0.4386079 -0.13688369 -0.8072662 -0.45807666 -0.6538419 -0.5714413 0.6004979 0.5728904 -0.14728698 0.31855997 0.6903028 0.8209296 0.28123236 -0.592851 -0.7896277 -0.28845924 -0.060367208 0.5822258 0.0898629 0.18555515 0.37767637 -0.4125608 -0.27039504 0.13837671 0.098007604 0.08840004 -0.4050239 -0.054679453 0.657502 0.11801931 -0.50542486 0.27699178 0.2759674 0.31313705 -0.28939778 -0.47100776 -0.9729136 0.5640354 -0.08321675 -0.070531994 0.11224185
china 0.4232666 -0.10717417 0.19606473 -0.5468883 0.7921198 -0.23985265 0.16991268 -0.2209213 0.706384 -0.60896623 -0.6088475 0.42639422 -0.5542267 -0.29830843 0.8404456 0.3129423 -0.23875229 -1.2911117 -0.42002115 -0.06194396 0.09720716 -0.38159582 0.2093464 -0.34812155 0.54162085 -0.25245717 -0.03631483 -0.6701204 0.36502588 -0.91105133 0.0851395 -0.52368367 0.012712585 0.10577063 0.06721251 0.37681442 -0.38233116 0.22534603 0.23118144 -0.1284698 -0.51360446 0.32280877 0.34523994 -0.3827152 0.62589353 -0.7459555 0.01426536 -0.28520027 -0.033070214 0.46154687 -0.53170544 0.67809546 -0.25416604 0.81370634 -0.08771683 -0.44231698 0.66481364 0.10286989 -0.2649758 0.037043285 -0.116568424 -0.17588156 0.33837777 0.911544 0.8194451 -0.014485028 -0.019020895 0.034648612
base 0.25401762 0.96922857 0.1050165 0.21971883 -0.34651327 0.18432975 0.32425466 0.05738213 -0.2925697 0.012294187 -0.020569509 -0.11724602 0.3033365 -0.21830851 0.47510085 0.12695341 -0.3050624 0.43033975 0.053181134 -0.17650706 -0.20674434 -0.43314868 0.055569813 -0.35601288 -0.7587505 -0.18821453 0.115257524 -0.21584682 -0.017009465 -0.15280057 0.03276189 -0.26935884 -0.1545619 0.28495908 0.62207645 0.48989573 -0.08086425 0.019648816 0.060486056 -0.36860797 -0.37647152 -0.7931297 -0.30018535 0.31067765 0.39376688 -0.3696301 -0.23282793 0.2190153 0.19036259 -0.06782887 0.25111008 0.07427359 0.30282903 0.03212878 0.17113438 -0.17565408 0.06705835 -0.14829627 -0.36026365 -0.5042812 -0.14462583 -0.24305247 -0.16581403 0.33521867 -0.006016832 -0.04092629 0.1616268 0.351494
within 0.32130927 0.7089316 -0.17394364 -0.009247116 0.027237842 -0.03657506 -0.27691156 0.38435203 -0.041270256 0.0039893496 -0.83979464 0.3004056 0.17853466 0.4944019 0.44184864 -0.9923724 -0.61939794 0.245705 -0.0952465 -0.351165 -0.2544608 -0.15534833 0.0033626703 0.25520146 0.106728025 -0.081669636 -0.33777228 0.24685569 0.36405894 0.077813625 0.005474374 -0.3249222 0.30200917 -0.05411772 0.3679713 0.44144464 0.014244143 0.23727362 -0.30236977 0.50952494 0.4280255 -0.11300049 -0.54610234 0.18870847 0.14010549 -0.55968034 0.42666265 -0.078877226 -0.86446255 -0.56003296 -0.040600393 -0.36667845 -0.14593172 0.4306475 0.07603867 -0.25598416 -0.11414 -0.24329965 0.6825595 0.098113164 0.53515047 -0.6762923 -0.26399004 -0.41147506 -0.5845645 -0.12145946 -0.057879247 -0.095547475
mo -0.32856205 -0.40301222 0.2668681 -0.04384631 -0.14991394 0.01696634 0.17650631 0.019199137 0.003637905 -0.05222428 -0.04825955 0.45236546 0.7068733 -0.65382916 -0.10017168 0.5729487 -0.48039412 0.5645397 -0.004165042 -0.18351619 0.36314082 -0.7370273 -0.43360287 0.21208693 0.2982084 0.019938195 0.65661824 -0.20160487 0.31934515 0.23093489 -0.64181376 -0.3901601 -0.16094565 0.47272584 0.34362876 0.115790434 -0.38012564 0.18927126 0.6028974 0.30188286 0.10679715 -0.52811015 -0.47173384 -0.13944797 -0.41230446 -0.492882 -0.60032713 -0.28157914 0.047663577 0.32936257 -0.52041805 -0.19172418 -0.37959686 0.36508185 0.093178086 0.23873302 0.7974576 0.38188532 0.26803234 -0.29051632 0.057725057 -0.38019603 0.054317255 0.1999301 -0.14310041 0.011229324 -0.13042966 0.086263835
sample -0.59367585 0.16868682 0.009946045 -0.3432469 0.1901664 0.16831087 -0.43364596 0.88811857 0.3194829 -0.5612482 -0.14150295 -0.6817996 -0.26914614 0.23707591 -0.97026175 0.20936924 -0.24936585 -0.46291104 -0.7166065 0.13305455 0.18120423 -0.9238687 0.33348307 -0.05164721 0.2988209 -0.33038417 -0.10204228 -0.51506376 -0.30749837 1.1423761 0.2990008 0.31878766 0.17433767 0.72066545 1.048697 0.16140091 0.11514521 -0.7218559 0.5343102 -0.24276422 0.3322136 -0.650752 -0.7976403 0.8720622 0.53715086 -0.02176125 0.21402858 -0.053460643 -0.31660685 0.07784012 0.11744912 0.17856349 -0.049633056 -0.16335376 -0.41125655 -0.1547635 0.25664583 0.24942546 -0.22682706 -0.797219 0.06871908 0.2597337 0.39388454 -0.31475288 0.27576447 -0.24593015 -0.6159274 0.057297863
biotite -0.21559429 0.7382667 0.18835038 0.45721456 -0.20867309 0.74652284 0.24742901 -0.31263626 0.48515692 0.183241 -0.094112955 -0.10707477 0.07068188 -0.05624074 0.6690895 0.1822416 0.6901545 0.036179606 0.07067412 -0.3072516 -0.3153659 0.34171996 -0.5601309 0.2195426 -0.40894616 -0.4217071 -0.30771548 0.30846283 0.04546276 -0.46181226 -0.6538615 0.4681405 0.09474766 0.5846013 0.37502077 -0.46137798 -0.0051732846 0.11196213 0.7053267 -0.9252946 0.18997337 -0.465286 0.1503401 0.24276127 0.22440909 0.08902706 0.26392797 -0.029031921 0.073987976 -0.13748252 0.020018322 -0.83190477 -0.45400017 -0.16175361 0.115972705 0.24577564 -0.0043885047 0.17097847 0.31868476 -0.6647646 0.037312277 -0.5715219 0.9600963 0.3189121 0.5598213 0.5675504 -0.41423848 -0.12531188
large -0.2892853 0.09462358 -0.08799989 -0.10216287 0.11312472 -0.23605004 -0.23763806 0.57041246 0.5230301 -0.16932824 -0.4949762 0.29743612 -0.4421787 0.20661913 0.18435985 -0.116417296 -0.06743204 0.037842467 -0.33837244 -0.19156355 0.31646362 -0.14279567 0.09726352 -0.27179378 0.0961421 0.31056127 0.19480728 -0.64083195 -0.07664079 -0.61667264 0.21068089 -0.13884069 0.3317938 0.5862161 0.06829972 0.10960371 -0.19053024 0.22878337 -0.084224515 -0.28755826 0.06958241 -0.21815573 -1.0100394 0.052298754 0.21202752 -0.071107216 -0.0039663087 -0.3880148 0.17942515 0.08551663 -0.07930005 0.43329775 0.11518793 0.23059972 -0.027146086 0.94592845 0.17803887 0.6632558 0.067148924 0.6646224 0.00021394293 -0.626399 0.25587982 0.07202752 -0.020398984 0.13533147 0.22206521 0.0913271
trend 0.18161705 0.32002673 0.07444724 -0.26072928 -0.32394305 -0.63231874 -0.12103391 -0.30905646 0.8394148 0.01605501 0.15433657 -0.10775238 -0.22558156 -0.51368195 -0.30039033 -0.025563322 -0.3404715 0.051671185 0.09109297 0.07623702 -0.68697685 -0.1918322 0.2557594 -0.16996974 0.10509562 -0.04588507 -0.387873 0.5430353 0.44843477 0.143099 -0.07303815 -0.25136232 0.058947437 0.53489786 0.13004562 0.004278861 0.06546091 0.5432464 0.35656855 0.067521624 -0.4635512 -0.8656298 -0.06033128 0.013184207 0.23091713 0.0986504 -0.44109792 0.5247193 0.025634047 -0.012755465 0.22719498 0.1355857 0.1936521 -0.012953924 -0.21843372 -0.31788778 0.5844435 0.22453628 0.3766105 0.17531979 0.25661474 -0.90677965 -0.049893104 0.019998629 -0.29436395 0.54203916 -0.024627876 -0.01791504
1999 0.37386113 -0.14840563 0.3496695 0.19541433 -0.072063476 0.46886802 -0.63204134 0.055409785 -0.07494762 -0.249684 -0.77074194 0.08359607 -0.706877 0.202394 0.6144963 0.121061504 -0.11717802 -0.21278538 0.40015715 0.37922633 -0.6546566 -0.091292895 -0.19893627 0.60776824 0.32061058 -0.1868758 -0.018874867 0.06639944 0.047572672 -0.16599846 -0.1978806 0.30597395 -0.41683453 0.43317834 0.43568802 0.15908867 -0.14812908 0.37515333 0.9544889 -0.42165852 0.8521616 0.17452693 0.36168006 -0.6472276 0.12156594 -0.07284031 0.11047951 -0.63985896 0.018062247 0.43864423 -0.49764377 -0.10671761 -0.52708954 -0.5033046 -0.3443637 -0.054693293 0.43570855 0.1347005 -0.0916695 0.10893314 -0.21163715 -0.20310658 0.22565691 -0.17032862 0.36858693 0.08364012 -0.17074908 0.98813134
suite -0.4051308 -0.8011306 -0.2384006 -0.09505227 -0.28235528 0.32316744 0.34739923 -0.19789279 0.28719002 -0.61375755 -0.24364568 0.6783725 -0.314313 -0.3339227 0.9730402 0.60564715 -0.3495485 -0.27235827 -0.664181 -0.47091484 -0.12721752 -0.08830384 -0.71005476 1.0670573 -0.6598599 -0.20564978 -0.52997917 0.03247661 -0.28689376 -0.078428246 -0.46548095 0.3163542 0.014967669 0.27715158 0.20963007 0.68547463 0.20196836 0.54054767 0.7992831 0.46717957 0.4497049 -0.49510428 -0.7378697 0.06528048 0.42987984 -0.64802474 0.87804437 0.5816067 -0.29292336 0.41669306 -0.3604794 -0.65733314 -0.37251887 -0.46710524 0.1995087 0.2399625 -0.09486606 -0.022106724 -0.4875908 0.32408047 -0.06626498 0.13405739 0.21550427 0.24357931 -0.12622242 0.8267744 -0.17134237 0.11607655
also 0.3588723 -0.39265 -0.068095185 -0.55017126 0.017725218 -0.019321328 0.016570747 -0.3887272 -0.055228446 -0.37494394 -0.30480504 -0.16789614 0.12905201 -0.16905156 0.59039754 -0.30398664 -0.4013317 0.14956859 -0.375587 0.25419483 -0.0458681 -0.02027078 0.45466495 0.32694796 0.012484711 -0.21029681 0.27727157 0.43401197 0.61405706 -0.17860918 -0.022031466 -0.09696063 -0.2740462 -0.12979208 -0.29919362 0.58730215 -0.11040468 0.12756896 0.54780823 -0.0018295599 0.016119735 -0.6108204 -0.05587662 -0.31093845 -0.06700284 -0.52503586 -0.07742429 -0.2923742 -0.5589573 0.46262515 -0.28227893 0.11545654 0.4938853 -0.71058685 -0.48947528 0.4055938 0.5474039 -0.0023965966 -0.19184957 0.33009216 0.46352988 0.19663578 0.5817508 0.42689955 -0.18788196 -0.21952257 -0.6087296 -0.30220717
result 0.09162489 -0.40489626 0.065477856 0.5002809 0.056280892 -0.1753972 -0.60386163 -0.039418887 0.02011391 -0.0020905777 -0.27315766 -0.15052764 0.5069122 0.16028096 0.27833745 -0.23959623 -0.05752246 -0.048358917 0.6985968 -0.2524957 -0.18038005 -0.4074303 -0.2577913 -0.027245928 0.18228011 0.10526082 -0.8711528 0.5479601 0.64636546 0.5288413 0.041552108 -0.1339593 -0.34103054 0.8112236 0.39690474 0.5510831 0.18650854 -0.34733847 0.18615316 0.1860242 -0.42338854 -0.10965016 -0.52873397 -0.16129474 -0.16105227 -0.24282657 -0.19954331 -0.34604505 0.11870153 -0.024009738 0.08630698 -0.28640914 -0.089165956 -0.5402646 0.74506944 0.16588463 -0.106688745 0.22692865 0.25353464 0.83243734 0.43469083 -0.018190864 0.507893 -0.21500085 0.6689935 -0.59035534 0.32607085 -0.22243932
part 0.1362391 -0.3724592 -0.093737364 0.06471754 -0.2553974 -0.2654266 -0.20727897 -0.11990201 0.6191021 -0.7620114 -0.40500626 -0.29634598 -0.37868023 -0.50848997 0.106960684 0.35706508 0.031424154 -0.14081076 -0.09142392 0.35113165 0.0037032801 -0.43560144 -0.33211425 -0.054178778 0.3694429 0.49763918 -0.020091588 -0.473902 0.44594175 -0.03561706 -0.108366825 0.07912497 0.5447028 0.46791086 -0.19898069 -0.0003362243 -0.15046372 0.36283937 0.8433427 -0.38758388 0.14929603 -0.6742426 0.056659684 0.6682141 0.03538923 -0.17014493 0.20740554 -0.2299876 0.43927088 -0.28676954 -0.40372634 0.20238517 0.5211937 -0.137753 0.08429901 0.10914395 0.12759365 -0.1719777 0.60015714 -0.12516849 -0.028461479 -0.17894262 -0.052776616 -0.40105754 0.16405532 0.010984221 -0.45285803 0.31776166
include 0.39286152 0.03405619 -0.13570108 -0.13568042 -0.120025605 0.20350029 0.4411581 0.14652887 0.36661887 -0.8798634 -0.3195588 0.2726311 0.3090679 -0.076998495 -0.30162373 -0.80315715 0.17812225 0.16098648 0.07514408 0.63044006 -0.22118703 -0.25426936 -0.06075722 0.23443063 0.16118988 -0.2569909 -0.44902658 -0.27656323 0.10517063 -0.3547165 0.009943577 0.18511431 0.30224803 0.66490054 0.05854954 -0.4954856 0.52504086 0.29362023 -0.15161493 0.30942065 -0.12389171 -0.5496973 0.045801032 -0.5520426 -0.14014298 -0.20241661 0.17618243 0.55906945 0.20017801 0.66080076 -0.13979353 0.0577997 0.3523523 0.090257816 0.059297603 -0.006305994 0.22384419 0.48785296 0.3505555 -0.7491562 0.022829292 0.20912984 0.43861505 -0.10724382 0.3136655 0.47902593 -0.23410124 0.16138062
west 0.23303927 0.54608274 -0.11416386 0.56552416 0.13297696 0.15944317 -0.14517055 -0.2511311 0.20623748 -0.6885079 -0.001011514 0.48463348 -0.29023978 0.21819693 0.04048613 0.3418216 -0.04055165 -0.22768652 0.40763685 -0.49482012 -0.7951932 -0.08092653 0.22699529 -0.011293823 0.21916449 -0.0029964622 -0.24585101 0.21341544 0.70732605 0.52852654 0.6877486 -0.36321124 0.35934722 0.83417284 0.08977671 -0.1780135 0.021659348 0.10975427 0.5726874 0.30544344 -0.038931593 -0.59868497 0.27699783 -0.11904452 -0.24103478 -0.19444947 -0.73240757 0.19779477 -0.37094384 0.093526654 -0.64280653 0.25920954 0.14435303 -0.11214128 0.053232297 0.02436749 0.18112487 0.17048265 0.44793677 0.012631313 0.33391038 -0.1700571 -0.024481367 0.13161233 -0.07841323 -0.09146638 -0.005730567 -0.5175685
1994 0.4788017 0.39763656 0.80166954 0.23939419 -0.11153162 -0.17664912 0.26782882 -0.33650312 0.45165822 -1.1488706 0.071051255 -0.3262565 -0.047589067 -0.23810858 -0.17435038 0.045938957 -0.055719156 0.4741111 -0.17724627 0.3425098 -0.38509703 0.026089756 0.3248561 0.09180003 0.35711157 -0.30512598 0.36555618 -0.047258783 0.34981635 -0.27019125 -0.32188305 0.1815731 0.72259027 -0.0052763266 0.2712434 0.48489654 0.34475398 0.38110763 0.5105273 0.63763046 -0.11549795 -0.1272078 -0.6258031 -0.6922207 0.20109075 -0.11378558 -0.11079104 -0.6367465 0.5451564 -0.09574917 -0.34835848 -0.16164032 0.19566958 -0.3326326 -0.7156033 -0.17245837 -0.14166515 -0.16903812 -0.74881977 -0.065502875 0.27915528 0.44664788 0.52316827 0.64447856 0.3083821 0.23652206 -0.007892127 0.5288599
two -0.48463982 -0.1854733 -0.13758326 -0.051520463 0.11367886 0.5489462 -0.16931501 0.102945864 0.12561831 -0.6741143 -0.8923524 0.06317748 -0.24235445 0.116746336 0.30148068 -0.29212832 0.54492986 -0.38730055 -0.29077786 -0.26252022 0.1442264 -0.22679986 -0.22788578 0.1184037 0.16027527 -0.8079048 -0.30280355 0.270798 -0.061105005 -0.43769673 -0.226791 -0.013387837 -0.039868813 0.0009479894 0.36776182 0.754593 0.034888748 0.087778434 -0.13429692 0.5628285 0.08613985 -0.18120901 -0.153301 0.31718135 0.125757 -0.71964884 0.12387879 0.14822169 0.15555269 0.04470325 0.250236 0.07772312 0.07106711 0.37583715 -0.20117979 -0.32400697 0.21512511 0.3349081 -0.11156103 -0.035224665 0.61192846 -0.22576493 0.32082215 -0.38805497 0.32432917 -0.11217906 -0.35432398 0.5785483
early 0.66132045 0.2361307 -0.004174816 0.33642933 -0.057427287 0.27858025 0.09502971 0.07097233 0.0017679125 -0.11326775 -0.8132238 0.030056408 0.09374529 0.3950421 0.18116485 -0.15441012 -0.3551536 -0.28181583 0.14003752 0.14753222 0.11306158 -0.2161639 0.3342031 0.069319434 -0.3125308 0.2079387 0.0828574 -0.11263301 0.14039207 0.06015453 -0.4827548 -0.29688528 0.018294774 0.37764502 -0.34658894 -0.13537624 0.47832516 -0.11333135 0.119380765 -0.63126874 -0.038494665 -0.042245775 -0.48286125 -0.32567558 -0.23612124 -0.36284956 0.09756806 0.20937322 0.066001885 -0.038393468 -0.07603938 -0.21649526 0.31916443 -0.111540586 0.47148758 -0.057450008 0.19816191 0.3685546 0.26922905 -0.60407436 0.17120917 -0.08118702 0.9928639 -0.67106384 0.19976185 0.08315994 -0.05000912 -0.11138041
study -0.22130024 0.086513214 0.43353885 -0.19604878 0.27510306 -0.28603813 0.12216322 0.2136678 0.19838114 0.07778051 0.030729197 -0.29829335 -0.32693088 -0.020198843 0.4596891 0.065653004 -0.64974564 -0.52311957 -0.017238898 -0.12537198 0.025685495 -0.05560221 0.07727723 0.39626324 0.3254835 -0.27186355 0.17228176 -0.23334855 0.29864946 -0.07879482 0.09089752 0.27661446 0.099007875 0.053418834 0.3433337 0.64639443 0.21627942 -0.09292015 0.74908274 0.19486535 0.32329503 -0.80057734 -0.42328018 -0.5012955 0.33083394 -0.20388654 0.84442216 0.115269534 0.05266325 0.04050469 0.19526306 -0.25283593 -0.7317296 0.2993324 0.24445947 0.45201868 0.06986536 -0.21054491 0.37716675 -0.97237927 0.6029448 -0.65862054 -0.3582354 -0.08493856 0.54802006 -0.36740595 0.23889375 -0.10135961
south 0.49131778 0.12634781 -0.21196932 -0.41398957 -0.044307847 0.550736 -0.42330623 0.035747 0.35580522 -0.54369706 0.15835251 0.49932966 -0.38144588 -0.5229392 -0.0639163 -0.012841897 0.2778932 0.042330544 -0.013451147 0.046216283 -0.07417052 -0.24244668 0.2201701 -0.41095474 0.6158621 0.039778206 -0.31220296 0.36918435 0.6775351 -0.22044002 0.17502639 -0.4919275 -0.3298511 0.025930688 -0.30985224 0.5189402 0.61690456 -0.3866565 -0.27936885 0.15895148 -0.48514035 -0.69709945 0.2023619 0.08951683 0.23549943 -0.47186837 -0.66817343 -0.22676119 -0.6826798 0.90567535 -0.4615849 0.06830627 -0.11840209 0.6787278 -0.6615386 -0.08113459 0.1762251 0.017363263 0.45194805 -0.3457079 0.1546665 -0.01623311 0.2393033 0.29584655 0.3712368 0.6132884 0.07843018 0.01173914
1997 1.0303568 0.18733302 0.51959276 0.4669679 0.004782773 0.4049951 0.17165609 0.12920286 -0.32523116 -0.89609295 -0.18723078 0.26707664 0.15975688 0.16409944 0.16867751 0.2667186 -0.14552622 0.056571186 -0.2755154 0.5046984 -0.36910054 0.3066356 -0.20867594 -0.12166856 -0.19984847 0.28100798 0.37007222 -0.47404703 0.45033634 0.18894005 -0.32625732 0.59453624 0.034694687 0.53000915 -0.015132355 -0.5186612 0.3606626 0.2835705 -0.11327936 -0.37581074 0.14963286 -0.3505692 -0.41965994 -0.4700709 0.30973127 -0.32494196 -0.06877034 -0.1436965 0.043514308 0.5368462 -0.8834337 -0.24902354 -0.36856863 0.13991968 -0.5239382 -0.3575387 -0.02013934 0.2723922 -0.33529785 0.25211686 0.40848213 0.18908323 0.41954702 -0.5987705 -0.11143421 -0.032171488 -0.02331807 -0.2666183
plutonic -0.21373571 -0.799696 -0.41180417 0.09182573 -0.29962546 0.5135501 0.15038955 0.021763768 0.4273892 -0.52507824 -0.35385045 0.5009464 -0.38676122 -0.5365257 0.4794418 0.37709454 -0.20684442 -0.28190142 -0.9054568 -0.5558782 -0.46269372 0.0024295999 -0.58308405 0.66786987 -0.8041734 -0.11514646 -0.4610128 -0.0031432046 -0.6422 -0.24603084 -0.08560998 -0.11020335 -0.024765251 0.18488565 0.5646924 0.49285993 -0.010929702 0.4188298 0.6689099 0.43268797 0.31090698 -0.5048709 -0.5733554 -0.093423754 0.3494312 -0.42994338 0.91858876 0.68124896 -0.3378093 0.6970164 -0.16004165 -0.61609256 -0.46683347 -0.41465524 0.717911 0.1397893 0.016882008 -0.09540962 -0.5088399 0.09137425 -0.10869835 0.035183713 0.2737639 0.6059866 0.022913083 0.8163269 -0.17579138 0.06748825
gold 0.17537218 -0.003696485 0.21689391 -0.08533369 0.8683061 -0.53462833 0.2735814 -0.02258874 0.4852405 -0.01379248 -0.645638 0.8248046 -0.12051672 -0.44401026 0.44630605 -0.61264676 -0.4496451 -0.40492108 -0.87877125 0.14710946 -0.07983427 -0.9104541 -0.26397678 0.2035418 0.7132481 -0.026193706 0.024113145 0.14139128 0.31545708 -0.051945984 -0.48696828 -0.7492191 0.13148075 0.031691488 0.3897301 0.00057153194 0.13148803 0.52065355 -0.7800976 -0.1669765 -0.88600886 -0.45757535 -0.36996225 -0.059916507 0.68756455 0.21231541 0.08490577 0.20910436 -0.25914904 -0.12164364 -0.39458534 0.6773332 -0.22924423 -0.50878125 -0.116688855 0.27610916 0.32184207 0.0088609895 0.6027669 -0.039382555 -0.08191456 -0.5965911 0.31198528 0.527341 0.5630745 0.14553115 0.1366295 -0.07386884
epithermal 0.1784481 -0.06602425 0.07469702 -0.3234375 0.19427162 -0.19147158 0.0694541 -0.45448074 -0.5949938 -0.35010308 -0.7907714 0.11398934 -0.0016011044 -0.26042083 0.35042426 -0.44352224 -0.06684353 0.48970085 -0.5063581 0.04377576 -0.124353155 -0.6975553 0.23257726 0.30837756 0.56535834 -0.054032043 -0.31374675 -0.40265432 -0.3686776 0.17927128 -0.36554137 -0.9488011 -0.36808872 0.059371497 0.50954545 -0.08345728 -0.4291728 0.6365541 0.23882951 0.24891391 -0.36327165 -0.28372493 -0.22761795 -0.15548459 -0.3635452 -0.09674407 -0.2963146 -0.3179309 0.23379964 -0.08183707 -0.70328367 -0.065699376 -0.22942254 0.051593535 -0.012851929 0.08361647 0.2919674 0.31509042 0.10889888 -0.49289998 -0.4131465 -0.24126534 0.15487199 0.2426801 0.5158896 -0.15782459 -0.030580068 0.38365808
locate 0.12855065 0.36130655 0.718324 0.19214128 0.28502294 0.11215887 0.3544285 -0.011313849 0.5314737 -0.13791585 -0.6147612 0.17060898 0.006078441 -0.15645367 0.20693286 0.024067892 -0.168346 -0.53990996 0.08674095 -0.55585617 -0.07756394 -0.5987168 -0.14527689 0.066415384 0.4471969 0.091364525 0.005394714 -0.45832467 0.09547953 0.11889173 -0.016868599 -0.19453964 0.26735103 0.42202276 0.15895948 -0.28895208 0.25629002 -0.037717365 0.4472389 0.3016569 -0.6392535 -0.5246671 0.11058599 0.4716718 -0.24808395 -0.35012373 -0.21260019 -0.8767271 -0.1347209 0.36944875 -0.13134432 0.5202884 0.07467606 0.15423624 0.24795587 0.28816718 -0.094558604 -0.32221767 0.41835004 0.26518035 0.4486277 -0.43278727 0.08882087 0.38707402 -0.49274892 -0.17969054 0.45002967 -0.14449821
one 0.32215443 0.4493716 0.12081537 0.13516603 -0.0085416 -0.64479184 -0.19291669 0.3658137 0.45719448 -0.029402532 -0.2144974 0.4468577 -0.33913377 -0.22180748 -0.2113955 -0.426793 -0.42649037 -0.5139332 -0.30767554 -0.3240109 0.121608846 -0.3385939 -0.7849509 0.25818053 0.47079673 -0.33493298 0.08052428 -0.35134974 -0.2178958 -0.76964927 0.18626015 0.08390259 0.33488548 0.09897515 0.28784367 0.25947037 -0.44529456 0.05228846 0.31514814 0.42145076 0.002515368 -0.6335369 -0.27581993 0.15740834 -0.39675447 -0.47736832 -0.16761793 -0.71333486 -0.060491223 -0.42210424 -0.10727457 0.6595474 -0.27070752 0.31991944 0.08460178 0.001133428 -0.14016908 -0.0059285676 -0.47719508 0.013181406 0.18395631 -0.40240526 0.11650073 0.07004794 0.02714948 -0.1663027 -0.5633045 -0.3685566
intrude -0.058349896 -0.25812685 0.4162933 -0.17067501 -0.53929424 0.24516663 0.045541726 -0.14315492 -0.28187218 -0.5308196 -0.07445543 0.63411343 0.15845612 -0.38148305 0.07379286 -0.19638358 0.3397847 -0.5395126 0.124237195 -0.34889266 -0.54282844 -0.18864727 0.114256844 -0.61107665 -0.14008318 0.47547236 -0.20112574 0.10612853 -0.6958366 -0.051571134 0.13591474 -0.13894975 -0.09920426 0.6327581 -0.11612565 -0.11229017 0.30294755 0.4856729 0.7957277 -0.26834363 0.19425285 -0.57754 -0.027420817 0.22717904 0.341452 -0.3093255 0.24043375 0.02601943 -0.008638824 -0.21093872 -0.13390343 0.1103492 -0.40662012 -0.10083366 0.158186 0.07184498 -0.10070991 0.1455462 -0.13934046 -0.1838385 -0.02732278 -0.30820465 0.10988858 -0.2976847 0.05917097 0.8481349 -0.32151982 0.17956795
northwest 0.081243046 0.11353352 -0.011427342 0.08356999 0.019617349 -0.37252697 -0.035173975 -0.65071803 0.8730354 -0.44867593 -0.4356389 -0.5347706 -0.4913692 -0.74511284 0.38069397 0.22504751 -0.10152531 -0.037130415 0.43084213 -0.32833907 -0.6353442 0.37693757 -0.03180517 -0.608737 -0.1405818 -0.22456889 -0.25869283 0.095392995 0.28591672 0.35991326 -0.051508795 0.08523709 -0.042351205 0.45784047 -0.29149437 0.3140919 -0.488593 0.3078679 0.44357416 0.44477037 -0.6561879 -0.9708922 0.29638925 -0.3435802 0.12507631 -0.22994848 -0.27144292 0.37284324 -0.14299121 -0.0016551324 0.28321537 -0.116237186 0.60875815 0.008145041 -0.2929538 -0.03552081 1.0079787 0.3944446 0.5711606 -0.54407865 0.31884244 -0.56613576 0.3164275 0.62805283 -0.15902935 0.5710594 0.17172228 -0.146087
flow -0.40707105 0.621468 0.6509774 0.2667471 -0.8252753 0.5954517 0.359904 0.35839382 -0.52885294 -0.09821064 -0.24212165 0.06352787 -0.7063845 -0.017468669 0.75617665 -0.1404866 -0.05392046 -0.008856003 0.42636958 0.21676995 -0.46568227 -0.755458 0.5271427 -0.16767989 0.25622693 0.11106711 -0.35137364 -0.29615536 0.20669454 0.14966568 0.6612614 -0.3697241 -0.45616245 -0.35545728 0.4002975 -0.09219106 -0.26531923 -0.35193416 0.74278563 -0.032912053 0.1448681 -0.80645084 0.14623632 -0.18241511 -0.10739261 -0.65735716 -0.14150606 -0.21600367 0.0068433695 -0.031022575 -0.2791514 0.40472052 0.34689263 -0.20352799 -0.018061373 -0.5002348 -0.6942107 -0.5463884 -0.26193422 -0.3563801 -0.33238792 -0.33576447 -0.022866698 -0.19227579 0.24307604 0.027533054 -0.42901766 -0.14221789
dawson -0.12647645 -0.22982222 -0.029652273 -0.11215042 0.49969783 -0.1922493 0.36334386 -0.6157144 0.13737154 -0.062471624 -0.48947772 0.5585502 -0.2087908 -0.039800525 0.7507508 0.27877402 -0.2877466 -0.06839067 -0.5662118 -0.38642228 0.005163948 -0.14434801 -0.5520996 0.75460595 -0.6044246 -0.46992448 -0.4663394 0.73121965 -0.06431702 0.08900403 0.11789571 0.22396857 -0.32120124 0.37882945 0.07979792 0.34324053 0.06726027 0.16556183 0.6919643 0.30850214 0.4607777 -0.30898246 -0.6070186 -0.33442333 0.17191654 -0.5511935 -0.09793095 0.36835232 0.11509551 0.4192023 -0.79501414 -0.80748194 -0.17363085 -0.43290764 -0.09461399 0.39852762 0.43180194 0.05359316 0.023443542 -0.107471846 -0.05549349 -0.18176831 0.31649518 -0.21452367 0.009660447 0.445396 -0.2138701 0.123779014
concentric -0.40257335 0.2761091 0.67992383 -0.31433415 0.0011763085 0.27767304 0.38180387 -0.066681184 1.0428855 -0.14416577 -0.11412701 0.05577196 0.28546202 -0.5291933 0.048058692 -0.42767915 0.15841618 0.632595 0.284435 0.2939216 0.53088915 -0.116911344 0.17809278 0.042649344 -0.09559054 0.601342 -0.38010216 -0.19894405 0.32296428 0.6196389 -0.418813 -0.34061208 -0.06427371 0.5833061 0.40380836 1.012386 0.13316461 -0.11658679 0.67083937 -0.10454584 -0.30722797 0.20681407 -0.095676705 -0.09816458 0.027942251 -0.65430313 -0.18134983 -0.5070355 0.0003782834 0.5258589 0.7914875 -0.28188345 0.15247214 0.10849833 0.13295671 0.46592644 0.26071703 0.7845529 -0.095094875 0.21561182 0.06292027 -0.143258 -0.15119931 -0.257772 0.19868542 0.59902054 0.4405805 -0.3411635
similar 0.017628258 -1.1164439 -0.19901708 -0.66034645 0.12494159 -0.29245466 -0.26229575 0.18901294 0.1937614 -0.36421096 -0.8973951 0.23014933 0.062270414 0.26846132 0.22029613 0.047530733 -1.0409083 0.17088108 0.08925043 0.26973206 0.28134015 0.552459 0.2235882 0.1658076 -0.24543263 -0.36042872 -0.06605568 0.15680929 -0.19615275 0.09757397 -0.43590516 -0.044915065 -0.25013453 0.4475605 0.15910752 0.1394312 0.06486991 0.16187632 0.04185711 -0.22036865 0.41484046 -0.5989695 0.2782868 -0.4068189 0.5266072 -0.57518035 -0.34374872 0.3037851 -0.13700126 -0.30064535 -0.1869211 -0.32433516 -0.22051501 -0.14813393 0.060805917 -0.13340801 0.7664846 0.10414208 -0.45766708 0.7996605 0.17708619 -0.040250096 0.8745918 -0.15592577 0.1783179 0.23291294 -0.40045804 0.2984295
major 0.2213331 0.26154608 0.12855184 -0.33507264 -0.5429948 -0.03899278 -0.6102066 0.18301547 0.31060597 -0.14027108 -0.29646498 0.29945704 -0.4912462 -0.18811935 0.42910194 0.17334548 -0.49474052 -0.11983321 -0.16216919 0.05179361 -0.29352316 -0.14171791 -0.30764893 -0.24686025 0.37906155 -0.31712583 0.096894905 -0.0863768 0.7398905 -0.9495925 0.15301864 -0.470237 -0.02546734 0.1612206 -0.31802088 0.29239148 -1.0135256 0.089604154 -0.059846267 0.25994885 -0.9137366 -0.2867422 -0.20640475 -0.25123158 -0.3082176 -0.18497205 -0.33413625 -0.04241218 0.24138117 0.1939747 -0.5263186 0.2349066 -0.08194401 0.39153364 -0.25382212 0.3077521 0.25704572 0.33542725 -0.5936925 0.09431013 0.19201082 -0.4024919 0.36405516 -0.20445716 -0.01718599 -0.028476242 0.1603467 -0.021629719
2000 -0.82025427 -0.06312033 0.33729237 0.09849324 -0.12365775 0.11811752 -0.37015387 -0.11200021 0.48603708 0.29851958 0.13936667 -0.5701475 -0.9989992 -0.5750915 0.14176266 0.27060145 0.06443169 -0.62627363 -0.18974933 -0.20857346 -0.28185833 0.8387487 0.7413444 0.3777533 -0.043585163 -0.33328128 0.6382097 0.61914176 0.25450003 0.68575364 0.124583006 0.6796097 0.43102732 0.6770186 0.480881 0.32429907 0.6812292 -0.020617442 0.47953007 0.093065806 0.38164032 -0.64525443 -0.5298261 -0.38938743 0.14350224 -0.03855523 0.000930776 -0.37182197 0.10330984 0.36037216 -0.2577047 -0.3655751 -0.23532388 0.8168484 -0.13981517 0.020203585 1.042981 0.27686763 -0.051028155 0.81003827 -0.057026457 -0.5200819 0.6777319 0.37743115 0.047440756 0.8613518 -0.26595384 0.36953706
1998 0.6403753 -0.40805432 0.2686743 0.24487266 0.066616826 0.7333565 -0.51610667 -0.10540773 0.13378866 -0.4063314 -0.40059337 1.0957406 -0.4155776 -0.44002464 0.5694263 -0.15683845 -0.88937247 0.18986274 0.3321776 -0.38389465 -0.10911814 -0.11753004 -0.03321492 0.36534747 0.02751382 -0.8447934 0.056235112 -0.3749848 -0.2833884 0.32260773 -0.060048636 0.4611898 -0.0051653953 -0.30869436 0.47033742 0.23681326 -0.15427615 0.34796977 0.4322749 0.108344 0.15916201 -0.2104381 0.38695884 0.15905015 0.41188803 0.040883344 -0.35633993 -0.55791163 0.46750307 0.66458124 -0.42006972 -0.37155688 -0.09966821 0.49631172 -0.17740454 -0.53262526 -0.1373855 -0.00050410035 -0.4869082 0.22199497 -0.26546383 0.17247303 0.4160818 -0.4036289 0.17748977 -0.34872952 -0.5267501 0.04247844
young -0.12942155 -0.25055295 -0.12774542 -0.4253382 0.029488036 0.35712194 -0.23956825 0.10706593 -0.63859916 -0.5300036 -0.7065854 0.5041882 -0.045269772 0.09890994 -0.10531829 0.38406646 0.5557547 0.18615486 -0.57698023 -0.12546349 -0.25223798 0.13153656 -0.35311642 0.07084365 -0.64177793 -0.43903515 0.0045735766 0.22736737 0.057227354 -0.031824637 -0.36713496 -0.101657294 0.20488259 0.4481737 0.06949916 -0.051195275 0.39640245 0.14379208 0.20116885 -0.049564015 -0.29575077 -0.4311271 -0.10423073 0.2574523 0.6719713 -0.5808083 -0.07024818 0.16848755 -0.27692696 -0.4250928 0.28410554 -0.19296445 -0.45316958 0.09118958 -0.13445507 -0.85307467 0.4096689 0.7279565 0.330313 0.182807 0.44053403 -0.26679075 -0.09483301 -0.40119025 -0.4425144 0.104115345 -0.04724639 -0.3731287
principal -0.18812943 0.621552 0.02386734 0.004439171 0.16391738 0.6427739 0.4165206 0.17933153 1.1449342 -0.3875934 -0.30394834 -0.099801436 0.36009747 -0.15382761 0.16719277 -0.4940424 -0.004838799 0.77463007 -0.12213419 -0.27123195 -0.22510204 -0.156878 0.31795612 -0.040072624 0.12678781 0.5095444 -0.41141045 0.3316954 0.10849821 -0.10599047 0.20183808 -0.2298144 -0.01709844 0.2543263 0.40857026 0.73515624 -0.13633692 -0.49204654 0.73083764 0.10659281 -0.5985172 -0.110261075 0.19264412 0.15223756 0.12805106 -0.77228403 -0.25802803 -0.12587216 0.15483883 0.26721254 0.5703915 0.108701274 -0.539665 0.3567386 -0.18045196 0.058339037 -0.42281774 0.085837476 -0.11185052 0.21209195 0.18042958 -0.2918379 0.06516637 -0.3282063 -0.28318042 -0.1686648 -0.072760746 -0.6383491
wall 0.2661968 0.5459347 0.88905007 -0.31383684 0.30455774 0.3237784 0.06281482 0.5417424 0.18653181 0.31971464 -0.3048568 0.1875904 0.04323973 -0.927174 0.8911487 -0.053307943 0.09787389 -0.12006163 0.5041544 0.53748703 0.18451169 -0.8316089 0.12619427 -0.34187073 -0.057502463 -0.04861724 0.23276289 -0.2875922 -0.09308702 -0.37901893 0.05863738 0.59490097 0.06660011 0.6882865 0.0034172176 -0.505755 0.09422905 -0.04686752 0.32338604 0.016879728 -0.0035931603 -0.022297578 -0.10257796 0.76840305 0.3173152 -0.47243768 0.35442245 0.06573447 -0.5372181 -0.689356 0.4718169 -0.4592814 0.29299402 -0.1371572 0.10187267 0.052009612 -0.008145198 -0.3947842 0.21241312 -0.33231556 0.06301222 -0.31047052 0.026861077 -0.15850653 0.7245557 0.28960457 -0.18314177 -0.5871432
temperature -0.06251544 0.5706854 1.028549 -0.06347383 0.31852153 0.32616144 -0.3543531 0.1524805 -0.58032274 0.34648848 -0.7263331 0.6312609 -0.46469435 -0.23446713 0.35258967 -0.20729977 -0.9416157 0.13548534 -0.32407543 0.118864454 0.013365338 -0.22196652 -0.062503375 0.85783464 -0.008611293 0.074766904 -0.16726533 0.27607247 0.43704748 -0.072420195 -0.70021075 0.31668228 -0.8464874 0.13814364 -0.21824266 -0.41421607 0.2853636 0.05423159 0.4149959 -0.54046166 -0.10076736 0.31938082 0.15488608 -0.7715237 0.887544 0.07875138 -0.15807185 -0.015214516 -0.9410064 0.096220665 0.3005327 -0.59048295 0.03201663 -0.3911027 -0.01804229 -0.39217368 -0.6317868 -0.35560763 -0.25537398 0.20004651 -0.22998448 0.21193701 0.3652598 -0.40059555 0.6164516 0.20765878 -0.23853943 -0.8921786
el 0.07729159 0.6774919 0.4353987 0.40911525 0.26769388 0.06419081 0.2979612 -0.2379667 0.13857573 0.41218635 -0.45717904 -0.22888085 0.41751748 0.043867126 -0.1971119 -0.30767587 0.13725622 -0.044148553 -0.037971906 0.81480473 -0.3645468 0.21167895 -0.32501185 0.5590278 -0.31747016 0.066174254 0.6430696 -0.36616743 -0.7944981 -0.31970668 0.14711109 -0.4363378 -0.14421552 0.61215144 0.8352545 0.13209626 -0.14324431 -0.010375907 0.43824947 0.11594948 -0.14490134 -0.117430285 -0.6216603 0.13107932 0.26339987 -0.11432427 -0.75241154 -0.7137609 -0.31469238 0.9982358 0.41130555 -0.119793564 0.09569843 -0.23134378 -0.6036463 -0.089733645 0.7685874 0.5218926 -0.034328565 0.28054607 0.036648814 -0.50844955 0.12197957 0.1766518 0.22249277 0.30959427 -0.28168973 0.37216243
phyllic -0.25029778 0.03407223 -0.11727941 -0.3819962 0.013742497 0.6053164 -0.36416903 0.2668481 0.0582382 0.60516757 -1.1121533 0.19083633 0.5943319 -0.56607145 0.37586313 -0.05780032 0.12971061 0.07174058 -0.5977268 0.3121683 0.43471527 0.047642898 -0.7787351 0.75969905 0.22269908 -0.24917752 -0.6819264 0.15739138 0.019917697 -0.67591923 -0.4861842 -0.4446741 0.11708505 0.10400235 0.09824519 0.46238235 -0.39334208 -0.29421008 0.94624984 0.073259085 -0.060173675 -0.23853624 -0.27141798 0.5555313 -0.282533 -0.29051816 0.32893953 -0.32973775 -0.22969659 -0.4660527 0.19838837 -0.6438343 0.1270304 -0.04783437 -0.20121828 -0.46300995 0.44607925 0.38265964 0.2609664 -0.2636868 -0.26406226 -0.14298399 0.3570824 -0.66201216 0.1439395 0.15921608 -0.5927708 -1.0762651
cut 0.1794103 0.7220729 0.39343733 0.045572635 -0.81753075 -0.020373791 0.23152368 0.16329278 0.14050855 -0.5597648 0.4330253 0.40312755 -0.57220894 0.49336177 0.028039696 -0.20534673 -0.18983093 -0.028349372 0.2782438 -0.3288355 -0.55738044 0.031932555 0.15985148 -0.18174899 0.32330924 0.23103273 -0.59843296 0.33406648 0.06067479 -0.34494784 -0.17324048 -0.61993575 0.07002983 0.52975196 0.42687258 0.0644973 -0.87138367 0.3916515 0.7455664 -0.5569968 -0.47437873 -0.17998372 0.14702459 0.72832406 0.2083656 0.050036717 0.7344614 -0.770959 0.23560257 -0.9426401 -0.04165632 0.2925548 -0.5868428 -0.09905646 0.6041928 -0.1062542 0.12101713 0.019985646 0.16510446 -0.12022466 0.16588743 -0.6976836 0.483602 0.12399384 -0.09798755 -0.10162917 -0.63636005 -0.88775796
pattison 0.18144391 0.206172 -0.10521444 -0.5755542 -0.048076063 0.9569213 -0.35116464 0.010470849 0.0113539975 -0.18745041 -0.67630374 0.7575103 -0.1471693 -0.40347764 0.48062417 0.40597653 -0.4254789 0.34571162 -0.99057686 -0.16953154 0.17144442 -0.13022603 -0.68432623 0.8686809 -0.25081977 -1.116212 -0.39975616 -0.21612665 0.38033843 0.28992504 -0.20949243 -0.15137435 0.24771163 0.32112268 0.8135199 0.20876089 -0.3800003 -0.29230157 1.2543371 -0.072296895 0.093602456 0.059796426 -0.29687658 -0.11167215 -0.17037544 -0.37893876 0.64051 0.8959241 0.021007504 0.5509421 0.25261626 -0.1479106 -0.3284822 -0.84280396 0.7045883 -0.44487232 0.35488802 0.13918756 -0.48585698 0.8889336 -0.16717504 0.52590966 0.32349348 0.2725073 0.56168306 -0.106984176 0.0045802677 -0.07246051
sericite 0.511175 -0.09659081 0.53526765 -0.3610888 -0.27740896 0.6727406 0.20741545 0.85540706 -0.09928167 -0.06835719 0.18208659 0.16316202 0.2511043 -0.8813981 0.6205582 -0.050450083 -0.069639586 0.5657296 -0.82755226 0.37770465 0.19084787 0.41602883 0.4669419 0.3192196 0.2754479 -0.26979855 -0.23925187 0.22899717 -0.28819388 0.7363059 0.30819422 0.46020755 -0.3318549 0.09836261 0.4142869 0.23242211 -0.3056467 -0.20675378 0.34998712 -0.34366775 -0.9261205 -0.14183663 -0.19943064 0.21234131 -0.33638188 -0.71433216 -0.029670907 -0.040683236 0.32245818 0.23849241 0.46726954 -0.2839598 0.43148926 -0.028697645 0.47762868 -0.3094168 0.035134155 0.12334238 0.088966064 -0.09030107 -0.16144246 -0.03014498 0.36603418 -0.9498746 0.043810204 -0.081875905 -0.16088684 -0.3476626
relate 1.043698 -0.13117318 0.39871135 -0.09939629 0.071747154 -0.12451123 -0.58906966 -0.21334165 0.13572228 -0.27348167 0.06406334 0.22834076 0.2321615 -1.1671549 0.07024648 -0.25209373 -0.2511773 -0.1523427 -0.017679166 0.003905424 -0.119269766 0.09056918 0.13502471 0.078539506 -0.19340284 -0.035333928 -0.04595854 -0.30656314 -0.38626364 -0.42690653 -0.0573645 0.5361831 -0.49893808 0.15265547 0.4653361 0.051264487 -0.3610226 0.06304248 0.022424195 0.1567521 0.073145024 -0.72859883 0.2887144 0.04033231 0.682531 -0.39018956 0.11863762 0.31440789 -0.46157768 0.4033519 0.3623726 0.16156216 -0.650151 0.2945574 0.19652048 0.08822944 0.22465229 -0.14176701 -0.2736849 0.6277806 0.19561708 -0.09723432 0.47351307 -0.25587806 0.28743896 0.49373356 0.34832677 0.7230993
geology 0.28393555 -0.076372355 0.31621903 -0.13572828 0.112658195 -0.18379158 0.14927259 -0.37308106 0.20905796 -0.49421832 -0.38490155 -0.18054818 -0.04563079 -0.2719913 -0.16346453 0.22778222 0.01950952 -0.8209093 -0.048484974 -0.37949 -0.048231784 -0.41580915 -0.38912764 0.3317876 0.05521959 0.7726552 0.7075814 -0.1622925 0.30177915 -0.22135736 0.5350818 -0.13186184 0.22841744 1.1114401 0.65996706 0.18885794 -0.7288509 -0.03601317 0.8997638 0.79381263 -0.15260988 -0.27547872 0.41922653 0.19976893 0.47172582 -0.0403789 -0.12392624 0.3894772 -0.38487142 0.49550173 -0.6584105 0.4628057 -0.22134079 0.506449 0.38788554 0.06804245 -0.21712284 -0.29301405 0.24289851 -0.06571695 0.93546164 -0.11119215 -0.3046482 0.1251188 0.6687168 0.00907921 -0.1075388 -0.12808838
emplace -0.3933238 -0.6140996 0.5506303 -0.32842755 0.1776989 -0.13869818 -0.5557996 -0.06723324 0.8467619 -0.69047034 -0.6507592 -0.042743444 -0.09678591 0.12087031 -0.17568676 -0.079572305 0.16181031 0.72421294 0.050446827 0.18405397 -0.6516354 0.19255568 -0.36961436 -0.48076123 0.07082589 0.082446754 -0.2706703 0.30559924 -0.14370048 -0.5194708 -0.03472484 -0.22876823 0.10172773 0.46233732 -0.21897966 0.39067912 0.61597955 -0.01265085 0.17852774 -0.53241247 0.39816183 0.035576794 -0.6461496 0.3563314 0.32182962 -0.26555806 -0.26526806 -0.02956193 -0.23731488 -0.43764246 -0.3373484 0.34789473 -0.12092999 -0.8432675 -0.14237854 -0.12123657 0.36878064 -0.21757607 0.44795835 -0.4640538 0.13562213 -0.668826 0.677347 -0.41211838 0.3430144 0.43900868 0.09701237 -0.6200059
arc 0.70986325 -0.11507382 0.326277 1.0529933 -0.261322 0.62231874 -0.23292793 -0.033622887 0.25475717 -0.5843782 -0.86234576 -0.35602337 -0.1716899 -0.24446483 -0.34101036 -0.5651891 0.21969716 0.50311935 -0.16166756 -0.22575982 -0.2457327 0.26223484 -0.035816096 -0.1823556 0.87318414 0.061004292 -0.08944898 -0.03801287 0.18845779 0.4404124 0.12478522 -0.09110759 0.09173418 0.10439264 0.58464503 0.032806914 -0.21474394 0.19134113 0.41966715 0.22059403 -0.6523109 0.012908098 -0.67896277 -0.5673013 0.007667475 -0.32460096 0.20109025 -0.005956236 -0.3349648 -0.097233735 -0.31140175 -0.35006493 -0.15953316 0.18198775 -0.29926628 0.37650847 0.5677909 -0.28403157 0.4653595 -0.18815294 0.40863115 -0.43261096 0.73480463 0.8343404 -0.3383964 0.89904743 0.41790968 0.7839595
middle -0.2888852 0.123738945 0.7503198 -0.12896404 -0.21576138 -0.41199902 0.08525312 -0.34704718 0.9497912 -0.2712512 -0.73624766 0.43547407 -0.111340284 -0.24142565 0.21887754 0.4932577 0.04939832 0.2794189 -0.057144295 -0.111567676 -0.17926925 -0.43212736 0.047601145 -0.41959256 0.16546217 0.34683976 0.63571966 -0.13823864 0.363211 -0.15503684 -0.27500767 -0.3081397 0.069112375 0.2163949 -0.40236664 0.15996659 0.44715297 -0.166683 0.5227127 0.43181047 -0.71823823 -0.09083499 -0.6163755 -0.5322031 0.3178429 -0.50455064 0.39913538 -0.16748425 0.29258835 0.033524297 -0.1250484 0.28781286 0.43100905 -0.13510017 -0.45513695 0.17453879 -0.10887755 0.63343835 -0.14405163 0.24921049 0.116209805 0.25008246 0.6410469 -0.42506602 -0.90936995 0.245777 0.2946041 0.107131496
complex 0.0035325196 0.040341895 0.26247868 0.4379614 -0.32875744 0.8763304 -0.77978516 0.5206865 0.27356964 -1.0913956 -0.82922375 0.45453867 0.43880892 -0.06489279 -0.044549145 -0.44386718 -0.35305807 0.5294997 0.08074373 -0.40511993 -0.8817502 -0.21494943 -0.43062863 -0.8011969 0.17734635 0.57213885 -0.08430524 -0.19120704 -0.4318199 -0.36271313 0.2113263 0.11570906 0.3794464 0.35505643 0.5009288 0.31193495 -0.26009664 0.4647278 0.30860347 -0.44720396 0.71083343 -0.4616457 -0.2935085 -0.42178974 0.17281675 0.3550303 0.69703454 -0.16564016 0.0072912 0.25455737 -0.36784336 0.2647491 -0.23519127 -0.29140973 -0.08869103 0.40301532 -0.30554453 0.292555 0.29686224 -0.8585043 -0.2699639 -0.38647068 0.7014368 0.35916683 -0.12291642 0.21374819 -0.13426541 -0.3409658
consist -0.21647987 -0.26418602 0.8869424 -0.19113697 -0.243394 0.9388298 0.26893142 0.28990012 0.56272817 -0.27974832 -0.66577184 0.50066245 -0.3375602 0.06882014 0.05471831 0.4765169 0.22865142 -1.0819482 0.47268182 0.01175094 -0.42353746 0.010160777 0.61032325 -0.15731695 0.65507674 -0.17722 0.07685163 -0.25850332 0.095392466 0.2230278 -0.15402904 -0.058792535 0.2909034 0.07678529 0.14463866 0.097724974 -0.32676813 0.108442046 0.2790176 0.114850335 -1.1131356 -0.1505131 -0.24930003 -0.12632288 0.1317705 -0.34050798 0.19347721 0.045767397 0.25805804 0.5740858 0.18536054 0.1904404 0.31101927 0.08646971 -0.30161124 -0.2677278 0.122568294 -0.40659153 -0.38781413 -0.6116407 0.40849164 -0.074402064 0.5123934 -0.24943322 -0.902228 0.14022113 -0.50895697 0.4119071
