2343 68
, 0.15654963 0.04295454 0.20787147 0.01191683 -0.14574133 -0.096337005 -0.09869897 -0.012194402 -0.13250777 -0.121582195 -0.28812867 0.096813284 0.021633876 0.16644342 -0.016176846 -0.03564529 -0.06652029 0.06878185 -0.11816714 0.11865405 0.20758417 -0.03916639 -0.034365956 0.020163387 -0.085675 0.24793178 0.083270065 0.10982175 0.037197895 -0.20216265 -0.15611659 0.03449459 -0.11811326 0.31832078 0.11382532 0.14104244 -0.2719103 0.23100814 -0.09727784 0.19002679 0.042095505 -0.17574611 -0.11738128 -0.030163053 0.1346128 0.09219001 0.021910528 0.025148528 -0.04320141 -0.05136796 -0.09357739 -0.07237184 -0.32038924 0.2107161 0.13679728 0.08631992 0.030588161 -0.18133986 0.17094 0.03337071 0.13782504 0.019179383 0.09721572 -0.08498697 0.029539268 -0.01576491 -0.07198 0.050673783
. 0.04000147 -0.006174884 0.11994752 -0.078125596 -0.10449384 0.025397664 -0.113420665 0.0071103233 0.05069427 -0.15705447 -0.23904769 0.059593715 -0.043226324 0.13411325 0.0045282193 -0.115771055 -0.07546801 0.07526919 0.011584204 0.19826502 0.1260512 -0.17956504 -0.09375054 0.012763409 0.0137279965 0.032672867 0.049604252 0.0016611184 0.00212029 -0.18945266 0.07791204 0.018000938 -0.11823966 0.32073596 0.09822398 -0.08068204 -0.1857895 0.17133234 -0.021302508 0.10080918 -0.02247537 0.0083711315 -0.08048198 0.04318809 0.15943336 0.04105597 0.042636316 0.13100256 -0.06379506 0.007892181 -0.046376433 0.00088225707 -0.036833785 0.118924946 0.18533811 0.07790783 0.028494576 -0.02617575 0.04155411 0.02825071 0.00808355 -0.18688014 0.17620914 0.0015022553 -0.05700147 0.17120612 -0.17970334 0.014885587
alteration 0.31047368 0.10616405 -0.0438653 -0.1787128 -0.14067613 2.331489e-05 -0.15116602 0.17566806 0.0865617 -0.18418935 -0.08353742 0.17996508 0.3043101 0.0850864 0.10848944 -0.32199362 -0.17082389 0.16336472 -0.09871362 0.005152883 0.19648848 -0.107158095 -0.026490802 0.10147131 0.036749154 -0.05055508 0.08330469 0.12548299 -0.110267356 -0.018831467 0.05765763 0.15821901 -0.50121135 0.27071276 0.030292347 -0.0375668 -0.5073932 0.1331868 -0.012312461 0.17624561 -0.16119927 -0.20146133 -0.12662211 -0.17853706 0.22589605 -0.014784686 -0.06692263 0.3137735 -0.120891914 -0.06906644 0.003661457 -0.09203841 -0.0003174889 0.12647633 0.26443115 -0.003413681 -0.06024452 -0.0055933995 0.039130986 0.10464038 0.18796973 -0.13208011 0.38440743 0.12156914 -0.08062473 0.13050033 -0.06323589 -0.15173288
hydrothermal 0.06201043 0.15896489 -0.06358641 -0.21549176 0.114557855 -0.08536398 -0.20185193 0.21199456 -0.04738781 -0.08161739 -0.5399468 0.11507363 0.17886192 0.31030744 -0.016784633 -0.24049799 -0.05754532 -0.15590467 0.2314754 0.18278602 -0.059770063 -0.110239446 0.18371753 -0.00036940072 0.17442137 -0.130179 0.07326067 -0.2368744 0.1414345 -0.30837888 -0.15120682 0.06713685 0.27348825 0.3033314 0.22276482 -0.2043506 -0.3957306 0.03279159 -0.24959825 0.1363926 0.022108348 0.0063223527 -0.13932477 0.009193467 0.19511606 -0.11496667 0.09232916 0.11533137 0.19535057 0.043480925 -0.010156376 -0.12205733 0.02385937 -0.035256688 -0.08910475 0.11076714 0.09292702 -0.049337436 -0.06290324 -0.09228937 -0.055285297 -0.29469576 0.13887493 -0.072799064 -0.18262522 0.19865118 -0.27698258 0.09830596
porphyry -0.022388276 -0.1610086 0.22854891 -0.07132358 -0.15413846 0.08213722 -0.2713673 0.037985977 -0.31236172 -0.21164352 0.0012130133 -0.035673227 -0.120003454 0.03406318 -0.012638139 0.033538625 -0.2450389 0.18814471 0.03010481 -0.07522617 0.031258706 0.004757674 0.3427489 -0.037244145 0.17325823 0.19441156 0.11535023 -0.11294937 0.017818738 -0.11939294 -0.29710054 0.33321625 -0.081805386 0.38746402 0.17231464 0.0114821885 -0.23801357 0.08825155 -0.045757446 0.14930747 -0.07245907 -0.19114462 -0.10177528 0.21910001 0.09345521 -0.058529817 -0.04281248 0.33286422 -0.1108283 0.13161938 -0.14466608 -0.06478838 -0.1100332 -0.024583437 0.06851233 0.14900239 -0.09703605 0.11148037 0.0784448 0.07031648 0.07247818 -0.056712776 0.08051747 -0.076564185 0.021764934 0.03423592 -0.34583902 0.01596319
vein 0.22812499 0.15325257 0.21122704 -0.13323423 -0.025595991 -0.35557833 -0.429667 0.05975167 0.20721786 -0.46372655 -0.1135926 0.3563087 -0.049030833 0.20419171 0.14688084 -0.1447496 -0.11560882 0.045539927 0.16076986 0.21862227 0.27041304 -0.27898353 0.13102959 0.2241522 0.06587069 -0.07868505 0.17548238 -0.20142032 -0.013146702 -0.047251172 0.013521172 -0.054502428 -0.09547009 0.24293412 0.31986052 -0.10638052 -0.6571592 -0.04630835 -0.0019872354 -0.044818908 -0.11475075 0.033677604 -0.16074386 -0.08765052 0.19752426 0.16561738 0.05878956 0.24560936 0.31632918 0.11638401 0.24350375 -0.09629227 0.193794 0.07712478 0.020347208 -0.037130512 -0.03386325 0.1947955 0.29875103 0.22067562 -0.21555449 -0.24130353 0.49633488 -0.011383341 0.102641426 0.17403997 -0.09228672 0.19369566
deposit 0.0033031947 -0.0167193 0.1575587 0.03550209 -0.11940012 0.046062514 -0.17651339 -0.16020595 -0.24009179 -0.5229156 0.0837126 -0.14447404 -0.12249411 0.18227728 0.11151866 -0.06864422 -0.12640075 0.18638563 -0.1809785 0.03492018 -0.034053326 -0.03436291 0.2263542 0.2282608 -0.009515104 0.23851667 0.2512297 -0.14339355 0.17002262 -0.37116903 -0.21776041 0.20313221 0.12831779 0.46823108 0.19236438 -0.07571536 -0.14954336 0.00018360975 -0.027866963 -0.030956233 -0.14456347 -0.24200174 -0.2190672 0.045903243 0.18064496 -0.20273423 -0.107465155 0.30239114 -0.13946357 -0.058438823 -0.25009918 0.06578506 -0.035750236 0.0773124 -0.06152677 0.033587694 -0.010024541 -0.32108307 0.15618671 -0.0007934751 0.02022827 -0.082961604 0.19502398 -0.07447418 -0.007151977 -0.112876475 -0.18076386 0.1442954
mineralization -0.0059585324 -0.16996334 -0.009521023 0.01082007 -0.24229236 0.10091241 -0.20723198 0.18823229 -0.20076409 -0.5582723 -0.38911027 -0.15003842 -0.29380852 -0.04947866 -0.06338927 0.033156123 -0.1522858 0.065919176 0.075749114 0.034517474 0.089374565 0.037290096 0.02497863 -0.12418052 -0.04939894 -0.09914864 0.0013814141 0.1088679 -0.0144070275 -0.070265256 0.16658504 0.22977614 -0.08651796 0.3641857 0.2834124 0.38378492 -0.035277165 -0.027864376 -0.055861797 0.3961122 -0.3726622 -0.40227386 -0.36215124 0.05880775 0.11792725 0.13414371 0.20296091 0.13015114 0.023720868 0.079430535 0.03116628 -0.018327298 -0.062304072 -0.0688167 0.27149266 0.3498602 0.018860305 0.2689368 0.011264978 -0.0793808 -0.17743804 -0.34475696 0.34640262 0.12152075 -0.10368536 0.46892434 -0.34774125 -0.019005323
; 0.28950298 0.27372137 0.37124005 0.3235644 -0.37597468 -0.10900341 0.0707442 -0.035022955 -0.13979517 -0.039857116 -0.17825224 0.14315826 -0.24789852 0.09717749 -0.29358506 0.08387104 -0.2863931 0.0757268 -0.16069673 0.04117727 0.4007954 0.0057711895 0.23737513 -0.27185625 0.101820044 0.4288352 -0.16099411 0.28364348 0.12270977 -0.32091928 -0.060510293 -0.24971838 -0.1946522 0.32599273 0.19159354 0.29823717 -0.30142945 0.14173941 -0.22329108 0.14683162 -0.27932304 -0.3624204 -0.007910718 0.032739725 0.09389887 0.045028377 0.1000645 -0.23540482 0.29387856 -0.10341973 -0.14641626 -0.0887161 -0.5114956 0.10823714 -0.13512422 0.26564923 0.11848986 -0.11670032 0.109725446 -0.19108894 0.51057833 -0.21783692 0.167224 0.09552162 -0.12525274 -0.069887035 -0.21720448 0.24963099
zone 0.2053154 0.27959558 0.06960484 -0.1750626 -0.028694384 0.16396758 0.112319954 -0.14765792 0.25155532 0.0970487 0.28132245 0.3735562 0.06541998 0.10242141 0.12879233 -0.4383312 -0.41598478 -0.10006415 -0.36598566 0.052124728 0.14867684 -0.06724365 0.22990453 0.018662265 0.04916038 -0.18587072 0.057302456 0.1568212 -0.18147808 -0.31919086 -0.15870018 0.32717535 -0.11494799 0.32201165 -0.062985145 -0.11446716 -0.3789579 -0.02184816 0.24388766 0.08122906 -0.2200208 -0.14511047 -0.3128926 0.16853443 0.31303778 0.4000073 -0.24062228 0.18734656 -0.25342402 -0.044928722 -0.10546921 -0.3841327 -0.08858508 -0.14450763 -0.044442568 -0.31755337 0.10939415 -0.099070005 0.25377017 -0.2276648 0.1087263 -0.13038515 0.6220674 0.1547119 -0.22890164 -0.21896482 0.15164258 -0.34361833
fluid -0.2693097 -0.194033 0.11335688 -0.079929136 0.21494913 0.028278066 0.21101502 -0.08787984 0.03438329 0.2002043 -0.5363339 0.29542765 -0.26293865 -0.015838422 -0.20069917 0.21687543 -0.064141706 -0.10560048 0.3040155 0.3169759 0.30793354 0.10326281 0.035394255 0.10756371 0.098105535 -0.38113996 -0.31512478 -0.16227698 -0.016087515 -0.49832687 -0.08156203 -0.06786069 -0.026879612 0.2624201 0.2666658 -0.12104582 -0.248804 0.1570358 0.26168755 0.35713494 -0.13368593 0.21078214 -0.23995711 0.07161911 0.44533023 -0.03496176 0.09750667 -0.10346638 -0.18740271 0.20034382 -0.39970803 0.26022828 0.017976232 0.20285603 0.14506099 0.35565194 0.064466044 0.014707414 -0.06158213 -0.052568816 0.06368188 0.082163006 0.16749398 -0.18951507 0.188002 0.18696474 -0.16183746 -0.3146829
late 0.09570219 0.06610859 0.355906 -0.24820317 -0.23535171 -0.1641696 -0.51790047 0.09549191 0.0038191467 -0.45053175 -0.33700195 0.113748685 -0.28389624 0.36280563 -0.18998162 -0.2991203 -0.012115136 -0.19326179 0.21849701 0.008565366 0.07693454 -0.2996559 0.113706134 0.018682426 0.11664223 -0.03128444 0.24839696 -0.35280082 -0.15925743 -0.10588558 -0.06959076 0.08819549 -0.029268892 0.19061884 0.34600657 -0.17974839 -0.17324245 -0.094062485 -0.1247248 -0.19906035 0.028287115 -0.2572565 0.046343192 0.304018 0.24418707 0.11975541 0.18140343 0.09717491 0.27353647 0.31338614 0.21430483 -0.1114547 -0.10187765 0.05770253 0.03821958 -0.056535147 -0.14172202 0.13813645 0.12761077 0.12197755 -0.21464099 -0.18782264 0.41267878 -0.09446507 -0.31262356 0.36281928 -0.22321099 0.20047788
copper -0.25129685 0.07083658 0.08483495 -0.01711164 -0.06044397 0.11520458 0.022929372 -0.34137383 -0.16649505 -0.39178425 -0.079346396 0.07707493 0.23866178 -0.029487476 0.13083303 -0.40694308 -0.15520704 0.10820437 -0.10902705 -0.22899242 0.014892916 -0.35274974 0.4516242 0.4626991 0.023174366 0.07297148 0.29273477 -0.181357 -0.23528744 -0.19793768 -0.23077975 0.38419598 0.05770395 0.65041494 0.15592542 0.08459461 -0.0061428626 0.3034136 -0.00030065764 -0.08390826 -0.022825219 -0.07329319 -0.16832201 0.14312956 0.2724742 0.09430973 -0.22416386 0.085243426 -0.5430814 0.28892988 -0.36139834 0.01888811 -0.0064456 -0.27469972 0.40369916 0.12621835 -0.07527269 0.034582265 -0.03740861 -0.08020787 -0.24586095 -0.02273226 0.26412272 -0.21806215 -0.026826916 -0.21148026 0.09226017 0.13943751
quartz 0.39652875 -0.09845361 -0.0557748 -0.0501023 -0.10381574 0.03882847 -0.17994586 0.15381178 0.16435875 -0.05216334 0.32627425 0.26732346 0.029444901 -0.09869748 -0.043853607 -0.10016097 -0.18929103 0.1126623 -0.17040671 0.49487138 0.068430245 -0.2455155 -0.071275875 -0.028300477 -0.0030497562 -0.40173385 0.033205137 0.038918134 -0.35918546 -0.3538265 0.018896282 -0.050773136 -0.10384385 0.20506431 0.12630795 0.05801534 -0.40978363 0.34598583 0.49253896 0.6120117 0.020188915 -0.17688519 -0.4318358 -0.056043357 0.16242002 0.24770448 -0.028786771 0.083572395 0.03528512 -0.005472159 0.28082627 -0.18863268 0.06637713 0.18104254 0.22294416 -0.21586418 -0.0078594405 0.08172673 0.102451354 -0.052548178 0.12427538 -0.19090053 0.41044158 -0.26774707 -0.059340183 0.12206796 0.015743451 0.073956795
type 0.17441589 -0.20954995 0.3451507 0.15020412 0.050066896 -0.34681356 -0.1831441 -0.21667236 0.16032252 0.013970019 0.14182983 -0.07541256 -0.3603996 0.48155656 -0.3726863 -0.19124079 0.003947467 0.20970799 0.14514375 0.1179754 0.090499826 -0.15055859 -0.12782243 0.2248985 0.4738226 0.18361193 0.20379837 -0.019126981 -0.19153383 -0.30880874 0.4032648 -0.21609019 -0.41426632 0.49991918 -0.1562201 -0.20552166 -0.20810334 0.24334484 0.052147128 -0.19475521 -0.105493665 -0.009350552 0.07202727 0.17198941 0.5895382 0.09514991 0.21936698 0.059349008 0.4506567 -0.118302405 -0.0061269673 -0.041104343 0.040280834 0.108592264 0.14286704 -0.12665994 -0.3759952 -0.34891132 -0.07467858 0.00043309806 0.37086308 -0.43338394 0.105627626 0.123431996 0.028387126 0.06570545 0.04008612 0.0050735036
magmatic -0.05246656 -0.091365054 0.43594393 -0.11634075 -0.19187605 -0.29045004 -0.08077421 0.1382445 0.08573865 -0.11350441 -0.2620459 0.0031084435 -0.3607398 0.20715311 -0.20956467 -0.34818995 0.2455956 -0.2929871 0.5039519 0.37450075 0.039981827 0.00059582316 0.026218157 -0.22617842 0.208289 0.22169471 0.18552297 -0.1733712 0.14189632 -0.29282448 0.25671968 0.2993387 -0.038694672 0.6199007 0.16636726 -0.3176288 0.056869358 0.12656556 -0.11803462 -0.33144125 0.11164577 0.066409364 0.4272812 0.25738314 0.3100733 0.15127108 0.30429092 0.17108312 0.22821084 -0.03229703 -0.107740864 -0.23218824 -0.0015034201 0.15854274 -0.14483373 -0.15611522 -0.11471409 -0.20443486 -0.022695176 -0.09432402 0.106172234 -0.28468156 0.20790248 0.07725988 -0.010917607 0.2528382 0.0038904091 0.17141761
et 0.3432727 0.25648758 0.39777693 0.20359318 -0.19421162 -0.0643931 -0.13970278 0.01803147 -0.54644114 -0.26485786 -0.16345556 -0.08718516 -0.19415799 0.37500608 -0.45706072 0.3470994 -0.52153707 -0.24242455 0.16387276 0.15971391 0.52724814 0.034788776 -0.013159665 -0.49626434 -0.12659025 0.41770232 0.07997481 -0.07556965 0.40028167 -0.098765925 -0.26469207 0.33229646 -0.03770276 0.30456677 0.23955396 0.40052 -0.10793677 0.1525337 -0.22827998 0.13540712 -0.03969497 -0.13866736 -0.050933506 -0.012488634 0.042180527 -0.14619769 0.27796635 -0.41204524 -0.1307329 0.005546852 -0.29210946 -0.116464816 -0.3081136 0.22779542 0.2682204 0.19509101 0.16915798 -0.46729252 0.1574167 0.13142474 0.44231284 0.09837285 0.24845889 -0.05989509 -0.17482157 -0.01470967 -0.28881472 0.06847306
inclusion -0.2090588 -0.2716085 0.16179232 -0.15556484 0.19636072 -0.38781467 -0.014014916 -0.15417574 0.035841938 0.5547848 -0.37961483 -0.05746062 -0.6791066 0.1647866 -0.0822475 0.35769477 0.07273871 -0.23448822 0.018437032 0.50542456 0.3033321 -0.0901067 -0.1937253 0.010724128 0.30868414 0.10030834 -0.10309006 -0.16370808 -0.28818253 -0.4580153 0.21744563 -0.15414938 -0.39045328 0.63622576 -0.14407074 -0.38926634 -0.25165218 0.3244213 0.25769982 0.4436325 -0.16831447 0.4715505 0.15316276 0.328742 0.7077705 0.1789051 0.5071549 -0.2457098 0.067823045 0.14603521 -0.4957064 0.044483863 -0.25273672 0.32826442 0.14644426 -0.11331836 -0.3455174 0.14394732 0.06554977 0.22452195 0.36276937 -0.09701836 -0.1307979 0.119664 0.3593009 0.3522781 0.07487174 -0.10782549
al. 0.273922 0.21227339 0.38854602 0.2562105 -0.16676822 -0.08964636 -0.13191542 0.02409336 -0.55449855 -0.32046676 -0.16994618 -0.1229795 -0.13052352 0.3365891 -0.41992393 0.3086678 -0.46597663 -0.24410139 0.0616796 0.10378137 0.47776443 0.05945415 0.051654663 -0.49481246 -0.05584587 0.477042 0.071205325 -0.08212067 0.5580529 -0.08453289 -0.2735334 0.32032913 -0.009059375 0.3996187 0.2615266 0.39436838 -0.0949222 0.24054195 -0.21980457 0.10994603 0.037578054 -0.103166714 0.0146953 0.07455414 0.07331473 -0.19643462 0.17998177 -0.42686468 -0.1556521 0.05622795 -0.24471205 -0.10988157 -0.3205439 0.27026957 0.27222842 0.19024998 0.14049621 -0.43087304 0.04747658 0.09914026 0.46962923 0.07527713 0.2605474 0.011098085 -0.18532099 -0.047020417 -0.28904945 0.094700396
stage 0.25258806 0.39995533 0.51398426 -0.45552722 -0.13627797 -0.2599611 -0.45277125 0.29635975 0.41136065 -0.094689324 -0.5705845 -0.013355653 0.012459092 0.31123543 -0.30708572 -0.3847279 0.11784518 -0.13800363 0.32999253 0.22870241 0.12828514 -0.302089 0.081767336 -0.13824484 -0.1969638 -0.030825919 0.35733193 -0.33772436 -0.07201364 -0.17603657 -0.1656294 0.06478706 -0.22638632 0.43652314 0.42205212 -0.38897645 -0.08131047 0.054145105 0.05377952 -0.26507717 0.05451448 -0.025160009 0.35000062 -0.13818607 0.21580587 0.26852694 0.24323079 0.30068624 0.27913904 0.4082816 -0.15110776 -0.274739 -0.053485993 -0.08737161 0.21789883 -0.15410146 0.08065063 -0.08185536 -0.03254123 0.18387868 -0.13471113 -0.14427857 0.36908686 -0.26251072 -0.06615401 0.15407284 -0.31995988 0.30526596
fig. -0.26023886 -0.043874595 0.18045637 -0.19082789 0.000544786 0.055413533 -0.46318522 0.0254729 -0.11440535 -0.17477418 -0.14740865 0.0020548378 -0.40239707 0.23690888 -0.10373423 0.074333675 -0.15784676 -0.14698602 0.12279319 0.266753 -0.05487999 -0.64290136 0.0018205915 0.24810815 0.3592465 -0.09283194 0.3115063 -0.06300506 -0.21051337 -0.31738973 0.073698245 -0.040912535 -0.19530925 0.26113936 -0.13526127 0.22189471 -0.16805592 0.20471582 -0.30495766 0.08904809 0.23246567 0.2139123 0.016892942 0.012946451 0.056660406 0.13563792 0.5699024 -0.11127022 0.07069041 -0.15417661 0.07414608 -0.07922448 0.021802844 -0.027806612 0.006023378 -0.098383315 0.27845964 0.03820867 0.26803666 0.08714209 0.14539169 -0.0658713 0.30555153 0.23378935 0.06598833 0.14927547 0.02729986 0.1671383
2 0.069546126 -0.19364893 0.011990496 0.04527896 0.11502108 -0.19869632 -0.05266302 -0.10986726 -0.12980641 0.0926158 0.007547086 0.20648946 -0.26147592 0.17016184 -0.19517781 -0.43658817 -0.17066008 0.036140688 0.0958755 0.38512826 -0.11052954 -0.30158797 -0.26831996 0.08141372 0.22853485 0.21547057 0.10619319 0.39063287 -0.22988369 -0.35077187 0.2629435 -0.46883932 -0.6020358 0.15723291 -0.098441936 0.010015554 -0.37449947 0.37795186 -0.2522131 0.021783205 -0.15835762 0.26767924 0.007197499 0.021437377 0.4199936 0.25945076 0.1877908 -0.3173823 0.17147687 -0.2929799 -0.18551664 -0.23658356 -0.070208766 0.017756376 0.0764575 0.07290495 -0.14082055 -0.25171983 0.012319828 0.11355132 0.51807183 -0.42198622 0.11585796 0.13923618 -0.19342202 0.4086914 0.13406211 -0.060564864
cu -0.007751318 -0.3199816 0.2572544 0.3073754 -0.107724175 0.26572445 -0.16991308 -0.3501345 0.26575795 -0.35670373 0.09135317 0.01906156 -0.42364648 0.36897066 -0.0332708 -0.08525781 0.03652853 0.2523607 0.25495374 -0.107843846 0.13182113 -0.089359835 0.43792275 -0.069005296 0.23452288 0.43608236 0.101375304 -0.043829065 0.107181534 -0.43584543 -0.18639983 -0.19538206 -0.024259433 0.77297777 0.10239178 -0.09244992 0.10811367 0.013097188 0.024358165 0.010423413 -0.13869171 -0.240579 0.04041625 0.07493497 0.09341168 -0.22897941 0.1177077 0.27458486 0.051510725 0.11971552 -0.5500386 -0.29806098 0.022343254 -0.2901869 0.021655612 0.44523776 0.30766842 -0.17734945 -0.08252876 -0.042807683 -0.05443984 0.4638159 0.4685911 -0.023232263 -0.07550989 0.18988052 -0.07326313 0.020902565
system -0.038885187 -0.1923631 0.06542513 -0.07146281 0.027055098 0.17057754 0.0039243484 0.25487256 -0.15147112 -0.14142153 -0.29682574 -0.098179966 0.17374882 -0.050381534 0.14964981 -0.033369187 0.07725741 0.07221817 0.10118473 -0.021211296 -0.090209186 0.14496723 0.34314647 -0.10432673 0.154212 0.034604255 -0.22651035 -0.2727598 0.21275745 -0.22285241 -0.25821903 0.08842924 0.18259656 0.6782489 0.34768665 0.08729059 -0.45419872 0.5046269 -0.3415542 0.29461542 0.09666153 -0.039950248 -0.28190234 0.34960663 0.10065072 -0.34094307 -0.02100881 0.2699462 0.05589132 0.06827397 -0.35799444 0.19086315 -0.37820128 -0.023867678 0.07524796 0.21416858 0.06383324 -0.079689294 -0.09411679 -0.40653276 0.39931482 -0.31505212 -0.28207037 0.020123463 -0.06719519 -0.05924356 -0.6555359 0.048309222
1 0.061529968 0.0059201024 0.17151201 0.093087316 0.24232808 -0.099633284 -0.20048442 -0.07392009 -0.0448145 0.37758413 0.257941 -0.13934971 -0.27945518 0.22848518 -0.31143987 -0.24397515 -0.29505455 -0.0980481 0.23533209 0.33207452 -0.07722397 -0.19401194 -0.03893581 -0.17683673 0.5408781 0.05902678 0.13553295 0.49895495 -0.013402515 -0.19410324 0.17547606 -0.10978088 -0.28747308 0.5458136 0.020202294 -0.108656906 -0.0097546885 0.4643612 -0.19935346 0.06950802 0.085393086 0.3771987 -0.033883955 0.18410538 0.08205758 0.16267869 0.29743317 0.015819686 0.21288984 -0.055111766 -0.19918178 -0.21421126 0.18584847 0.05584094 0.12209272 0.047008093 -0.040304847 0.40876037 0.031228263 0.32787806 0.45261106 -0.12401674 0.3190235 -0.026781792 -0.16285042 0.40969226 0.023765313 0.10317217
temperature -0.44653627 0.06900669 -0.47867465 -0.35846162 -0.1327549 0.07783677 0.21210355 -0.09790062 -0.036052767 0.1987592 -0.61630243 0.46429104 -0.20794414 -0.46020418 -0.038991958 0.29879233 -0.56014913 -0.23042324 0.0035880175 0.068906225 0.25448638 -0.22415555 0.12865312 0.07582196 0.08450727 -0.7225735 -0.1551019 -0.047812782 0.24757421 -0.5795253 -0.3018753 0.08395846 -0.020988844 0.2709135 0.42306495 0.32686153 -0.7311369 0.23200965 0.06191794 0.4863267 -0.28609148 -0.07188866 -0.020672956 -0.0057424917 0.20116356 0.23376031 0.0927357 -0.29929826 -0.2962312 0.09515077 -0.35046014 0.04305433 0.12563336 0.11234066 -0.14427763 0.54777193 -0.25124776 0.021745417 -0.34868118 0.16931704 0.25647062 0.22641554 0.26032293 -0.0030362415 0.050742324 0.13355918 -0.21077397 -0.14170639
high -0.20493795 0.019253625 -0.29341674 -0.2904597 -0.11049519 -0.42525792 0.09309188 0.010770763 -0.08393787 0.025474042 -0.700649 0.101483285 0.050324716 0.14343725 -0.065144725 0.33250937 -0.24719846 -0.15761864 -0.059650794 -0.030685784 -0.14226899 0.16834532 -0.25132498 0.19725668 0.16118215 -0.27754763 0.29670292 -0.11995408 0.21919855 -0.33962396 -0.088993154 0.10439817 -0.4965842 0.6135283 0.19388923 0.14578253 -0.23756418 0.19120039 -0.0047237235 -0.13564505 0.25995353 0.17873745 -0.46307522 -0.46485135 0.4782993 0.074120134 -0.10842755 -0.14531523 -0.27353594 -0.0141102085 0.09003666 -0.25876424 0.14001831 0.39569727 -0.038567033 0.2516015 -0.33520457 0.013150239 -0.17803043 -0.02611612 -0.04066115 0.20108843 0.044180937 0.067111075 0.100658484 0.29893348 -0.17078936 -0.10113992
ore 0.09369033 0.1160397 -0.05372759 0.2783296 0.24206714 0.18277304 0.099266544 -0.13302507 0.087077916 -0.10494079 -0.2243066 0.05431641 -0.41288123 -0.15375961 0.045371994 -0.05793221 0.15601078 0.16568747 0.19450562 -0.034334704 -0.061889965 0.39687836 0.20561716 0.11774323 0.295258 0.07020885 -0.020420108 -0.3823087 0.34129274 -0.5985355 -0.24813278 0.66095877 0.16409115 0.5142992 0.3381272 -0.045944996 0.12496417 0.24530722 0.12066281 -0.3088874 -0.018742397 -0.23040411 -0.4143515 -0.12379654 0.43893427 0.16825247 -0.10099672 0.25061557 -0.19514301 -0.070009805 -0.03618457 -0.006013289 -0.33438054 -0.074948385 0.06642209 0.17563409 -0.1212022 -0.39585742 -0.0077671823 -0.5844573 -0.037460767 -0.43111616 -0.02771957 0.25699544 0.23028569 -0.4242698 -0.29388538 0.03145756
intrusion 0.050935496 -0.00947957 0.037009817 0.01606256 -0.18899314 -0.0454298 -0.023954196 0.31777272 -0.22735466 -0.201886 -0.016515609 0.16252775 0.048008252 0.0017387813 0.11157678 -0.42753989 -0.22052202 0.004408269 0.20437188 0.23867139 -0.11347806 -0.35650688 0.0996196 -0.27804446 0.30955094 -0.038063124 0.10486337 0.31429523 0.15971097 0.120260604 -0.1310578 -0.17973942 -0.41199383 0.79462224 0.5857097 -0.1950378 0.009044591 0.12784639 -0.34529004 0.11315352 0.09467722 -0.0065075057 0.27164128 -0.19090165 0.07352699 -0.015891109 -0.06051037 0.3778661 -0.05730586 -0.117961794 0.13011321 -0.28509253 0.0939486 -0.25776923 -0.067869015 0.06788601 -0.06354964 -0.055635884 0.3151027 0.39840898 -0.07617499 -0.2258418 0.5222266 0.24022672 -0.17779408 0.11555885 -0.18651298 0.16105004
low -0.120802395 0.049879707 -0.6685476 -0.29997674 -0.301055 -0.19764264 0.007977296 0.23848137 0.04017113 -0.30733016 -0.15172268 -0.08646055 0.07298589 0.115557946 0.06976431 0.14171085 -0.19063027 -0.056100976 -0.23504685 -0.15765755 0.051378276 0.10807978 -0.10146727 0.14301527 -0.21536887 -0.49674454 -0.1620635 0.2515695 0.20488991 -0.051952176 -0.16911672 -0.24522895 0.12507954 0.74523765 0.15105167 0.005400429 -0.3306783 0.217143 0.028148219 0.2403848 -0.4572247 -0.19606045 -0.291415 -0.1613168 0.7609436 -0.012309521 -0.08112631 -0.0074884417 -0.4168189 0.24845669 0.30284184 -0.072336875 -0.22632346 0.006986767 0.4272709 0.045209967 0.073133275 0.073165834 0.099610664 -0.07574219 -0.043561965 -0.21703085 0.2836704 0.37157574 0.19895437 -0.039134886 -0.19582269 -0.32086733
associate 0.50735754 -0.11958582 -0.052010868 -0.39680454 -0.4750491 -0.41181374 -0.4888963 0.09051519 -0.1052947 -0.46595356 -0.33696103 -0.14897503 -0.12358046 0.38824722 0.042545162 -0.2235488 0.05036286 -0.16173048 -0.25731057 0.13097069 0.51552486 0.034074716 0.0025438122 -0.20361543 0.27609316 -0.23055327 -0.11832126 0.08508909 0.09542146 0.12759808 0.081475176 0.016644297 -0.4891895 0.18335304 0.18373743 -0.14808373 -0.026569752 0.063497804 -0.1303981 0.18017316 -0.21644656 -0.47625542 -0.36167383 -0.1278549 0.06986625 -0.06773399 -0.014748408 0.57283366 0.30472317 0.09281456 -0.4297772 0.12799405 -0.08719695 -0.050752793 0.09127761 0.29738423 0.31962413 -0.37224638 0.16296186 0.08432358 -0.10759368 -0.59505934 0.29509777 0.20119599 -0.2055257 0.15616634 -0.0019303722 -0.2244599
rock -0.06682666 -0.21097451 0.11885146 0.048763655 -0.21913102 0.11443084 -0.4829668 0.030942792 0.26425666 0.16450311 0.09775297 0.37283495 0.390934 -0.35345337 0.056787632 -0.31208384 -0.01425278 0.3438769 0.37548634 0.31414348 0.48623523 0.15727775 0.29043022 -0.183675 0.37973297 0.10906589 -0.005796345 -0.31417322 0.04295722 -0.21070027 0.25362143 0.42212483 -0.21506466 0.5322311 0.09173745 0.21050683 -0.100465335 0.63412803 0.089196116 0.47913492 -0.30427232 0.074390516 0.2668136 0.113338284 0.22996452 0.075276874 -0.29644436 0.24738038 -0.12189092 0.018922575 0.1028431 -0.22776486 0.23781991 -0.38306376 0.3688383 -0.14280953 -0.112522684 0.033575993 0.26548222 -0.31007043 0.63907546 0.23677081 0.25467753 0.030175932 0.17198303 -0.043566953 0.086610876 -0.16456299
occur 0.063292675 0.13468058 0.033130154 -0.18247943 0.023497159 0.00015545392 -0.17875192 0.14795303 0.14878067 -0.16647294 -0.17728601 -0.04723921 0.060249362 -0.10817696 0.19325282 -0.3746838 -0.6765308 -0.03822449 -0.2974691 0.2698817 0.14182802 -0.3170617 0.11446082 0.008543493 0.42589417 0.026122177 0.49316224 0.3569179 0.1337248 -0.027411664 -0.14363705 0.14159977 0.26162094 0.045980457 0.38718033 0.1485726 -0.38368085 0.16759837 0.24039024 0.13213126 0.27319393 -0.05876916 -0.02399598 -0.35466775 0.14769429 0.42506567 -0.024286527 0.30753043 0.03114527 0.050827492 0.48481497 -0.11121969 0.12595403 0.020309117 0.22073524 -0.011166552 -0.0426504 0.07026294 -0.17089498 -0.37473732 0.15481034 -0.50046086 0.2637783 0.03836658 -0.07251139 0.016420158 0.06669206 -0.14272761
sericite 0.5622839 0.43706325 -0.18664066 -0.3086018 -0.13224609 -0.15868786 0.09787592 0.23705405 0.31718987 -0.1481183 0.16232984 0.2700071 -0.1079482 -0.07897636 -0.24394485 -0.42841896 -0.5443346 0.32684308 0.19077854 0.50325245 -0.14173868 -0.20448573 -0.017668916 -0.19128875 -0.35689655 -0.4127251 0.07762415 -0.06504067 -0.4137356 -0.4190768 -0.1926777 -0.17392302 0.027734151 0.4804729 0.2303056 0.19337493 -0.45309636 0.40723717 0.099918105 0.66783506 -0.27021793 -0.093453065 -0.016807564 -0.3950133 0.41370678 0.13976823 -0.23104541 0.65969324 -0.4825177 0.02515253 0.6355749 -0.26397285 -0.00084966095 0.06792962 -0.18266068 -0.06595142 0.016966917 -0.47289768 0.02338629 0.02794495 0.20264076 -0.32061902 -0.030553313 -0.10450508 0.23639087 0.02368969 0.040938005 -0.022063114
molybdenite 0.22528516 0.4401537 -0.021558303 -0.35997063 -0.43527925 -0.50778186 -0.4616944 -0.047774274 -0.09534267 -0.25763896 -0.51814646 -0.4694901 -0.46949565 0.055315454 0.009439666 -0.17786825 -0.21449625 -0.12670831 -0.045766443 0.17659853 0.031441625 0.23668529 0.16110414 -0.018970117 0.0436244 -0.023175783 0.016827906 0.28810656 -0.17733489 -0.0236915 -0.25953358 0.4407424 -0.42936936 -0.08249525 0.8895909 0.23600389 -0.43177104 -0.27438387 -0.05115718 0.563107 -0.19605236 -0.73212415 -0.5564181 0.27925718 0.3905366 -0.20774269 0.38398167 0.17123246 0.51774424 -0.42458642 -0.554827 0.12673739 -0.5860688 -0.15293738 -0.20729072 0.10834535 0.15058604 0.22909915 -0.30973908 -0.15526912 0.16427994 -0.5867905 0.16575009 -0.2691151 -0.3485791 1.2323757 -0.22971183 0.15979443
3 0.15820035 0.2060357 -0.05483344 0.15978101 -0.015200246 0.056044046 -0.05105801 0.042317517 -0.2934875 -0.015106141 0.31621248 0.16724086 0.07402445 -0.13053927 -0.21065626 -0.506725 -0.72258264 0.04458891 -0.034933697 0.087594815 0.009755212 -0.42180642 0.25225553 0.36164492 0.29908797 -0.19821878 -0.16237624 0.23371646 -0.028651668 -0.08689789 -0.045522533 -0.29036978 -0.68387246 0.29967633 -0.103838585 0.120677084 -0.48256359 0.56771326 -0.24199316 -0.01537991 -0.41711402 -0.06668685 -0.17118776 0.030191373 0.12285684 0.061018217 0.16838211 0.13929564 0.4319187 0.024517994 0.02315867 -0.13047458 0.40560412 -0.020627022 0.04817285 0.17144127 -0.19814539 0.15481661 -0.15029259 -0.14754842 0.27267054 -0.44548944 0.5013224 0.13807476 -0.23527674 -0.0059038918 0.14935474 -0.2096475
- 0.4906213 -0.1940562 -0.10749614 -0.3935511 -0.0059627397 -0.15514253 0.36636633 0.11246576 0.3599667 0.0061517833 -0.42888573 -0.7966879 -0.06525812 0.33865917 0.27699807 -0.15656759 -0.4107393 0.41629982 -0.16392556 0.21574678 0.015804581 -0.1272599 -0.30570206 -0.3436741 0.16093992 0.123188 0.4445096 -0.303695 0.32350376 -0.2866269 -0.67419773 -0.09969568 0.25009838 0.45094392 -0.03915776 -0.051054623 -0.44466537 0.28668287 0.21268396 0.6573691 0.41352603 -0.23299693 -0.2527878 0.14060178 0.06573359 0.01194152 0.33673567 0.19212092 -0.16158521 0.4169068 0.6276351 0.23896384 0.081206486 0.03252081 -0.42292368 0.4376038 0.032050088 -0.27317655 -0.14770041 -0.26577547 0.62613636 -0.10978838 0.15800238 -0.5426337 -0.35530448 0.19220461 -0.10076723 0.06254327
silicate -0.061277416 -0.2673635 0.3056208 0.19282988 -0.0010336238 -0.0685982 -0.2027317 0.52893585 0.12647359 0.17346366 -0.5423011 -0.24960358 -0.3863651 -0.39497024 0.059412073 -0.0864982 -0.40370366 0.027665993 0.48239148 0.50377715 -0.20151564 -0.3544967 -0.5214188 0.2062686 0.42893115 -0.1214091 -0.32446796 -0.5261259 -0.07804264 -0.32993078 0.27183723 -0.3504308 -0.501819 0.35291544 0.26949996 0.19839312 0.020014882 -0.030080654 0.092794664 0.28990954 0.046613377 0.11367389 -0.028594956 0.3827396 0.4421541 -0.26571602 0.04925811 -0.22736578 0.010264523 0.08591072 -0.6249933 -0.074828774 -0.5345157 0.30619037 0.26884344 -0.33233455 -0.02532157 -0.06966056 0.60052216 -0.5206263 0.48095956 0.15754656 -0.17530936 0.2590873 -0.03592883 0.33198565 -0.04081293 -0.27108964
principal 0.6038426 0.595505 0.43196517 -0.44057634 0.08115388 -0.31869334 -0.5341508 0.26300448 0.21076886 -0.30706295 -0.68258595 0.78474635 0.29787406 0.28191286 0.22838014 -0.4477466 -0.0075533376 -0.22835778 0.32069483 0.22881626 0.38741392 -0.43727112 0.28668058 0.40746862 -0.03248711 0.1257275 0.43160138 -0.32026273 0.06690574 -0.14940704 -0.13300359 0.059353765 0.31328484 0.33449072 0.094156824 -0.32114094 -0.32762554 -0.22451174 0.037036818 -0.2023021 -0.29589656 0.5291698 0.39349598 -0.021393696 0.48351973 0.036698442 0.37096372 0.19502017 0.26756468 0.427034 0.28547627 -0.56555635 0.2381922 -0.1335306 -0.48459536 -0.014854816 -0.03127866 0.21878755 0.015656551 -0.1811175 -0.21063863 -0.032164045 1.0911813 -0.2854535 -0.28628296 0.23492298 -0.030055618 0.21436247
date 0.28169724 0.32641965 -0.06536515 -0.34429523 -0.18279698 0.04398967 -0.3633072 0.12786847 -0.5084504 -0.2837104 -0.3204285 -0.33456793 -0.46543473 0.30521876 0.6153003 -0.57620174 -0.014328212 -0.19425279 -0.1366977 0.12631634 0.1844526 0.31590918 -0.02559054 -0.22786027 0.2880769 0.25012258 -0.12886406 0.120465726 -0.01414361 -0.29326645 -0.21861005 0.3604256 -0.49706644 -0.19904463 0.73872334 0.026697353 -0.24371584 -0.38275832 0.05283815 1.1847271 -0.22005743 -0.7712915 -0.39006987 0.07801597 0.33503628 -0.38445562 0.0628364 0.47694618 0.3274556 -0.38552865 -0.55620724 0.019032605 -0.57257307 -0.25444177 -0.08159383 0.33650598 0.34578657 -0.024027413 0.13008459 0.12440571 0.50673246 -0.665368 -0.057740245 -0.052319575 -0.3410619 0.9381015 -0.3840974 0.21862198
mineral 0.1316413 -0.20584077 -0.21861167 0.09089549 -0.20275535 -0.25092444 -0.15216142 -0.11162282 -0.5236909 0.20269103 -0.12667345 -0.019724997 -0.016541945 -0.35503024 0.13776548 -1.024253 -0.40122956 -0.04535462 0.08193884 0.14939883 -0.02847139 -0.1339102 -0.3856178 0.5375042 0.30065337 -0.5860449 -0.31408963 0.04228407 -0.2674891 -0.42401242 -0.05279824 0.27145416 0.12415004 0.43945655 0.35118908 0.6806914 -0.48642188 -0.03154383 -0.3281949 0.26246208 -0.20205511 -0.023694798 -0.17884815 0.2664529 0.18437497 0.14715472 -0.0034937314 0.27672938 -0.31052065 0.25596175 -0.19986472 -0.0038545153 -0.09570532 0.03217397 0.35794416 -0.19189623 -0.0054868446 -0.057141833 -0.24751271 -0.2210657 0.032882936 -0.19367158 -0.3110133 -0.6824259 -0.50071377 0.1149407 -0.1232199 -0.47200823
potassic 0.6466315 -0.1071899 -0.065061755 -0.2835358 0.015020289 -0.5274214 -0.54284704 0.32871613 0.23933895 0.077332616 -0.44822225 0.1435653 0.09028998 0.35112208 0.3562996 -0.3023217 -0.07504664 -0.086913764 -0.27939528 -0.22427443 0.48991692 0.1658235 -0.20619021 0.12770191 0.057156257 0.038417157 0.114889294 0.2605064 -0.4548588 -0.2150059 0.3746749 0.74204296 -0.6096122 0.105976455 0.071830854 0.46487466 -0.797958 -0.13650693 0.122383825 0.2627946 -0.17230354 -0.31708956 0.08730785 -0.2351626 0.17164114 -0.22983547 0.089517064 0.51516384 -0.026485357 -1.2770106e-06 0.102162056 -0.38658527 -0.42301792 0.46734288 0.587718 0.32301408 0.18543379 -0.09428868 0.23980336 0.39337048 0.09460644 -0.32330632 -0.024579734 -0.04971017 0.092785016 0.28960958 -0.14366838 0.1391028
skarn -0.33985052 -0.02959106 -0.4230729 0.42017663 0.050624933 0.057503607 -0.2645394 -0.59134054 0.1599092 -0.5819977 -0.29737958 0.46517795 -0.39802736 0.074231245 0.08798034 -0.120499186 0.02807347 0.10042157 0.04611818 0.21959405 0.07649197 0.03613956 0.30014157 0.6319288 0.33628494 0.37542143 -0.1805687 -0.30697268 0.0045932443 -0.105713986 -0.27595955 -0.058395933 0.44033623 0.1967699 0.88284624 0.652997 0.4596255 0.3133621 0.12043005 -0.021379963 -0.63775647 -0.085274786 -0.3530285 0.62731326 0.076713614 0.38665357 0.30666378 0.06443757 -0.35232365 0.010416733 0.12546259 -0.12018861 -0.06403707 0.09039629 0.382217 0.59848845 -0.57982177 0.062222037 0.27930292 -0.31330174 -0.66913027 -0.235434 0.70016986 -0.022236688 0.493387 0.47161052 0.0059223203 -0.37560716
host 0.09600623 -0.17564029 0.19986957 -0.1568139 -0.4103189 0.09373886 -0.6930083 0.23720956 -0.35593036 -0.84933025 0.021842686 -0.02977574 -0.5044211 -0.32987195 0.022676382 -0.07726889 -0.19271103 0.055128515 0.22511762 0.37762153 0.003763124 -0.11614782 0.08077157 -0.11912442 -0.25157616 0.28930992 0.057087727 -0.14402017 -0.10820607 0.038730267 0.20486496 0.31987837 0.03746106 0.106082425 0.5819819 0.01285583 0.22444385 -0.14892589 0.023531575 -0.05795155 -0.22587407 -0.2818526 -0.4595904 0.0895905 0.40685794 0.04932199 0.66283923 0.1572495 -0.043972746 0.3714448 0.15156904 -0.2307996 0.043728337 0.055865124 0.3511066 0.20705317 -0.3511855 0.60405666 -0.17566924 -0.12356335 -0.2073728 0.2214958 0.35164982 0.24301024 -0.30069038 0.73794186 -0.31321815 -0.35916534
rich 0.26315218 -0.032567836 0.60012233 0.22607829 0.31037468 -0.2983962 0.036301654 0.09766729 -0.064337306 0.34425145 -0.6022532 -0.43861657 -0.038265754 0.56184554 -0.051949024 -0.38099217 0.25600624 0.080216065 0.37477747 0.2476758 0.13219284 -0.471229 -0.25710145 0.7406714 -0.0056092087 0.22563286 -0.14082052 0.076452784 0.03789382 -0.07078414 -0.13694954 -0.44619086 -0.5644331 0.5990874 -0.13482466 -0.51338685 -0.064671606 0.37034988 0.21508795 -0.10891203 -0.43761912 0.2958995 -0.36742577 0.09713642 0.5281397 0.1838737 0.15744412 -0.1996225 0.017172879 0.16274692 -0.3484626 0.1806358 -0.37156218 0.4355302 0.40727347 0.280594 0.07135276 0.03360674 0.39855292 -0.44069815 0.4142966 0.15857771 -0.0750957 -0.11718029 0.21984795 0.051148012 -0.006814444 -0.22689332
dacite 0.07964502 0.18831629 0.10518912 -0.562883 -0.76127976 -0.62290585 -0.5533835 0.3813219 -0.026289036 -0.36938325 0.19834523 0.36556348 0.22420251 -0.053475037 -0.23973966 -0.56912035 -0.17617786 -0.10206263 -0.18885604 0.595423 0.010415095 -0.22093712 0.22004624 -0.4433195 0.047618635 0.31977594 0.31860352 0.31817824 -0.21892746 -0.37571445 -0.48811966 0.45517024 -0.505221 0.43410352 0.6851238 0.017097814 -0.1632451 0.025078822 0.092243195 -0.15388721 0.4279992 0.13445939 0.39587104 -0.13469991 -0.036665108 0.43769717 0.027165927 0.25063547 -0.1810681 0.3278548 0.07549886 -0.014938416 -0.19307911 0.20948763 0.3893055 -0.08285501 -0.22062461 0.20596053 0.29100975 0.62532437 -0.31058353 -0.048034385 0.3495445 0.21920088 0.08744077 -0.23532182 -0.079264276 -0.12865123
sample -0.30536702 -0.14485398 -0.050127145 0.17241336 0.34278017 -0.075646505 -0.35012484 -0.49886084 0.15968095 -0.8164966 -0.29393435 -0.11275867 -0.6374729 -0.0036623525 0.62207615 -0.48510525 0.037425905 0.04931137 -0.08485852 0.40506232 0.4637741 -0.06804805 -0.31194386 0.343849 -0.15366337 0.26970944 -0.002159321 -0.32956314 0.46667254 -0.093022294 0.25381488 -0.43042308 0.073116556 -0.009200098 0.5823885 0.30279037 0.35597503 0.38007298 0.16626889 0.43160316 -0.22074315 -0.11068911 -0.6508422 -0.0029032447 0.18483008 -0.38322333 0.56134856 -0.5515372 -0.006138807 -0.025058335 0.26653394 0.015109326 -0.184844 -0.11913819 0.7117774 -0.19365422 -0.7284365 0.25672302 -0.16258192 -0.061520275 -0.009463281 -0.3354786 0.66657394 -0.09326412 0.04152829 0.9301863 -0.25442347 -0.5264042
k 0.30293435 0.14154495 -0.4057135 -0.55532193 -0.2857659 -0.26891947 -0.16195716 0.38634136 -0.1619639 0.31566966 -0.05516115 -0.14576165 0.2665103 0.13761921 0.588642 -0.1577677 -0.52355033 0.11524519 -0.24877594 0.12253548 -0.12558706 -0.45118228 -0.43269092 -0.45902163 0.34050906 0.058437623 -0.020979961 0.72360396 -0.09011544 -0.2627005 -0.17986976 0.013834445 -0.05559471 0.15168181 0.4657982 0.4234494 -0.4460323 0.034059696 -0.07888533 0.0966244 0.3945337 -0.61495143 0.09832588 0.15306602 0.27672255 -0.013542596 0.32481304 0.63632834 -0.32617432 0.17129791 -0.15712325 -0.5528104 -0.5562709 0.05040853 0.069016136 0.5862954 0.1737732 -0.5728933 0.5866068 0.20492657 0.3151289 -0.037799194 -0.34289634 -0.3921867 0.25533938 0.44982108 0.09096367 -0.044383474
+ -0.061784524 0.54358596 -0.107209094 -0.12556458 0.42793587 -0.38393065 -0.52464 -1.2065524 -0.06839173 0.056215376 -0.2391992 0.30893746 -3.4036057e-05 -0.06725417 -0.32383466 0.2823201 -0.30257884 -0.02898463 0.24798575 0.7344073 0.26645407 -0.84007245 0.36093172 -0.48701638 -0.48404682 -0.9595015 -0.10636077 0.96994084 -0.04494667 -0.23816937 -0.3777977 -0.5293142 -0.51814616 -0.07982278 0.2938185 -0.03043297 -0.84308785 -0.047752764 0.35320213 0.19652589 -0.035223287 -0.26460078 -0.7880553 0.11247232 -0.15586106 0.47784156 1.0173173 -0.22741014 -0.8803606 0.7666794 0.06949341 -0.52154523 -0.269677 0.19931348 0.28113225 -0.37132755 -0.6304125 -0.05661336 -0.6691433 0.25874665 0.1852867 -0.59894013 -0.053401038 -0.41989225 -0.17553756 0.021122858 -0.40374672 -0.6767248
biotite 0.32929054 0.45504996 -0.16738643 -0.8336245 -0.04426322 -0.21575159 0.18294995 -0.028512895 0.32182407 -0.18344696 0.18728302 0.35487995 -0.12175835 0.49118143 -0.11290113 -0.44427896 0.045648217 -0.26339057 -0.01289296 0.27837333 -0.006391725 -0.4260618 0.28219372 -0.10900799 0.4374705 -0.020508815 -0.1816869 0.324309 -0.000728609 -0.29236457 0.13069247 0.42773435 -0.36024225 0.3225912 0.24807946 0.31300697 -0.30005324 0.45138016 -0.44227335 -0.22318402 0.34663928 -0.17037733 0.32381266 -0.04374791 -0.13578 -0.1691157 0.13826784 0.6199657 0.02376327 0.21319276 0.16136886 -0.009600178 -0.58021253 -0.38574713 0.40915576 -0.30319306 0.3549611 0.38267902 0.7041191 0.09215919 0.34213802 0.13506539 0.7764355 -0.43063793 -0.40128744 0.18104842 0.16116928 -0.60187966
melt 0.104135215 -0.48235342 0.9646185 -0.033738326 -0.0058362125 -0.27455536 0.20919582 0.1550774 0.1121709 0.6828678 -0.48289722 -0.33513886 -0.43727544 0.41096488 0.040525474 -0.18145709 0.3655989 -0.20721205 0.22958575 0.932132 -0.4551841 -0.20186792 -0.4698537 0.13737155 0.08256223 0.18149264 -0.05168237 -0.26429725 0.24948472 -0.30805755 0.34574246 0.12788513 -0.6735412 0.6231219 -0.029843913 -0.30387044 -0.114178866 0.44747716 0.54838705 0.29386434 0.17983067 0.26694015 0.17310935 0.33731085 0.996065 0.011721011 0.46604875 -0.6384082 0.42002785 0.046616234 -0.59199965 -0.039721966 -0.46434867 0.41869605 0.4745121 0.27359465 -0.31298646 -0.24409066 0.4225417 -0.5330265 0.26686123 -0.09111727 -0.3022556 -0.044247642 0.25252926 0.1568051 -0.5986477 0.12414219
within -0.08532076 0.059592046 0.19471872 -0.23244216 0.12931441 0.13555399 -0.43268633 0.375062 0.08314201 0.12488694 0.087037 -0.08271318 -0.5086017 -0.46604058 0.2568943 -0.57754546 0.09998141 -0.76892954 -0.017111607 0.11958566 0.30148774 -0.22448084 0.20289217 -0.414077 0.33466908 -0.023750799 0.124960445 -0.32529092 -0.15419559 -0.32251123 -0.1478625 -0.21557735 0.1775716 0.295863 0.43206084 -0.3554128 -0.52622557 -0.06192974 0.49200833 0.1425584 0.18644969 -0.27049184 0.19364654 -0.1777345 -0.04595003 0.48189396 -0.06842868 0.42359436 0.31343147 -0.41262698 -0.39865777 -0.3701368 0.10459197 0.095333956 0.14109953 0.11700947 0.013082927 0.0015752459 -0.16718175 -0.073643155 0.118048005 -0.35647175 0.11099415 -0.023074018 -0.26751694 0.58887017 0.025494916 -0.44580147
form 0.25315502 0.3426355 -0.008273622 -0.22236386 -0.55005026 -0.39664397 -0.2929214 0.27528864 0.18337688 -0.3824115 -0.1887469 -0.25408074 -0.24658957 -0.26923966 -0.350655 -0.17785232 -0.12391613 0.15323596 -0.5564975 -0.16406949 0.23075303 -0.17662045 -0.015860071 0.12758125 -0.055279028 0.21864194 0.09381075 -0.56113356 0.27637014 -0.35323197 -0.26450795 0.16291271 -0.18118139 0.21111353 0.2120135 -0.5171033 -0.03164712 0.19986181 0.15540683 0.43848416 0.11585833 -0.24401236 -0.47144845 -0.08837147 0.28604203 -0.21858902 -0.1880979 0.14731579 -0.7867473 0.09262853 0.2740826 0.26092058 0.12260011 -0.37866423 0.54329675 -0.06593756 0.0049205385 -0.779223 -0.0041100415 -0.52377236 0.3473938 -0.26511475 -0.15648451 0.36376846 -0.17378055 -0.111880355 -0.053714145 -0.1512687
phase -0.3553703 -0.13000788 0.7489389 0.19869857 0.04487727 0.2231011 -0.17843664 0.07526284 -0.5768432 0.45091286 -0.21237607 -0.16039036 -0.32968903 0.36485216 -0.23762625 -0.19406936 0.16087976 -0.6995676 0.19621255 0.34635618 0.24124232 -0.6524826 0.22866535 0.19595617 0.25895134 -0.19759335 -0.3003401 0.19058518 -0.24860968 -0.19749835 -0.15599999 0.22258955 -0.47257856 0.32560927 0.31295016 -0.20313954 -0.10204959 0.2058272 0.21428524 0.29961738 0.21391861 0.30241355 0.55832285 0.05727186 0.14410734 -0.15877074 0.7084711 -0.27401572 -0.03055339 0.09924259 -0.29955998 -0.098828085 -0.33070728 0.6088585 0.75253093 -0.16940337 0.26924264 -0.1648706 -0.012250711 0.043457754 0.5539212 -0.33171833 -0.11644493 -0.12779652 -0.19204697 0.35520768 0.5010355 -0.24905272
phyllic 0.6942762 0.24316218 0.28263372 -0.43369177 -0.33840466 -0.88500226 -0.8352825 -0.18270339 0.26830015 -0.4145361 -0.30717984 0.35516492 -0.15532169 0.25803566 0.32159552 -0.4557039 -0.26424322 0.15668662 -0.2428298 0.33788913 0.48978466 0.0931952 0.19528402 0.29888308 -0.19333282 -0.055401143 0.20624942 -0.08490684 0.07513031 0.08185355 0.20324078 0.2002355 -0.8623535 -0.08859271 -0.25083 -0.05230342 -0.31650695 0.1320011 -0.100263834 0.4297934 -0.402032 -0.43356615 -0.0966113 -0.7230868 0.34476385 -0.28565767 0.25349233 0.48969996 0.740023 -0.11327154 -0.045989502 -0.12850162 -0.10085135 0.10344946 0.040728174 0.5547061 0.03980898 0.32714164 -0.41730422 0.19472457 0.5438449 -0.56674725 0.34590212 -0.22860454 0.068514004 0.3073278 0.35319424 -0.44264403
breccia 0.38981783 0.43618646 0.5400786 -0.35001585 0.11940609 0.20663925 -0.70070857 0.01557738 -0.37940156 -0.26237243 0.3850026 0.29181606 -0.44571507 0.4136412 0.11928353 -0.42475578 0.5574779 -0.37566474 0.0018148863 0.37633753 0.77647877 -0.36497885 0.08782665 -0.32648966 0.857774 0.16479523 0.2826258 0.12314062 0.16080536 -0.3822868 -0.11412321 0.006672288 -0.43648413 0.20118502 0.33102423 -0.8034429 -0.117645845 0.28226665 -0.20775121 0.53244805 -0.08483281 -0.02210038 -0.2383359 -0.45667675 -0.25873816 -0.1992431 -0.187751 0.06366217 0.09430561 0.53288233 0.30799338 -0.42592013 0.09586966 -0.2104756 0.4047657 0.32119772 0.10569875 -0.22814794 0.12903865 0.28323972 0.29581645 0.010984539 0.11344691 -0.36742052 -0.3438196 -0.28565854 0.11575441 0.013138471
feldspar 0.8108181 0.026568862 -0.2347787 -0.66845816 -0.57378554 -0.3769096 -0.08000209 -0.017381452 -0.0734371 0.42922136 0.08950918 -0.3430154 0.2882103 0.38750193 0.87008035 -0.34266925 -0.323573 0.43043488 -0.22523104 0.14511268 -0.108797505 -0.738227 -0.66661197 -0.40955913 0.47535852 0.20063335 0.14311993 0.53575367 -0.17404264 -0.26889345 -0.02239477 0.43430468 -0.1036054 0.0700124 0.48670015 0.5365644 -0.9001367 0.19836996 0.037283782 -0.07103316 0.34061942 -0.64863294 -0.078920834 0.35670575 0.40707657 0.18957509 0.079351805 0.28247535 -0.20657694 0.14711165 -0.052266788 -0.5377146 -0.4855158 -0.16437174 0.23796678 0.42237142 0.06840892 -0.32741395 0.5112304 0.28028202 0.064877056 -0.105754554 -0.4994061 -0.50688696 0.41478977 0.5042818 0.061738722 0.08387582
re-os 0.16893286 0.6057292 -0.011717522 -0.38074893 -0.4238693 -0.5030152 -0.35264066 -0.1272455 -0.32020664 -0.0829082 -0.67508924 -0.3521262 -0.41160712 0.09240569 0.18827133 -0.1680801 -0.13972016 0.057845306 0.20036982 0.056346074 0.0037049917 0.37152505 0.00168832 -0.17151673 0.028516917 0.2555247 0.2330245 0.2773946 0.0792051 -0.31835514 -0.06550808 0.5175209 -0.43318114 0.07551155 1.002531 0.15283394 -0.4976086 -0.48575643 0.009269332 0.6918985 -0.17976198 -0.5786923 -0.46083933 0.43017757 0.32016987 -0.40778947 0.30426157 0.35659632 0.5505382 -0.5366788 -0.47151867 0.082359456 -0.43909016 -0.28633392 -0.13733566 0.22955038 0.12838334 0.036095 -0.23211339 0.061358776 0.34633955 -0.5322343 0.040876877 -0.06769426 -0.44622555 1.1357232 -0.22190976 0.4021819
indicate 0.2744429 0.47099364 -0.40943545 0.07685179 -0.06789654 0.45713302 0.27927536 -0.31062147 -0.2649065 -0.03631402 -0.17954084 0.87306756 -0.2665758 -0.18797803 -0.42346647 0.52710044 -0.223248 -0.33113784 0.68677574 0.15348448 0.028018989 0.04220761 0.23928939 0.21200752 -0.16194728 -0.12673181 0.18201266 -0.1284956 0.31678453 -0.30344033 -0.032873183 -0.04643218 -0.017327238 0.3830612 0.49498108 0.0021987143 -0.06995322 0.012077401 0.07245337 0.007994286 -0.10677854 0.38628867 0.108305365 -0.042967178 0.429719 0.04170519 -0.019823495 0.2884336 -0.31824392 0.31219125 0.47700846 -0.2937835 0.20352748 -0.24793112 0.42915833 0.23292692 -0.059435464 -0.11952342 0.0041959104 0.27676588 -0.14721972 -0.3086973 0.45871058 0.037209213 -0.2929861 0.6324559 0.012633963 -0.24888842
mo 0.3250049 -0.56218755 0.51888674 0.11339275 -0.031333465 0.102452084 -0.5480258 -0.13589871 0.22559665 -0.46195564 -0.005134765 -0.05478721 -0.68233985 0.34328178 0.21181904 0.15098561 -0.37756583 0.3485363 0.33353084 -0.29880702 -0.09663734 -0.07569513 0.49785042 -0.38615704 0.58913994 0.47944686 0.2494629 -0.053522162 0.39875683 -0.14550234 -0.10868366 -0.42945215 -0.06578475 0.9774438 0.029439256 -0.3162323 0.042224888 -0.20897992 0.031129422 -0.00078234694 -0.009544139 -0.24354467 -0.014402218 0.10906309 -0.1223936 -0.28223702 -0.038056716 0.6223644 0.2190023 -0.04205435 -0.087808765 -0.54753375 -0.14119086 -0.35024735 -0.19828303 0.5508514 -0.021341255 -0.12754719 -0.061479546 -0.0152845485 -0.014582849 0.19944496 0.3073112 -0.06861657 -0.081696816 0.15615258 -0.26118752 0.0055487272
± 0.25542498 0.27384576 -0.30206904 -0.08648535 -0.01648483 -0.55004257 -0.4433661 -0.05133616 0.39628237 -0.23589402 0.34396327 0.1147587 -0.4504667 -0.08861978 -0.121501766 0.34658605 -0.62883556 0.33824012 0.20561913 0.1676633 0.3129412 -0.49077615 -0.005023941 -0.3149962 0.19035943 -0.14857858 0.3643066 0.43170065 -0.41308907 0.17482355 -0.22587422 -0.6647237 0.28435475 -0.020354565 -0.05857616 0.37180403 -0.5832619 0.52895206 0.2256093 -0.11890341 -0.41620773 -0.0027587924 -0.7304987 0.03311589 0.13334802 0.2979494 0.37052903 0.34655702 -0.047207057 0.62860125 -0.03652746 -0.396201 0.06733251 0.2486674 -0.017968936 0.68033624 -0.31037745 0.068671994 0.1476247 0.20907342 -0.22259174 -0.050506886 0.4555744 -0.44949445 0.090168774 0.7953044 -0.18300934 -0.7455301
°c -0.19686708 0.006987229 -0.513466 -0.74897 -0.44875547 -0.20307332 0.08156782 -0.2399455 -0.13099246 0.42821702 -0.8990002 0.14040248 -0.284978 -0.22012892 0.42736337 0.70113075 -0.4228802 0.07777116 -0.11320324 0.09252738 -0.0003136475 -0.5535589 0.42669326 -0.22068478 0.10591113 -0.4525925 -0.09760586 0.3497679 0.4372205 -0.7049824 -0.21444331 0.2841636 -0.3188405 -0.0654828 0.46008196 0.4679879 -1.3017659 0.38409212 0.4353685 0.48285967 -0.13944328 -0.014952233 0.045098286 0.19254012 0.12358247 -0.18651022 0.26548848 0.069568165 -0.16684973 0.15280883 -0.23941407 -0.23046426 0.48441583 -0.058833823 -0.4130307 0.40544853 -0.34834066 -0.16961887 0.04698469 0.08785605 0.24682227 0.54082865 0.014162987 0.29789174 -0.55270994 0.25517526 -0.50102586 -0.066346765
suggest 0.049699858 0.14336185 0.09800416 -0.026988247 0.3717844 -0.737605 -0.24274656 0.1123352 -0.007912025 -0.3761422 -0.34562147 -0.084359355 -0.6477792 -0.085758895 0.025103876 0.37398243 -0.089560725 -0.3557161 -0.27492845 0.0015270805 -0.42151204 0.917949 -0.2945035 0.22160763 0.09195468 0.00945609 0.21825573 0.15394382 -0.13983086 -0.72974753 -0.17780043 0.46623167 -0.27894443 0.45695165 0.43636003 -0.13179436 -0.39047492 -0.22655116 0.25270015 0.7490507 0.16043876 0.06309607 -0.26152897 0.0712673 -0.11718802 -0.34285206 0.035643578 0.23261923 0.2804201 -0.29188427 -0.4616404 0.77966845 -0.5931994 0.30288306 0.20244084 0.3124925 0.052075986 0.43643388 0.079853535 -0.4401565 -0.30273315 -0.6016605 0.56433266 0.075886086 -0.72015256 0.5491254 -0.01614363 -0.18590651
value -0.58681375 0.41933957 -0.5292635 0.23579167 0.5162899 -0.23411575 -0.7027827 -0.7353373 0.40016517 -0.36936188 -0.4143085 0.58149916 -0.33955058 -0.26530832 -0.03392645 0.35719025 -0.3905349 -0.36540762 -0.07770318 0.111258134 -0.3200849 -0.21536924 -0.12965044 -0.10517635 -0.32827097 0.16528529 0.27672076 -0.27187937 0.13182415 -0.47008824 -0.013690076 0.24477851 0.38519967 0.6093742 -0.24813388 0.65597486 -0.56884 0.02730482 0.05055893 -0.19940573 -0.2575413 -0.5871456 -0.8509383 0.7850997 0.71564025 0.47557342 -0.12818801 -0.42887515 0.54090613 0.4258949 0.57855916 0.8691748 -0.4251105 -0.60187054 0.8018872 0.9213157 -0.27068812 -0.15440553 0.6327631 0.26857325 -0.3955667 -0.4105042 0.67294675 0.5631074 0.2899778 1.0005169 0.21663183 -0.45436308
contain -0.2582788 0.2185259 -0.0064620376 0.15614766 0.16860266 -0.28411594 -0.20859616 0.10304893 0.22405161 -0.20216349 0.08121935 0.13796915 -0.6838734 0.17625386 0.3683554 -0.3821844 0.42169368 0.17327785 0.42539376 0.63888055 0.41090196 -0.4140441 0.635468 0.6449886 0.37507102 -0.05053964 0.34107187 -0.12963387 0.5032588 -0.08383041 0.5785089 -0.06073753 -0.0499727 0.27938434 -0.15791444 -0.012065935 0.13870214 0.678864 0.19791286 0.4013586 -0.01896222 0.65108716 -0.30250216 -0.041406758 0.61963433 0.56243896 0.48912838 -0.18205854 -0.011737694 0.48371083 0.121580385 -0.36363757 -0.0029613068 -0.025438784 -0.10010091 -0.52841884 -0.09739579 -0.36806363 -0.23099138 0.46975148 0.6347963 -0.22900996 -0.14356369 -0.3931833 0.15627791 0.25006795 0.2724781 0.041378256
may -0.17740789 -0.11982079 0.44504774 0.095322326 0.26144788 0.16179988 0.28126964 0.24613868 -0.008418208 -0.103412345 -0.6590129 0.12872665 -0.147675 0.2279346 -0.061885472 -0.3740269 0.13663355 0.030975567 0.18030868 0.21804811 -0.030155236 -0.13337925 -0.16375585 0.15890807 -0.340057 0.17034666 -0.08395016 0.42125502 0.5052219 -0.8238049 0.075456776 0.04726798 -0.3403538 0.46041277 0.5566011 -0.08735605 0.13748513 0.34502056 0.0045017023 -0.07348199 -0.5555623 -0.31985578 -0.28382993 0.28110003 -0.1403935 0.27778754 0.29686564 -0.18539535 0.010323836 0.07839568 -0.5516145 0.70421517 -0.4480467 0.3474967 0.13899578 0.50111693 -0.03780978 -0.0637785 -0.39946628 -0.15097414 0.37446967 0.49892196 0.047065426 0.075557195 -0.26459643 0.16110979 -0.41209337 -0.4792108
pipe -0.14249839 0.6970549 0.6085195 -0.58129466 -0.4024445 -0.62146765 -1.002341 0.28140724 -0.113145865 -0.22765853 -0.3353021 0.5482845 -0.19728728 -0.07421255 0.2732485 -0.64645404 0.30180618 0.10346053 -0.15283884 0.060952388 0.12381213 -0.50321776 -0.17357178 -0.21654925 0.77285844 0.21697615 0.8362692 -0.12727702 0.083472595 -0.31071597 -0.25718254 0.12975605 0.016782442 0.22271517 0.2506954 -0.6627613 -0.24283242 -0.09185511 -0.36163482 0.46180597 -0.034567222 0.1280707 0.3458483 -0.41433433 -0.0018292404 0.07740814 0.4890928 0.046794947 0.2506619 0.45000547 0.45840615 -0.8154399 0.1883541 -0.096571475 0.2462987 0.10343803 -0.3291893 -0.4176148 0.26698363 0.19085611 -0.02129885 -0.027756544 0.1892146 0.16109915 -0.63644314 -0.006364628 -0.25616044 -0.016251123
chalcopyrite 0.1540082 0.010852275 -0.23774153 0.039304882 0.40714353 0.08509672 -0.6931898 -0.25890878 0.49761286 -0.76119095 -0.25858077 0.040039457 -0.37278712 0.06374747 0.2754881 -0.10995076 -0.050167125 0.32319543 0.2916 0.99692935 -0.02737019 -0.6773024 -0.04019473 0.40121856 -0.28112957 -0.1368658 0.15847105 -0.13392769 0.17087394 0.22473896 -0.39978895 -0.2272314 -0.19854349 -0.0932838 0.16630502 0.41702333 0.34140277 0.08915284 -0.07750102 -0.101646885 -0.42877543 0.009384042 -0.6909449 0.42301714 0.23868738 0.16392761 0.5119132 0.10846472 -0.36778575 0.37592962 -0.15578793 -0.02677275 -0.16344221 0.20535697 0.14387771 -0.51140225 -0.44264373 0.46469435 0.5251677 -0.32069546 -0.37983066 -0.27502006 0.5578381 -0.0065904385 0.5382374 0.602165 -0.67144245 -0.6013646
sulfide 0.10610377 -0.24924527 -0.20476481 0.027205398 -0.5600618 0.14725532 0.08245593 -0.7362255 0.042384777 -0.17278472 -0.16069049 0.08377946 -0.4549689 0.37592244 0.14873703 0.23563246 -0.11580132 0.27449974 0.44535476 0.54319704 0.052750602 -0.22671942 0.088594794 -0.009411466 -0.09647255 0.31633297 -0.1274973 -0.04311237 -0.14248607 -0.24443002 -0.280248 -0.2019225 -0.055124473 0.006829818 0.7265548 0.34835327 0.14605932 0.26414844 0.07356803 0.23513682 -0.19740805 -0.5028808 -0.086729325 0.49068767 0.44311166 -0.19950928 0.021300804 0.26241758 0.6654823 0.1651689 -0.03715295 -0.39864323 0.09404408 0.2200056 0.485179 -0.26559222 0.026980711 -0.022217583 -0.076061025 0.4140459 -0.16280884 -0.13653035 0.28858608 -0.10735632 -0.23174168 0.26610625 -0.052683447 -0.0688916
epithermal 0.54073775 -0.24915518 -0.1195678 0.24875717 -0.52891845 0.25991935 -0.09100479 -0.0014179124 0.14511277 -0.39799073 0.19346288 -0.12767568 0.01168873 0.0042908196 0.24663344 0.46789724 -0.1008442 -0.32248494 0.08347773 0.5113176 0.1558693 0.4015643 0.6768777 0.16950575 0.43220162 0.111688405 -0.1685067 -0.4033645 0.15573236 -0.44851887 -0.38007063 -0.50217277 0.07836638 0.7479296 0.058461007 -0.13066156 -0.55807054 0.31662515 -0.24264255 0.13048866 -0.30181772 -0.5735792 -0.42807725 -0.1265675 0.38849607 -0.25206774 -0.031511452 0.44090506 -0.21601863 -0.19157097 0.17219062 0.58645165 0.16589658 0.03521986 -0.054700185 -0.05991337 -0.1856065 -0.29835048 -0.04370611 -0.119815364 -0.32271633 -0.5926577 -0.26822358 0.21376854 -0.34023306 -0.41017613 -0.9998436 0.4396756
4 0.43973154 0.35845238 -0.0038795457 0.46729246 0.21233526 0.36874422 -0.6014621 -0.38025928 0.07272696 0.6553396 0.17904024 0.12519999 -0.17501067 0.18297075 -0.057027448 0.059497185 -0.516658 0.112233095 -0.16914065 0.0211647 0.13453853 -0.20390987 0.4277143 -0.19070916 0.29157367 0.17236896 -0.07391625 -0.08087341 -0.34210646 -0.5012409 -0.5048537 -0.614194 -0.5878464 -0.47522658 0.31686532 0.14683704 -0.06394529 0.6216678 -0.06302146 -0.440815 -0.14099833 0.025291191 -0.924576 -0.083308674 0.6839285 0.2876374 1.1099608 0.2489471 0.5451029 -0.28079775 0.23090531 -0.06799459 -0.037134066 -0.040095713 0.68161577 -0.20160906 0.103985436 0.58832407 -0.3278891 -0.28768972 0.46198687 -0.3691753 0.4537317 0.46724018 0.25437158 0.40575802 0.23705302 -0.018810578
au 0.48163325 -0.08626891 -0.55699134 -0.21303256 0.053384695 -0.270245 -0.3842653 -0.13512863 -0.54188347 -0.15609774 0.44198456 -0.17938182 -0.63630486 0.26925927 -0.046306666 0.19427893 -0.50661564 0.4514055 0.31544414 0.24926975 -0.15896694 0.17148238 0.4302532 -0.1350496 0.6393861 0.057104994 0.116310656 -0.19796956 0.0062379725 0.113483086 -0.016607845 -0.31533062 0.025643501 0.98592836 -0.115292385 -0.024597215 0.31809866 0.070629746 0.13826658 -0.32495445 -0.5201036 -0.46225175 -0.3041372 -0.31459868 0.39667016 -0.076888 0.42397022 0.78908175 -0.21218666 -0.27404797 0.13115433 -0.42319295 -0.0727359 -0.12083162 -0.23264253 0.5520003 0.3210455 -0.8524221 -0.1973317 -0.5155263 -0.13756658 -0.037795402 0.1846748 0.19926406 -0.33477166 0.04473527 -0.6631957 0.44107634
argillic 0.7084589 0.2909354 0.28540692 -0.054787893 -0.16212927 0.38128358 0.4325472 0.09519635 0.07118923 -0.4373272 0.10152841 0.16505416 0.14321947 0.4054683 0.44651347 -0.4459234 0.09587696 0.39796034 -0.12799323 -0.086620696 0.15887223 -0.41750494 -0.14283565 0.0059908973 0.18557689 -0.01026752 -0.12637241 -0.1739353 -0.1907751 0.19434206 0.12568149 -0.02095537 -0.7119506 1.1129969 -0.3230819 0.19565041 -0.41797295 0.11649909 -0.3150562 0.42598835 -0.11505575 -0.15716869 -0.6728756 0.053376563 0.14244041 -0.10699273 -0.33833307 0.3965197 -0.41388428 -0.036469355 0.1405722 -0.03723558 -0.094255865 -0.2891705 0.28423026 -0.08606671 0.13016933 -0.3566028 -0.46332976 -0.05830303 0.3360158 -0.19502527 0.2820116 0.8829122 -0.02146382 -0.027367922 -0.26496622 0.25223255
range -0.38396102 0.32398197 -0.5377979 0.3376395 -0.09012331 -0.29567313 -0.9762409 0.017104186 -0.083947234 0.58906126 -0.36122945 -0.31067204 -0.5722911 -0.29200348 0.36157143 0.39896 0.06395085 -0.124608524 -0.17514092 -0.029194875 0.55309707 -0.33929202 0.40697986 -0.0057372754 0.39849544 0.5140195 -0.021278158 -0.82887393 -0.8236714 -0.13542354 0.36581698 0.37989855 0.24038206 0.64570606 -0.47169966 0.49374053 -0.55095553 -0.023034863 0.40325624 0.6419845 -0.3083646 -0.56333596 -0.37802532 0.4776905 -0.012093565 0.4206232 0.39215544 -0.3178284 -0.13818102 0.19163062 0.055995654 0.19629835 -0.12967698 -0.17551266 0.60297763 0.47786668 0.0011913074 0.33484066 -0.024191733 0.33972195 0.047198333 0.016104963 0.0041361647 0.33278003 -0.1760368 0.83405834 -0.61710227 -0.12179164
part -0.07045806 -0.41218722 0.033951826 -0.20763092 -0.5008428 0.14515807 -0.33193436 -0.18076476 0.24209169 -0.3118582 0.7785954 0.33852175 0.04284022 0.11758409 -0.44280872 -0.026707847 -0.20008676 0.028148735 0.019653553 -0.10017783 -0.5208456 -0.83612335 0.7060763 0.66943586 -0.03596661 -0.2235469 0.23342633 -0.08761808 -0.3814796 0.13115554 -0.13191853 -0.20031223 -0.058553595 0.7844646 -0.07464982 0.5557001 -0.0034064634 0.71544576 -0.053799823 -0.004359184 0.17217171 -0.3887231 -0.5268089 0.3652828 0.29093665 -0.33301672 -0.8822567 0.0112782 -0.47177076 0.71009016 0.0138029 0.009758524 -0.1282733 -0.2348851 0.49995258 0.03802135 0.080950975 -0.54554015 0.34734124 -0.07996424 -0.03557933 -0.48755017 0.15506724 -0.08128127 -0.11269707 0.36694887 -0.04307368 0.24099907
: -0.2191036 0.21602228 0.45658052 0.117400445 -0.19750392 0.19819483 -0.43393585 0.23662674 0.20535433 0.2417312 -0.25353265 -0.33754033 0.007504098 -0.074421465 -0.23281121 -0.95628047 -0.11478631 -0.19007973 0.120399676 0.49285096 -0.13891348 0.65883064 -0.13525024 0.18353437 0.22042865 0.57264555 -0.22330745 -0.03198873 -0.2624798 -0.35304543 -0.0530516 -0.102693334 -0.19595392 0.5085787 -0.48812577 0.41435373 -0.43124112 -0.011411388 -0.04024525 -0.28077844 -0.37552682 0.18222353 -0.044140056 0.19637024 0.46781486 0.15855873 0.32537904 0.0029430075 0.029105274 -0.1558616 0.25465062 -0.5302587 -0.34635323 -0.5469271 0.063599564 -0.13007739 0.288791 0.1189102 -0.10259254 0.5543541 0.8996665 0.0008602822 0.6531145 -0.37368202 -0.464161 -0.5555605 -0.40407404 0.35876608
show 0.57387114 -0.23894078 -0.23006333 -0.20938097 0.33280915 -0.04435453 -0.060838293 -0.04234054 -0.22377321 0.12559736 -0.27196348 0.2310958 0.21901974 0.6257539 0.30392486 -0.36633512 0.08930331 -0.07307621 0.06225811 0.1358149 0.04914597 -0.3452392 0.021688467 0.35139507 0.08957957 -0.08026986 -0.26904792 0.19269319 -0.43652838 -0.6445623 0.84480065 0.103350416 -0.22607045 0.7290393 -0.6084861 -0.10915843 -0.34752113 -0.24247332 0.91830784 0.32980204 0.03172954 0.41850856 -0.8999367 -0.1653191 0.45609352 0.11553104 0.7166937 -0.28479823 0.216167 0.33654648 -0.22043088 0.018628992 0.16645706 0.62893635 0.20119622 0.21887138 0.2826992 -0.059613105 -0.049783044 0.035084706 -0.09978985 0.14623421 0.5115314 0.22560163 -0.28001404 0.033489227 -0.013948275 0.75648504
early -0.42891684 0.48371994 0.121215455 -0.12137473 -0.29212916 0.16318877 -0.20157216 -0.16454819 0.28887603 -0.30389854 -0.041612912 0.009284545 -0.8946338 -0.058792572 0.042069543 0.49041757 -0.20184518 -0.18352824 0.4636008 -0.11094732 0.26134565 -0.23344532 0.24287193 -0.08910254 0.19320148 0.009039392 -0.39373532 0.10917177 -0.048310608 0.116034605 -0.47831273 0.22952199 -0.112342015 0.18450567 0.5332331 0.34540954 -0.039795972 0.6124028 0.43631625 -0.5123143 -0.3514249 -0.12198681 0.014429288 0.06815582 0.07543031 0.40550643 0.31723568 0.31915662 -0.09841169 -0.19549106 0.16564927 -0.5117214 0.12558232 0.035920337 0.5881336 -0.09425548 0.36367083 -0.25433388 -0.08292554 -0.3829816 0.20517305 -0.36878133 0.3468452 -0.0028068097 0.054023314 0.07236044 0.7162523 -0.35842362
formation 0.33924335 0.06881016 0.028746653 -0.103730835 -0.2452126 -0.05664938 0.0016059196 -0.09655649 0.21122542 -0.14544725 -0.30622888 0.11676264 -0.11196312 -0.05413575 0.22881392 0.19220212 -0.32073036 0.02252371 0.5575632 -0.053591665 0.10386912 -0.288579 0.621393 0.0020348981 0.62515956 0.007983722 -0.5226759 0.16775428 0.28370702 -0.22374146 -0.093320385 0.2172751 -0.13655736 0.4019045 0.7667156 -0.57097954 0.43098152 -0.008430774 0.19834256 -0.52110165 -0.6623053 -0.21870907 0.3457241 0.6787205 0.005879997 0.39324227 -0.0022382208 0.3687114 0.16349904 0.5618299 -0.4867839 -0.33951128 0.52786905 0.38392472 0.2960734 -0.17304297 0.12768152 -0.7731033 0.3661232 -0.45995662 -0.36726034 0.08887832 0.59967995 -0.205553 -0.70083976 -0.29124084 -0.14318778 -0.22851749
~ 0.24432123 0.43012834 -0.67953414 -0.3856256 0.16142213 -0.7077632 -0.20532802 0.3758491 0.025633162 0.036912356 -0.77841145 -0.44605616 -0.4647627 -0.27703026 0.5281431 0.42327204 -0.5171619 -0.11346877 0.19320461 -0.38101137 0.30260575 -0.10133849 0.3407399 0.04768638 -0.65994835 0.26993346 0.3768767 0.08270284 1.0238894 -0.09761144 -0.5111935 0.18703543 -0.5248998 0.47932318 0.5691448 0.6609023 -1.1117033 0.4505618 -0.13693197 0.64523244 -0.0018917057 -0.41624454 -0.58803153 0.024573505 0.027611544 -0.6371345 -0.019928657 0.7143291 0.24287507 -0.46304402 -0.3396156 0.011120033 -0.041708052 -0.11204022 -0.26729944 -0.10751959 -0.65999335 -0.17415681 -0.1595054 -0.2269323 0.42911062 0.004752389 -0.021612262 -0.2947816 -0.49172422 0.76239437 -0.63513756 -0.36657923
alunite 0.46147385 -0.115398146 -0.35426265 -0.12383716 0.013715507 0.086926505 -0.09341858 0.10377937 0.3594746 -0.20146008 0.83392465 0.21477045 -0.20420393 -0.41642964 0.10303792 -0.18901654 0.013939856 0.10461207 -0.40402865 0.2410406 -0.19815813 -0.13206522 -0.1176321 0.18048102 0.047363557 -0.18838178 -0.117694005 0.083435796 -0.2487865 -1.0332897 -0.7368994 0.114918485 0.10776529 0.6244487 -0.2030293 0.020937398 -0.48231527 0.031892702 0.44629923 0.81427425 0.5739469 -0.16041988 -1.1544524 -0.22837664 0.2775386 0.21026379 -0.2746847 -0.18407588 -0.24540046 0.19074789 0.4075749 -0.056942746 -0.33691737 0.14029796 0.026660081 -0.44886732 -0.3018366 -0.08223592 -0.27503765 -0.27067384 0.33465958 -0.055693805 0.75029784 0.0822865 -0.3561831 -0.062942296 -0.06869286 -0.5132395
include 0.46510914 -0.06733515 -0.39538583 0.28702617 0.3326172 -0.42296824 0.25024867 -0.36598885 0.007962645 -0.37469274 0.14553781 0.7893121 0.17767505 0.00060199713 -0.18034512 -0.36321118 -0.057697836 0.13349809 -0.06406606 0.78061056 -0.10169362 0.085144885 0.22748198 0.019450944 0.46642733 0.10060038 -0.29824463 -0.29976088 0.26196525 0.015257635 -0.33761778 0.24785493 0.31061092 0.4366875 0.32978037 0.118130974 0.17204429 0.26991117 -0.46097156 -0.081383556 -0.8824165 -0.21311657 -0.5703184 0.46936366 0.22666901 -0.11485095 0.091046005 0.07821401 -0.16500588 -0.2061616 -0.21650672 -0.5733466 -0.36476654 -0.24301949 0.49410224 -0.17013054 0.2882522 0.15111922 0.3108398 -0.29900336 -0.46201605 -0.01258585 0.09172339 -0.34840816 -0.4213382 0.08564649 -0.15938404 -0.10565501
dike 0.17563063 0.1664774 0.004018821 -0.30308938 -0.30364403 0.25424165 -0.21679176 0.5065926 0.084415026 -0.7168583 -0.15930903 0.50070554 -0.17415531 -0.7412777 0.8691353 -0.2477914 -0.4181328 0.48009205 0.42632914 0.435223 0.32767463 0.28556135 -0.16950323 -0.075883776 0.30639467 0.046238676 1.0894916 -0.23597124 0.46733183 0.44305408 -0.44638678 -0.42413834 -0.43764237 0.78491646 0.24867825 -0.23776165 0.41283303 -0.30864647 -0.1784033 0.5565862 -0.400409 -0.30341664 0.14361894 -0.17651717 0.96250314 0.7865374 -0.042278796 -0.11628431 0.04052237 0.5900331 0.4452966 -0.028890323 0.27879724 -0.29105663 -0.14650069 0.3808041 0.25765142 -0.16842416 0.23663567 0.3197206 0.0482993 -0.53872555 0.01466132 0.677284 -0.61302024 -0.18337788 -0.07072013 -0.15107909
casino 0.6279761 -0.15715319 0.17623688 -0.06409678 -0.05155533 -1.0870469 -0.6712543 0.047938917 -0.38215068 -0.4431074 -0.9560761 -0.39144462 0.044417974 -0.2724504 -0.20058273 0.027494952 -0.39252853 -0.115054116 -0.2028999 0.5037303 0.29506528 0.6210471 0.6899134 -0.055882674 0.50760484 0.20494272 0.17630115 0.36973292 -0.1858569 0.28498206 -0.0040940703 0.03681175 -0.6622369 0.39234093 0.66665155 0.39932805 -0.5338521 -0.2376659 0.041315593 0.61614907 -0.16691844 -0.43320492 -1.0269804 0.035965424 0.29601443 -0.51617324 0.39876696 0.091782235 0.30217648 -0.38567284 -0.5786092 -0.18677233 -0.8084682 0.0135396505 -0.12340552 0.53925073 0.06829063 0.3327234 -0.23251842 0.054981507 -0.25828856 -0.12011889 -0.21635859 -0.17858528 -0.028140806 0.51136905 -0.07192077 0.29258808
chlorite 0.76510483 0.4851437 -0.045833174 0.026132274 0.06495834 -0.8556897 0.047406957 0.0013565918 0.6174645 0.067360185 0.06241061 0.5275198 -0.3120404 0.099157594 -0.17405221 -0.5043232 -0.5772059 0.04485564 0.07162042 0.62857544 0.041785065 -0.37852016 -0.16476272 -0.5388177 -0.4963826 -0.39144287 0.38766935 -0.086200655 -0.36752722 -0.75297 0.29017687 0.1836087 -0.37290984 0.2370488 0.087346636 0.5571687 -0.8024192 0.8371017 -0.034425788 0.081389025 -0.33293822 -0.1786816 -0.009307176 0.20249882 0.20885868 0.15206061 -0.8229391 0.62302655 -0.25521663 0.21489966 0.56222874 -0.36904 -0.0699769 -0.15691365 -0.008899399 -0.0670295 -0.04157564 -0.389557 0.1860901 0.6858992 0.43070313 -0.44750023 0.10798652 -0.41088128 0.21763714 -0.023607269 0.4207144 -0.46213484
assemblage 0.22851488 0.41255015 0.07170779 0.66662025 -0.5044795 -0.22687492 -0.49050027 -0.18432873 0.2523472 -0.54157186 0.020030562 0.4336526 0.30686575 -0.12263326 0.047503427 -0.44817042 -0.4712557 -0.51350325 0.34515482 0.31253076 -0.10670377 -0.42795163 -0.02262084 -0.12517713 -0.3751318 0.26514822 -0.18858823 0.49890995 -0.33483183 -0.45479462 -0.20434064 0.046251237 -0.46537372 0.3850199 0.4973899 0.11943214 -0.7911148 0.014530019 0.7618402 -0.24448338 -0.097522646 0.08589273 -0.08371015 -0.121146984 -0.074254975 0.51955456 -0.19497867 0.58054996 -0.47544962 0.2220287 -0.22470059 -0.48753834 0.13992041 0.14028269 0.252796 -0.3361015 -0.40675494 0.4831391 0.2034916 0.7318855 -0.11668732 -0.05233844 0.70470095 -0.27320778 0.4668352 -0.22681372 -0.4626829 -0.90019166
volatile 0.034315214 -0.59480584 0.9358979 0.41310242 0.051971626 -0.53784716 0.30633906 0.12926969 -0.16137451 0.5414902 -0.7168552 -0.33195168 -0.56503236 0.2751198 0.39915597 -0.44868982 0.072849825 -0.012778845 0.6289903 0.32962453 -0.5707131 -0.32977727 -0.19135156 0.4340601 0.27053386 0.50250316 0.28330156 0.18949334 0.039017607 -0.3058324 0.06923567 -0.34314036 -0.86184317 0.6024536 0.13762285 -0.2490127 0.1969081 0.17310277 0.4689229 0.10794195 -0.30467546 0.21177572 0.25583643 0.096814685 0.77540445 0.30719936 0.4721938 -0.57939357 0.3101168 -0.09502648 -0.097669005 0.20445904 -0.5945453 0.89871275 0.6868282 0.2543469 0.06002136 -0.43828616 0.61581343 -0.6014287 0.42095843 0.007987856 -0.24100429 0.30929378 -0.12944898 0.028452002 -0.70715433 -0.27261847
area 0.11388971 -0.41852716 0.055484824 -0.3889027 -0.026179725 0.15702759 -0.81823105 0.3638359 -0.04778616 0.46962994 -0.4780563 -0.5297228 0.15327771 -0.028097158 -0.1535965 -0.20436738 -0.5354047 0.20246756 -0.36367702 -0.042096466 0.31034237 0.14042181 0.4076351 -0.088033386 0.24881573 0.009559495 0.027301515 0.43304408 -0.5966124 -0.3548088 -0.2976248 0.009094278 -0.46818376 0.40196875 0.5993861 0.3983856 0.031680677 -0.03752056 0.27609745 0.64817584 0.23885325 -0.013839944 -0.31373784 0.26628017 -0.139171 -0.1326721 0.27757353 -0.114484824 -0.3078746 -0.5738148 -0.11948334 -0.46391723 0.43247026 -0.1592975 0.16914928 0.58079857 0.09950312 0.25713006 -0.2551661 -0.5044971 0.09114598 -0.2622775 0.39521325 0.2650392 0.030018242 -0.11381563 0.18185829 0.3285034
control -0.3773335 -0.14137748 -0.018862786 -0.9524452 0.07286763 0.022153534 0.14537038 0.025936142 0.038469445 0.19180335 -0.44388443 0.28011566 -0.26338875 -0.22096682 0.15311 -0.10908195 0.009063022 0.041592248 -0.005804976 1.1966445 0.049555093 -0.04132945 -0.37221026 0.19879499 0.23334254 -0.365363 0.46383148 0.28063455 0.1345508 -0.4602887 0.189095 0.8422107 -0.36862332 0.1547954 0.90357345 0.40007356 0.19209038 0.23891498 0.16603757 -0.16075751 -0.055420794 0.28740135 -0.5987841 0.6394823 -0.24315058 -0.7540266 0.08612805 0.16393062 -0.3306705 -0.11508355 0.12823142 -0.07948716 0.1521083 0.16074997 -0.10278513 0.08945272 -0.053418852 0.27474928 0.97584414 0.07813284 0.19703002 -0.15345402 0.4851112 0.31550413 0.8942641 -0.4991728 0.05634786 0.47122502
magma -0.27151355 0.16896594 0.6068997 0.017893586 -0.1924589 -0.3405052 -0.1580053 0.54156387 0.09946522 -0.33257532 -0.843247 -0.06955433 -0.5695386 -0.23324949 0.07501848 0.011972748 0.4809608 0.296199 0.7389227 -0.0076850667 -0.080815785 -0.2550392 -0.5445345 -0.11362499 0.20244889 0.006429465 -0.109295 0.5534812 0.54105073 -0.7676442 -0.36081383 -0.21720643 -0.13544175 0.96330315 0.54367673 -0.32944244 0.4086351 -0.042987365 0.10959269 -0.48189393 0.017521013 0.25348148 -0.42093328 0.0257983 0.074238345 -0.5479973 0.26712334 0.40691233 0.035769794 0.5725094 0.31665143 0.79907197 -0.44517478 0.64898425 0.36527112 -0.4686188 0.042541888 -0.37186489 0.27746946 -0.31404582 0.086901024 -0.33822665 -0.07157683 0.27520066 -0.38242045 0.14804715 -0.1472525 0.23242435
fracture -0.30038127 0.6509822 0.8021484 -1.0087672 0.46532938 0.008594157 -0.16146712 0.078217134 0.19263634 0.42901948 -0.07833071 0.36952984 -0.117013045 0.07617617 0.43978703 -0.29753542 -0.26257712 -0.09984079 -0.36943215 0.103689 0.8072741 -0.18144426 -0.23258144 0.16422755 0.9593993 -0.60194105 -0.25873375 0.4998738 0.41372988 0.07555441 -0.085612595 0.59107834 0.2724243 0.6783871 0.37556854 0.18579707 -0.1918774 0.09556243 0.45037806 -0.30853966 0.42049992 -0.45227548 -0.715022 0.059180304 0.17845982 -0.55465883 0.01071023 0.33335027 -0.37926728 0.44133115 -0.4307081 0.34246194 0.5064268 -0.13562137 0.13228089 -0.61253023 0.041844252 -0.6325321 0.23183995 -0.11113277 0.03797703 -0.19802575 0.16892606 0.050993714 0.3596926 -0.82712746 -0.48986065 -0.09568945
contact 0.06034122 0.3048228 0.6034774 -1.2485716 0.19881082 0.116495974 -0.124528065 0.22520497 0.5221052 0.23324941 -0.10831834 0.5082424 0.57635707 -0.103862815 0.81196946 0.1040539 -0.7464716 -0.5699004 0.089285694 -0.5652334 -0.009177008 -0.37212947 0.19659299 0.33728284 0.49459875 0.4027867 0.38532755 0.902059 -0.30850422 -0.029422062 0.387865 0.32650432 -0.34438396 0.22397028 0.21710923 -0.29277608 -0.35384664 -0.35604316 0.39671883 0.019567972 -0.20329186 0.3161515 0.16248985 0.052595116 0.5814952 0.16965033 0.32874057 0.49501997 -0.021040646 0.27261186 -0.7135487 -0.93334824 -0.3530457 -0.7435692 -0.089446135 -0.25670648 -0.81861776 -1.1374865 -0.07651346 0.18135647 0.21210352 0.0849284 1.082416 -0.036947783 0.8144496 -0.09943987 -0.06352283 -0.13589443
pyrite 0.7605406 0.2617764 -0.28483006 0.4546402 0.16846916 -0.1443476 -0.54010373 -0.5396193 0.7813029 -0.25670195 0.24259189 0.45259485 -0.23079869 -0.31235045 -0.11788134 -0.3462527 -0.3440667 0.5790472 -0.115625195 0.34040883 0.28576314 -1.2158965 -0.020033399 0.3318977 0.22049329 -0.4776416 0.5710521 0.87240565 -0.17158078 0.3218899 -0.41792995 -0.041331902 -0.13709582 0.52171344 0.18178259 0.47992724 -0.86579615 0.5965126 0.37369397 0.37795419 -0.09470585 -0.09951418 -1.0490854 -0.25228614 0.25841728 0.18262546 0.00031209213 0.11611326 0.30432546 0.00058790966 -0.3021023 -0.27826265 0.3138358 0.23975164 -0.3044733 -0.33963463 0.042237666 0.6439633 0.7860324 -0.58957595 -0.18843287 -0.12449251 0.4885647 -0.24162549 0.6467392 -0.036418438 0.017004896 -1.268735
isotope -0.3413702 0.07323657 -0.23779754 0.399783 -0.06593438 -0.0027126162 0.65356123 -0.21716188 -0.17252684 0.14469364 -1.068027 -0.11261039 -0.18062684 0.022818591 0.5940749 0.27286106 -0.4819995 0.18207483 0.13364233 0.33131063 -0.31274536 0.20035602 0.32251182 0.048896775 0.142661 0.024569724 0.38409045 -0.11227482 0.26097462 -1.2885524 -0.1864249 0.33611286 0.11476272 -0.19382475 1.2925798 0.28456676 -0.27335626 -0.29778278 0.32253298 0.13314487 -0.03763237 0.6065401 -0.8969491 0.04638689 0.01597845 -0.24380529 0.12233401 0.15739048 -0.051712032 0.39758286 -0.0052324543 0.39945 0.048126843 -0.4330447 0.051466763 0.7035559 0.039335866 0.32110697 -0.30962598 0.026661145 -0.08050212 -0.3603247 0.23878826 0.20944881 -0.3840328 0.77088463 -0.09669926 -0.0956656
sulfidation 0.3709593 0.3841098 -0.546566 0.54694176 -0.38097695 -0.4544649 0.39201048 0.1526702 -0.29779193 -0.5297665 0.030410675 -0.37468427 -0.29667816 0.047699712 0.5944738 0.2328723 0.08861965 0.279215 -0.005718567 0.19626938 -0.37969738 0.7215556 -0.33786106 -0.21423188 0.22536923 -0.2140384 -0.23680001 0.031721584 0.46768177 -0.40918067 -0.27255738 0.18674268 0.09111296 1.1719022 0.021524029 -0.03445414 0.061043706 0.2696092 -0.263352 0.5523693 0.025977448 -0.14325431 -0.13518454 -0.47672865 1.2824396 -0.45524085 0.29950055 0.43233448 -0.80768156 -0.028442644 0.611889 0.17732593 -0.37182367 0.19472657 0.11614306 0.0025511542 0.10608036 -0.55088836 -0.047526173 0.13500845 0.37908268 -0.63209236 0.100139275 0.78417104 0.33592695 -0.04648953 -0.72504485 0.29759145
large -0.33076933 -0.04557366 0.0983319 0.36974534 0.28220624 -0.8138031 -0.5704162 0.17740788 0.14055237 -0.19361508 0.28235975 0.0039098575 -0.18144916 -0.26493248 -0.14742169 -0.28380919 -0.20691532 0.33829418 0.28122652 -0.08497853 0.35985592 -0.12862146 0.3928492 -0.2749438 0.2649283 0.7286811 0.6573386 0.14948705 0.21624269 -0.2259923 -0.06859971 0.59651977 0.7436868 0.8435526 -0.07606185 -0.0837995 0.19333133 0.2393934 -0.092058495 0.3534865 -0.060106732 -0.12187193 0.01079295 0.46394202 -0.18602186 -0.29496437 0.46352082 -0.22931921 0.06557498 -0.18061522 -0.1979921 -0.33757833 0.5621382 -0.3023083 0.3924444 0.053079803 0.31244004 -0.7986264 0.41896576 0.0029332417 0.28826505 -0.2525591 0.66659945 0.8280854 -0.029118478 -0.22382402 0.015844792 -0.05270541
east 0.4259757 -0.1312484 0.44318458 0.15475065 0.14499916 0.37283316 -0.23899849 -0.10122458 0.30424652 -0.4316634 0.55049545 -0.4371105 0.072308116 0.8878501 0.21573828 -0.46449712 -0.2289928 0.1690586 -0.16777886 0.26343316 -0.08091326 -0.12556781 0.30320904 0.5401317 1.0033457 -0.088626675 0.55989635 -0.49904373 0.21120004 0.22722802 -0.64960366 0.04905092 0.5295111 1.1456689 0.05254405 0.33319584 -0.50893044 -0.228968 0.42652738 -0.27816072 -0.27213594 -0.22463584 -0.23051046 0.8799504 -0.45589638 -0.14312196 -0.18642311 -0.086642176 -0.14150795 -0.17696455 -0.1845365 -0.56349343 0.040460255 -0.10411551 0.2993082 -0.020215202 0.38398755 -0.7498741 -0.5441606 -0.7173195 0.55641395 0.24243574 0.8728924 0.5605897 -0.015558083 -0.35940316 0.32087356 0.17470182
5 0.5040536 -0.1928457 0.17147918 0.10172634 -0.55615044 -0.25182226 -0.316875 -0.56846565 -0.32311612 0.019703109 0.20536292 0.6544872 -0.24274448 -0.26348558 0.02914283 0.26703778 -0.82460517 -0.43618342 -0.3205003 0.03933952 0.17573507 -0.5647214 -0.09796883 0.5595664 0.020685567 0.3799312 -0.20723803 0.25246105 0.19161767 -0.58761764 0.100582965 -0.7937707 -0.43762207 0.10220731 -0.3461038 -0.089415535 0.08595095 1.0962085 0.30047253 -0.3207085 -0.21961816 0.14975272 -0.35320866 0.60487634 0.42595312 0.23874773 0.1924273 0.26074257 0.108838215 -0.61181486 -0.43915477 -0.14346325 0.9314067 -0.09102024 -0.097140595 -0.27917033 0.17536625 0.14013165 -0.5800426 -0.03002032 0.88594484 -0.33754453 0.39445904 0.13901861 0.10901025 0.33619487 0.36873057 0.078569695
6 -0.17594142 -0.23423783 -0.10904966 0.16717722 0.13516034 0.13871703 -0.59275866 0.15366809 0.21393393 0.27801958 -0.66011405 0.060369138 -1.0043136 0.14767843 -0.37630028 0.84789723 -0.39259002 -1.0537198 0.2449984 -0.09164813 -0.018005623 -0.37300932 0.65633273 0.58295155 0.09225292 0.4153869 -0.36913064 0.753335 -0.041315548 0.20490284 -0.047346584 -0.6293229 -0.21419467 0.641969 -0.39551917 0.43118656 -0.044138487 0.73257875 0.91484857 0.23189898 -0.23496512 -0.65628266 -0.09854679 0.5276438 0.34425977 0.4190221 0.23677932 0.23169741 0.577827 0.09292352 0.7882871 0.26731744 0.20646249 -0.11030895 0.061030697 0.29921487 -0.0659205 -0.045914445 -0.41262564 -0.08639066 0.27458754 0.32066315 0.5757232 0.6404118 0.24695358 1.0962995 -0.43809962 0.099483594
also -0.2652543 0.61634445 0.17853582 -0.03260687 0.09362106 0.20407835 -0.31052175 0.123302035 -0.17208478 -0.17948094 -0.3553776 -0.356379 0.28688633 0.05603048 -0.23321374 -0.42679435 -0.46140307 -0.4457669 0.19413075 0.28717422 0.17384472 0.11426545 0.20304291 -0.04427467 0.837815 -0.090623334 0.11031037 -0.24004906 -0.10704594 -0.20859137 0.13949004 0.25541773 -0.30220577 -0.2114631 0.8659757 0.23234561 -0.33373824 -0.015203318 -0.10768455 0.1387089 -0.08088359 0.37964323 -0.49148825 -0.19272967 0.46353805 0.4788994 0.027651718 0.14647743 0.083206505 0.7021438 0.34442243 0.1720805 0.25510705 -0.0053055673 0.16605984 0.004585789 -0.24209298 0.6139603 -0.21633483 0.15814008 0.16172355 -0.27007443 0.011354684 0.067040294 -0.020656813 0.37069416 -0.49389818 -0.17034027
base 0.16688925 -0.04366551 -0.16675735 -0.13504295 -0.30186185 0.54255015 -0.47401965 0.14153929 -0.3567299 -0.0818309 -0.29190558 0.5201921 -0.1409413 0.014247708 0.018097758 -0.5099634 0.1035218 -0.29259595 0.56918555 -0.12073937 -0.1855031 -0.22546694 0.3828829 0.26400027 0.00654619 -0.07322496 -0.18985188 -0.1599694 0.54259884 -0.56010693 0.022886092 0.1000774 -0.20117757 1.0062908 0.36132324 0.15326396 -0.28166717 -0.07573696 -0.3792543 -0.41520122 -0.1504319 0.17587103 0.40613455 -0.4419385 0.060094588 -0.62026703 0.02003443 0.05454911 -0.6614775 0.15176356 0.18343899 -0.37445924 -0.21211052 -0.5012261 0.51267433 0.044467308 0.4517179 0.2558185 -0.5918997 0.24821937 0.08090127 -0.54786307 -0.104741454 0.050993167 -0.22459273 -0.26883543 -0.37142956 0.5009247
age 0.37035984 0.5725098 -0.15079685 -0.27806193 -0.62056786 0.46018615 -0.48069754 0.29569507 -1.0165018 -0.23708905 -0.19257006 0.013242192 -0.72025657 -0.487885 0.08702366 -0.71771806 -0.07529754 -1.078088 0.20351435 0.3674331 -0.25084966 0.30282417 -0.04274428 -0.4292199 0.37824777 -0.2302128 -0.14081803 0.16935991 -0.08766926 0.84074056 -0.21403068 0.51052654 0.013243348 0.6129382 0.41932452 -0.051361647 -0.06872907 -0.026735306 -0.17850307 0.4057118 -0.27740958 -0.25933048 -0.25270402 0.24705373 0.8688148 -0.20949118 0.34771597 0.4736058 -0.050855763 -0.3210602 0.013362897 -0.24842206 -0.35198516 0.21981831 -0.18716203 -0.057497542 -0.1718989 0.17483442 0.42050645 0.08844332 -0.04906167 -0.47934377 0.10824042 0.052812286 -0.3506327 0.5930671 -0.24051395 0.6018498
braden -0.0326494 0.912603 0.663075 -0.5409581 -0.04210275 -0.32326248 -1.0679576 0.3279313 0.08643481 -0.116128795 -0.5741538 0.5713174 -0.41493124 -0.010662178 0.61755204 -0.7095214 0.32500768 0.15137021 -0.18733639 -0.19411574 0.112507686 -0.60670227 -0.1007951 0.030017802 0.660794 0.2682039 0.779453 -0.3082063 0.05314285 -0.5397334 -0.1770843 0.0061269226 0.15951176 0.10477468 0.2156938 -0.8653176 -0.3205917 0.026555354 -0.387661 0.722466 -0.29773095 0.3497983 0.19353443 -0.45069936 0.019407505 -0.06364077 0.38598657 -0.028005145 0.49229383 0.42943463 0.66165435 -0.71911836 0.2078416 -0.4710215 0.24475507 0.31345594 -0.28479192 -0.3855363 0.34248444 -0.04279467 0.22012249 -0.24955873 0.31291148 0.004332876 -0.8253208 -0.07067863 -0.3214298 0.14646159
isotopic -0.6665241 -0.09695769 0.3161815 0.59911793 0.22779626 0.19052209 0.1322004 -0.2931846 -0.19764128 -0.7066571 -0.5650934 0.33402646 -0.32798874 -0.4389466 0.3069695 0.08967381 -0.0677609 -0.5995837 0.31545347 0.2874556 -0.08075175 -0.14878759 0.085656874 0.95043683 0.33136505 -0.5984932 -0.11847233 -0.14706944 0.13033393 -0.6333689 0.34433413 0.19084305 0.3132103 0.41197097 0.56142807 0.97760653 -0.52036256 0.10372425 0.028664567 0.1338296 0.25052416 -0.24491586 -0.31147277 0.5451593 0.48818395 0.098055266 0.33748767 -0.083424225 -0.07312584 0.39158833 0.43237352 0.21655427 -0.35192868 -0.690607 0.83959144 0.5985887 -0.4043788 -0.50155103 -0.14497375 -0.25513086 -0.6764772 -0.34194234 -0.0058150496 0.2608686 -0.37319893 0.3230762 0.41263762 -0.08257033
several 0.17679638 -0.356977 0.13234258 0.2725317 -0.2327141 -0.11828905 -0.4070283 0.53822565 -0.2280397 -0.2948667 0.53896326 0.28187588 -0.14706348 -0.3669152 0.06291322 0.32050776 -0.13299273 0.20179483 -0.10497649 0.3811385 -0.30192026 -0.15860187 -0.14263284 0.38444728 1.1246544 -0.021510547 0.11588432 -0.25565842 0.95291185 -0.55003035 -0.039638277 -0.11387031 -0.21285476 0.6743142 -0.22622159 0.2659773 -0.05885593 0.015376936 -0.23182242 -0.050682887 0.04930657 0.013855404 -0.2991182 -0.22722682 0.24310298 -0.14614798 0.024579654 0.12209626 -0.1409045 0.34780565 0.020799333 0.99697244 -0.019898599 -0.0026297232 0.5446614 -0.34470615 0.34243506 0.2735102 -0.101365045 0.30608177 0.36867997 0.031965025 0.12364999 -0.01991673 -0.118467346 0.05686157 -0.010828887 -0.3399027
study 0.23755251 -0.65197176 -0.3162982 0.14034322 0.2685093 0.17566755 -0.28199166 -0.40992352 -0.11859574 0.08093287 -0.65383345 0.34359497 -0.13038288 0.038398884 0.26968324 -0.12902236 0.40924948 0.09250421 0.5850434 -0.21316016 0.28163806 -0.1886559 0.027315373 0.19017853 0.16544423 -0.30031937 -0.01892749 0.16034526 -0.0109429825 -0.42510173 0.44141713 0.29253048 -0.43729386 0.2153064 0.15548506 -0.102080785 -0.13997617 -0.38787037 0.19540669 -0.53640574 0.27925295 -0.16960965 -0.3991035 0.2248235 0.75318277 -0.09836048 0.3914495 0.28797525 -0.25372896 -0.07391547 0.13711527 0.06614537 -0.06073272 -0.03486591 0.32333183 0.09487829 0.22326104 0.20993367 -0.32933107 -0.28254166 0.0613972 0.058071718 0.50925606 -0.14510275 -0.61709595 0.08420864 -0.5968317 -0.046927944
fault 0.68537986 -0.15430829 0.07475825 -0.14875843 -0.59465647 0.6028615 0.31033573 0.5069295 -0.7307327 -0.44688833 -0.5269952 -0.14109798 0.04668775 0.5107065 0.27037787 -0.79116404 -0.11292313 -0.40163505 -0.8813999 0.762744 0.00463029 -0.5429972 -0.101768285 0.002143829 0.90785223 -0.07460573 0.510785 -0.4712078 0.5079498 0.02944608 -0.39267576 -0.312135 0.1536064 0.82895344 0.027774349 -0.6006687 -0.06997316 -0.50730425 0.6685203 0.03187853 -0.27425286 -0.42247424 -0.5144391 0.34167638 -0.26792428 0.09428796 0.10337803 0.45307016 -0.21952756 0.07375453 0.005828822 0.1956663 0.6881559 -0.57234395 -0.24119172 0.06274078 -0.22300556 -0.41471106 0.33543372 -0.057478584 0.090547815 -0.7742699 0.23957829 0.26783782 -0.11325199 -0.4199179 0.07464169 -0.031456944
relate -0.17374851 -0.203946 0.29180932 0.12614517 -0.06196341 -0.19620633 -0.16136329 0.38422945 0.19531457 -0.69273025 -0.10591714 0.33156598 -0.5910109 -0.46303156 -0.1801178 0.35647938 -0.28630647 0.21917374 -0.16369562 0.09779418 -0.0065526073 -0.3657218 -0.29191402 0.025160253 0.4372044 -0.015852459 -0.03301981 0.35210422 0.2796776 0.42069992 -0.33179915 0.036921088 0.32241833 0.11312602 0.23774557 0.50582844 0.13517645 0.33101314 0.27011207 0.21084553 -0.2209715 -0.17246643 -0.056473993 0.09842292 0.6308527 -0.09521734 -0.2126442 0.1318118 -0.1967582 0.43820384 0.15840133 0.14236315 -0.5254177 0.47169706 0.43918043 1.1305454 -0.23977649 -0.00015790679 0.17487885 0.07466117 0.20106545 -0.44888553 -0.12526672 0.09612751 -0.47681457 0.7078307 -0.04176974 0.2211825
process -0.05284998 -0.07407441 0.23511611 0.020526113 0.33730766 0.2806909 0.58172894 0.14644675 0.49319932 -0.5884453 -0.8319072 -0.047886238 0.21232015 -0.16800003 0.59359115 -0.31329325 -0.11013478 -0.3176787 0.08094439 -0.4354633 -0.05739552 -0.103976786 -0.3699583 -0.3524608 0.27337134 0.18855824 -0.053018264 -0.4226957 0.34611967 -0.3483329 -0.20024139 0.18956202 -0.116305605 0.5476689 -0.19215328 0.06948839 0.31688404 0.6146929 0.19827172 -0.13211603 -0.57161367 -0.013731689 0.3651511 0.3401628 0.3386708 0.12725125 -0.043086223 0.60685843 -0.7682658 0.13973428 -0.04492517 0.29163754 -0.70335275 0.13610467 0.78244334 0.7308918 0.10899271 0.017316764 0.0703397 -0.60007197 -0.19036281 -0.8238971 -0.30754074 -0.25610888 -0.46228623 -0.088129066 -0.10896871 -0.20157768
mine -0.36358675 0.20226358 0.3149911 0.35432598 0.16820645 -0.014215388 -0.30468124 0.18420374 -0.41801655 -0.84753835 -0.47662637 0.9325663 -0.15208715 -0.31471187 0.23278923 0.07898408 -0.4417514 -0.39065808 -0.42608163 0.54959637 0.2739399 -0.65259033 -0.28067592 0.13230363 0.32341522 -0.11781267 0.07132963 -0.22054248 -0.19661123 -0.102533415 -0.45494565 -0.5135702 -0.109659806 0.20088205 0.069814935 0.41391522 0.60648566 -0.3243051 0.25284535 -0.26012883 -0.08878363 -0.013955005 -0.42765146 0.57245284 -0.23077564 0.23232435 0.30786175 0.7266186 -0.47373515 -0.37119257 0.8799238 -0.55031747 0.047489922 0.591722 0.40874186 -0.20148222 0.19245908 0.59218 -0.28173432 0.22795397 0.37055972 -0.2660603 0.6679757 0.5660594 -0.24112064 0.15980117 0.15404783 -0.31236005
1998 1.0729022 -0.19826153 0.3973154 0.14284745 -0.30730614 -0.30333164 -0.39380774 0.35279015 -0.048814297 -0.07043041 -0.61644113 -0.5732963 0.4262495 -0.091159634 0.24281664 0.2051276 -0.7263511 -0.08201824 -0.5888184 -0.36499113 -0.115247995 -0.2175192 0.20924044 -0.48323506 -0.50833076 0.53470343 0.41322762 -0.61519647 0.6888605 -0.36753386 -0.06915895 -0.26762834 -0.22069213 0.47574478 0.11028546 0.53423977 -0.46999717 0.57012767 -0.21929981 0.5272802 -0.4531152 0.1666502 0.13229087 0.016229842 -0.10620582 -0.16154388 -0.033866033 0.52213544 -0.69715154 0.2618933 -0.15620063 -0.24330622 -0.4493725 0.59096724 0.24763486 0.92655665 -0.27123678 -0.2590871 -0.06284537 0.23274978 0.4761077 -0.039313518 -0.5425114 0.31196788 -0.42080894 0.25481912 -0.30646005 0.2953054
homogenization -0.6024192 0.36232254 -0.21495076 -0.78514147 0.11294418 0.05058891 -0.1835801 -0.683656 0.20415907 0.85771304 -0.10549483 0.6944689 -0.33851317 -0.1847323 -0.16781175 0.43615878 -0.1796436 -0.7060982 0.034284074 0.80512565 0.51541966 -0.46106124 -0.032430217 0.52485937 0.21904719 -0.31367046 -0.53945625 -0.64013064 0.022947641 -0.5976115 -0.1457916 0.5309807 -0.34458476 0.45677608 0.14047739 0.091244645 -0.83582354 0.11423051 0.39899448 0.6302215 -0.06725166 -0.41095856 0.09925135 -0.34987637 0.24411908 -0.10006991 0.5205988 -0.30851647 -0.3715873 0.2494965 -0.531713 -0.002170147 0.056078658 0.23478459 -0.21444666 0.39109465 -0.09922815 0.37002403 -0.18426596 0.52806705 0.6345976 0.18093915 0.21334358 0.089380145 0.7316084 0.003789757 -0.6539979 0.79196364
volcanic 0.44170707 -0.45255885 -0.28044373 -0.024611246 -0.5080595 0.6838747 -0.60494184 -0.25965032 0.8589388 0.47569337 0.36166546 -0.11430807 0.2619041 0.1875538 -0.64984816 -0.32037893 0.10073112 -0.40227512 -0.19512951 0.85358727 -0.40031588 0.21082973 1.2906601 -0.34538773 0.37402186 0.36291063 0.12120437 0.27020478 0.25615522 -0.97422993 -0.2824602 0.11583461 0.27044663 0.54723763 0.27653918 0.5039658 0.084388696 0.49162734 -0.4063151 -0.050719164 0.10415355 -0.44957343 -0.36367315 0.22673632 0.03280081 -0.09639166 0.1014301 0.35568863 0.30355477 -0.21066159 0.17781997 0.013970664 0.3985851 0.12759493 0.54515994 -0.08808743 0.6467935 -0.53341526 -0.18031225 -0.096331775 0.3881015 -0.88359916 0.11806064 0.949179 -0.33070543 -0.2577899 0.13815065 -0.043373894
along 0.1761777 0.29043636 -0.030921971 0.5440954 0.09405519 0.3776555 0.01949273 0.027586 0.051460404 -0.04696852 0.3224493 -0.6550682 -0.16633104 0.11011309 0.45485708 -0.5962575 -0.6846816 -0.5593323 -0.5047218 0.35706425 0.66841614 -0.7027653 0.18786906 0.29075348 0.6344135 0.043334223 -0.14972067 0.2539597 0.30667198 -0.14311785 0.18706411 0.2079039 0.099824704 0.6504458 -0.1603886 -0.21339299 -0.03430262 0.19537252 0.2675135 -0.30511442 0.25563756 -0.72272974 -0.2681944 0.3419579 0.47836664 0.088549435 -0.8664556 0.23878236 -0.34890178 -0.2007666 -0.080384456 0.22141802 0.33353418 -0.30375713 -0.058950722 -0.27937657 0.13350128 -0.43365732 0.21581034 -0.6206573 0.47085977 -0.3594334 0.60969996 0.3175685 0.46555388 -0.32801318 -0.4107133 -0.6568236
result -0.7438153 0.0116520645 0.47206488 -0.046223987 -0.62511 -0.103132024 -0.50487345 -0.09640187 -0.3621275 0.18883146 -0.51703095 0.2544499 0.4750882 0.14003672 -0.013542629 -0.012138251 -0.3053973 -0.62948626 0.17816862 0.055591375 -0.16142604 0.2001653 -0.32044712 0.100472234 0.19040263 0.36475942 0.26707616 0.22235137 -0.085381575 -0.21026406 0.041280076 -0.35909253 -0.3838831 0.5751424 0.42902124 -0.82530296 0.5972445 0.12856175 0.1768249 -0.3748318 -0.42652783 0.34582248 -0.663187 -0.5146887 0.4209414 -0.19613299 0.2645956 0.41512313 0.21381113 0.51540965 -0.34466514 -0.25480852 0.4580958 0.17099603 0.12177398 0.49892968 -0.6038378 -0.468973 -0.08762914 -0.38989672 -0.029022228 -0.9226992 -0.041478086 0.22792925 0.18872155 0.14231339 0.10851213 -0.04411445
develop 0.41489464 0.028136097 -0.554462 -0.50894004 -0.127233 0.3617548 0.19444352 0.10754503 0.3850379 -0.023602547 -0.54490465 -0.22391628 -0.057604413 -0.11858528 0.26347497 -0.5737509 0.024051117 -0.24089159 -0.68546313 0.25546983 0.65339196 -0.25744125 -0.33019474 0.5561969 0.6778397 -0.702954 0.42998734 0.052844573 -0.27016845 -0.14506511 -0.56093276 -0.2398112 -0.85562944 0.920791 0.009114419 0.020863602 -0.28985226 0.16998386 0.07444551 -0.96182483 -0.45465675 -0.3244529 -0.15643749 0.34644118 -0.15404576 0.24929166 0.14562036 0.09811486 -0.47074535 -0.14569531 -0.36536425 -0.06033836 0.6884909 0.28176737 -0.45354596 0.3347144 0.5744014 0.10674293 0.07273964 -0.20613755 0.6466714 0.038757123 0.6031711 -0.19416097 0.8637157 -0.35860464 -0.16415612 0.5535764
e.g. 0.23137169 -0.010947711 0.8184276 0.08351212 -0.81387615 -0.19312593 0.034030713 0.25989768 0.2076293 -0.5619365 -0.61124504 -0.44818133 -0.14909565 0.107866906 -0.20783997 0.010002778 0.36997437 0.29889008 -0.24239829 0.016704034 -0.19715863 0.023092678 0.07871163 0.38691127 0.20853727 0.35220167 -0.013888325 0.5913873 0.2590348 -0.27988192 0.1512184 -0.044932917 0.022284925 0.6779898 0.47420332 0.51873976 0.18997201 -0.2766683 -0.035421483 0.22117928 0.5976262 -0.5316419 -0.4168189 0.37913635 -0.09215017 0.20282905 0.25448486 -0.39615294 0.13346204 0.51693153 -0.24555449 -0.0024432628 -0.7019914 0.5779322 0.097519875 -0.004059738 0.38807815 -0.57884216 0.031998407 -0.12261427 0.4904079 0.26828226 0.4919631 0.36086586 -0.034826886 0.06575739 -0.68416184 -0.021412903
km 0.391765 0.060897388 -0.14438967 -0.29333007 -0.29277393 0.2756887 0.050844863 0.06444761 -0.69499964 -0.44884968 -0.379115 -0.4594268 -0.25976166 0.7475459 0.7428314 -0.133379 -0.28585207 -0.039475534 -0.24432161 0.192688 -0.4361565 -0.47500786 0.2988715 -0.23901463 0.71939975 0.03292963 -0.110822886 0.41949975 0.4877063 -0.29446232 -0.16424118 -0.060372192 0.060447913 0.73335487 0.11591779 0.54040784 -0.26757914 0.6250984 -0.1357723 0.17752309 0.25665897 -0.10546286 -0.08420363 0.73128456 -0.75135326 -0.18654428 0.06119283 -0.23522042 -0.4894009 -0.5233852 -0.04861718 -0.08682503 0.05809238 -0.25907427 -0.40984103 0.6025406 -0.1665532 0.44102213 -0.39930344 0.124104045 0.76389986 0.65756565 1.0305276 1.052386 -0.07171622 0.079340436 0.44586223 -0.1396131
/ -0.087334454 -0.28219458 0.25961643 -0.11049388 -0.80219597 0.0127495695 0.35227567 0.6628785 -0.3424935 -0.09229473 -0.1054833 0.57451046 0.23280436 0.117986836 0.55767536 0.19117533 -0.05004549 -0.19384071 0.40331852 0.12102763 -0.14748824 -0.3195462 0.121760815 0.30340123 -0.19842453 0.064844035 0.051943205 -0.17473342 0.025584845 -0.5643304 0.7358494 0.047495663 -0.42837894 0.34405276 0.11529261 0.40731063 -0.3542949 0.5097055 0.15976451 0.20049739 -0.36400178 0.33054486 -0.62987363 0.16567522 -0.04376156 0.6638171 0.49184358 -0.18123706 -0.43129143 -0.56057054 -0.37345526 -0.017671661 0.24964373 -1.1321241 -0.17466012 1.0766118 0.07890654 0.13459334 -0.40185168 -0.8714783 0.4505707 -0.025907531 0.21055871 -0.15050481 0.19050314 0.2735262 -0.5481327 0.039371423
magnetite -0.063820094 0.18716589 -0.11034138 0.3360042 -0.39497218 -0.25538316 -0.13002226 -0.26399583 0.40374362 -0.57326365 0.030618249 0.20096768 0.17903456 -0.74349165 -0.027270872 0.3531734 -0.45056495 0.028778171 0.65011734 0.7226603 -0.2881641 -0.9540746 -0.41009185 -0.095206305 0.62923104 -0.43990284 -0.3441663 0.22647779 -0.062023073 0.40233266 -0.55924624 -0.6032246 -0.2748941 0.044216476 0.35100433 0.41111317 -1.0439994 0.22810657 -0.14462465 0.12687016 -0.47813356 -0.4908869 0.019493967 0.23660278 -0.18994515 0.009584773 0.21728157 0.14410897 -0.55101603 -0.04495501 -0.19949466 -0.3874062 0.04532833 -0.17098038 0.8257818 -0.29764995 -0.22711676 0.28962532 0.56139195 0.42357197 0.66250104 -0.30921134 0.6734028 -0.585655 -0.21679765 -0.14277148 0.07510332 -0.97112554
1999 0.2451629 -0.27297714 0.050240353 0.36759162 -0.37884054 -0.18265273 0.0040918877 -0.21292616 -0.74190086 -0.05615306 -0.25399494 -0.40763447 -0.18010679 0.031072728 0.42159945 0.6198929 -0.7095592 -0.2330035 0.7252336 0.2202254 0.65733343 2.0301479e-05 -0.13813727 -0.18103305 0.23002037 0.62862116 -0.8254115 -0.059458952 0.5033145 -0.07571226 -0.46046966 0.038099162 -0.119349174 -0.20220284 0.27238762 0.5467844 -0.4804718 -0.093705155 0.31604385 0.19830354 -0.1324473 -0.32192793 -0.28333506 0.5850799 0.59866464 -0.26967314 0.20722502 -0.63145244 -0.5644429 0.84378916 -0.20681235 -0.72290796 0.032370448 0.22224018 -0.011688203 0.44641516 -0.31340954 -0.63604444 1.0292614 -0.19766219 0.15056276 -0.14315085 -0.07447893 0.107828505 -0.32335073 -0.2257922 -0.6222054 -0.35084462
teniente 0.17057477 0.40270612 0.7284288 -0.2211918 0.030187292 -0.22566867 -0.018860877 -0.46279138 -0.46723798 -0.94038117 -0.2795164 0.17401935 -0.13545264 0.37840655 0.059832126 -0.35008374 -0.6079329 -0.09924883 -0.20286666 0.37850505 0.11324813 -0.52290523 -0.052120898 -0.25032872 -0.09292511 0.5021531 -0.054763947 0.09789477 0.19338077 -0.5606837 -0.26038942 -0.060709156 0.27019995 0.8749171 0.08221937 -0.38912904 0.12544304 -0.9108414 0.50953144 -0.18186319 0.38538465 0.04704114 0.09794642 0.19565615 -0.061692517 0.13906817 0.38524562 0.35815373 -0.29241416 0.30129227 -0.09359359 -0.7338704 0.5110507 -0.19227505 0.12662917 0.19871359 -0.076295055 0.39079842 -0.3622164 0.5267655 0.1707213 0.054166887 0.60498893 -0.39047214 -0.08798604 -0.50885737 -0.3504412 -0.018888049
fig -0.1193219 -0.12947439 0.6804617 -0.32966712 0.3471169 -0.51211935 -0.5311268 0.07350039 0.3252567 0.10948466 0.07951835 0.39647427 0.21738622 0.5218102 0.07369233 -0.6319636 0.36125588 0.16494617 0.4106015 1.0425835 0.23187836 0.293851 -0.24570957 -0.18009633 0.643972 0.11750578 -0.28897214 0.2058287 0.043683466 -0.08333695 0.16361052 -0.23159118 -0.947975 0.9675985 -0.027949452 -0.35521874 -0.36999774 -0.21176992 0.7423511 -0.12056437 0.27441892 0.95560986 0.31940532 -0.123170495 0.55390966 0.2039552 -0.24302977 -0.18729566 -0.517522 -0.32028854 0.41878173 0.68019927 0.49535307 0.10562041 0.37098747 -0.06710168 0.107785694 -0.044820264 0.21492419 0.23725685 0.7458082 -0.6912708 0.051017016 0.63690156 -0.1888184 0.40226078 0.38271326 -0.020352535
data 0.47267944 0.28287476 -0.23731151 -0.3892315 0.97132313 -0.29754218 -0.5210295 -0.043411065 -0.54131657 -0.18916038 -0.6064587 -0.19672064 -0.61914706 -0.03614985 -0.08199914 0.35653323 0.0404724 -0.6233952 -0.2885697 0.42847547 -0.17769378 -0.20302327 -0.004152555 0.27889532 0.09083656 -0.5480743 0.3006424 -0.11521968 -0.41211876 -0.20732558 -0.93027574 -0.18784733 0.67201936 0.038019594 0.3800932 0.31191775 -0.5511078 -0.8935651 0.01354933 0.7393657 -0.234423 -0.20661606 0.3873702 -0.008244338 0.31402215 -0.51509315 0.06448028 -0.12898928 0.1128941 0.074938595 -0.26214406 -0.087642245 0.05359717 0.5781024 0.097957924 0.14644207 0.14825697 0.4021046 -0.21877365 0.21102053 -0.018347522 -0.5309671 0.9194003 -0.12290939 -0.8197855 0.70320374 -0.36450648 -0.1568762
composition -0.30275273 -0.19386177 -0.21672584 0.57895875 0.5972716 0.031889997 0.007856079 0.53399265 0.46478996 -0.45036924 -0.2950166 0.17490286 -0.5528506 -0.06992962 0.22076555 0.672834 0.28273883 0.25369745 0.463841 0.73688745 0.11117725 -0.077249154 -0.3695613 0.19346768 0.19099256 -0.2877195 0.012574169 -0.019321656 0.13479303 -1.1683106 0.13261648 -0.51834124 0.3744074 0.15020199 -0.16965981 0.43515584 -0.5719174 0.20445712 0.19355282 0.01688814 -0.45200303 0.23267496 0.13378046 -0.06750981 0.572501 -0.581745 0.65563816 0.586347 -0.19192547 0.4824688 -0.24758469 0.108687244 -0.51403797 -0.020881237 0.6614022 0.66171306 -0.1444339 0.020729776 0.08150313 -0.32712197 -0.0224876 -0.28644478 -0.69237465 0.14598233 -0.35385063 0.15001024 0.11389361 -0.4299986
park 0.18215528 0.25255525 0.33135968 0.8553994 0.68167186 0.69816357 -0.3622295 0.5898597 -0.074681126 0.47592226 0.28805706 0.12479238 0.36672547 -0.07342547 0.21005806 0.092807 0.10157936 -0.22452772 0.0007338668 0.49104485 0.23913872 -0.8483213 0.926344 0.16598167 1.0853181 -0.51438355 -0.1382401 0.67370164 -0.069712654 0.27538273 -0.31262287 -0.13204467 0.18515405 0.58835703 0.54640955 0.009662648 -1.0114994 0.08222681 0.082208775 -0.01852452 -0.09180737 0.18159479 -0.3542718 0.8284037 0.5050298 -0.1883688 -0.36320704 -0.21870236 -0.36767596 -0.16709808 0.36115372 -0.020317478 -0.33095267 0.07983404 0.86538917 0.16844252 0.57755023 0.2178099 -0.7261652 0.43343538 1.1799622 -0.37553343 0.4754638 0.61334884 0.29278424 -0.61896336 0.2637613 -0.2716076
table 0.23133768 0.77057284 -0.20530723 0.36422434 0.49681285 0.6751913 -0.80627066 -0.65541214 0.40052652 0.18269776 -0.525653 0.13890432 -0.47941095 -0.19717075 -0.5894571 -0.049038243 0.28908867 0.071320675 0.32143727 0.63490057 0.1171959 -0.6999768 0.10146597 0.1585629 -0.15611985 0.05805944 0.33070612 -0.2972115 -0.45641056 -0.57942396 -0.79125416 0.42215568 -0.18928763 0.26793233 0.31944343 0.28721514 -0.19773085 -0.39943865 0.4018995 0.48163638 0.36704767 0.10004815 -0.21375865 0.06516782 0.74479693 0.20525672 -0.18633626 -0.35022497 0.5806828 -0.016714267 -0.04257388 -0.49934033 -0.50607336 -0.18219748 0.58632606 -0.1151608 0.4358981 0.5572775 -0.46540684 0.25265247 -0.043911457 -0.5593247 0.13101052 0.23532182 -0.29983917 -0.048941925 0.24999851 0.23133677
