2061 64
, 0.19433096 -0.004495243 -0.13805744 0.012772927 -0.052572086 -0.0705048 -0.105618455 -0.029575674 0.08549353 -0.12834814 -0.019493448 -0.0823756 -0.12407389 -0.039830893 0.06373074 0.015712889 -0.24335626 -0.27080965 -0.0021991082 0.09599415 0.034083594 0.042479213 0.0024375205 0.16167556 -0.030289488 0.15940964 0.19278428 -0.0853947 0.048174366 -0.04780183 -0.10567719 0.16793063 -0.02327498 0.15423405 -0.09471983 0.26612854 0.098113805 -0.04147282 0.047008608 0.012096205 -0.073995635 -0.24098943 -0.16975752 0.3230212 0.07189012 -0.08798829 -0.025241297 0.018149687 -0.06231868 0.08907007 0.09583486 -0.21506903 0.15736113 -0.23380356 0.013992498 -0.011417458 -0.03044198 0.06324442 -0.020484371 -0.2383866 0.0032414994 0.08632312 0.14659794 0.012780977
. 0.16233903 0.15886874 -0.11335393 0.053124696 -0.09504507 -0.14265947 -0.15860353 0.054450806 0.11952696 0.025078693 0.06868993 0.015979553 -0.09000105 -0.07209809 0.07133783 0.06326667 -0.21369483 -0.20595028 0.034179214 0.17875585 0.0038348741 0.064474925 -0.051843815 0.09250578 0.025439095 -0.015517707 0.22663462 -0.09813591 0.095267855 0.06644073 0.032837704 0.13093571 -0.044272725 0.11653054 0.14854512 0.25075305 0.07223321 -0.01325156 0.079080746 0.0681222 -0.06561754 -0.13288544 -0.18049458 0.09414678 -0.05031126 -0.20148496 0.06036827 0.10130086 0.00626804 0.052803632 -0.020384373 -0.0021490678 -0.011964356 -0.09346773 0.09559979 0.00940774 0.11869523 0.0250776 -0.15341732 -0.27198967 0.028574482 0.10783179 0.021468602 -0.03538499
quartz 0.07563094 -0.04347689 -0.17999393 0.18899998 -0.3926291 -0.49661443 -0.055549502 -0.13864079 0.3155717 0.075474955 -0.35349274 0.18861793 -0.007090398 -0.0050443653 0.20681712 -0.12534939 -0.093128234 -0.083918326 -0.0018808972 -0.1307705 0.013964824 0.071057215 0.14323772 0.026069338 0.052583918 0.03280855 0.09881963 0.35275632 -0.0731021 -0.17892462 0.051603016 0.3515219 -0.1611095 0.036251757 0.07775759 0.12369278 0.006164926 -0.022004753 -0.22199558 0.07183679 -0.17091988 -0.14269164 -0.24090472 0.10246868 -0.149766 -0.022863148 0.078757085 0.055933177 0.0699849 -0.17772728 0.020453861 -0.03118404 0.3099127 -0.33091095 0.45029446 0.0039106207 0.36024147 -0.060190544 -0.56217563 -0.18150109 -0.14415266 0.18694963 -0.19928914 -0.19079259
copper 0.26187944 -0.12730652 -0.47103056 0.56332487 0.063852444 -0.08970375 -0.014243011 0.22272561 -0.1613611 -0.11456479 0.31616867 -0.16371442 -0.22475873 -0.18105231 -0.05446514 0.13881995 -0.24724169 -0.04529322 0.12158851 0.1951776 -0.31169862 0.44223887 -0.015490269 0.26979205 0.2209209 -0.26722732 0.7378524 -0.26845336 0.29315612 0.2099545 0.04354604 -0.020515764 0.054508664 0.42248708 0.16387093 0.43155086 0.099733196 -0.17676611 0.1841483 0.24800476 -0.41692278 -0.14360785 -0.24890985 0.0376186 -0.09439541 -0.26220593 -0.072806716 -0.02057829 -0.3338943 -0.2532943 0.040106565 -0.4204498 -0.11012816 -0.029366579 0.012794056 0.04158111 0.010007756 -0.037045173 0.28358892 -0.40021488 -0.043158732 -0.13019754 -0.12457171 0.08423814
vein 0.012677134 0.3242992 0.07109829 -0.034677982 -0.28155932 -0.4165013 -0.058726873 0.05220553 0.1250854 -0.049895957 -0.1265764 -0.18180242 -0.04293722 -0.1337148 -0.025121404 0.2791329 -0.15951405 -0.39418533 0.08185516 -0.22880566 -0.07711035 -0.0077141444 -0.24242802 -0.15748784 0.19268106 -0.20177758 0.16395892 -0.014020291 -0.20913142 -0.18728568 0.13471355 0.11325944 -0.06229812 0.18725643 0.044824388 0.19968443 -0.25802958 0.12586737 -0.029345544 -0.02377745 -0.24486065 -0.15208387 -0.3478071 0.16878596 0.15705226 -0.15529068 0.16870691 0.085720204 0.0961032 -0.023219425 -0.15636228 0.0853385 -0.1592608 -0.15079103 0.5479471 0.29529566 0.73348916 0.2431386 -0.4838768 -0.20256713 -0.08422103 0.28039604 -0.17035289 -0.38426283
alteration -0.10220892 -0.018856268 0.052022766 0.17247051 -0.08835065 -0.19683976 0.20717128 -0.123822734 0.36202562 -0.2589185 -0.023596799 0.053339526 -0.30956987 -0.00024694108 0.038428243 0.027216667 -0.31183293 -0.318745 0.09918532 -0.1629612 -0.06173882 -0.14953598 -0.22638392 0.36179215 -0.15967381 0.122803286 0.43408152 0.27905214 0.008664694 -0.134521 -0.07436966 0.37872365 -0.2467619 0.0954263 -0.05581621 0.2945416 -0.18102768 0.045335375 -0.04208835 -0.05776867 -0.05658742 -0.33573988 -0.117358334 -0.05018958 -0.052675862 -0.15474781 0.26619238 0.3453441 0.16358353 0.313963 0.06733761 -0.15345487 0.18346393 0.08151244 0.31908074 0.09399812 0.49213496 0.12469761 -0.40042076 -0.4165274 -0.34236777 0.037699006 0.10693876 -0.16174431
molybdenite 0.22125845 -0.009606423 0.0329288 -0.35775593 0.14703514 -0.5385223 -0.1990277 0.016614804 0.10799018 -0.41426477 -0.036017332 -0.15731132 -0.32189712 0.12649511 -0.3008038 -0.15842192 -0.30390537 -0.44968715 0.23731887 0.732442 0.24701776 0.0052976613 0.10334273 0.11077799 0.02343552 0.025115428 0.048271507 -0.05453731 -0.12543291 0.030955438 -0.3619396 0.005477286 -0.11014688 0.16223395 0.08186006 0.23285225 -0.1046699 0.22912127 -0.30829397 -0.30286595 0.24537379 -0.6529168 -0.25660196 0.2218623 -0.3076983 -0.18314138 -0.09802569 0.15504518 -0.14489608 0.07055086 -0.33575547 0.6587366 -0.13624273 -0.47926068 0.33503896 -0.18999387 -0.05531301 -0.046946067 -0.38604352 -0.34962517 0.25593325 0.3632088 0.5543371 -0.08471485
; 0.06408682 -0.11000433 0.070582 -0.21456029 -0.43498194 -0.009803876 -0.19502853 0.039968897 0.33721432 -0.36592683 -0.13819273 0.07094173 -0.1365477 0.7980272 0.18536691 -0.09015811 -0.48024303 -0.60219723 0.13465291 0.01053849 0.073023975 0.17925648 -0.05775484 0.16331783 0.044434316 0.035660494 -0.19658078 -0.056602504 -0.16993755 0.19126296 -0.12333724 0.04908242 0.22639756 0.24892446 0.12389185 0.33905485 -0.15761144 -0.19394854 0.37246594 -0.21700129 -0.13163668 -0.53311646 -0.2661564 0.5458806 0.22605835 -0.17212227 0.28867808 0.46722943 -0.07520574 -0.080593154 -0.08335231 -0.29630926 0.15088242 -0.09092761 -0.62563115 -0.025170974 -0.41034722 0.036268022 -0.037066687 -0.114096165 0.3499255 0.25051412 0.3321285 0.19604546
chalcopyrite -0.39640492 0.32782274 -0.021585684 -0.18713585 -0.089677535 -0.33736613 -0.16617575 0.03117521 -0.16189672 -0.053737544 0.16328631 0.12187654 0.19768855 -0.18637924 0.3766017 -0.14339443 -0.3379251 -0.14838411 0.24549916 -0.18351042 -0.19596855 0.23652901 -0.31926832 -0.13387227 0.2502349 -0.15826909 0.39308915 -0.03789587 -0.39271292 -0.024139365 0.119013526 0.30299553 -0.2930439 -0.030245664 0.20251547 0.57314265 0.11458329 0.100397244 -0.019074414 -0.17096162 -0.222803 0.05114525 -0.5342033 0.028231489 -0.05243634 0.272185 -0.20475215 -0.14185698 -0.16610256 -0.24306977 0.24367629 0.038110033 -0.26328376 -0.69892144 0.38833737 0.3893834 0.20417976 0.028330354 -0.4074817 -0.27889752 0.16252449 -0.33825168 -0.11097032 -0.16684464
mineral 0.15835911 -0.040984806 -0.18018818 -0.010586887 -0.02228196 -0.024602935 0.30899465 0.07371796 0.40837395 0.08957469 0.2052607 0.094240725 0.032112833 -0.36214122 0.3424244 -0.28198206 -0.43315947 0.23519489 -0.049893826 0.051033873 0.064631484 0.0075072516 -0.1755272 -0.08825584 0.055993356 -0.16439603 0.5566996 -0.025230883 -0.044749506 -0.20695518 0.18844755 0.21119756 0.002376364 0.5415384 0.22991516 0.31957757 0.0055547995 0.114773154 0.013398841 -0.1287292 0.18966056 -0.23486857 -0.0005457031 -0.08323 -0.21282291 -0.19048677 -0.14694458 -0.01354835 -0.38364118 0.098997064 0.39305168 -0.19997334 0.19710924 -0.39797273 -0.1298781 0.11930713 0.20785938 -0.23418173 0.16637915 -0.49895328 -0.17631312 0.012331131 0.20562595 0.015453858
et -0.17111972 -0.011734862 0.21225101 -0.35053143 -0.3766395 0.029249595 -0.19980906 0.18535954 0.51192147 -0.30880702 -0.041811164 0.1103303 -0.15668058 0.41741994 0.16256654 -0.19704242 -0.108586445 -0.46722275 0.15674238 0.36604497 0.06291875 0.5912174 -0.023555893 0.07006671 0.09538016 0.24544127 -0.2898837 -0.12573086 -0.060560707 0.18366547 -0.061038565 0.0652873 -0.01785551 0.20491529 -0.08569916 0.24953331 0.0036161265 -0.20802672 0.44432345 0.14321369 -0.33545986 -0.8084916 -0.5632006 0.6045907 0.3278647 -0.22566037 0.35124993 0.077979945 -0.10287631 -0.17071259 -0.21058384 -0.20168729 0.22106077 -0.15762553 -0.32036752 -0.10095597 -0.31132153 0.25666854 0.20735008 -0.042215187 0.4052428 0.07788581 0.12303116 0.03431819
al. -0.11087735 0.07049727 0.17345156 -0.3199556 -0.3465892 0.11856457 -0.21887058 0.16880104 0.36786252 -0.30028442 -0.14582242 0.020031864 -0.17785189 0.38019735 0.15449776 -0.24547923 -0.12044673 -0.5167215 0.17334008 0.3854242 0.044266224 0.65151834 -0.016536083 0.05469525 0.07022478 0.25911132 -0.29877934 -0.16099648 -0.010731521 0.21081069 -0.013177506 0.04853529 -0.049347363 0.19707952 -0.011013939 0.26781762 0.104359396 -0.24035655 0.42422724 0.1466559 -0.41399866 -0.7871686 -0.5499699 0.58341634 0.2806052 -0.25592843 0.38386452 0.16630942 -0.04732086 -0.22565398 -0.23424909 -0.20727704 0.21506548 -0.09965777 -0.3939372 -0.10277202 -0.30228823 0.23684184 0.22619747 -0.09028467 0.458239 0.0425816 0.14954966 -0.02684035
zone 0.69270885 0.010923455 -0.15761006 0.34062934 -0.06730936 -0.3805958 -0.21856692 -0.07048626 0.23739086 -0.12837656 -0.09120781 0.14911954 -0.41710982 -0.17441046 0.1006895 0.02114479 -0.16329427 -0.065249234 -0.29568997 -0.1355717 -0.27822122 0.10894385 -0.13134645 0.06602959 -0.08566338 -0.3968989 0.5682812 -0.074932314 0.28133237 -0.18252407 0.1367857 0.25103804 0.15410496 0.29153058 0.2982704 0.10269262 -0.08823207 -0.29414248 0.09069464 0.34339213 -0.022916136 -0.012316812 -0.12791325 -0.16679293 0.010449743 -0.051148485 0.025652548 -0.018812163 0.15729372 0.019571312 0.14365055 -0.11558963 -0.018329341 0.08499471 -0.036908325 -0.053431775 0.65699124 0.038919408 -0.12512758 -0.5472274 -0.20164096 -0.32121888 -0.108330175 -0.22291912
hydrothermal -0.06557287 0.120636284 0.16453236 -0.1440248 -0.34776327 -0.07242946 0.5883035 -0.13489893 0.36686397 -0.09776367 -0.0074980296 -0.38910353 -0.31132904 -0.16929343 0.19239534 -0.18311085 -0.1383536 -0.18552826 0.10096044 0.42358053 0.24582675 0.17378855 0.38999653 -0.1986751 0.05277517 -0.05691973 -0.034273304 0.050539654 -0.09186112 -0.14247988 -0.21711972 0.3847535 -0.05116407 0.036477692 0.043508787 0.17350855 -0.2138462 -0.17866735 0.111491255 0.10215197 0.067381285 -0.51499593 -0.2495862 0.52068293 -0.07253836 -0.45746014 0.32924807 -0.17818433 0.06478223 0.17170194 0.05440592 -0.07618492 -0.023809267 -0.041477624 0.3819004 -0.39783514 -0.074996464 -0.01338759 -0.08961319 -0.061227296 -0.11874892 0.059115272 0.27246237 -0.09616146
date 0.0025510604 -0.2502058 0.14806493 -0.6031609 -0.007641962 -0.25821927 -0.33670363 -0.034573205 0.29143146 -0.6750701 0.2800915 -0.20373538 -0.10307542 0.36784244 -0.5933312 -0.33899102 -0.38623747 -0.5701171 0.25183886 0.8473187 0.5982966 0.23756664 -0.028936695 0.1960025 -0.34298512 0.083638355 0.24118789 0.073877394 0.0235362 -0.16192439 -0.7515762 0.1730551 0.042470865 0.16732714 -0.017791435 0.27556962 0.083082534 0.21519478 -0.013566989 -0.040990345 0.14899105 -0.71330607 -0.49429595 0.13881953 -0.23660001 -0.47665042 0.19724107 0.1448652 -0.64513713 0.46063724 -0.3925289 0.737896 0.036614545 -0.33170134 0.39916468 -0.097347006 0.09868975 0.17377433 -0.07285005 -0.23906738 0.11020705 0.477155 0.8057134 0.12424606
mineralization -0.11706563 -0.047342435 -0.09292159 -0.08241161 0.14274006 -0.1183848 -0.0034184528 -0.052336525 0.11215403 -0.4630327 0.17834243 0.115893416 -0.14331546 0.2890534 0.30650362 -0.044316687 -0.38397157 -0.05623637 0.3601453 0.08877843 0.1077094 0.29423973 -0.31160322 0.08710533 0.021685937 -0.048057813 0.09097395 -0.034514863 -0.20344302 0.23333614 -0.40801847 0.12753995 -0.6104162 0.16201268 0.29567817 0.41643935 0.21136266 0.07413583 0.051132165 -0.008700255 -0.3128417 -0.27806357 -0.16404366 -0.027166381 -0.19548228 0.18449582 0.0016303847 0.24110481 -0.34625402 -0.107054584 -0.07206479 0.43477154 -0.15670753 -0.0101136295 0.5153524 0.07901629 0.15607722 0.123132065 0.2553734 -0.3030552 -0.2735999 0.2581639 0.020075003 -0.14371079
fig. 0.25298235 0.1886816 0.007387007 0.032587186 -0.24195808 0.18898746 -0.5484294 -0.039361283 0.02347128 0.37422144 -0.28991163 0.10566179 -0.17534314 0.13987309 0.38652948 0.31587762 -0.14640786 -0.22079287 -0.041386716 0.053331643 0.109689556 0.042301435 0.5128262 0.2178757 0.032980546 -0.08513634 0.0733309 -0.052895706 0.029458782 0.13361159 -0.070852116 0.14220205 -0.13541286 0.29804078 0.056859124 0.24068817 0.09275761 0.16368747 0.17800474 0.043463882 0.028873242 0.1621065 -0.5045801 -0.082197435 -0.10008805 -0.0843414 0.071712114 0.19391067 -0.20632228 -0.06174098 -0.033822164 -0.14098193 -0.22839014 0.22401397 -0.087384425 0.15958786 0.22610623 0.32237712 -0.33407167 -0.019744776 0.12769091 0.47252092 -0.26012912 -0.2926055
biotite 0.03143025 0.11715718 0.11939337 -0.20832674 -0.37907964 0.39640802 -0.40095338 0.19265382 0.0035161865 0.060372673 0.055792462 0.20615055 -0.29968995 -0.36082715 0.3598487 -0.020963961 -0.30497742 -0.50446814 0.29739115 0.44206032 0.20683567 0.06441395 0.3189397 -0.18906072 -0.39140275 0.14501569 -0.30239183 0.13238987 0.17099668 -0.013249368 0.0057307594 0.16016498 -0.10853005 0.1525362 -0.24801075 0.28533924 -0.22262943 0.25819844 0.40401545 0.27907342 0.06004046 0.09109213 -0.5742134 0.123800986 -0.040294953 -0.3625546 0.05177456 0.0028720542 0.440623 0.057039037 -0.07431248 -0.32866472 0.2893619 0.004040539 0.27432188 -0.114487454 0.41733393 0.100169025 -0.13780944 -0.31478855 -0.06115588 0.26315746 0.11544136 -0.11541517
type 0.3320843 0.152921 -0.17324688 0.4397906 -0.6101872 -0.27842605 -0.21691126 -0.17214458 -0.19003153 0.04036475 -0.4511384 -0.31429797 0.008552955 0.1503396 0.2631666 0.30557162 -0.21530716 -0.20415586 0.008790141 -0.022893047 0.17829855 0.28640866 0.087624624 -0.083332516 -0.03740002 0.11440152 -0.013720429 0.4886797 0.2359987 0.16723934 0.1814533 0.4609014 0.42293364 0.10303976 0.24696311 0.066121854 -0.31560177 0.16276911 -0.46894735 -0.18311507 -0.1362746 -0.16743866 -0.44042307 -0.1397191 -0.1571255 -0.22504544 0.6316685 -0.0029086394 -0.0031982502 -0.45187417 0.0068611144 -0.18116997 0.1590372 -0.26286107 0.17975833 0.11011148 0.33090514 0.1043972 -0.84729004 -0.12792353 0.074421816 0.535454 -0.22304083 0.12970452
2 0.25022057 0.0144217955 -0.2325116 0.12156507 -0.4921428 -0.22414602 -0.20151836 -0.012614481 0.1719963 0.14886469 -0.3935878 0.12784225 0.009369052 0.09280473 -0.13344556 0.22642152 -0.044967927 -0.252839 -0.034324788 0.6516638 0.69500256 0.3437426 0.09298895 0.16424361 -0.12918071 0.20963883 0.17696203 0.45525414 -0.14006834 0.1132316 0.013536058 0.23639876 0.031769704 0.15223323 0.20088372 -0.26264355 -0.23591791 0.03287327 -0.13418959 -0.030940648 -0.039894886 -0.1011327 -0.3571682 -0.122024246 -0.062033754 -0.25221294 0.025015304 0.039504386 0.060147088 -0.12588921 0.22566943 -0.18988451 0.01582151 -0.15135424 -0.119117185 -0.16861852 0.09114771 0.04424676 -0.7725202 -0.28704372 0.032085948 0.35250208 -0.11682925 0.100366816
feldspar -0.21946016 -0.4416256 0.110615216 0.12987049 -0.10130824 -0.14139023 -0.039224792 0.08577689 0.07151765 -0.25964576 -0.06818849 0.39282957 -0.1743076 -0.005590852 -0.044158015 0.23806478 -0.4175545 -0.281482 0.3225178 0.28250867 0.39047962 0.0068860413 -0.19913997 0.20838518 -0.3836106 0.63768 0.012150179 0.07310342 -0.13895734 -0.60093236 -0.13770756 0.39986536 0.083300926 -0.25625098 -0.10189644 0.14821422 -0.06594073 0.053992923 -0.10806963 0.35450277 0.36618257 -0.31463546 -0.16097203 0.36560988 -0.54038477 -0.273986 -0.41074032 -0.1569972 0.08419955 -0.100955784 0.43216625 -0.4834639 0.31618857 -0.2033944 0.19128202 -0.1434602 0.40836346 -0.03503724 -0.035023756 -0.7272501 0.35701087 -0.3883658 0.57340497 0.03509886
re-os 0.3521995 -0.23556724 0.104780205 -0.5156361 0.056194484 -0.4962015 -0.20359954 -0.13493446 0.2086884 -0.66979456 0.03459876 -0.27674565 0.011230786 0.28967363 -0.101107195 -0.2139311 -0.52453136 -0.59594697 0.36575887 0.92527294 0.419164 0.1872778 0.21211721 0.10508856 0.037957925 0.026255192 0.10308171 -0.16458467 -0.1419821 0.15297708 -0.75734526 -0.1579361 -0.046877496 0.26462805 0.058473077 0.49865717 -0.0701616 0.061111312 -0.29666707 -0.32406566 0.2590436 -0.6636918 -0.37501866 0.24621747 -0.22982632 -0.3577547 0.14935887 0.22733077 -0.34256908 0.1725794 -0.6634559 0.74332356 -0.10149882 -0.07984836 0.54516673 -0.4501053 -0.05527186 0.0802606 0.016421275 -0.22491652 0.24795756 0.3718974 0.769865 -0.065036334
porphyry -0.057439245 0.118779145 0.013384516 -0.10227297 -0.44316387 -0.14283425 0.46166793 -0.35590902 0.027492221 -0.2907771 -0.2793102 0.22278102 -0.0787604 -0.07639143 0.24465774 -0.40802807 -0.33557212 0.12921287 0.26396614 0.39377597 0.073553436 -0.07620097 -0.00875781 -0.014404059 -0.03726003 0.21440917 0.3416924 0.10894656 -0.19540557 -0.15308848 -0.07019606 0.21996693 -0.39022642 0.10429735 0.27614325 0.15135655 0.28056228 -0.13467346 0.49366546 0.2870325 0.097691596 -0.38479686 -0.4001524 0.38836506 0.11917695 -0.3240866 0.27070275 0.16762283 0.091459535 0.27370277 -0.109930485 0.10991484 0.16090389 0.10953999 0.23402439 0.25639275 0.045203213 0.026630104 -0.25652894 -0.091656625 -0.18465333 0.0007012662 0.060838487 -0.17050445
deposit 0.22954175 0.10271652 -0.15535621 0.15239201 -0.15740189 0.018496845 0.044935644 -0.24364455 -0.10369519 0.031438608 -0.14703934 0.01377958 0.039735045 0.12446499 0.02551544 0.19278266 -0.35977352 0.043821022 0.23684265 0.04048825 -0.18861991 0.33529133 0.12902287 -0.22533609 0.3655777 0.48946995 0.50734884 -0.19323784 0.3455014 0.2067189 -0.022196576 0.36461705 -0.16494787 0.068525404 0.23117848 0.38058764 0.1935647 0.11949443 -0.0057615507 0.23704334 -0.4413848 -0.2665051 -0.14714777 -0.07274654 -0.13979313 -0.25042146 0.31609184 0.22231781 -0.27176857 -0.017506223 -0.117152505 0.13109986 0.24216652 -0.058015164 0.5358034 -0.073988914 0.3653891 0.0001001068 0.032909505 -0.17557159 -0.46903554 -0.28872237 0.13190956 0.12128155
atacamite 0.50581825 -0.07295309 -0.45573214 0.50958896 0.33646 -0.024600005 -0.22124377 0.11366691 0.30808327 -0.094404705 0.09806446 -0.17430589 -0.24463722 -0.104327716 0.14873415 0.5431809 -0.5227887 0.032004993 -0.15135136 0.14641573 -0.34125894 0.1770381 0.22275026 0.3439625 -0.08508267 -0.6126278 0.6434764 -0.35508487 0.4272086 0.1388605 0.20033656 0.24644251 0.5035287 0.4073168 0.20367712 0.51091295 0.19147643 -0.48833442 0.7401768 0.18761246 -0.12668686 -0.17155464 -0.07486453 0.10062064 -0.3394575 -0.41062152 -0.060105257 -0.068363965 -0.75631464 -0.14551075 0.2966912 -0.307065 -0.28168634 -0.13314669 -0.5990319 -0.08520992 0.13700308 0.084780954 0.10765676 -0.6224529 -0.14284204 0.03773062 -0.32592556 0.17392173
sericite 0.07050264 -0.05935671 -0.37853375 0.38615626 -0.39587006 -0.19518676 -0.14660561 -0.011551358 0.3449294 -0.31224316 -0.1702139 0.34994587 -0.12301132 -0.19660324 0.120358214 -0.14632508 -0.68724465 0.034295637 -0.19815771 0.003262022 -0.12708269 -0.07286436 -0.116292655 0.063356034 0.11649801 0.4473534 0.31402 0.27161652 0.15849926 -0.36983827 0.25207928 0.5854174 0.034934428 0.027678212 0.2625279 0.22042423 -0.09555445 0.020439167 -0.11990958 -0.13887393 0.28250703 0.05921057 0.051037356 0.2037666 0.060344033 -0.33642057 0.22920182 -0.028634548 0.3502375 0.15313062 0.23925935 -0.21339336 0.08042971 -0.015777893 0.3205705 -0.36370906 0.46204332 -0.16314504 -0.1341688 -0.38335016 0.18230137 -0.07594056 0.16846845 -0.3572887
age 0.12712274 0.036385752 0.06452306 -0.16524535 -0.06844015 0.037024915 -0.040328827 -0.045600094 0.4418723 -0.52285105 0.06599926 0.4250801 0.08578336 0.34730875 0.5498898 0.3309697 -0.4670451 -0.4398904 -0.121837415 0.73565 0.15554664 0.28049546 0.36016703 0.17632957 0.33237007 0.37095302 0.05801761 0.10141043 -0.078635134 0.11691343 -0.39739165 -0.22455168 0.30159086 0.3049159 0.006074728 0.2871847 -0.11688692 -0.14341772 0.14519913 -0.1332243 -0.473881 -0.34770405 0.15799059 0.53150463 0.35241592 -0.36275518 0.20566733 0.16623577 -0.2855828 0.37868991 -0.5813662 0.28407255 0.17535831 -0.08625935 0.5007106 0.027119193 -0.020457707 0.033362947 0.15658142 -0.17158987 0.07262477 -0.17774671 0.8999589 -0.24619444
+ 0.18493074 0.10305789 0.030869568 0.426178 -0.6130227 -0.045772906 -0.29269484 0.08125043 0.8888826 0.2977873 0.522542 0.22047354 -0.16300844 -0.14184062 0.17676054 -0.63273555 -0.46905148 0.08447829 0.11957948 -0.3928244 -0.072591536 -0.2065664 -0.01623979 0.19071446 -0.044255927 0.5514882 0.71054196 0.007993173 -0.59020627 -0.018157477 -0.29132184 0.38251457 -0.098600894 0.5681933 -0.25066173 -0.5135493 -0.31448796 -0.16843586 0.13773899 -0.5600161 0.08501009 0.077640265 -0.7870019 0.04547099 -0.38229668 0.032908794 -0.16521065 0.70396566 0.22584538 -0.014365768 0.46803078 -0.30809885 0.25088957 -0.46338934 0.5118725 -0.20244965 0.71977806 0.2894347 -0.59449875 -0.019413566 0.1361004 -0.3577111 0.053565744 -0.17550789
1 -0.10003384 0.03891211 -0.19665433 -0.15796925 -0.43124875 -0.3920938 -0.22649223 0.122803755 -0.0031384628 0.54404616 -0.23551783 0.25486806 0.16914211 0.21678187 -0.15749817 0.16355254 -0.30395454 -0.15351017 0.17111593 0.20317696 0.47756603 0.36851257 0.3037767 -0.017356722 0.34346852 0.035040915 0.14345096 0.41593015 -0.24290687 0.08156215 -0.4706565 0.008871667 -0.17489329 0.8340022 0.33143777 -0.14892165 -0.24563266 0.043946598 0.19261926 -0.06187965 -0.0056012585 0.14215499 -0.5832475 0.02805631 0.1518004 -0.41486317 -0.2074521 0.38952422 -0.013335016 -0.046167377 -0.11463116 0.28926826 0.26618937 -0.13149205 -0.1461403 0.24433902 0.092077896 0.06572739 -0.6237522 0.011701744 -0.027182251 0.38287622 -0.11979752 -0.02272137
± -0.27874073 0.42959747 0.057056602 0.08731264 -0.8744414 -0.26273507 -0.4298623 0.19222629 0.22399794 0.05832475 0.27639714 0.26465845 -0.4957761 0.13123582 -0.27228796 -0.16232425 -0.6732277 -0.39962402 0.33434388 -0.29391208 0.09057367 -0.19996296 0.37175053 -0.5900324 0.20674756 0.25307068 0.15065458 0.20389731 -0.40119836 -0.5027581 0.475294 -0.0074310917 -0.2904049 0.56677204 0.030436901 -0.2971579 0.193293 0.3067662 0.32942307 -0.07154077 -0.25403553 0.23580396 -0.46199206 -0.112189956 -0.1536444 0.34991002 -0.051531564 0.19170874 0.36973122 -0.59727633 -0.06708702 0.07320356 -0.20582068 -0.34538382 0.828363 0.59159964 0.37139 -0.3071494 -0.55076194 -0.18371122 0.35069028 -0.28686428 -0.076364964 -0.12003344
sample -0.16800532 0.16663763 0.40806195 -0.41300806 -0.23003638 -0.575658 -0.26184604 0.01895832 -0.36236325 0.13297133 0.3117613 0.07029539 -0.01929643 -0.09107354 0.22472435 -0.14911881 0.08568106 -0.2409089 0.09514853 0.23390105 -0.023859669 0.08642904 -0.22514018 0.3610606 0.12573682 0.27927297 0.53260493 -0.06884627 -0.026860699 0.2187247 -0.044828337 0.0013722954 -0.44960108 0.008414603 -0.3942908 0.6409492 0.2308725 0.23196484 0.24576598 0.17199405 -0.3790681 0.13427532 -0.53591275 0.20688522 0.2532807 -0.05521983 0.2615008 0.17431633 0.05536164 -0.10230705 0.509217 0.4850431 -0.0033655043 -0.84599704 0.5062131 -0.17801833 0.017801175 0.33077538 -0.60148126 0.2259745 -0.16394703 -0.2314094 0.04259775 -0.51952755
bornite -0.51909536 0.37275183 -0.01753604 -0.25619107 -0.190889 -0.23789482 -0.19930993 0.1316613 -0.2282576 -0.053203177 0.14710844 0.068613745 0.19269052 -0.26559955 0.6585351 -0.3576579 -0.43927896 -0.034870677 0.17959763 -0.23021533 -0.313888 0.2641118 -0.12545508 -0.034816965 0.280876 -0.21190634 0.5770086 -0.16667162 -0.34889752 0.043619245 0.055865895 0.42816964 -0.08969219 0.07746135 0.28558412 0.7788977 0.01545556 0.16096091 -0.23147239 -0.07680352 -0.292295 0.09661799 -0.58953965 -0.22532658 -0.017464424 0.5042595 -0.13262641 -0.21804228 -0.022556437 -0.38410017 0.18439199 0.13925245 -0.510603 -0.64116186 0.45409834 0.29059118 0.364189 0.1575733 -0.40339825 -0.43684956 -0.2715269 -0.5059111 -0.052536625 0.0032149514
3 0.37328854 0.43864286 -0.115724586 -0.057842214 -0.38483378 -0.14364755 -0.15278688 -0.1282751 0.22927603 0.09701648 -0.15775673 -0.073952995 -0.124359995 0.35038808 0.12841439 0.059603337 -0.21391106 -0.32814917 0.19186258 0.1290691 0.57709825 0.022383781 0.4664749 0.12754932 -0.054189056 0.10107042 0.16150057 0.39470443 -0.3124937 0.049961004 -0.05088986 -0.047691356 -0.032355934 0.6421098 -0.1802981 -0.32180902 -0.018989665 0.08031671 0.10468392 0.14159611 -0.029359968 0.2922501 -0.26606736 0.27216175 -0.07683307 0.31620467 0.23077394 -0.009827349 -0.17714132 -0.0036828995 0.04454996 -0.03442271 -0.23528445 -0.15450226 0.20417741 0.12244294 -0.2755047 -0.023652496 -0.4835835 -0.32664943 -0.14690498 0.09997506 0.22658852 0.013500661
sulfide 0.14437439 0.36509556 -0.043306258 -0.21479657 -0.17587377 -0.20558608 0.13208349 0.1115436 0.047161292 -0.18187834 -0.11936352 0.073570885 0.1843755 0.012928184 0.06884845 0.15305066 -0.16163203 -0.40779752 0.07661808 0.051715225 0.26514995 -0.25152174 -0.24518262 -0.010116407 0.48560178 -0.43922666 0.22609068 -0.34159815 -0.07716146 -0.034603216 -0.026910596 0.4036548 0.070861466 0.11930996 -0.14013116 0.3723409 -0.018542975 0.2694162 -0.41636273 0.04921971 0.014482142 -0.101894654 -0.7677033 0.18009278 -0.030972898 -0.14153613 -0.33111656 -0.10094671 -0.2736299 -0.52457994 0.06596992 -0.08510697 -0.13408905 0.02199047 0.27311403 0.1278854 0.2812862 -0.09660574 -0.04471036 -0.2020102 -0.13600971 0.15037629 -0.07446938 -0.0006240333
oxide 0.6081679 0.16801398 -0.26474583 0.33314183 0.28282213 -0.042032238 -0.17688215 0.05507983 0.040817715 0.18985942 0.07250591 0.010651129 -0.26483557 0.05741152 -0.0034410984 0.33718514 -0.49135184 -0.14296891 -0.21110758 0.084758736 -0.19446751 0.22367072 0.31294534 0.23704074 -0.11465259 -0.7534256 0.65729797 -0.07309094 0.541037 0.18903913 0.08383909 0.027992321 0.29503363 0.798108 -0.016642464 0.3919365 0.1356777 -0.3649042 0.46471334 0.40151557 0.06347934 -0.39085105 -0.003114658 -0.21166158 -0.38800225 -0.36897984 -0.23153016 -0.049161118 -0.64265335 -0.35452244 0.16728488 -0.22464868 -0.25633776 -0.16792211 -0.4778241 0.07498283 0.2842776 -0.20006888 0.21633014 -0.73715955 0.011229567 0.046405166 -0.1625505 0.14282782
intrusion -0.21896443 -0.1654476 -0.107296325 0.069997974 -0.17058481 0.05680207 -0.43363404 -0.27038813 0.37139475 -0.0043551107 -0.5553893 -0.25792047 -0.19460765 -0.017372454 0.015103306 0.2205371 0.14550906 -0.34226823 0.4480109 0.43045565 0.54394567 -0.2398643 0.7176623 0.2931904 -0.24843733 0.14143041 0.15632512 0.079563126 -0.34845796 -0.0061387583 -0.23054586 0.28914842 -0.3654741 0.24766168 0.08955053 -0.08929173 -0.02052828 0.12838906 0.31210724 0.253362 0.20089081 0.22099872 -0.7534287 0.1485781 0.6203246 -0.48394808 0.073152706 0.13379486 0.24266364 -0.024910431 -0.5003097 0.05502641 -0.15635508 0.23103867 0.49805993 0.38401935 -0.07147152 0.34049925 0.011434032 -0.55225307 -0.3096545 0.09235232 0.21134286 -0.029027343
k 0.21911587 -0.44198543 0.06980991 -0.08662908 -0.3662191 -0.12084717 -0.08288931 -0.21844013 0.21639043 -0.24964894 -0.10331497 0.53864855 -0.14027838 -0.21015732 -0.085574634 0.054449312 -0.45793664 -0.46198285 0.32063186 0.30163226 0.42350152 -0.008330784 -0.13130488 -0.11431863 -0.35655418 0.53758544 0.1845083 0.039382182 -0.48962855 -0.8239176 -0.4433621 0.381795 0.17076755 -0.1383555 -0.017788596 -0.0066715083 0.029477693 0.057392385 -0.049399655 0.24319255 0.39295217 -0.3356417 -0.1963058 0.18870889 -0.30457306 -0.4903146 -0.33578268 -0.20244697 0.15155046 -0.054565422 0.6165487 -0.46162194 0.31826115 -0.31144032 0.3234612 -0.5076464 0.41326988 0.15209606 0.120142974 -0.4128821 0.2851807 -0.16245282 0.58214724 0.057813052
low 0.13571058 0.039560847 -0.050345004 0.4916265 0.4223632 -0.257662 0.0013456945 0.20836854 0.28887066 -0.012566938 0.46690407 -0.2702496 -0.43315434 0.39329395 0.16875902 0.29284108 -0.4911672 -0.43127674 -0.59463733 -0.26928264 -0.1650208 -0.005280853 0.3650793 -0.15591502 -0.0843002 -0.5615909 0.24302933 0.22974764 0.36737344 -0.17842586 -0.54465795 0.10261573 -0.016917082 0.4711995 0.13238554 0.22826964 0.25146204 -0.4159492 0.7456862 0.25744054 0.03495931 -0.20318472 -0.15806359 0.0418674 0.04059405 -0.15529555 -0.07879441 -0.004515569 -0.01797071 -0.18424976 0.05150225 -0.41685832 -0.26743025 -0.071091555 0.11282883 0.107786186 0.22392757 0.354561 0.07621006 -0.10428306 -0.08396947 -0.3237327 -0.13670042 0.0055353325
occur -0.07415436 -0.084939845 -0.013806537 0.31807205 -0.17404257 -0.1861048 -0.35390702 0.0060125976 0.42597213 -0.20743246 -0.31623113 0.10458526 -0.06305459 -0.22992928 0.36296722 -0.090088636 -0.26884118 -0.0041642673 0.5647252 -0.08420439 -0.056651417 0.05609273 -0.026216354 -0.060198516 -0.424858 -0.5046777 0.56540674 0.07774674 -0.038873207 0.07380426 0.4690297 0.19633159 -0.22623841 0.01884224 0.2979157 0.37112793 0.027721949 -0.19094422 -0.33844554 0.15009542 -0.18040405 -0.08054216 -0.1561073 -0.08151671 0.052871928 -0.094176866 0.12169711 0.17782697 0.28749818 0.17153792 -0.02853376 -0.14458889 0.12810655 0.104549065 0.35385975 0.33878705 0.4060465 0.1642759 -0.060307417 -0.49159303 -0.2244036 0.070071824 0.08974283 -0.29288232
pyrite 0.38494536 0.35614678 -0.0023840624 0.19981058 -0.14833318 -0.5099987 -0.34726754 -0.001453939 0.5050481 -0.53391516 -0.12372574 0.106991045 -0.4612013 0.057671756 -0.0853012 -0.25269398 -0.85963273 -0.098202944 -0.062580384 -0.76620775 -0.20550631 0.056010008 -0.15642546 -0.19140181 0.33519974 -0.058779806 0.162369 0.09789177 -0.037449937 -0.4293316 0.17612684 0.0024997627 -0.11652186 0.041461773 0.4159914 -0.02392412 0.04698392 -0.23603134 -0.09779968 -0.48219705 -0.05015534 0.24715602 -0.14259638 0.019237217 -0.23376624 0.085750766 0.016606731 -0.004149973 0.07220524 -0.16044834 0.19328628 -0.1091003 -0.071477 -0.7664727 0.3197584 0.49812084 0.35221705 -0.14828011 -0.37595043 -0.55331826 0.01613267 -0.1917783 0.009224947 -0.25178513
plagioclase 0.4043394 -0.1438981 -0.23588952 0.39345068 -0.5821581 0.049898297 -0.11951905 0.46133736 -0.061417982 0.026499758 -0.075903445 0.18353403 0.12758029 -0.122872405 0.14042892 0.10772079 -0.48616162 -0.08198393 0.408555 0.4913592 0.1461436 -0.22487676 0.17317665 0.3431324 -0.26069167 0.6058919 0.3891613 0.3310091 -0.13350782 -0.30750576 0.1647576 0.40881944 -0.22649762 0.19723234 -0.12380283 0.112363696 -0.062277157 0.14345936 0.4271796 0.18487598 0.13722172 0.2478765 0.080914564 0.06443187 -0.1578304 -0.21925236 -0.07508049 0.26060346 0.32868525 0.0023161273 0.26178482 -0.110503905 0.36995894 -0.13927627 0.044542074 -0.083144166 0.68437314 0.1803579 -0.038776375 -0.53971726 0.42597002 -0.2154408 -0.0020908169 0.026937231
rock 0.27256605 -0.19950703 0.49281695 0.2682585 -0.15374595 -0.27355772 0.07731633 -0.51368755 0.1419357 -0.5222011 -0.39392123 -0.12628385 -0.33543006 -0.040354695 0.5129621 -0.6298687 -0.24877524 -0.13471767 -0.04526249 0.271493 0.049978133 -0.23553716 -0.040940665 0.01705861 -0.21701774 0.06413485 0.34224916 0.47488186 -0.18731777 -0.44308275 0.2798486 0.32709822 -0.18365583 0.02682338 -0.27958566 0.47019303 -0.15260732 0.22863534 -0.09251353 0.37378883 0.1391242 -0.09892341 0.051542778 0.5127212 0.07306345 -0.46248215 0.025370017 0.34558168 -0.03819952 0.08925914 0.08038824 -0.53723025 0.3036574 -0.3116857 0.24667521 0.17614764 -0.12621531 0.31522408 0.007957376 -0.08377433 -0.073399164 -0.12295331 -0.08092585 -0.10397406
fluid -0.1467795 0.08702506 -0.10516142 -0.03341518 -0.30108798 -0.23446837 0.31258664 -0.040587604 0.16216931 0.008720672 0.42039746 0.09978893 -0.007005923 -0.37080583 0.26600885 -0.5924662 -0.6386012 0.21211773 0.35425997 -0.023196457 0.2543821 0.22183417 -0.046229668 0.086707324 0.65231216 -0.38458955 -0.08684646 0.20495485 -0.5936419 0.07538837 -0.3962814 0.09678699 -0.27533072 0.32477817 0.19687484 0.6847796 -0.3168409 -0.028016256 -0.036269512 0.026493762 -0.074070156 -0.33666468 -0.17717248 0.51336294 0.31351843 0.33436626 0.14032924 0.012211822 -0.5207884 -0.11713493 0.54765224 -0.12232286 -0.2787616 0.06813181 0.6480965 -0.4637801 -0.029125439 -0.1415092 -0.13729867 0.116760865 0.14910123 0.4622007 -0.010913789 0.22524814
late -0.17225595 0.520019 0.18697211 -0.21437259 -0.09510427 -0.20922107 0.036499135 0.16225763 0.16769569 -0.062258508 0.0762903 -0.06539635 -0.20454367 0.01131965 0.37443262 0.4296159 -0.1337111 -0.023884028 0.17114611 0.36609071 -0.22101688 0.22663821 -0.1621825 -0.27446967 0.3330528 -0.25946808 0.13553905 -0.16942756 -0.12982875 -0.031197732 0.061906483 0.08604272 0.092106186 0.42874917 0.15905003 0.4457541 -0.43627873 0.57958484 0.17667565 -0.07990303 -0.43069208 -0.16911268 -0.68201655 0.15486838 0.14389367 -0.16656016 0.2569254 0.13508782 0.35606024 0.014155734 -0.2945901 0.14406802 0.19307765 0.24639827 0.7105737 0.10685192 0.4749169 -0.15487923 -0.21629225 0.0969649 -0.30782166 0.7701484 0.024342395 -0.4483351
system 0.33970028 0.32787433 -0.07052486 -0.031114677 -0.12202283 -0.5360263 0.50569403 -0.18977134 0.07781969 -0.43750075 -0.23147795 0.06331983 -0.331342 0.05462499 0.27957994 -0.23731859 -0.30616847 0.34339386 -0.088408425 0.5770358 0.16510646 0.02942079 0.3552061 -0.21862313 -0.25617534 -0.24304281 0.016992364 0.07907016 0.0022100487 -0.3290854 -0.36274463 1.1545255 0.113449484 -0.009113507 0.5895309 0.08639847 -0.42935807 -0.56776905 0.43359664 0.24669224 0.090203464 -0.6003149 0.22121902 0.1967777 0.48322776 -0.6410678 -0.023537165 -0.22952251 -0.23289628 -0.16826944 0.33804953 -0.00042015495 -0.0857793 -0.24953142 0.16970779 -0.41142103 0.011193097 -0.11129847 0.033508193 0.22875224 -0.037064485 0.30853742 0.06613586 0.57185143
high 0.30076215 -0.18971282 -0.14243144 0.472183 -0.18259351 -0.559258 0.0760575 -0.48317093 -0.087806456 -0.16765718 -0.058254965 -0.10571627 -0.19028704 -0.18397492 -0.0130498195 0.1286705 -0.08467618 -0.18392947 -0.269355 0.04889424 -0.28819096 -0.15474686 0.07231131 -0.15999296 0.13138051 -0.40522015 0.4312141 -0.24594785 0.016224604 -0.41279432 -0.013351479 -0.058726024 -0.3945487 0.39720327 -0.027182614 0.2798498 0.109367244 -0.1586324 0.24660167 0.23604082 -0.1284873 -0.3438132 -0.01898641 0.16110927 -0.11294789 0.008789676 0.1886771 -0.22063 -0.31089717 -0.3742989 0.23595011 -0.3152538 -0.6159817 0.25573292 0.37240058 -0.16736616 -0.63273114 0.09210815 -0.2732564 -0.24802479 0.112834126 -0.45833656 -0.028610338 0.023955556
cu 0.07318122 -0.06757192 -0.04883922 -0.22335781 -0.3211255 0.19691502 -0.5105841 -0.5191972 -0.39015403 0.6337858 -0.053408973 0.050044604 -0.68988824 0.12527029 0.40402195 0.050443348 0.194287 0.38057438 0.10049951 0.091234095 -0.064241394 -0.1190922 -0.32063198 -0.0010168423 0.37439102 -0.44203752 0.39047244 -0.20807104 -0.09400011 -0.06735287 -0.12545209 -0.19391185 -0.2908615 0.5556131 0.1458254 0.5399628 0.29745856 0.13229638 0.22740152 0.060944427 -0.0606314 -0.24382927 -0.46179628 0.0103267105 -0.4077244 -0.49813598 -0.0003811814 0.28905982 -0.14950301 -0.3944161 -0.042994026 -0.46554646 -0.07031762 0.02949706 0.08386467 0.115421966 -0.15930234 -0.5907604 -0.32354903 -0.22618149 0.13939728 -0.11092531 -0.32010257 -0.07648512
chrysocolla 0.42085713 -0.6417429 -0.59769124 0.8708202 -0.15554205 -0.4128586 -0.41454345 0.63823617 0.21424603 -0.37125456 0.13798112 -0.31899598 -0.028058516 0.32393602 0.15220831 0.5995894 -0.27547044 0.073298596 0.078779854 0.26500693 -0.75433487 0.47736442 0.07011797 0.6814294 0.027178837 -0.51235265 1.097035 0.1987175 0.40728948 0.058799244 0.2823938 -0.03712174 0.3892285 0.5048121 -0.34802154 0.4819109 0.26131278 -0.36804467 0.34475613 0.41523367 -0.23805426 -0.28591993 -0.16723605 -0.06297483 -0.027202485 -0.33077005 -0.38879204 -0.2637769 -0.28910577 -0.33106437 -0.04464781 -0.56022954 -0.6768851 0.002379334 -0.3218937 0.29015034 0.31016096 -0.22929272 0.48121876 -0.5936314 0.3356123 -0.11834267 -0.047064286 0.12211762
associate -0.0061088535 -0.15009065 -0.34065667 -0.19660792 -0.37869132 0.28056777 -0.024553195 0.109983206 0.4430567 -0.4283559 0.14614782 -0.3615853 -0.15044329 -0.2136057 0.0839899 0.23404302 -0.55255365 -0.14373313 0.34924415 -0.15237193 0.41894665 -0.25608313 -0.1219044 0.13743305 -0.1921975 -0.048130695 -0.08493709 0.03768498 0.22253539 -0.020997707 -0.26790518 -0.051820494 -0.34893316 0.15384313 -0.12163711 -0.07195886 0.26382908 0.0054675867 -0.105956644 0.22091122 -0.36206666 -0.028568354 -0.60871315 0.18578236 -0.39180967 -0.21305925 0.37676308 0.22886686 -0.3915955 0.36966833 0.12943996 0.42354253 0.0054311776 0.008554146 0.5960887 -0.0859786 -0.050055653 0.4522333 -0.14804617 -0.4222457 -0.35234374 0.4838809 0.45653144 0.025477044
clay 0.1962335 -0.39072672 -0.36160177 0.96655375 -0.03309814 -0.36185253 -0.16109778 0.4979083 0.27202407 -0.3816121 0.14802745 -0.48576686 0.048584975 0.1802402 -0.017640676 0.41623977 -0.3951721 -0.012706224 -0.08426458 0.21610199 -0.4923624 0.4429729 0.055758394 0.34373477 0.08505245 -0.52367115 1.0356557 0.06475025 0.2294109 -0.15184684 0.48983762 -0.20713463 0.3261439 0.46858427 -0.31675267 0.360171 -0.049165662 -0.36181307 0.5113687 0.27232328 -0.20359744 -0.28063977 -0.23440833 0.16171771 -0.19159904 -0.40951997 -0.2622006 -0.38009378 -0.51522803 -0.18503653 -0.08101055 -0.67869747 -0.5541295 -0.07590517 -0.36324635 0.30570915 0.08640857 -0.58299357 0.4683252 -0.58654183 0.20374833 -0.13572842 -0.032387298 -0.113508165
table 0.555159 0.23109183 -0.07064032 0.28789023 -0.3414565 -0.10039609 -0.7020364 0.15989216 -0.18658176 0.10795338 0.107005894 0.044676006 0.4587952 0.39022347 0.23474017 0.1823346 -0.3339088 -0.7301796 0.48871192 0.3084236 0.11414829 -0.23554143 0.06952207 0.41422024 0.2323776 0.11758447 0.29946372 -0.028616978 -0.08907727 0.057948373 0.1846008 -0.45672795 0.15804675 0.52568376 0.24156372 0.060173903 -0.002277778 0.44510075 -0.11144956 -0.09403341 -0.026854986 0.297878 -0.12446371 0.19966227 0.44475982 0.2912418 -0.015528024 -0.13868362 -0.34730524 0.033496372 0.03146402 0.36646122 0.16382201 -0.540428 0.40234074 -0.116105884 0.25667444 -0.0032299065 -0.39942715 -0.069379464 -0.2260175 0.19307679 0.46074697 -0.43504032
contain 0.27925098 0.16750702 -0.13638964 0.29539934 -0.31415057 -0.09483043 -0.06739975 0.056965303 -0.51557064 0.5411175 -0.057183646 -0.13883318 -0.2097553 -0.109727584 -0.06551813 -0.24337111 -0.0010415625 -0.04381087 -0.14787129 -0.084743954 0.28223568 0.03467664 0.018034529 0.01175808 0.06995114 0.08501492 -0.2774694 0.023920417 0.31381798 -0.045940105 -0.0579017 0.17343943 0.14143197 0.17836273 0.26326105 0.6080512 -0.15449354 0.15942138 -0.22351326 -0.099230476 -0.06336546 -0.39394957 -0.84182286 0.15251936 0.050493997 -0.0045236493 0.10038648 0.01508544 -0.30582246 -0.5241376 -0.026125493 -0.19471328 0.2527059 -0.002327255 -0.36124435 0.17732915 0.45933148 -0.052634146 -0.8980707 -0.5520856 0.1093967 0.16038123 -0.03184531 -0.33405894
inclusion -0.21637861 -0.34449908 -0.2725075 0.871847 -0.85002154 -0.09598007 -0.3741851 0.0794761 0.06332066 -0.21432787 0.5187875 -0.096328735 0.07058076 0.7668659 0.7404383 0.07459005 -0.50219935 0.07113621 -0.040888123 -0.07832649 0.40231198 0.3581663 0.1327198 0.016624317 -0.20765927 -0.068794064 -0.33577436 0.49845296 -0.07615029 -0.28191215 -0.09937627 -0.26147208 0.22340721 0.09716316 0.10457625 0.4663004 -0.2979466 -0.05681697 -0.3418783 0.13636269 0.15623206 -0.18264031 -0.1550904 0.26228228 0.04884838 0.14372514 0.38097882 0.5623273 -0.37015307 -0.35855946 0.70739776 -0.25532627 0.14683393 -0.36944103 -0.33991098 0.09445082 0.19206578 -0.067282476 -1.0282185 0.02817998 0.2083607 0.74546325 0.16001877 -0.16458464
alunite 0.3349749 -0.56416035 -0.12358948 0.2714813 -0.2745352 -0.6658448 0.13846835 -0.28144723 0.4943668 -0.09182817 -1.1936587 0.71500677 -0.3766174 0.21458536 -0.11384617 -0.42257103 0.14095172 0.28459334 -0.14473712 0.28425372 -0.25365245 0.20084685 0.07782051 0.09106446 -0.11485452 0.102890775 0.21112993 0.6577054 0.8620393 0.2834064 -0.046209507 0.5211498 -0.22665036 0.23125596 0.053454626 0.14848313 0.42088705 0.09517473 -0.18897617 -0.15442844 -0.31429455 0.04093801 -0.079553686 0.07541357 0.043441232 -0.04225865 0.58320093 0.12988842 0.104192235 -0.13021179 0.49481636 -0.1510915 -0.043010283 -0.46210745 0.7253593 -0.08428932 0.015231433 -0.21874362 -0.38561296 -0.5024091 -0.22399753 -0.6153399 0.081975006 0.12670234
breccia 0.091998905 0.14314274 0.0059421267 -0.013531327 -0.21132982 0.038536996 -0.29320067 0.13876489 0.30193022 0.44351968 -0.6518493 -0.46417964 -0.34464645 -0.34921902 0.10260606 0.0038234354 -0.12554395 0.20792134 0.6764516 0.546917 0.046154518 0.21517718 0.0801088 -0.30477962 -0.0019890557 -0.092887186 -0.37773022 0.20834987 0.62220836 0.033013333 0.2653369 -0.07453708 -0.46173638 0.15992375 -0.73755765 0.3787547 0.0041514323 0.31621864 0.18628481 0.15855245 -0.2977779 -0.34702814 -1.0547332 0.4551076 -0.06444474 -0.26478457 0.25947088 0.05151429 -0.13638276 -0.3465693 -0.29280797 -0.54970217 0.036154833 0.13987812 0.48931116 -0.332583 0.4011845 0.5792107 -0.28091925 -0.25048444 -0.26733413 0.22734006 -0.14227332 -0.08833617
stage -0.00013852975 0.5066722 0.42420542 -0.17164418 -0.18636236 0.20327123 0.32190827 0.23393872 0.71090513 -0.3987364 -0.30669737 -0.696944 -0.77675813 -0.034160346 0.62229466 0.26798615 -0.1374476 -0.70936835 0.48791265 0.376395 -0.07413867 0.17950398 -0.0013609219 -0.16341348 -0.5087892 -0.38235524 0.18317685 -0.3410758 -0.03446979 -0.4478197 0.37631994 -0.2574968 0.059257343 0.0026783913 0.31009614 0.29310817 -0.8140323 0.32090554 -0.27689773 -0.12133637 -0.027793273 -0.7733559 -0.7416688 0.41456994 -0.008140073 -0.17281254 0.103797875 -0.06148162 0.67528164 -0.05196789 -0.13803795 -0.046057176 0.36327657 -0.1132013 0.46999872 -0.19814934 0.6449818 -0.3867496 -0.1957489 0.20349315 -0.0022030112 0.2031567 0.011142543 -0.4581363
magmatic 0.16640717 0.27626017 0.012282522 0.070203535 -0.36874342 -0.023918629 -0.18228284 -0.35543194 -0.19828685 0.08967729 0.006750624 -0.1188864 -0.4772758 0.1991176 0.57817686 0.5641338 -0.18945298 -0.23913808 -0.0070695435 0.55276734 0.4425431 0.27700603 -0.12575728 -0.4399146 0.0025897124 -0.042805556 -0.29220787 0.17250086 0.1909366 -0.00985378 0.16111223 0.011843941 0.43673664 0.13272503 0.46778184 0.60251474 -0.6129205 0.15555264 -0.526232 -0.08984708 -0.2757136 0.08115919 -0.57567143 0.28573892 0.052351784 -0.3414527 0.36118355 0.2666044 0.26586947 -0.35906085 0.049633496 -0.06561422 0.24460281 0.43932426 0.6093533 -0.16110858 0.10300981 0.0077794325 -0.4382541 -0.03687218 -0.6211325 0.70182514 0.115716316 -0.1896745
chlorite 0.12904923 0.4443107 -0.06236279 -0.26973826 -0.42052358 -0.44790566 -0.122053884 0.1619307 0.21005727 -0.36916023 -0.08370012 0.34029403 0.34344232 -0.42225307 0.14881292 0.008382241 -0.6576515 -0.25646597 -0.05085379 0.19438662 0.14595854 -0.63561153 0.17617907 -0.35264793 -0.10594207 0.36317343 0.10043226 0.31171948 0.19250852 -0.7037573 0.61867684 0.7367794 0.26093677 0.31664184 0.30645216 0.25271034 -0.089495674 0.41757873 -0.089459375 0.21481802 -0.07319899 -0.09510661 -0.16843626 0.088210605 0.09577739 -0.07790562 0.087941214 0.21372524 0.38072175 0.30198425 -0.042120516 -0.5211306 0.085885614 0.10785724 0.5618561 0.21075062 0.75247556 -0.6156431 -0.4043378 -0.62428856 -0.17892738 0.37574273 -0.042274464 -0.1953498
ore 0.65778965 0.011372146 0.057846416 0.32341912 0.10497783 0.039916243 -0.12066958 0.13500918 0.09053326 0.0318185 0.42755 0.05062286 -0.21507375 -0.34966508 0.13911569 -0.18111543 -0.3165853 0.2557951 0.08902444 -0.052706737 -0.28979036 0.3246604 -0.11418379 -0.285983 0.49796477 -0.4801397 0.44228366 0.2693827 0.56340796 0.36928523 -0.37871405 0.06576823 0.5010537 0.39914665 -0.07931731 0.43533614 0.065878816 0.516579 0.018335063 0.00089178124 -0.32359132 0.014489921 0.27043208 0.28097057 0.14793204 -0.41842523 0.14960098 0.58690804 -0.74380153 -0.08058474 0.5635149 0.21544 -0.09123997 -0.14196725 0.32704666 0.17075281 0.091150135 0.28408504 0.084027015 -0.4099156 -0.029599076 -0.17083403 -0.008564097 0.13120271
host -0.3563362 0.26467714 0.005352478 -0.2929336 0.19718577 0.13564943 -0.11495188 -0.10124173 0.20072722 0.14122485 0.3989862 0.057952113 -0.06171058 0.11440618 0.34713873 0.39229527 0.13062719 0.08380305 -0.22617655 -0.054185875 -0.31058666 0.065182306 0.35115877 0.010720866 0.21376635 0.008067152 0.104511395 0.020727782 -0.18815872 0.13382865 0.04939647 0.199747 0.14801615 0.23684457 -0.3232101 0.6989008 0.21366337 0.58117616 0.39091843 -0.38031247 -0.6588019 -0.18053474 -0.7161062 0.1618346 0.38079002 -0.2860807 0.1250063 0.36755323 -0.031944178 0.013846722 0.011114328 0.40056676 0.3326123 -0.17745814 1.2225695 0.051349286 0.19260673 0.44323522 -0.39105746 0.109290205 0.10991497 0.33264852 0.49440685 -0.41261312
magnetite 0.080959395 0.36236575 -0.5383228 -0.19728276 -0.9671757 0.027542006 -0.24903478 0.054879326 0.7812379 -0.023304695 0.124226145 -0.1722534 -0.2227903 0.034580704 -0.0048319064 -0.36942682 -1.1033963 -0.64978534 0.33490038 -0.17402075 0.06712422 -0.17467742 0.3303641 -0.17442016 -0.374286 -0.1389315 0.097357415 0.27998096 -0.887046 -0.17312159 0.2043912 0.29783916 -0.26321286 0.2875704 0.30987498 -0.059893843 -0.04558095 -0.02517374 0.18255587 -0.08394696 0.037446674 0.39253142 -0.4738557 -0.19227771 -0.008760249 -0.23115256 0.11932943 0.9205867 0.3326374 -0.6028703 0.19420971 -0.06636747 -0.26670444 0.09952506 0.2142242 0.9047678 0.41277093 -0.32678 -0.23081279 0.02534313 0.4241092 -0.6104348 -0.25723633 -0.19073966
minor 0.9466434 0.3455067 -0.15610947 0.08069681 0.46075955 -0.4602616 -0.18168761 0.7643788 0.05425858 0.06212533 -0.19406521 0.00093122834 -0.41468543 -0.7133589 0.2409446 -0.19779485 -0.12513386 0.09284638 0.10336923 -0.27442387 -0.1439986 0.466942 0.20655993 0.1933112 0.22770607 -0.052889287 0.018012714 -0.05217548 -0.022191843 -0.26530346 0.069194004 0.38189346 -0.2734272 0.17279577 -0.017817946 0.3056402 0.084210925 0.7689709 -0.3853659 0.4834905 0.28370658 0.25981888 -0.4113223 0.090474434 -0.10266879 -0.53390336 0.14589278 0.081546016 -0.018687917 -0.10542758 0.29415444 -0.42457172 0.05985574 -0.21913095 0.20879218 0.45468304 0.28026557 -0.31692976 -0.5786961 -0.36375806 0.13082047 -0.4966386 0.15466231 -0.32294458
dacite -0.21732418 0.07619378 -0.14671144 0.20363128 -0.26496285 -0.14576454 -0.37213364 -0.06611448 0.42500994 -0.08208034 -0.34343404 0.2900594 -0.34685305 -0.21498093 0.6271264 -0.016501594 -0.16141379 -0.29503646 0.79733753 0.66469806 0.057982255 0.20200804 0.47096783 0.37628615 -0.19170295 -0.025111724 -0.0958023 0.29688764 0.62478155 -0.3743937 0.285644 0.12367172 0.26696163 0.10725939 0.18493928 -0.35588902 0.42947075 0.4136408 0.25541508 0.13953282 -0.18066318 0.058747213 -0.63427263 0.25603428 -0.23253146 -0.011468988 0.43821263 -0.4578636 0.4037519 -0.11283326 -0.28289402 -0.21386138 -0.23313472 0.4875558 0.73870546 0.02858522 0.6614121 0.72405535 0.054938924 -0.3910658 -0.3465296 -0.025814358 0.10978543 -0.33280486
temperature 0.28185198 -0.1747053 0.15454869 -0.28219393 -0.59139615 -0.3188447 -0.055454526 -0.3678784 0.39359757 -0.26079428 0.3398208 -0.16680686 0.03974937 0.31426126 -0.23192856 -0.07934751 -0.36306867 -0.14364451 -0.5061208 0.20291133 -0.15671618 -0.32031357 0.45882055 -0.03739326 -0.0682569 -0.008026436 -0.040283553 -0.1164779 -0.5731367 -0.253388 -0.62669283 0.2960814 -0.4334695 0.1437033 0.27084753 0.6209877 -0.32539636 -0.014283173 -0.05189481 0.653873 0.2017704 -0.6128009 -0.1672882 0.20832202 0.48938194 -0.0079331165 0.6004879 -0.008911609 -0.077630065 -0.80554754 0.88416135 -0.51101667 -0.090861864 0.17548168 0.3942093 -0.27927348 -0.13377191 0.20722276 0.017414046 0.21954721 0.17772296 -0.07672293 0.13392042 -0.15165427
4 0.16312662 0.16841337 -0.022613738 -0.6034246 -0.31061104 -0.11876321 -0.56879663 0.10177464 -0.027323738 0.26256666 -0.32034326 0.28023222 0.011464465 0.28381807 0.12485317 0.54597545 0.51639605 -0.033620868 0.46631163 0.3529902 0.48008662 0.23351695 0.51670295 0.20893575 0.39033574 0.14624128 0.45626172 0.7799513 -0.48031488 0.14836587 -0.08458727 -0.42858988 -0.052816212 -0.25061998 0.049001835 0.11704227 0.19259629 -0.6690803 0.6942379 0.08977274 0.025835037 0.12324744 -0.7873829 0.821422 0.20687583 -0.6540821 -0.4206139 -0.0010945767 -0.12876584 0.37376148 0.32287326 -0.10009388 -0.46505702 -0.02372517 -0.1918699 0.75186163 0.4464507 -0.027373826 -1.0324309 0.2594031 0.066042446 0.06213617 -0.042884346 -0.43582082
show 0.000491889 -0.08060817 -0.15071262 0.062165633 -0.29053375 -0.15694007 0.1582479 -0.20877993 0.2811605 0.29643577 -0.058224507 0.5252836 0.04697602 -0.06267548 0.07967857 0.5400431 -0.14712414 -0.15319724 0.72776514 -0.2494994 0.07568218 0.27716848 -0.2031062 0.22670549 -0.24628761 -0.27868953 -0.14242506 0.27920482 -0.12067146 -0.14709114 -0.5046212 -0.09581603 0.58712727 0.30271894 -0.03684137 0.4941172 0.20557158 0.099569015 0.26289934 -0.09384008 -0.040207513 -0.12763268 0.0037683218 0.30834666 0.19698034 -0.03922105 0.12180844 0.12008401 -0.8976549 -0.37940377 0.26563627 0.19057997 -0.17055207 -0.009219182 0.16694948 -0.4967861 0.58450013 0.40417495 -0.43664667 -0.026584404 -0.024200292 0.070818074 0.050199915 0.41574326
anhydrite 0.62661964 0.12555544 0.075087704 0.012470223 -0.17513897 0.21136834 -0.009022855 0.15942363 0.18761209 0.30358332 -0.30276328 -0.6070022 -0.23835187 -0.25566873 0.51926416 0.13191266 -0.48339888 -0.4614977 0.2568359 0.07689941 -0.11787303 -0.0404612 -0.18446344 0.051053315 -0.30162683 -0.3570855 -0.23323719 0.24838434 0.17535785 -0.67430574 0.40594918 0.090964705 -0.010576169 0.2687578 -0.43059352 0.09943076 -0.0011771108 0.49502575 -0.12489837 0.037748396 0.17078988 -0.6531796 -0.9210968 0.03546343 -0.44107392 -0.07418896 0.2801453 -0.47013825 0.42592096 -0.24845748 0.008041675 -0.3258978 0.32798856 -0.17948134 0.4480491 0.025641402 0.9687771 -0.047381572 -0.535929 -0.17344677 0.20027867 -0.032027256 -0.19359533 -0.47757167
: 0.42990658 -0.3100803 -0.37290308 0.295125 -0.46121478 0.23486708 -0.035787757 0.13179831 0.2691289 0.15587151 -0.24042991 0.1685365 -0.02343083 0.2205507 0.1756538 0.8060687 0.018036168 0.21488051 0.007979418 0.15409873 0.24247989 0.34136048 0.44793314 0.26025638 0.21556748 -0.21052234 0.22740206 0.3572232 0.09987555 0.08800553 -0.154893 -0.011411699 0.66458243 0.4007938 0.9319875 0.047383416 -0.053642213 0.083151855 0.028014947 -0.02674998 0.343841 -0.23073551 -0.81522864 -0.070487924 -0.06407754 -0.25322932 0.073052876 0.06470821 -0.33729115 0.13011801 0.52064794 0.4162498 0.1307084 -0.1509704 -0.57721925 0.1894866 0.18495984 -0.24419393 0.7445875 -0.59667104 -0.29645902 0.24277441 -0.029494546 0.09811366
suggest 0.21451151 -0.41022164 -0.029468382 0.16465096 -0.5632303 -0.18474282 -0.0058117807 0.19867948 0.020990832 -0.28580776 -0.16215454 0.027702054 -0.1551635 -0.53259665 -0.2668106 0.31148288 -0.32090825 0.06647732 0.2477141 0.46180373 -0.112351604 0.16272074 0.14914094 -0.20237964 -0.07372947 -0.45595923 0.18212724 -0.14368977 -0.0850431 0.68155026 -0.89474285 0.5055805 -0.09858277 0.22753371 0.045980744 0.44831693 0.071435645 -0.43250126 0.42979547 0.090161175 -0.48960632 -0.35739526 0.08581328 0.20939603 -0.31281987 -0.18393955 0.24313441 0.044931535 -0.17692327 0.76169544 0.15524101 0.62490374 -0.22228242 0.16291526 0.32584068 -0.00921733 0.41048253 0.4945795 -0.20208746 0.18397668 -0.10822234 -0.5869994 0.069837816 0.102307394
- 0.37177762 -0.34762794 0.118873686 0.13420689 -0.11838809 -0.12851311 0.0057097822 -0.23141979 0.44903666 0.0035184182 -0.23271403 -0.39736012 -0.35257465 0.029385407 0.06759978 -0.036850106 -0.015353493 0.37644058 0.035568707 -0.2930265 0.05214065 0.050138608 0.5513036 -0.34687793 0.31617203 0.083874 -0.115854606 0.22288221 0.071614034 -0.76326287 0.531817 0.82855624 -0.26775223 -0.10237768 0.34234583 0.99676436 -0.06876326 0.93376774 0.055806205 -0.08349255 -0.07925713 -0.7213551 -0.1199203 0.71045583 -0.15991095 0.00040464793 0.05304453 0.048690274 -0.32309055 -0.22894791 -0.0041545657 0.05092762 0.5847087 0.30402848 0.36713898 -0.049392175 0.24363811 0.3418007 0.033692785 -0.029803878 0.5570175 -0.27368352 0.19099054 -0.18661264
2002 -0.14728355 0.22745067 -0.011736826 -0.45199263 -0.13074979 0.3894009 -0.5603543 -0.12362726 0.6298836 0.09256043 -0.57832766 -0.31051412 -0.3108483 -0.015118852 0.94484645 -0.13094102 0.3795477 -0.44211942 0.41792473 0.4806232 -0.031203728 0.26429784 0.40765327 0.007877401 -0.104578845 0.34471714 -0.37302515 -0.07753419 0.28008813 0.2227508 0.43289083 -0.41905752 0.01585615 0.5129874 0.45705044 0.20026071 -0.090945296 -0.14972147 0.4867866 0.08863836 -0.6369767 -1.0372432 -1.1590738 0.28265792 -0.47790238 -0.2690629 0.57003844 -0.21300721 0.004408853 -0.10079213 -0.43097422 -0.8866221 0.2630098 -0.2103329 -0.2383022 0.07212001 -0.19539428 0.27714378 0.37129265 -0.008602623 0.41686878 -0.09488319 -0.3278177 0.37695637
40ar/39ar 0.51603866 -0.89828235 0.3234739 -0.6571946 -0.17459178 -0.28562996 -0.28910977 -0.31868628 0.21956284 -0.58014643 -0.021871656 -0.089729354 -0.12634428 0.20047224 -0.46673384 -0.36413214 -0.1700243 -0.7698906 0.79738355 0.94310194 0.9197108 0.4152656 0.19951952 -0.25677633 -0.31141987 0.027794588 0.15776065 -0.08653687 0.25778022 -0.2100148 -0.78464895 0.3251802 0.2912097 -0.11843 0.017987851 0.47270808 0.19748335 -0.100936085 -0.1702857 0.20812073 0.460124 -0.39824352 -0.28609723 0.18574077 -0.130848 -0.8314878 -0.3246042 0.19445468 -0.4189154 0.0065202373 0.21332854 0.6420541 0.12735353 -0.24263182 0.49939746 -0.43789735 0.14460182 0.21024804 0.12083783 -0.2599984 0.33552635 0.19567595 1.2729537 0.27701756
~ 0.40676853 -0.5457913 0.19689637 -0.5811062 -0.34491092 -0.67942286 -0.08155187 0.0098204445 0.12426272 -0.72185004 -0.03223621 -0.40274245 -0.11151296 0.08999171 -0.51353484 -0.113260396 -0.3149968 -0.078590415 -0.2336919 0.4280253 0.4299803 -0.25559306 0.7487964 0.2104216 -0.23200566 -0.124658726 -0.00058343215 -0.11267383 -0.2630812 0.033330664 -0.7565292 0.18652736 -0.59726334 0.5227017 0.19580896 0.4961758 -0.53359604 0.061494604 -0.21878555 -0.21822004 0.4216 -0.50673074 -0.53799653 0.31901944 0.024760168 -0.41250744 0.17976065 0.065084435 -0.13393474 -0.08002578 -0.30055958 0.24198347 -0.40323922 -0.38359174 0.5957534 -0.040416576 -0.027394943 0.18892524 -0.333113 0.2872243 0.14964122 0.32076997 0.55089587 0.1945961
within 0.2865194 -0.069106266 0.0028815453 -0.1504062 -0.262693 0.027622856 -0.6327849 -0.093003005 0.17087081 -0.57579345 -0.12832204 0.18256776 -0.8388812 -0.43112054 -0.06404078 0.05897337 -0.036245972 -0.11816459 0.16827229 0.06302354 0.16454315 -0.2572077 0.11180244 -0.50064063 -0.5802268 -0.18503787 -0.1214953 -0.2425757 0.25294632 -0.00094990834 -0.5073467 0.05219391 -0.12710439 0.5856511 0.090966634 -0.24677034 -0.048006423 -0.3577801 -0.42165253 -0.32287633 -0.42243245 -0.31631345 -0.10437776 -0.2481087 -0.051434778 5.8887126e-05 0.21561047 0.11718432 -0.57214177 0.16093841 -0.5082033 0.1100533 -0.32102183 -0.39492732 0.6685289 0.2958068 0.32131052 -0.16816667 -0.6532749 -0.4792812 -0.97936094 0.7534893 0.15252212 -0.033957694
also -1.0537697 -0.027845152 -0.24252966 0.5696135 -0.25010923 -0.34047973 0.18383351 0.092037655 0.25461325 -0.10162817 -0.22223955 0.025605487 0.2716562 -0.34574893 0.51885974 -0.06526447 -0.20425661 -0.11332417 0.2109387 -0.19107133 0.07962837 -0.12261875 -0.31545937 0.19663464 -0.2003516 -0.2567158 0.60187453 -0.13530605 0.041155204 -0.053674825 0.17939134 0.38227436 -0.17762832 0.492466 -0.24184291 -0.14660315 -0.25434244 -0.34980443 0.16594526 0.489917 0.51194733 0.3368646 -0.32234794 -0.053135436 0.19765669 -0.1720299 0.13932446 0.24381363 -0.2122872 -0.10800941 0.22368921 0.12382639 -0.21263877 -0.31264064 0.784582 -0.09637077 -0.1016499 -0.11572929 0.18905832 -0.48862597 -0.17075378 0.57273513 0.69919235 -0.2923106
indicate 0.11696981 0.44135407 0.18946458 0.24630232 0.008410333 -0.15877701 -0.015568215 0.6553449 -0.09090066 0.15098788 0.34812433 0.34814224 -0.7798521 -0.21146226 0.20504548 0.15581326 0.08284265 0.10347235 -0.4344249 0.1830883 0.09713641 -0.43046406 0.070887394 -0.432452 -0.43091944 -0.2082138 0.1405913 -0.21132602 -0.2091245 0.24073575 -0.2728321 -0.1410219 -0.37168264 0.4149239 -0.11369095 0.1712848 -0.37148333 -0.69075376 0.20405382 0.23337147 0.018459704 -0.10297563 -0.6715738 0.38096392 -0.40285107 0.10136828 0.6686613 -0.04668638 -0.291269 -0.11925047 0.24554963 -0.13213222 0.1523817 -0.33039108 0.34755877 -0.24855956 0.19770035 -0.69502056 0.42886147 -0.112442724 0.18621583 0.14966843 0.16171558 -0.8011031
isotope -0.04770069 -0.38300505 0.29651368 -0.2176952 -0.3973009 -0.57168466 -0.48991996 -0.3418378 -0.51126903 0.12376103 -0.14933814 -0.21384293 0.43937725 -0.18955237 0.012124002 -0.059631594 -0.36852092 -0.50919425 0.5463409 0.6536315 0.12867624 0.523716 -0.08470799 -0.2303638 0.4587049 -0.5045053 0.024300672 -0.38143817 -0.40874118 0.3304922 -0.500216 0.33450958 -0.6423191 0.5936909 0.8642617 0.56006485 -0.02470353 0.06585504 0.027723586 -0.09472144 0.44228685 -0.5705279 0.01821222 0.681092 -0.08153625 0.43627524 -0.39009887 -0.18073678 -0.009980588 -0.3098279 0.16960818 0.6479617 -0.37378743 -0.24558546 0.32301772 -0.40717825 -0.0936465 0.11745804 -0.31801736 -0.096475594 0.515735 -0.5723338 0.54671633 0.38235146
locally -0.07182402 0.30794016 -0.5542389 -0.65519273 -0.69822395 0.11872842 -0.30650124 0.0032372212 0.46003896 0.042539343 -0.28509045 -0.3969506 -0.14034306 -0.08363927 0.15772533 -0.16904047 -0.45079088 -0.43173614 0.5179692 -0.089661576 0.039706748 -0.16499503 -0.1529314 0.18159087 0.026771525 -0.61781996 -0.025004877 0.20046784 0.06255365 -0.12740584 0.20800787 0.5047084 -0.3453998 0.32326925 0.13300115 -0.2660756 0.04363284 0.010395525 -0.12457373 0.73463666 0.044801824 0.1009768 -0.45682555 -0.065647945 -0.06121544 -0.07618988 0.1868583 0.31289575 0.132449 -0.5939291 -0.013331988 -0.06689259 -0.3028169 0.27069885 0.28379372 0.4235757 0.6829982 0.12469168 -0.21777065 -0.59088284 0.036980964 -0.05571148 -0.25709683 0.15280081
present -0.10462858 0.32756823 -0.2535673 0.41603023 0.039570257 -0.11706015 -0.5745579 0.5441309 0.513306 -0.33710012 -0.028692218 -0.025871005 -0.07260192 -0.44345257 0.30424967 0.1854596 -0.37819925 0.09146533 -0.19986214 -0.1108606 0.12105576 0.33128923 0.14201045 0.48663384 0.043594744 -0.5311783 0.25230518 -0.3481625 -0.31537995 0.13140576 0.14891213 0.15658493 0.2740037 -0.14188564 -0.2591098 -0.08172597 -0.45302224 -0.20807114 -0.09099197 0.38229036 0.20843491 -0.3263344 -1.1188521 -0.4299903 -0.07914111 -0.3143557 0.18846923 0.4933995 -0.6355559 0.23786467 0.09599537 0.0368508 0.13244157 -0.2860718 -0.3728956 0.46851125 -0.38170868 -0.031880777 0.08986371 -0.4784476 -0.34330493 0.7691045 0.5095046 0.5686555
abundant 0.40277866 0.7868262 -0.7002827 0.3617288 -0.099625014 0.24735002 -0.4660967 0.6336696 0.38634753 -0.023345502 -0.23231328 -0.060698755 0.3646293 -0.44725245 0.060886666 0.42412138 -0.1261266 0.12159108 0.17815407 -0.32885522 0.21819858 0.66691303 0.35593197 -0.39997593 -0.18951741 -0.4877342 0.18044887 0.18943751 0.1936969 -0.40656394 0.49258766 0.4705227 0.28354794 0.14262013 0.26445386 0.2139276 0.17435893 0.3830802 0.53545314 0.5737937 0.28516093 -0.84328026 0.041151017 -0.41678178 0.6285191 -0.71189535 0.25945747 0.13926646 -0.09150996 -0.20538877 0.34028077 -0.8602309 -0.16232936 0.28893423 0.11548278 -0.055974834 0.26902196 0.28526387 -0.3071108 -0.36617458 0.5003317 0.37981758 0.44368032 0.2642034
potassic -0.030395998 0.25471178 0.021054367 -0.09419483 0.028314438 -0.40698373 0.3559487 -0.58583134 0.3230766 -1.0781915 0.23936884 -0.1313343 -0.3070193 -0.45203242 0.39599347 0.0753806 -0.1428913 -0.4073141 0.34703586 -0.20182703 0.25825542 -0.511973 -0.922442 -0.15661325 -0.58282185 0.06000399 0.34965667 0.23059513 0.46160215 -0.80233896 -0.54101175 0.54018617 0.015704418 0.51088756 0.118668385 0.33376762 -0.6063358 0.0050690197 0.13553591 -0.0012938296 0.4359463 -0.41285276 -0.35551715 -0.13868836 -0.03185094 -0.53783005 0.4103942 0.23507372 0.080359116 0.3481705 -0.040844202 0.46540242 0.021360375 0.13646586 0.11194906 0.3139461 0.5799914 0.077170335 -0.52925444 -0.55485576 -0.48973435 0.5225454 0.5622062 0.5626917
casino -0.24907595 -0.4266602 -0.017476605 -0.71600324 0.43965188 -0.8566201 -0.09842486 -0.22675677 0.24581113 -0.8875289 -0.06953302 -0.50816345 -0.15734743 0.77229416 -0.2884392 -0.36213046 -0.33343947 -0.5452858 0.5104258 0.6516445 0.4744072 -0.22526006 -0.07634653 -0.21466684 -0.16429527 0.369264 0.47904104 0.42556238 -0.01184864 -0.30199322 -0.6890136 0.10189336 0.46869624 0.25196025 -0.23532887 -0.14988683 0.022915803 -0.069577 0.0470165 -0.109310694 0.19346747 -0.69484854 -0.94978255 0.057757102 -0.3785248 -0.51820606 0.25527707 -0.15943795 -0.7145731 0.71423787 -0.15570165 0.4028237 0.23966172 -0.44844 0.44836324 -0.04868662 -0.07124563 0.053793244 -0.31842473 -0.21741708 0.54837996 0.3719402 0.68805397 0.10176024
form 0.06552245 0.10229298 -0.56399935 0.42466286 -0.12007078 0.45221028 -0.10413675 0.5641869 0.24324664 0.21968234 -0.31006375 -0.3434184 -0.52546775 -0.4968015 -0.4657477 -0.048625384 -0.45701256 0.10030777 0.11742172 0.019697532 -0.40528265 -0.29354414 0.50491595 -0.080722325 0.08879965 0.29269558 0.06697062 -0.5044134 0.41180423 0.38001862 -0.29066435 0.81608194 0.047635026 0.08728298 0.362994 0.4194409 0.071427256 0.019513723 0.21737601 -0.037554145 -0.24533957 -0.30579957 -0.3768154 -0.029294388 -0.09150379 -0.03014144 0.7102643 0.60247827 -0.7048584 0.070702545 -0.039633088 -0.23341846 -0.015130085 0.30521747 0.010938151 -0.027523693 0.0032488187 0.10851203 -0.7108131 -0.21307956 -0.20391785 0.05626768 0.06470813 0.3076377
disseminate -0.21491025 0.5893154 -0.5070311 -0.17133798 0.26665106 -0.19090511 -0.44163173 0.5616105 0.46230224 0.17569904 0.08882609 -0.19571653 0.003771309 -0.07309044 0.09816647 -0.16075577 -0.33570436 -0.37987202 -0.27135003 -0.3221812 0.22145323 0.1402446 -0.5652212 0.24782757 -0.1550011 -0.4406206 0.42488 0.24026793 -0.6524422 0.3461683 -0.01516371 0.27523336 -0.21070343 0.21855888 0.058314856 0.19617689 -0.2563377 -0.13435505 0.45304754 -0.5417991 0.15199624 -0.026912881 -0.58809847 0.29111692 0.49153134 0.041933537 -0.08040432 0.7628979 0.032054797 -0.31541297 -0.084515534 0.33759406 -0.12280692 -0.17176537 0.95732504 0.6847127 0.55491424 0.16959286 -0.0204245 -0.02563162 -0.11793851 -0.37199405 -0.28520292 -0.22332725
assemblage 0.7097151 -0.15393837 -0.4072151 -0.020146761 -0.46403843 -0.16847943 -0.3973091 0.041534007 0.32905963 0.044102103 0.22715169 0.61069965 -0.3498802 -0.48898092 0.07529499 -0.0021649052 -0.6489883 -0.10330722 0.045825284 0.23659182 0.073376186 0.48191822 0.08575139 0.13499446 -0.06153684 0.2082052 0.16236706 -0.1895475 0.299024 0.026589325 0.31380516 -0.21487114 0.34226808 0.8561988 0.17159851 0.11845332 0.45200092 -0.13286282 -0.4083481 -0.30599666 0.4105526 0.080882035 -0.64035785 -0.19328853 0.22826418 0.5257698 0.024803754 0.8179274 0.3516402 0.35290104 0.41926467 -0.045894947 -0.23110159 0.35330158 0.90236807 1.0587468 0.6212289 -0.18796031 -0.13763835 -0.48191857 -0.03193742 -0.021858819 -0.67439353 -0.15280308
wad 0.46881565 -0.4133388 -0.8525845 0.62079185 -0.06929053 -0.41618225 0.0021827517 0.35591063 0.32959822 -0.4015796 0.35687602 -0.35074463 -0.33010036 -0.24840488 0.043417934 0.63353366 -0.16080043 -0.13522992 0.07439154 0.3490396 -0.6400531 0.25770342 0.22427669 0.64530134 0.12569845 -0.6227517 1.3278021 -0.13232374 0.3204703 0.20753019 0.5437075 -0.12882206 0.49448454 0.41136786 -0.32062337 0.30458704 0.17441347 -0.3291465 0.29669476 0.6730209 -0.32533818 -0.3500345 -0.279772 -0.17997518 -0.1867146 -0.3949575 -0.17048013 -0.011851302 -0.711639 -0.33539099 0.016814252 -0.5505609 -0.5652887 -0.028981082 -0.21145795 0.016713912 0.5250047 -0.37389016 0.6813159 -0.58557516 -0.0036770692 0.07017281 0.05447319 0.24162403
include 0.060506076 -0.05848095 0.13194616 0.55657023 0.30133036 0.31834957 -0.07386631 0.2851232 0.1505377 -0.39421108 -0.007300534 -0.5664717 0.3691273 -0.23253782 -0.09996446 -0.62673247 -0.29431218 0.23592895 0.61931247 -0.05955753 0.55602133 0.50026596 -0.20019671 0.10674413 -0.39510766 -0.20553692 -0.23620167 0.3616188 -0.06443609 0.45268124 0.485794 0.24990878 -0.27152166 0.3093937 -0.03428942 -0.22448719 -0.05932516 0.015033921 0.56263936 -0.43554646 -0.033405557 -0.14669141 -0.5119559 0.9780757 0.55847687 -0.39477748 -0.10137964 -0.3604499 0.08776277 0.30486652 1.1316713 0.08246667 -0.52353257 -0.78906727 0.4395569 -0.14741908 0.09986606 -0.201855 -0.11640903 -0.3785927 0.12307184 0.13641107 0.22608878 -0.40587735
phase -0.43103027 0.22888426 -0.15229627 0.3168957 -0.39576924 -0.10284464 -0.2132177 0.08500321 0.34648466 0.17116217 -0.1821166 0.28105018 0.57164013 -0.28654006 0.8092111 -0.2222798 -0.15232575 -0.47814187 1.1904141 0.62392 0.15732804 0.86490875 0.35083756 0.442421 -0.32729566 -0.7414528 0.09355427 -0.13944697 -0.7075266 -0.5037903 0.19356227 -0.12842843 0.4952288 -0.03464527 0.6501907 0.6819853 -0.037623387 0.15580662 0.7832759 0.18331987 0.021549694 0.3877223 -0.6391147 -0.14056484 0.45349744 0.4939305 -0.12634356 0.027134161 -0.5211152 0.01443934 0.045526758 -0.3270599 0.39397153 0.18073234 -0.5563665 0.57223 -0.00454738 -0.36494482 0.17749481 -0.15945607 -0.301358 0.6530673 0.35477677 0.20468505
unit 0.3995029 0.09734377 0.04413383 0.9105377 0.9310204 0.0097790975 -0.7170106 0.45141423 0.40617576 -0.24098337 -0.14279787 -0.16923156 -0.20343168 0.050942827 0.30403706 0.30043918 -0.69110394 -0.0726481 -0.33457503 -0.114366286 -0.38448575 0.16661863 0.35145512 0.21374099 -0.2612732 -0.7500723 1.0672262 0.18784268 0.8234021 -0.028382244 -0.07807386 0.42201298 0.17441551 0.8855959 0.065687425 0.6797293 0.33399713 -0.36417308 0.92226607 0.6711975 0.30917072 -0.5849129 -0.088912144 -0.4592515 -0.08461302 -0.24363266 -0.60347724 -0.053522266 -0.38649735 -0.33918205 0.08344703 -0.20936562 -0.43139786 -0.2696864 -0.33044425 -0.15117638 -0.04964547 0.16162199 0.2666815 -0.33520302 0.11652749 -0.07518966 -0.25652143 0.024539294
study -0.24725772 -0.14062758 0.2707267 0.20561753 -0.5665902 -0.3574366 0.20039959 -0.20059706 -0.34154505 0.17160743 0.1460291 -0.011409596 -1.1245036 -0.20836808 0.3558938 -0.7520649 -0.5878543 -0.104103684 0.64120144 0.35493207 -0.55541295 0.6869734 -0.051777024 0.63436425 0.12321391 -0.25493133 -0.26890188 0.019788256 0.5842013 0.14580241 -0.16273089 -0.17107855 0.04251649 0.81230235 -0.1344025 0.25004357 -0.300111 0.12973846 0.19187048 0.11478734 -0.16963679 0.098227866 0.19319381 0.56332153 0.06296701 -0.17023894 0.21993902 0.47783807 -0.63163936 -0.6474008 0.17464052 0.1586651 0.027187657 0.0033421118 -0.12220776 -0.31785837 -0.15217292 0.34870932 0.5896941 0.099760726 0.6016947 0.60257787 0.8872159 0.14694056
isotopic -0.45733935 -0.014324144 -0.085123576 0.1731054 0.18086381 -0.114566855 0.10157758 -0.09722946 0.01958817 0.18364865 0.42872915 0.64988595 0.0323515 -0.18630722 0.2963848 -0.16052166 -0.4051225 0.6675323 0.7889588 0.17149305 0.47020638 0.35903633 -0.6313972 0.027495427 0.63954604 -0.5376275 0.4421992 -0.03309168 -0.94707566 0.3007632 -0.052768607 0.35505635 -0.48772207 0.35334852 0.6731237 1.0180541 0.25526437 0.098740734 0.32202193 0.043768894 -0.1123755 0.06272592 -0.59638065 0.27539065 0.24762732 0.55461794 0.11412421 -0.09085738 -0.4371812 0.1417444 0.7949571 0.19586831 -0.61627513 -0.606663 0.75808215 -0.028258089 0.29286385 -0.22313523 0.42341164 -0.28647605 0.17479645 -0.057534926 0.17379567 -0.12867138
1998 -0.042379975 -0.64968824 -0.107525714 -0.118667245 -0.49087074 -0.27490503 -0.36564368 0.6633756 0.23786291 -0.6078526 0.11800856 -0.08025888 -0.32066357 0.44383654 -0.09997083 0.20750457 -0.44014737 -0.41917226 -0.18524987 0.26628003 -0.7595558 -0.25657752 0.22218187 0.8064308 0.214495 0.03973723 -0.5917104 -0.3313065 0.14148101 0.16353886 0.09117031 0.12121007 0.6635081 0.87049943 0.026332794 0.29909846 -0.16687165 -0.105201535 -0.34075 -0.12257546 -0.5586402 -0.83610785 -0.3241715 0.97100747 0.65243185 0.2219195 0.08171808 0.45739096 -0.4589452 -0.2592129 0.24214357 -0.2598825 0.07529586 -0.18889225 -0.82158107 -0.048200853 -0.17946157 0.1781785 0.6550133 -0.75029314 0.49585548 -0.08387529 -0.026288716 0.51834387
°c 0.31678545 -0.57932127 0.58611834 -0.503069 -0.68151534 -0.6929064 0.249465 -0.0068964725 0.07010004 -0.15784082 -0.09736183 0.2474986 0.31752735 0.4011577 -0.24897909 0.18567502 -0.5096198 0.103265405 0.1774769 0.20479958 -0.12639077 -0.06533422 0.5996223 0.18270421 -0.042301305 -0.5114948 -0.16909838 -0.061520427 -0.0070587615 0.0043465085 -1.0501672 -0.032300767 -0.4807421 0.23797137 0.36634588 0.62009203 -0.19187182 -0.014095382 0.22207242 0.6309835 0.2790707 -0.66801643 -0.5245312 0.3364276 0.24156828 -0.037872642 0.17828996 0.11342756 -0.1853249 -0.70150054 0.5993876 -0.35336784 -0.026630342 -0.008828995 0.5220226 -0.11215943 -0.16053277 0.06281162 0.27268717 0.40029827 0.27616128 -0.16150597 0.4530052 0.12138377
silicate -0.3590121 -0.07597439 -0.14343002 -0.5715806 -0.2640691 -0.0710179 0.53050673 -0.15007651 -0.019629361 -0.23737457 0.28785408 -0.34879264 -0.34393755 0.2939604 1.049143 -0.3802025 -0.6338824 0.8051971 -0.5551082 0.9514997 0.6357025 0.1488388 0.32319614 0.2064956 -0.6912151 0.4987258 0.3800033 0.687106 -0.24163446 0.1743868 -0.028692404 1.0495385 -0.016020188 -0.17804462 0.41738394 0.32739076 0.0013206296 -0.1964907 -0.031479735 0.6339029 0.8396192 -0.50246286 -0.2705055 0.32943776 -0.08546485 -0.19144483 -0.5501303 0.2660751 -0.5981687 -0.41442186 1.0565183 0.022916367 0.4255676 -0.30089334 0.6124944 0.37478307 0.3581764 -0.5001021 -0.41076404 0.8530902 -0.92299145 0.3469395 0.10179687 -0.10901347
crystal 0.16492814 0.31571943 0.17679915 0.6182267 -0.11580976 -0.20036627 -0.6657489 0.13504796 0.30422598 0.30974758 -0.42379406 -0.31705064 0.18715554 -0.07938726 0.04741687 0.5636972 0.61503595 -0.18673714 0.73148143 0.26140895 0.6261067 -0.0037797822 1.1306444 0.008652552 -0.17198849 0.50959486 -0.66578907 0.03214037 -0.45815888 0.13754399 0.69721663 0.6442825 0.09439936 0.55453175 0.4278637 0.23991702 -0.26051825 0.15827936 -0.38537914 0.11635194 -0.40164888 0.18210936 -0.43134913 0.40461686 -0.10678273 -0.28098735 0.16587818 0.03698641 -0.25735664 -1.3746666 0.081096135 -0.2994073 0.34131652 -0.42078376 -0.46649745 0.55814856 0.5787382 -0.69108 -1.6133766 -0.7156756 0.3643965 0.31631485 0.14998262 0.050615415
– 0.9872655 0.33360723 -0.31338584 -0.07811964 -0.59320164 -0.073005155 -0.13936171 0.39941734 -0.33245674 -0.2481527 -0.70071936 -0.61467403 -0.4456739 -0.13119672 0.35841787 0.51816833 -0.38655993 -0.68458885 -0.15857354 0.23932454 0.39165363 0.8530224 0.0069591333 0.06897682 -0.48031777 0.36139163 -0.89331263 0.35911542 0.533036 -0.8384462 -0.15087864 0.58173513 -0.22632183 -0.08633968 -0.4068217 0.3439409 0.3962617 0.3951958 -0.026750844 0.05230372 -0.34957933 0.17481455 -0.75439346 0.3067856 -0.6036561 -0.15795164 -0.38456437 0.0027215527 0.502637 0.0031197807 0.6866163 -0.44090036 0.082167074 -0.5962248 0.124010235 0.3259306 0.6638803 -0.6330617 0.54065585 -0.11688804 0.5732405 -0.029155297 -0.7371865 -0.56565905
phyllic -0.14443552 -0.21983814 -0.3730317 -0.5557211 -0.6397373 -0.5768737 -0.36724183 0.4303448 -0.06365298 -0.6291343 0.119696185 -0.18645805 0.18299478 0.3670069 0.36996529 0.17435828 -0.47894868 -0.3471301 0.65557396 -0.042681377 0.3347216 -0.820789 0.24389532 -0.07870658 -0.27975821 0.09891228 0.09208722 0.071731746 -0.010619839 -0.38481236 0.106578805 0.18833381 -0.313887 0.3262294 -0.35398746 0.34680027 -0.4104165 0.6496357 0.39809108 -0.320071 -0.19577964 -0.77070284 -0.66931075 -0.10151018 -0.4103081 -0.3177095 0.520259 0.7610312 -0.19990021 1.0929561 -0.23312834 0.9011479 -0.005363388 -0.13639861 1.1329821 -0.19454123 0.18120985 0.3222373 -0.5311024 0.31255332 -0.17643687 0.624226 -0.2470589 -0.24439181
alter 0.28134018 -0.47140455 0.585372 -0.29722363 -0.043420263 -0.2801556 -0.11522288 0.40267193 -0.2617343 0.2887552 -0.44492146 0.22681211 0.11212359 -0.40018916 0.38447943 -0.23572782 -0.4668571 -0.12054562 0.46954384 0.11519288 0.65770483 0.2085482 0.6490584 -0.10067479 -0.26683322 0.48090464 0.04271815 0.41608548 0.15506265 -0.3452864 0.8414826 0.85660547 0.19349693 0.73975265 -0.2986922 0.19416037 0.33197686 0.69487065 0.6285993 0.43072498 0.526582 0.701211 -0.025252903 0.35204622 -0.29719865 -0.5327251 0.46840903 0.65545136 0.24502282 -0.17203063 0.017577207 -0.6588308 -0.5977096 -0.46642604 0.8142002 0.11946526 0.7323072 -0.4101262 0.044524446 -0.040581368 -0.13690405 0.18890968 -0.30826718 -0.08584954
/ -0.22565174 -0.17288496 0.009702883 0.04578264 -0.62686217 -0.74144495 0.010944456 -0.41216424 -0.25293535 0.35020885 -0.26641327 0.055908557 -0.3653582 0.8728221 0.048763387 -0.04429552 -0.45776778 0.3442143 0.3501602 0.38022783 0.12466796 -0.47043458 0.12754183 0.09345742 -0.19147731 -0.82529694 -0.24698035 -0.5601613 0.39370403 -0.48223403 -0.3686104 -0.61988974 0.4619829 0.5528166 -0.13064693 0.077363245 0.17845349 0.33950448 1.3531209 -0.26940665 0.79617107 -0.5249036 0.31940624 0.44149032 -0.45630062 -0.29623556 -0.20477095 0.13915001 -0.6423535 -0.33084777 0.39855558 -0.73965967 0.08286841 -0.86526597 0.047684528 0.34050226 0.015539709 -0.5730011 0.24491441 -0.90321505 0.28119826 0.1235565 0.38962692 -0.49882388
upper 0.8586793 -0.3078329 -0.38484943 0.92351747 0.36311108 -0.26403698 -0.7107037 0.56345195 0.35076204 -0.48908615 -0.15913323 -0.13034528 0.0097906655 -0.080674395 0.11173832 0.60212076 -0.10559929 -0.015933836 -0.46230423 -0.15352628 -0.38706303 0.4795388 0.11496098 0.4563033 -0.049784902 -0.38348684 1.0592649 0.17624962 0.42930585 0.042618822 0.3000337 0.1432276 0.39901716 0.6591631 -0.15852296 0.5642419 0.050402287 0.007693342 0.6734194 0.65918994 -0.23757823 -0.90647465 -0.08855539 -0.40621594 -0.1533041 0.13930297 -0.56450903 -0.012667697 -0.42999434 -0.47782186 0.24584524 -0.083826795 -0.7790337 0.0054844855 -0.28051424 0.19563593 0.26033092 0.13012034 0.24427031 -0.51766855 0.04130965 0.20257756 -0.21335937 0.13066892
5 0.49026656 0.06320553 0.48812494 -0.35960692 -0.3824087 -0.73053145 -0.8304602 0.2961526 -0.01683611 0.38355327 0.019538758 -0.56345665 -0.6156847 -0.255439 0.33497173 0.025435975 0.08675945 -0.5127968 0.09622167 0.5338705 -0.024359351 0.4249102 1.0246553 0.3973969 0.2858618 -0.7154657 -0.46391153 0.89402086 -0.17148067 -0.5627297 0.0409187 0.121691085 -0.11693879 -0.03396597 -0.52162725 0.06769001 -0.20347452 0.65185106 0.15131737 0.27902937 0.18994108 -0.061270315 -0.8960514 0.11549777 -0.24568284 0.2577575 0.15145952 0.531467 0.17983687 0.14173333 0.0054558357 -0.46038678 -0.7642369 0.31009823 -0.42348042 0.1337571 -0.4940403 -0.4150856 0.3177593 -0.44896463 0.370371 0.048004147 -0.33774865 -0.4035978
value -0.16515666 -0.1549845 0.12482049 0.14314188 0.39103252 -0.44502032 -0.6565625 0.045565233 -0.7024864 -0.27871612 0.2611266 0.25319675 -0.065971725 -0.3040536 0.7702951 0.9847236 -0.06551769 -0.48348343 -0.38334253 0.16414914 -0.16703543 -0.93043953 -0.45408106 -0.3433248 0.4576004 -0.75179523 0.35783422 -0.3793831 -0.34211674 0.22509775 0.35773265 0.6159933 -0.8151158 0.7959489 0.45566878 0.80749965 0.2867403 -0.38194734 0.79996306 -0.25220573 -0.29853904 -0.07682458 -0.75537217 0.53207684 -0.32522658 0.34872502 0.3544609 -0.3972806 -0.5548428 -0.47779915 0.16789165 0.23019432 -0.48211798 -0.75926083 -0.27050772 0.3960202 0.8802326 0.38210312 -0.11854227 0.7865399 0.5873586 -0.26272744 -0.5174297 0.14989676
two -0.22741008 -0.022080082 -0.47076422 0.07857119 0.24875395 -0.21829033 -0.60076374 -0.25835526 0.23196197 0.189727 0.14107826 -0.12696756 0.10405263 -0.28259113 0.47972065 0.096647106 0.20149934 -0.1806832 -0.02400908 -0.19770706 0.29340398 0.15123698 0.59091413 0.3981716 0.1631285 0.29039547 0.05745591 -0.48143393 -0.8266405 -0.1170001 -0.53099966 0.1379024 -0.052294053 0.30835512 0.6925167 0.6153149 -0.04812151 0.17198497 0.80911696 -0.43663868 -0.29629803 -0.50994635 -0.5178325 0.47331715 0.1992849 0.46806934 0.48156774 -0.14366356 -0.6430203 0.30119303 -0.08602955 0.5248363 -0.041732114 -0.14798637 0.062926695 0.31904835 0.26560983 0.0912027 -0.17154825 0.14218949 -1.0536835 -0.054088295 -0.35655573 0.14744523
mainly 0.02133405 0.07408266 -0.23533212 0.80342174 0.99730194 -0.1071583 -0.19758537 0.024025565 0.7244351 -0.5305532 -0.11491555 0.055574987 -0.31629667 -0.1262068 0.5686361 -0.0329373 -0.334393 0.213881 0.18950893 0.37401074 -0.3170229 0.38409653 -0.41378337 0.82302964 -0.42596862 -0.827596 0.6708746 0.38323048 0.55124366 -0.5548869 0.59858966 0.6614514 -0.059874717 0.43838093 -0.24065894 0.4735848 0.5373766 -0.0040238486 -0.41769394 0.34523225 0.06433045 0.17385323 0.09384324 0.36822802 -0.5362776 -0.6456759 0.37247625 -0.23066612 0.3928396 0.27606875 0.5348643 0.044957038 -0.2017117 0.22486652 0.4647723 0.3952317 1.1330855 0.18139741 0.34850177 -0.47636294 0.2508618 -0.10371958 0.15309368 0.28476015
control 0.44567788 -0.091133334 0.15117806 0.3745489 -0.68958116 -0.8950595 -0.7613472 -0.4552996 0.21947552 -0.04850767 0.17226003 0.0006009777 -0.03399762 -0.3880229 -0.008501476 -0.5098325 0.21339606 -0.4022404 0.17540284 0.5453932 -0.70847464 0.19297662 -0.1168239 0.3834167 -0.13135596 -0.3918021 0.13211691 0.29389614 -0.7143835 0.6268389 0.02235588 0.5204209 -0.24680376 0.11394838 0.05996666 0.46533492 0.28043362 -0.21704711 -0.20304699 0.47417772 -0.08971993 0.014367192 0.2842707 -0.041872606 0.40788734 -0.11854603 0.7048856 0.63676554 -0.13223438 0.49033916 1.1373024 0.2948768 -0.8232853 0.14196919 0.032505758 -0.673645 0.46694294 0.61647063 0.41627702 -0.28154275 0.65848184 0.0026220235 -0.05171124 -0.49717075
concentration 0.935263 0.40831587 0.20076527 -0.0018284875 0.17141737 -0.31093007 -0.33795497 0.07162271 -0.029785722 0.51263064 0.92438453 -0.2714785 -0.22238205 -1.3837844 -0.09669863 0.66462266 0.0884012 -0.40467685 -0.19016457 0.6946906 -0.53304774 0.45297253 -0.5419785 0.14213271 0.3665848 0.20359181 0.78936285 0.17639476 -0.6984538 -0.36419672 -0.50312525 0.5386386 0.21023788 1.0887407 -0.18423514 -0.17446876 -0.7171581 -0.15340205 0.42951953 -0.60905135 0.47446877 -0.23577929 -0.046247896 -0.6330939 -0.060819004 0.22907376 0.15515348 0.2798414 -0.20305619 -0.1817944 0.7653884 -0.42059875 0.34325242 -0.30510727 0.3981778 -0.719856 -0.07859378 -0.45409638 -0.4127948 -0.30920684 0.5977536 0.086713396 0.73130965 -0.1675694
amount 1.0438095 0.59258205 -0.5903833 0.6560239 1.0121729 -0.4975003 -0.23809576 0.5169017 0.14743347 0.003244006 -0.15395471 0.6527406 -0.18014665 -0.7678153 0.3296706 0.026096085 -0.20878112 0.34604695 -0.50345093 -0.53030556 0.43547183 0.74690485 -0.19651198 0.7387546 0.20459726 -0.44846696 0.3105358 -0.16532725 0.38979703 0.07503926 0.34931925 0.3560544 0.13558377 0.65060407 -0.026836496 0.5140938 -0.35758826 0.33296946 -0.29968616 0.23998128 0.3092773 0.14972456 -0.5388081 0.19929554 0.36913162 -0.36523768 0.09823599 -0.1527857 -0.007198639 -0.065564655 0.65952474 -0.4601154 0.035251416 0.13373162 0.38249335 0.28636444 0.8560498 0.18076053 -0.48053536 -0.0013375737 0.40648678 -0.6551627 0.40252772 -0.19954838
yield 0.32354197 -0.19668886 0.2210617 -0.5408771 -0.15773667 -0.03071635 -0.060167633 -0.24266443 0.1314606 -1.0175372 -0.03720912 0.07275982 1.1125008 0.2892184 0.504656 -0.32386908 -0.69542605 -0.92439127 -0.5500111 0.64206403 0.25159094 -0.32909027 0.36488482 0.3091424 0.47146532 0.30887476 0.28672433 0.31671405 0.23374668 0.096376486 -0.35002312 0.40171337 -0.12527037 0.58228976 0.08111369 0.4965816 0.148733 0.27699518 0.2527117 -0.21509096 -0.3570443 -0.9527578 -0.4596984 0.15776613 -0.26667368 -0.43792158 0.21337524 0.26456672 -0.41963446 0.13142851 -0.39278743 0.2526001 0.75474495 -0.29639515 0.6888144 0.23141801 -0.8088816 0.12684307 0.25747615 -0.17807974 0.11793675 -0.38940147 1.3675166 0.33053693
grade -0.055992063 -0.18595421 -0.38005927 0.014712158 0.22722779 0.013816045 -0.39476034 -0.0011547948 0.40132987 0.10770193 0.33467603 -0.4432066 -0.26686338 -0.46756032 0.039770767 -0.4495557 0.13178797 -0.7498938 0.007781105 0.017392594 -0.3588747 0.13461778 0.09092705 0.27689305 0.16115102 -0.15058292 0.34228575 0.5123821 0.32132888 0.080134675 -0.15216598 -0.2796229 -0.80942625 0.07496329 -0.11819804 0.043187276 1.2809274 -0.33313325 0.31837988 0.45195326 -0.17702664 -0.20431809 -0.41184005 0.27135468 0.30781883 -0.3063868 0.21714222 0.5161272 -0.56427115 -0.5792321 0.08317333 -0.81330717 -0.74862546 0.67029834 0.9512896 0.40556595 0.598012 0.025144009 -0.43004715 -0.029874546 -0.28947127 0.02242387 -0.5355953 -0.17491892
percent 0.1527099 0.025636459 0.1090956 -0.21649162 0.016739734 -0.46784046 0.09079237 -0.13712168 0.5948248 -0.30692232 0.55545694 -0.09366564 0.033008277 -0.15587236 -0.25582063 0.8543233 -0.32530925 0.19460745 -0.12517962 0.4500471 -0.46715423 0.34062093 0.07114547 0.7133493 -0.33404 0.31057343 -0.02555138 -0.08570473 0.16010077 -0.41912234 0.024899377 -0.44861743 -0.25629964 -0.0051007094 0.4640167 0.16693248 0.1537367 0.82047576 -0.09765983 -0.21329702 -0.16187803 -0.36462888 -0.92832917 -0.29956976 -0.09719189 -1.2333689 0.15163392 1.090719 -0.675056 0.5087303 0.23882431 -0.8370107 -0.57780135 -0.43974853 0.28157434 0.38134462 -0.38262475 0.035963535 -0.20322311 -0.13190551 0.3600404 -0.64567006 -0.33629468 -0.6006917
similar 0.22822255 -0.29060435 0.7994171 -0.28723764 -0.24054714 0.0497003 -0.22375101 0.16890912 -0.37653175 -0.0054418617 0.056259856 -0.38513684 -0.18080305 0.6416138 0.93351054 0.9291055 -0.49098483 0.024130678 0.13040246 0.13242425 0.26477364 -0.19087857 -0.070694305 -0.5072997 0.06867432 -0.28767318 0.10362354 -0.19939512 -0.51117706 -0.05617273 -0.16143087 0.6570427 0.24046247 0.89117545 0.5834035 -0.08193897 -0.08439543 -0.2662455 0.7382937 -0.38069734 -0.0067904643 0.30275455 0.007371678 -0.04981734 0.5062705 0.2317208 -0.18201806 -0.29968256 -0.06119785 0.68421674 0.4988213 -0.65348655 0.3247069 -0.47976658 -0.16001493 0.005610507 0.35117516 0.72048426 -0.5406729 0.20760888 -0.03718108 0.5274588 0.38686967 -0.53249234
distribution 0.655873 -0.21544062 0.25378907 0.14404652 -0.10376799 0.339205 -0.50762564 -0.09051103 0.260663 0.29760063 -0.35681656 -0.1881831 -0.6730453 0.38249925 0.53119576 0.62978685 -0.5308902 -0.21200648 0.44111228 0.06738089 0.10104825 -0.68816984 0.09746062 0.15561691 0.33862847 -0.7599186 0.896506 -0.17432858 0.08087012 -0.15638387 -0.2522862 0.3209437 0.88346064 0.25539798 0.33482072 -0.026524441 0.24574077 -0.22654913 0.35994044 -0.19355191 0.08188591 -0.27057505 0.42660138 -0.23483486 -0.59317994 0.026146615 0.51768464 0.10559996 -0.9568643 0.33715194 0.3577542 -0.008119326 -0.09795583 -0.06962441 -0.49856728 0.5437589 0.6104408 0.78074986 0.3012224 -0.6398712 -0.01039132 -0.019638142 -0.01693976 -0.4526989
young 0.0478166 -0.3418825 0.14935768 -0.31622517 -0.21596056 -0.18412143 -0.4629657 -0.073405504 0.65923405 -0.78403324 -0.066992804 -0.26937717 0.2672298 0.2525051 -0.13938548 0.5607248 -0.20194787 -0.66434425 0.2401478 0.80684596 0.7955364 -0.44222626 0.2517624 0.14571567 -0.12783103 0.5048677 0.35634133 -0.16726618 -0.056624427 -0.53217924 -0.11805291 -0.10613249 0.27072227 -0.060048103 0.34103727 -0.043052725 0.044624828 0.566401 -0.37236324 0.11742312 -0.30801225 -0.5409956 -0.30358765 0.16913228 0.39422262 -0.21511704 0.11466852 -0.3131212 -0.7173294 0.30297413 -0.4251707 0.37333035 -0.4679822 0.038116157 0.74576277 0.046726882 -0.15034866 0.22732902 -0.014086948 -0.5281093 0.003386462 0.4088667 1.2654682 -0.94455224
gold 0.5842572 -0.28890896 -0.7296304 0.9312671 0.016230552 -0.83102477 -0.40940073 -0.07233579 0.19005919 -0.56985307 -0.8496241 0.18091242 -0.033393648 0.091740124 0.3421879 -0.95720744 0.00969937 -0.12254399 -0.03660534 -0.3666129 0.24716003 0.83340716 -0.024524547 -0.33267117 -0.687122 -0.3385031 0.25021395 0.36544153 0.72952116 -0.12774561 -0.19571455 0.3524338 -0.25581852 0.5247193 0.74008656 -0.5749898 -0.28954694 -0.5535481 -0.032948572 0.08706972 -0.018746264 0.25796053 -0.1176234 0.5925141 0.098060094 -0.102439016 0.453449 0.6541264 -0.43135646 -0.2486401 -0.028519308 -0.18880408 0.33185875 -0.6836863 1.2502525 -0.05956888 0.73511904 -0.5078645 0.45097643 -0.14714119 -1.4326236 -0.07385502 -0.13229644 -0.098474525
main 1.0124637 0.03893872 -0.11188753 0.19290219 -0.5339314 0.14116909 0.102038205 0.5295328 -0.060574464 -0.51826537 0.025194222 0.34502235 -0.08562921 -0.20307268 0.5251453 -0.021138329 -0.41327065 -0.6714262 -0.15613395 0.14524183 0.14016485 0.8827412 -0.14211844 -0.50768703 -0.17827499 -0.8976532 0.22589916 -0.4281536 0.09650578 -0.27275625 0.18801811 0.1360289 -1.0798243 0.6513577 0.3115865 0.15916936 0.05225012 -0.5435389 -0.11456906 -0.5591236 -0.4292536 0.6032907 -0.059615083 -0.12208863 -0.10687343 -0.53776956 -0.08839847 0.1982923 0.112928666 -0.3972403 0.0927028 -0.2872933 0.5425621 -0.6326584 -0.32638016 0.85274845 0.569116 -0.05162333 0.10254293 0.16840954 -0.22007324 -0.102726236 0.11795515 0.30441424
wall 0.3752186 -0.10717399 0.83496577 0.49297714 -0.35709855 -0.30090955 -0.16510524 0.04197816 0.011679323 -0.3810975 -0.75840205 -0.35068032 -0.044344433 0.088529415 0.14634848 -0.5871313 0.19325922 -0.0437586 -0.031608064 0.051409837 0.3669477 -0.36382273 0.48902097 -0.21545325 -0.39390662 -0.33738288 0.7810033 0.4558408 -0.37973988 -0.65418655 0.4957368 0.15238723 -0.0053616646 0.18913697 -0.5323406 0.54738104 -0.49139234 0.50117993 -0.17159715 0.44324586 -0.23738703 -0.3472325 -0.29183388 0.777746 -0.089484006 -0.31604406 -0.024452379 0.57548124 0.008366734 0.25712258 0.20727913 -0.8624748 -0.10252387 0.066645145 0.36428756 -0.43451458 0.39900702 0.5444097 -0.25728643 0.01926448 -0.35356608 -0.14927596 -0.49219063 -0.792272
zircon -0.39096573 -0.1662099 0.22200927 0.073363975 -0.34576258 0.7575719 -0.86521786 -0.21858507 0.07975482 -0.56132025 -0.13476108 0.53261685 -0.10123699 -0.48452675 0.89741766 -0.07939767 -0.6433788 -0.5414514 -0.18686228 0.7558847 -0.02268831 0.13763341 0.5599454 1.0641891 -0.4588054 0.4089693 -0.28614664 -0.34546822 0.0019218172 0.1105577 -0.22755948 -0.29720506 0.3064097 0.39805266 0.061380755 0.4210426 0.40503016 -0.097386464 0.5636041 -0.26082358 -0.080494 -0.91749084 -0.5596579 0.38592154 -0.311657 -0.1252861 0.6756102 0.42754614 -0.87987393 0.243346 -1.0646793 0.65408677 0.537913 0.08415314 0.6771557 1.0074798 -0.43831226 0.20885895 -0.6439828 0.5362146 0.18882908 0.14125633 1.0295793 0.22312778
range 0.24171326 -0.036081918 -0.18711099 -0.33588663 -0.4743602 -0.626244 0.045062315 -0.023886139 -0.6017516 -0.31421477 0.29165924 0.4635047 -0.17437355 0.24019483 0.24682015 -0.41903028 0.42295352 0.07829528 0.1669004 0.5899829 -0.23082323 -0.19439355 -0.24547207 0.042790543 -0.29123655 -0.6078482 0.3187265 -0.1416817 -0.37294102 -0.4543064 -0.4654642 0.2677422 -0.032639414 0.14411682 0.04982875 0.3879926 0.28483924 -0.7404189 0.9490517 -0.77978486 -0.31136262 -0.036210112 -0.07094818 0.09202749 0.09956813 -0.14910883 -0.13949336 -0.29105014 -1.6028843 -0.23859502 -0.55037045 0.13979651 0.64065003 0.22802322 0.48914918 0.47708082 0.15171888 -0.51940376 -0.21619831 -0.24899265 1.1120371 0.14684916 0.43321544 -0.21624678
may 0.52811825 0.2436061 0.23436865 -0.14685266 0.36010453 -1.0157522 0.06444616 0.4330747 0.26471606 -0.64617366 0.13087721 0.06501989 -0.16762091 -0.09749947 0.16538286 -0.26412046 0.10442564 0.7737205 0.6759726 0.7879338 0.059348427 -0.018789893 -0.008630941 -0.16165398 -0.78148925 -0.10948453 -0.15987931 -0.3945926 -0.31167713 -0.27253255 -0.435903 0.6345239 -0.31776604 -0.04994401 0.4248995 0.4412974 -0.5750665 0.15785661 0.25001416 0.8505418 -0.5843745 -0.05406997 -0.32052308 -0.2482776 0.6617839 0.05805477 0.35228974 0.06074826 -0.563811 -0.29776105 0.72846544 -0.079382055 -0.8225784 -0.6682546 -0.30523798 -0.7547729 -0.29670334 -0.44534507 -0.06235816 -0.21038318 0.2813814 0.7485965 0.042283423 0.7015761
fractionation -0.71715575 -0.43273178 0.28163612 0.2845372 -0.17676194 -0.5152673 -0.5506019 -0.10921005 -0.06831397 0.46245146 0.14623311 -0.21398623 0.6778868 -0.2928251 0.53474617 -0.20999853 -0.7946242 0.2164166 0.86367816 0.72540456 0.6446574 0.5009536 -0.7078169 -0.35485578 0.26001737 -0.404426 0.28714734 -0.031742435 -0.5602437 -0.23390444 -0.43393853 -0.008291986 -0.59505737 0.56154263 1.2651284 1.1176537 -0.111811146 -0.20914869 -0.1034038 -0.110108785 -0.3415367 -0.25844187 -0.540263 -0.20253235 -0.045946416 0.8902233 -0.10129738 -0.3717807 -0.47156307 0.41000706 0.41568 0.2433911 -1.0242568 -0.79630655 0.46104062 -0.33597502 0.17613968 -0.31445745 0.56942016 -0.41138974 0.1930531 -0.4603022 -0.14324571 0.04341195
total 0.47985393 0.5900376 -0.655642 -0.6833831 -0.10688424 -0.30980828 -0.48974538 -0.19218093 -0.2943261 0.62158054 0.6086847 -0.06830683 -0.67202276 0.42733094 0.3666568 -0.07769483 -0.44925275 0.3909112 -0.4971263 0.09151657 0.28613594 -0.30608672 0.35666302 0.46923286 0.42715114 -0.20703202 0.47603577 -0.17354332 0.36092138 -0.75255376 -0.54715186 -0.4051987 0.5332137 0.6271019 0.20089276 0.076737106 0.19942775 -0.24385875 0.657484 -0.5374461 -0.42106745 0.06690964 -0.13792871 -0.72823936 -0.648364 -1.018092 -0.31739187 0.46831772 -0.69531685 0.0007038696 0.42224565 -0.4592716 0.5232178 -0.8433662 -0.22116786 -0.5157599 -0.14129558 0.0045531783 0.54400355 -0.7086234 0.4253764 -0.06878664 0.6431295 -0.5862026
skewes 0.027975008 0.14045465 0.34130716 -0.29016823 -0.32653955 0.27189526 -0.5356964 0.44821915 0.8505742 0.06313346 -0.65962046 -0.28900495 -0.5675788 0.14066765 0.47946936 0.19336136 0.3685042 -0.2328148 0.60841185 0.51030976 -0.03328474 0.3051496 0.39880657 -0.09511222 -0.23150495 0.69881845 -0.75015134 0.3262438 0.69257194 0.36193502 0.4406995 -0.16360117 -0.5160243 0.25879794 0.26013023 -0.06835932 0.12516256 0.16319168 0.32439873 0.24966829 -0.7638378 -1.119689 -1.576292 0.25085428 -0.8127528 -0.5153865 0.2751969 0.30537176 -0.14563599 -0.07129427 -0.10468715 -0.6340426 0.00042314682 -0.28319854 -0.4592422 0.021949224 0.48956153 0.24727489 0.71744525 -0.29136643 0.19217879 0.09872256 -0.30481157 0.27980173
typically 0.03934627 0.5487036 -0.0847269 -0.29351178 -0.5481551 0.28399622 -0.1621812 -0.18076576 0.40048766 -0.40409005 -0.483035 -0.21634713 -0.118303224 -0.14795724 -0.099615425 -0.15115649 -0.1895049 -0.5989805 0.26867393 -0.21799402 0.33272597 0.46381998 0.70197976 -0.7577674 -0.818892 -0.21335119 -0.23992103 -0.18975566 0.1210545 -0.84405285 0.51771206 0.26642042 0.3594316 -0.42533356 0.04912656 0.3564552 0.4363313 0.30871734 0.25740224 -0.11172848 -0.28003702 -0.4345746 -0.42964903 -0.33582124 0.09804386 -0.3671812 -0.29380733 -0.0022395726 -0.360801 -0.42783108 0.033624865 -0.46037355 -0.35416073 0.20260108 0.6348204 -0.4299404 0.29676905 0.29067403 -0.5304189 -0.2944326 0.7853111 0.4893272 0.24131058 -0.55396944
fracture -0.20955473 -0.4283377 -0.26350975 0.81845933 -0.21536353 -0.35231352 -0.12927753 0.31833947 -0.048950903 -0.8977169 -0.3627262 -1.0519136 -0.8869847 -0.332925 0.18976554 -0.09834956 -0.19480482 0.0782132 -0.44889572 -0.6699539 -0.84131414 0.27601585 -0.13550417 0.88739836 -0.13500306 -0.3749774 0.52227926 0.5454047 0.13850248 -0.5281646 -0.051243044 0.1996931 0.14730605 -0.2461362 -0.15487407 0.5944941 -0.23896717 -0.5687233 -0.42691773 0.29932708 -0.17913452 -0.69332653 0.24401319 0.25173622 0.26383913 -0.09808724 0.11450692 0.2889209 -0.2840158 0.27392176 0.4618956 -0.011798448 -0.23108089 -0.058591347 0.009883471 -0.036789082 1.2207445 0.5617927 0.10142753 -0.81238675 0.24608846 -0.12955843 0.06400966 -0.8396613
area 0.473762 0.06771531 -0.14204821 -0.09590312 -0.0034209746 -0.40941563 -0.17443833 -0.14801091 0.23064815 -0.58172894 -1.1260303 0.25768077 0.08837522 -0.120714 0.017436165 -0.6812326 -0.34333196 0.16020775 -0.13159123 0.2706578 0.08376437 0.5123513 0.6537806 0.4831054 -0.36600456 -0.4762114 0.5162217 0.52280146 -0.37959093 -0.4644331 -0.09831967 0.41086513 -0.59111065 0.49466646 0.3720585 0.14478631 0.07189095 -0.2784576 -0.23320745 -0.115173854 -0.21949957 -0.56543744 0.62820643 0.5991623 -0.40313342 -0.00022859893 0.32653704 0.21284473 -0.2894313 -0.0043556443 0.23806715 -0.89192885 0.2463987 0.26385966 0.4761346 0.01860504 -0.086348526 -0.028367152 0.5445837 0.12355003 -0.27875227 0.64771044 0.6550833 0.25694755
data -0.025255932 0.330208 -0.33912808 -0.19301718 0.008761022 -0.50319445 0.4891534 0.08241682 -0.46114147 0.019071633 -0.1874544 0.6771962 -0.6573677 -0.064110674 0.8651403 -0.020611227 0.18960546 0.41572613 -0.089065544 1.1678921 0.24166457 -0.18797602 -0.0040973667 -0.083182134 0.35300806 0.2844929 0.4662553 -0.84784746 0.3284645 0.15129857 0.08681641 -0.058887564 -0.10072815 0.29906982 0.58589303 0.52448064 -0.29501626 -1.0248477 0.88742954 -0.006295363 0.08832848 -0.36150488 -0.02229062 0.89256656 0.016368475 -0.8445419 0.63228166 0.15226106 -0.023620585 -0.5463064 0.018050844 0.56949764 0.25613216 -0.17779449 0.6033616 0.09237604 0.14697635 0.47579738 0.5398797 0.6314117 0.23426771 -0.18092063 0.57381076 0.028092997
phenocrysts 0.0666515 0.054105643 0.24949609 0.8161419 -0.5532961 0.0104623735 -0.51928604 0.47116923 -0.28211936 0.710293 -0.5800193 0.32367808 -0.042475548 -0.097962916 0.8181396 0.049271107 -0.10872382 -0.024090286 0.04905164 0.1584467 0.41698164 -0.038827613 0.51364315 0.652178 -0.693649 0.33751208 -0.44566834 0.5971789 0.36371005 -0.59597975 0.66846114 0.8716822 -0.228509 -0.34315282 -0.120158926 0.44358972 -0.38289312 -0.30274168 0.52111685 0.27952018 0.1796852 0.5174941 -0.7034364 -0.1257882 -0.74416804 -0.17972599 -0.18532927 0.6128926 0.7761126 -0.0828975 0.6355307 0.083467185 0.5514932 -0.32206997 0.71785504 0.35106206 0.40409094 0.5218566 -0.28740838 -0.6466588 0.6765741 0.15728909 0.11437979 -0.16853066
content 0.19082043 -0.15272696 0.08565508 1.1643567 0.20670512 -0.2650237 -0.3658211 -0.59208345 -0.046109598 -0.6294088 -0.06779173 0.77466464 -0.8286592 0.064092435 0.18464848 0.92665637 -0.11087324 0.5522656 0.24142541 0.31389394 -0.44128463 0.37736017 -0.23285316 0.31057432 -0.26998928 -0.47719258 0.12566814 0.47477663 -0.19949278 -0.2925263 0.2890276 -0.5598408 0.39955693 0.8701668 -0.32014525 0.50197667 -0.2001266 -0.32528216 -0.23434225 0.10763962 0.29105943 -0.3706439 0.6345939 0.2156754 -0.10457618 -0.18740845 0.39608184 0.46502566 -0.5480974 -0.035488356 0.46461827 -0.4749533 -1.0130228 -0.5345132 0.40885583 -0.08146946 -0.7119081 -0.21830332 -0.9964568 -0.9290183 0.65792876 -0.9494912 -0.32506028 0.57661915
part -0.27744845 0.22568955 0.070702925 0.7441675 0.52867573 0.045940936 -0.2716112 0.47052443 0.25636595 0.021597095 -0.68168217 -0.08765913 0.03525228 0.22479838 0.8663661 0.16336064 -0.48254347 0.42096993 -0.46236497 -0.70418864 0.2467508 0.423536 0.6106233 0.5130323 -0.109971 -0.19142604 0.7740455 0.042342696 -0.08565692 0.15037277 0.08486445 0.8966178 -0.4912406 0.8552921 0.14873302 -0.07584661 0.4963415 0.34963107 0.5413654 0.62327754 -0.28643408 -0.41228354 0.020737294 -0.81123966 0.1297678 -0.05085475 -0.61375916 0.26418486 -0.2690753 -0.76380587 0.2244969 0.117845446 -0.2652574 -0.14322408 0.9344571 0.4871043 -0.38521582 0.20148817 0.5985097 -0.46953633 -0.12917496 -0.4356959 0.24487403 0.1942285
grain -0.12287925 0.07434424 0.48012245 -0.051432993 -0.4615428 -0.19689365 -0.78575903 0.58178955 0.7530029 -0.14244767 0.14177106 0.03386831 -0.12750322 -0.28555974 0.10222711 -0.8126668 0.0057332455 -0.35860357 -0.18961842 0.6749315 -0.62530327 0.1352562 0.40720546 -0.026488928 -0.047109805 0.38322884 0.027682396 0.73063534 -0.297967 -0.32644773 1.0265855 0.22162183 -0.055769205 0.23678395 -0.22233114 0.2011651 -0.8797159 0.23294112 0.85411555 -0.4895719 -0.13925272 0.91619873 -1.0489974 0.07274133 -0.33780804 -0.12731992 -0.5064474 0.37277576 -0.18052258 -0.2926888 -0.24695082 0.10285069 -0.11707026 -0.5024698 0.5974538 0.8309871 -0.86731946 -0.3232342 -0.2611757 -0.46144018 0.8158034 -0.2442789 0.52136576 0.22785078
chalcocite 0.32362852 0.7421117 0.16964886 0.43726075 0.69542336 -0.10978068 0.07232155 0.48614037 0.4745041 -0.40325665 -0.23154427 -0.026289131 -0.29917735 -0.12312668 0.665011 0.27817348 -1.2938732 -0.41222337 -0.32118887 -0.4214956 -0.524034 -0.26831397 0.07655518 -0.27543214 -0.12317414 -0.46371093 0.309092 -0.5829009 0.24370517 -0.102462135 -0.8808548 0.9168024 0.07149855 0.5068672 -0.03381001 0.25535336 -0.12620243 -0.6359211 0.5180005 0.3744705 -0.14287208 0.46765336 -0.41198984 -0.027945638 -0.6495103 -0.37974924 -0.44113678 -0.027121823 -0.8415633 -0.28542638 0.19884248 0.122937836 -0.57451713 -0.24273108 -0.10679053 0.14925157 -0.19059269 -0.1027022 -0.14477691 -0.24560079 -0.0065465015 -0.74724454 -0.23615855 0.40359595
skarn -0.1167538 0.5010167 -0.4790875 -0.6135596 0.14429893 0.27025172 0.042798646 -0.32258913 -1.0539509 -0.79043645 0.67192113 0.23474869 -0.2707003 -0.0072763176 0.7798133 -0.20175232 -0.27102482 -0.27413416 -0.20640695 0.5497485 -0.66390234 0.44291475 -0.32174203 -0.4270443 0.83752865 -0.22506583 0.6232625 0.124204956 -0.25614417 0.5837939 0.18240452 0.24041352 -0.6338864 0.21042508 0.342639 0.34440765 0.3844386 0.22237499 0.5406482 0.08366082 0.014872957 -0.108517125 -1.097008 0.13090953 0.08930015 0.107964315 0.12054633 0.14854231 -0.062247343 -0.8443332 0.8225699 -0.102676295 -0.27877578 -0.52353245 0.48986396 0.5864716 0.71971667 -0.19932331 -0.25891817 -0.00091198157 0.811178 -0.09656161 -0.31002644 0.061291
1999 -0.7181873 -0.10587519 0.3553212 -0.9250583 -0.9166107 0.38729256 -0.10688759 0.3703862 -0.13910407 -0.36661848 0.014811766 0.451605 -0.67610323 1.1300884 -0.10978896 0.7168923 -0.32968494 0.3363032 0.119253784 0.05723324 -0.26810747 0.36125472 0.22179914 0.32867524 -0.24209395 0.28995106 -0.3197336 -0.77750796 -0.056301218 0.33329743 -0.7069353 0.5462627 0.06649051 0.507861 -0.0064423964 -0.11313115 -0.13029778 -0.14492217 0.24595614 0.7794753 -0.27492598 -0.9225216 -0.2730755 -0.012633101 0.4683039 -0.220578 0.47506326 -0.026864985 -0.4645279 -0.7174239 0.66720384 -0.42967093 -0.16133784 -0.35190883 0.31127706 0.20353633 0.060358908 0.0027856852 0.3798826 -0.6848004 0.24961118 -0.25876433 0.28150392 0.16965982
less 0.45558006 0.9409919 0.0651088 0.28323886 0.67928153 0.16446061 -0.11952631 0.3908737 -0.20532948 -0.40994355 0.24718049 0.24597032 -0.10145367 -0.4567235 0.49644497 1.1267589 -0.35824594 -0.37553215 -0.036246296 0.42970735 0.07172314 -0.18491988 0.018802328 -0.100137934 0.22124352 -0.3306383 -0.19817907 -0.08569925 0.23822002 -0.32349142 -0.31723636 0.4898653 -0.49181616 0.21713293 0.13289385 -0.046971716 0.37950817 0.1286636 0.2379001 0.59697795 -0.5449162 -0.12298793 0.55490386 -0.42809 0.60053885 -0.51547784 -0.3430365 0.1378128 -0.13280894 -0.64785045 0.026661146 -0.1871381 -0.16515884 -0.25208727 0.786368 -0.3430453 0.7651874 -0.34087 -0.68672365 -0.6597986 0.37611365 -0.36943525 -0.24584737 0.26038614
mine -0.91753626 0.64816016 0.122837834 -0.62527907 -0.45486122 0.22436225 -0.22809435 -0.21428336 -0.34589842 0.5812461 0.055616442 -0.13048644 -0.7532821 -0.27712262 0.09629811 -0.18464777 0.8111803 -0.016695121 0.3282595 -0.26288223 -0.043956928 -0.2933561 0.5589331 0.5113017 0.69125223 -0.026377946 0.07255325 0.22760415 0.32712418 0.13927992 -0.21079785 0.4358142 -0.06495005 0.19748405 -0.04496555 0.05346584 0.09431444 -0.3444361 0.7706199 -0.038570724 -0.930851 -0.50181174 -1.552088 0.116395846 0.004912325 -0.46808273 -0.7458931 -0.21812984 -0.14100714 -0.5455307 -0.06561777 -0.16556747 -0.40691948 -0.14022255 0.13736475 0.0044865115 0.87267727 0.24504548 -0.4514262 -0.19268061 0.017411985 -0.5418015 -0.27252775 -0.0338029
