1809 64
, 0.02595331 0.21979317 -0.08207296 0.13721381 -0.14040017 -0.045012064 0.07442535 0.0015332756 0.041541066 -0.07208912 -0.092410564 0.056029312 0.031756494 -0.06721412 0.01662527 0.07268846 -0.012875689 0.03095319 -0.067516185 0.043554317 0.23964489 0.074000865 -0.018241433 -0.0053670146 0.16135061 0.1703998 0.11476597 0.024219153 0.28091604 0.11487037 -0.3019064 0.024497561 0.07271709 0.10915067 0.23497404 0.17468221 0.04298405 -0.111413 0.010325034 -0.19779584 0.13533537 -0.27451885 0.005138258 -0.010697852 0.09760134 -0.29524305 -0.009883516 0.11473432 0.076684915 0.051902715 -0.10086976 -0.0026529941 -0.0049688374 0.057135418 -0.04917553 -0.15502237 -0.0038484465 0.11327271 0.050606456 -0.14162 -0.12834585 -0.13159856 0.1001519 -0.22052221
. 0.06262545 0.2106882 -0.06317421 0.05858268 -0.069468714 -0.10562887 -0.028158804 -0.050036784 0.08136344 0.032064598 -0.042506915 -0.0042584557 -0.115977935 0.008007209 0.084794275 0.017999114 -0.17797947 0.133226 -0.041321196 0.061997678 0.27344766 -0.00943587 -0.033255 -0.063622124 0.081452586 0.09410561 0.0248461 0.108198196 0.18673114 0.061601985 -0.23655973 0.081416406 0.043687716 0.093173824 0.12274612 0.09432031 0.107322454 -0.1935023 -0.063809395 -0.10978973 0.014210535 -0.2844361 -0.06315733 0.047180284 0.19250993 -0.23910926 -0.20895672 0.05237305 0.021012837 0.06604709 -0.20230965 -0.028591461 0.10233005 -0.066944875 -0.11685433 -0.18769857 0.045977894 -0.02972497 -0.036562238 -0.06778385 0.019956699 -0.121970095 0.25148964 -0.027401121
copper -0.027947996 0.3680423 -0.19333673 0.10918614 -0.110854685 -0.114128575 0.20568871 -0.09783782 0.26648176 0.2872171 0.010397694 0.05991969 -0.18385941 -0.107069045 0.112570964 0.29080284 0.11947141 -0.030105677 0.22083642 0.17757761 0.22685507 0.26202026 0.006479055 -0.08834097 -0.03132948 0.15910508 0.24456246 -0.08975241 0.23082413 0.050568145 -0.3316577 0.028277962 0.19409434 0.2689305 -0.0138345715 0.11872855 0.43370935 -0.50705045 -0.0272551 -0.20717396 0.0037394743 -0.3412691 -0.15369293 0.10677569 0.13199654 -0.011043288 -0.49121192 0.19094242 0.19335623 -0.0023766453 0.0179039 -0.15066619 -0.1216456 -0.0064454745 0.18960603 -0.17067467 0.1163808 0.06345322 0.16069604 -0.33903423 -0.06717389 -0.10153932 0.10187974 0.16840054
cu 0.35055077 0.14035675 -0.27493143 0.017661212 -0.23015647 0.11860771 0.19875526 0.13058934 -0.02299537 -0.03307014 0.0732393 0.07718439 -0.36343807 0.22417256 0.24007791 -0.00956837 -0.21179655 -0.18664491 -0.005943231 0.13925113 -0.06455843 0.070197366 -0.1622666 -0.109423816 -0.052266844 -0.15176764 0.04661615 -0.30359232 -0.24942516 -0.0062102224 -0.26049155 0.41811273 -0.07161776 0.028438292 0.27901676 0.1916497 -0.020007748 -0.21408191 0.119354464 -0.21232069 -0.13537681 -0.28671613 -0.32681012 -0.023059817 0.15321499 -0.2635802 -0.33463755 -0.050824273 0.13582747 0.29691884 0.049880024 -0.12860897 0.16522832 0.036788363 -0.19600657 -0.35015225 -0.08520223 0.17316772 -0.020445088 0.30148515 -0.2655908 -0.30224052 0.26845732 -0.12517731
; 0.2171983 0.43296254 0.0108239725 0.16095853 -0.24516633 0.21014613 0.16207987 0.043062788 0.54761976 -0.1736216 0.19283637 -0.18475807 0.23776601 0.10377386 -0.32247335 -0.27986285 -0.21289174 -0.08601492 -0.057527013 -0.26220986 0.71733 -0.017408041 -0.6422013 0.03378304 0.5528629 0.5078143 -0.106279746 -0.10858882 0.042879783 0.34810272 -0.116182216 -0.19837508 0.09317448 0.28972384 0.4004963 0.1114273 -0.22191449 -0.3535495 0.45240647 -0.26562285 0.16878408 -0.4679554 -0.22804308 0.030278731 0.36012048 0.07630924 0.1408488 0.018001774 0.39039904 0.60438037 0.102140814 -0.12069379 -0.34450927 0.3912024 -0.25014812 -0.042468652 0.0937223 -0.0076944996 -0.10914079 0.18138936 -0.6655605 -0.1724104 0.16574001 0.00031912624
al. -0.22557859 0.39145184 -0.09607442 0.017504618 -0.49929896 0.47376207 -0.11319226 0.002382883 0.3442968 -0.14563641 -0.06426924 0.015548495 0.23007831 0.13068497 -0.1447652 0.242342 -0.07066188 -0.04448193 0.0022535645 -0.24615805 0.8630331 0.01616147 -0.49539047 0.030060096 0.31907508 0.42064306 0.29299727 -0.16495445 0.09679458 0.48213544 -0.17928565 -0.14056484 0.29530388 0.32922587 0.38981658 0.064680114 -0.23368937 0.15780675 0.18775214 -0.024499772 0.124292895 -0.41735217 -0.5623892 0.17960376 0.45453602 -0.050191455 -0.012082479 -0.025035748 0.04393641 0.20981662 0.032026507 0.06870582 -0.48849207 0.5521583 -0.31180388 -0.12235873 -0.016101496 -0.021383846 -0.23667924 0.11230031 -0.7902079 -0.088324115 0.26222703 0.072465695
et -0.2461743 0.4295536 -0.08044684 0.0035339205 -0.3977651 0.5464955 -0.08671735 0.0026945106 0.41617906 -0.101201974 -0.056624077 0.056433093 0.2810387 0.11258781 -0.028725937 0.1845354 -0.059337903 0.057427663 0.018412353 -0.3150826 0.9095803 0.031790536 -0.55744785 0.006695769 0.33030942 0.5035816 0.22592816 -0.04440528 0.07892592 0.55674595 -0.19613591 -0.16303867 0.1777903 0.35131133 0.4122118 0.20651649 -0.21493939 0.07774783 0.2053841 0.016367408 0.100537315 -0.39120492 -0.48735145 0.1020833 0.42915955 -0.01895968 -0.060171995 -0.029535497 0.059550438 0.21850541 -0.04225383 0.052238923 -0.41374236 0.5714441 -0.29051432 -0.13726075 -0.023258017 -0.05917803 -0.19030994 0.19394366 -0.800185 -0.054607406 0.3147817 0.21795641
deposit -0.19637102 0.2764512 -0.01372809 -0.1070013 -0.16018027 -0.0015776608 0.2904143 0.124234416 0.14775945 0.17782232 -0.08177765 0.25763687 -0.21449609 -0.004807219 0.091861404 -0.025367389 0.05409827 0.17758629 0.3045897 0.34777877 -0.17643729 0.1833637 -0.14198896 -0.0020333673 0.08484818 -0.10951107 0.029948184 -0.5118752 -0.17203972 -0.16237578 -0.54427093 0.005975 -0.015934458 -0.1171973 0.011868674 0.46772286 0.24663407 -0.07420856 -0.041693088 -0.24609408 0.09673683 -0.46264434 -0.11721916 -0.13454479 0.28385794 -0.1104397 -0.5587909 0.016877815 0.19488087 -0.33115444 0.12001678 -0.33105227 0.083146185 -0.32537565 -0.12128444 -0.18570034 0.34663323 0.116572484 -0.01406465 0.085467406 -0.32010707 -0.12130382 0.2183913 -0.49847373
oxide 0.3728246 0.102617495 -0.262409 0.37105355 0.24052578 -0.34599102 -0.018534385 0.119835116 -0.15634768 0.37384868 -0.0400692 0.3368471 -0.19194305 -0.338316 0.52157843 -0.07736375 -0.20101409 0.03672573 0.30952385 0.2941278 0.14830898 0.5899093 0.17618023 0.018114086 0.10464211 0.4341551 0.22220363 0.031910073 0.2661805 0.47192547 -0.1602984 0.09829609 0.0040932675 0.45761192 0.08551711 0.41707316 0.24295796 -0.97413474 -0.026013082 -0.2208512 -0.12324634 -0.25264794 0.03743495 0.014446754 0.070926026 -0.28804836 -0.84896064 -0.37182137 0.10775392 0.035217475 -0.39410743 -0.13591126 -0.2539252 -0.33044535 0.014524033 0.15400639 -0.15219414 0.32345262 0.509319 -0.7903395 0.08756729 0.30521563 0.60565656 -0.24306712
value -1.0008653 0.7207878 0.3339185 -0.13536273 -0.55251557 -0.042297415 0.27258924 -0.095355555 0.59156716 -0.05084686 0.1911995 -0.058577783 -0.21993093 0.27714777 -0.1834433 -0.39213812 0.041109215 0.16555615 0.17296663 0.15316036 0.38591358 0.2853721 0.13566962 -0.2370348 0.07865367 -0.2044869 0.12769818 -0.13752459 0.2970877 -0.48887208 0.24870212 0.6185053 0.21980594 0.37307835 0.33786047 0.2403803 0.16953085 -0.34640968 -0.3530619 0.2775821 0.08040631 0.0661598 -0.23204535 0.07149702 0.1893754 -0.6834222 -0.4533154 -0.29761314 -0.5597471 -0.15614028 -0.16430594 0.19498797 -0.18633744 -0.0015047779 -0.057284407 0.3063315 0.13692321 -0.11598359 -0.2335155 0.5524112 -0.3597393 -0.41847098 0.33155096 -0.43242314
mineralization -0.4513635 0.52718717 0.014773358 0.04833845 -0.51329386 -0.21907632 0.42615637 -0.16264786 0.060729403 0.02033856 -0.19796318 0.20156467 -0.24438125 0.19886431 -0.067917705 -0.10792985 -0.29864648 0.1744096 0.295192 -0.023724478 0.13014522 0.0707811 0.48695225 0.03783466 -0.32070035 -0.08522467 0.33487573 0.0004352208 -0.12235725 -0.29091388 -0.0591654 0.14736873 0.38999444 0.32623968 -0.06450112 -0.29395714 0.49632373 0.09686087 0.106321074 -0.16856447 0.29183325 -0.51986426 -0.03892584 -0.30923352 0.28193143 -0.5715152 -0.25601813 -0.15035333 -0.15281221 -0.20977753 0.053259958 0.087226346 0.22269951 -0.3650334 0.028030412 -0.13121547 -0.10243277 -0.09750454 -0.22148307 0.29156372 0.045234755 -0.102480955 0.3499776 -0.41287184
isotope -0.59778696 0.4342927 -0.03544801 0.0067379796 -0.19131878 0.031210575 -0.3843523 0.37584168 0.18341917 -0.09032406 0.08195735 -0.108692065 -0.08417736 0.39928484 0.062349215 -0.021561865 -0.5434199 -0.11624918 0.5732975 -0.08996353 0.43252254 0.2126997 -0.18990907 0.1448152 -0.27941763 -0.14154369 0.41467384 0.3719918 0.09141032 -0.05899581 -0.2879783 0.094311364 0.3059227 0.28085756 0.080229856 0.34870347 0.241873 -0.16904974 -0.023121 -0.035417046 -0.20589864 -0.5181706 -0.26753664 0.3870734 0.47852644 -0.5456475 -0.42900786 0.13124663 -0.6990029 -0.108856454 -0.06780203 -0.13686185 -0.18362306 0.015447341 0.14085326 -0.084463015 0.3391377 -0.21055816 -0.5889564 0.57651645 -0.37415072 -0.22280219 0.32912022 -0.07819188
fig. 0.07397096 0.042183008 0.21638814 0.031897116 -0.19407865 0.013693125 0.4213326 -0.20128708 0.049993273 -0.061118606 -0.27291584 0.4508624 0.019800123 -0.21055552 0.32248598 -0.17342277 0.13422672 -0.2641786 -0.26897284 0.14921178 0.045005005 0.07988303 -0.093658075 -0.27221218 0.14140259 0.18172103 0.090621464 -0.12889034 0.03287906 -0.24524945 -0.05158671 0.3421492 -0.10520057 0.10714956 0.045465745 0.1300237 -0.2773683 -0.31078908 0.10398582 0.1315718 0.0041270363 -0.227659 -0.14455354 0.055738613 0.19830187 -0.27159086 -0.20233028 -0.1907153 0.2993155 0.05854867 -0.4455283 0.09086474 0.5283435 -0.1008716 0.069828525 -0.04619848 -0.08398327 0.08971962 0.30696693 -0.32802314 0.071608454 0.061912138 0.3665523 -0.061731566
mineral 0.11938445 0.28753707 -0.27672833 0.25526464 0.050135344 -0.20458528 0.1837149 0.068249725 0.14614059 0.36973986 0.16793539 0.24297029 0.27206513 -0.008430358 -0.02075785 -0.19618884 -0.07984419 -0.15156601 0.3031435 0.29292172 -0.09968628 0.263338 0.308427 -0.24764583 0.24331832 0.2897407 -0.007283191 0.11550374 0.0071332618 0.3092328 -0.32141998 -0.10409818 0.024648136 0.5383767 0.24682042 0.49426773 0.6627083 -0.6525761 -0.25379133 -0.5424543 -0.01818908 -0.2973556 -0.14234841 0.059787303 -0.049642347 -0.33133388 -0.4710187 0.018896835 0.41207272 0.26263094 -0.04734568 -0.17218155 0.1449212 -0.15408973 0.21451823 -0.06706425 -0.02190492 0.0958649 0.083410986 -0.42553002 0.2920099 0.17996591 0.5977378 0.16617541
zone 0.2146155 0.28957814 -0.38957185 0.051857684 0.115161784 -0.27190748 0.4708363 0.12964988 -0.22226377 0.29271188 0.072876394 0.015792387 -0.25225997 -0.01848658 0.18361671 0.0653623 -0.2835611 0.091546655 0.06370948 0.45973137 0.26168546 0.064794965 -0.009740204 -0.054509774 0.22123876 0.009052187 0.14436997 0.20574018 0.2923789 0.30320165 -0.29282865 0.17024127 -0.07675337 0.18720531 0.12932162 -0.27987814 -0.103121415 -0.41207173 0.00028944953 -0.02623577 0.09176191 -0.17390823 -0.020673625 0.016636183 -0.120827086 -0.3690312 -0.47477198 -0.38228866 0.34930903 -0.3399603 -0.39117184 -0.7214458 0.010374399 0.23213032 0.023040358 -0.37123486 0.23059332 -0.29344591 0.2432258 -0.35595575 0.07044397 -0.2046868 0.5938688 0.017425984
vein -0.23014271 0.081196055 0.038638342 0.122581325 -0.32023305 -0.35232848 0.5603723 0.02282258 0.15114966 -0.30410224 0.020779403 0.3288693 -0.35455802 -0.12967376 -0.12997426 -0.07701123 -0.3881184 0.4239707 0.34359887 -0.25937954 0.4022624 -0.061796468 0.49396616 -0.09851343 0.18089955 -0.06785079 -0.19133912 -0.553326 0.2960587 -0.31994554 0.13250795 -0.037524603 0.022434931 0.19550747 -0.037444115 0.31486222 -0.20936063 0.04782307 0.17348556 -0.051345836 0.33868188 -0.6163842 0.039241206 -0.66174614 0.11609369 -0.2646529 -0.2123143 -0.055236634 -0.4150695 -0.2413744 0.042946234 -0.26478633 0.12342396 -0.34622148 0.13097316 -0.05208082 0.030351795 0.030793084 0.070640616 0.24932337 -0.13006653 -0.5928369 0.48362374 -0.2563012
high 0.3906103 0.3126032 0.0065005305 -0.23175777 -0.2250067 -0.19958545 0.16298784 -0.25271454 -0.10756208 -0.04653894 0.3592763 -0.039060067 -0.002750828 -0.46735504 0.010579404 0.06692044 -0.08491276 0.4318218 0.3471029 0.114309646 -0.19363965 -0.0760584 -0.32147083 -0.11840677 -0.13106167 0.2796405 0.14515743 -0.13559666 0.17229505 -0.12854731 -0.23466426 0.018689094 -0.21783255 0.4953572 0.09552743 -0.06811605 0.075395204 -0.14525644 -0.42448777 0.35505304 0.09076319 -0.4007889 -0.19937655 -0.18299238 0.085410565 -0.17841099 -0.35256636 -0.06954559 0.12582292 -0.21710555 -0.61350596 -0.16511919 0.1421186 0.17107129 -0.012296524 -0.21322592 -0.57849944 0.01126571 -0.1201673 -0.058938026 0.09369015 0.08881285 0.1665731 -0.21080972
porphyry -0.18400262 0.40624213 0.04074758 -0.14003421 0.14600876 0.024113033 0.0054602125 -0.24988382 -0.10365817 -0.02440425 0.30840817 0.19851518 -0.10850163 0.22345841 -0.36556858 -0.08009267 0.078055166 -0.14959581 0.0014334574 0.032762934 0.017087536 -0.02739063 0.3792392 0.057838842 0.18177907 0.071707785 -0.14854574 -0.27229744 0.032982104 0.03855142 -0.25064006 -0.031195054 -0.11052557 0.5166432 0.48488143 0.014185698 0.1849404 0.19229883 0.059344973 0.03976814 0.19186638 -0.7388088 -0.40594476 -0.23762704 0.24433665 -0.15690385 -0.5176674 0.11759966 0.08558623 0.2628326 0.09266549 0.06818995 0.2871315 -0.28300372 0.2336197 -0.5012447 -0.0012739209 0.077710256 0.09012678 0.37891197 -0.42366648 -0.47300306 0.08985204 -0.17196958
low 0.36309516 0.0851352 0.3076872 0.17077464 -0.022238003 -0.20240337 0.17327486 -0.17473078 0.28799605 -0.10584653 -0.060031664 0.50976866 -0.24121356 -0.4078126 -0.166181 -0.030904187 -0.33079335 0.25784367 -0.095366776 0.15044947 0.10553803 -0.019956667 -0.21807116 -0.0025341879 0.2120801 0.38807344 0.11290236 -0.24677983 0.4958463 0.10129479 -0.42861664 0.024965273 -0.17418425 0.2555838 0.12207614 0.2897073 -0.1512882 -0.45400485 -0.30911195 0.46555957 0.00069621194 -0.22956029 0.18477044 -0.070431635 0.22026736 -0.055883214 -0.36952612 -0.45621195 0.23525983 -0.18204358 -0.24836044 0.22851838 -0.04596164 -0.1084585 -0.029501913 -0.009772885 0.13197055 -0.13310775 -0.036542367 0.114813805 0.16878673 0.002710749 0.05441778 -0.23331176
sample -0.7287454 0.13039038 0.15298136 -0.18880777 -0.33340177 -0.22941282 0.029184263 0.17619832 -0.08477127 -0.049439516 -0.1669521 0.05606421 -0.25317502 -0.14487703 0.23026346 0.08218246 -0.38602626 0.33261305 0.23295741 -0.6547976 0.24368733 0.70076936 -0.17757666 0.15175283 0.11494578 -0.27555358 0.18845077 0.2252558 0.2834297 0.084269024 0.15010895 0.2538908 0.22698471 0.17128877 0.40925202 -0.14091797 -0.46307233 0.22233328 -0.24279979 -0.22711058 -0.6192057 -0.33852288 -0.033066787 -0.2768789 0.59461 -0.45356727 0.0029638198 0.04092092 -0.27386755 -0.018369425 0.1623775 0.016083619 -0.037959997 0.3782759 0.27492705 0.075698644 0.044306904 -0.033867247 -0.4178669 0.13729988 0.062193807 -0.25213674 0.59627515 -0.29883942
ore -0.08258991 0.5552171 0.17561883 0.03242021 -0.47852337 -0.33853635 0.35545698 -0.3141523 0.46119884 0.14485943 -0.08570543 0.17070863 0.38901022 -0.19578102 0.090009384 -0.0062288344 -0.7116711 -0.10719762 0.2545977 0.33905458 -0.011952169 0.17550623 -0.4951161 -0.23893695 -0.31353953 0.14671189 0.08279498 0.16194253 -0.09094253 0.23978476 -0.10941129 0.045154393 -0.28857252 0.31701598 0.024650997 0.23025174 0.8665358 -0.19756514 0.13763049 -0.52366275 0.2475954 -0.009173295 0.08259893 0.14750753 0.32482225 -0.48420775 -0.5185782 0.12473595 -0.08307445 -0.1619967 0.4230714 0.20290315 0.16880086 -0.27569366 -0.10285919 -0.20775461 0.37425408 -0.078548595 0.07728289 0.12625784 -0.051633302 -0.199417 0.053564448 -0.3496722
atacamite 0.46800807 0.44240257 -0.33882728 0.22994307 0.15865225 -0.48842838 0.028033216 -0.12210941 0.18175092 0.53310424 -0.14992744 0.026559334 -0.24294978 -0.3640109 0.19675861 0.10871653 0.10016678 0.22860022 0.5099234 0.37661722 0.07021591 0.4582906 -0.17319971 -0.26645917 0.057937436 0.72615474 0.010903504 0.090883024 0.030476028 0.4963974 -0.30449104 0.13927115 0.4158463 0.4221365 0.45285276 0.16262797 0.27254367 -0.75910807 0.02953775 -0.21221738 -0.39970857 -0.5733685 0.09232619 0.23111236 -0.15994526 0.1090036 -0.68841875 -0.010160553 0.05388702 0.21645458 -0.10814542 -0.28746307 -0.45789856 -0.35022217 0.23738816 0.2698996 -0.18891613 0.4864827 0.7977295 -0.80207074 0.014377837 -0.10355949 0.3515251 0.16720484
fluid -0.40210477 0.49421018 0.25681487 0.29248852 -0.2275985 -0.29598793 0.334228 -0.07765694 0.06185713 -0.4088862 0.54417425 0.4395383 -0.5558504 -0.20924932 -0.29270136 -0.21816896 -0.36538187 0.098371625 0.13112147 -0.067948334 -0.20373 -0.27208504 -0.032128967 -0.18336365 -0.27248925 0.080654405 0.17037492 -0.25825673 0.109197274 0.4790913 -0.32101512 -0.027298965 0.13415667 0.91083646 0.4479249 0.41051626 0.50227153 0.10194054 0.11651649 -0.12973583 0.21026666 -0.5879661 -0.21889806 0.3591639 0.031779032 -0.33644837 0.29895404 0.35690546 -0.45472816 0.15259914 0.038599886 0.39396816 -0.06733361 0.288621 0.13507712 -0.008044052 -0.14384635 -0.19572635 -0.5649428 0.47187525 -0.024605526 -0.05215503 0.088538855 -0.059394203
clay 0.17980215 0.23376109 -0.52835447 0.29944763 0.18391068 -0.38929528 -0.108084135 -0.12752312 0.5052659 0.65169424 0.05224518 0.016834827 0.17253834 -0.53072846 0.31876704 -0.056704402 0.54856783 -0.0037062748 0.60861844 0.24579954 0.072739355 0.62547827 0.12481822 -0.36042947 0.34798822 0.20568591 0.42848146 -0.022190195 0.013064716 0.148822 -0.41876695 0.15065831 0.117447056 0.42510766 0.36470807 -0.033853564 0.42954 -0.7265906 -0.17259593 -0.09881556 -0.3205656 -0.85632294 -0.24854411 0.279533 -0.16457249 0.13089523 -0.40666938 0.017587537 0.44407332 -0.108605444 -0.2215277 -0.40905243 -0.48367697 0.19054866 0.22623572 -0.06114258 0.12639046 0.35516474 0.7394672 -0.9785709 -0.01876591 -0.23743048 0.21599714 0.14550324
δ65cu -0.9230299 0.60094887 0.4862378 -0.29473817 -0.55744153 0.07607455 -0.044585936 0.078363605 0.29581183 -0.10361726 0.04527394 0.02772363 -0.060963307 0.35363185 0.17241068 -0.34234074 -0.20023581 0.51820797 0.59240156 -0.61304533 0.33798555 0.9431836 0.06009429 -0.024596324 -0.018777559 -0.040663555 0.20872162 0.11503321 0.24861121 -0.7445235 0.2611233 0.50173336 0.5965474 0.45098057 0.40880483 0.16115437 0.10094301 -0.18454623 -0.50145924 0.26790726 -0.16647048 -0.41712606 -0.13966782 -0.45185313 0.21271543 -0.6709504 -0.5426667 -0.42847228 -0.4561211 -0.23623255 -0.33554515 0.1654908 -0.30014613 -0.2598858 0.020025691 0.36594394 0.32926288 -0.21834505 -0.5012432 0.5956194 -0.18759237 -0.45301044 0.6175199 -0.32293648
alteration 0.33327848 0.04406725 0.074332155 0.30551496 -0.39786118 -0.2007989 0.46107402 0.1586994 -0.29292282 -0.14005975 -0.10671933 -0.4225566 -0.33497187 -0.033036254 0.12827161 -0.17054856 -0.26062474 0.1806446 0.14650187 -0.10482367 0.49247086 -0.06352412 0.42000568 0.21575639 0.15640047 0.51887643 -0.037933744 -0.07805378 -0.11005168 -0.31791124 -0.38041636 -0.7235645 0.056729723 -0.056993734 0.43017584 -0.17712438 -0.10516043 -0.111773595 0.24630657 -0.7424867 0.441542 -0.7492762 -0.21146058 0.25836745 0.16012628 -0.37126097 0.22228971 -0.42141578 0.3625474 -0.03303414 0.5023938 -0.13820717 -0.04679589 -0.15940824 0.28339055 -0.27433747 -0.4643579 0.5097673 0.269908 0.24036618 0.13193183 -0.26753455 0.25275853 -0.5754493
total 0.2628503 0.10010692 -0.37434262 -0.29139206 0.16757159 -0.4784935 -0.35885468 -0.021583717 0.02625391 0.16938844 -0.30257565 -0.2628859 -0.2993429 -0.38275313 0.7498982 -0.38159806 -0.38028234 -0.03027553 -0.4214364 0.58922 0.013713822 0.5472005 0.10475249 0.09533185 -0.21909063 0.58081067 -0.07312181 0.7288002 0.45979384 0.7974628 0.14886259 0.31699744 0.5108197 0.3222776 0.2668638 -0.37487307 0.062469874 -0.3677396 -0.33982515 -0.025081964 0.16316988 -0.32774314 -0.18243888 0.044618145 0.23695754 -0.39286074 -0.6750686 0.15686697 0.5074848 -0.016927792 -0.15692306 -0.2917173 -0.005468111 -0.22733836 -0.32809108 -0.14799729 -0.065636165 0.368179 0.27840224 -0.059448894 0.032904066 0.06364081 0.49807906 0.42192003
hydrothermal -0.050868347 0.004303666 0.30909652 0.38328883 -0.17767929 -0.7397808 -0.018008303 -0.023421945 0.22636198 -0.23213765 -0.18602067 -0.09048756 -0.376427 -0.53558314 -0.058480807 -0.41572177 -0.44116867 -0.3936799 0.22831431 0.15119497 0.39771757 -0.11061593 0.24036342 0.21827845 0.0003923905 0.0771904 0.16960584 -0.09067501 0.20893063 0.0774237 -0.39543468 -0.13770217 0.11658237 0.6052135 -0.32651043 0.48304307 0.08638781 0.3181633 0.29051426 -0.08936722 0.5332011 -0.42424542 0.034388553 -0.13074456 0.4712536 -0.22833718 -0.14558014 0.051032364 -0.010450694 0.11034333 0.2805603 -0.09158836 0.44388145 -0.06469185 0.2845958 0.14599463 0.034289237 -0.15312855 -0.28878698 0.5820571 0.13591005 -0.6830295 -0.052704703 -0.27761528
percent 0.23803195 0.38494307 -0.08288016 -0.66624993 0.30821458 -0.26988193 0.39364162 -0.034689233 0.22867171 0.09252472 -0.35235587 -0.23523577 -0.6281603 -0.3431509 1.0955673 -0.13329254 -0.047886208 0.039443124 -0.61563706 -0.17660028 0.6800444 0.036885686 -0.024524624 -0.13026303 0.34900597 0.28436562 -0.4499171 0.016315944 0.37673485 0.5625862 0.38448036 0.18686944 -0.27660462 0.29822874 0.24555251 -0.5691078 -0.45578617 -0.36080578 0.24405904 -0.39547148 -0.025540864 -0.3794138 -0.23202816 -0.13550533 0.793433 -0.14233232 -0.60098064 0.05017671 0.28313598 0.04930813 -0.27664813 -0.64810103 -0.10577255 0.4876252 -0.020062152 0.52734375 0.09668058 -0.09498446 0.17855175 -0.455372 0.34756687 0.28055623 -0.30096883 0.029244782
chrysocolla 0.26458856 0.38464233 -0.34604952 0.44105572 0.14906247 -0.26730877 -0.17440033 -0.015596795 0.35984945 0.49108 -0.041212775 -0.02550864 -0.062451765 -0.5186395 0.29127547 0.18126646 0.46950117 0.14718415 0.5111346 0.33854613 0.0905185 0.7612489 0.20407537 -0.29098007 0.21334615 0.23027518 0.5431454 -0.25983086 0.03726533 0.34694973 -0.4248604 0.14901279 0.29606426 0.32609147 0.30012846 -0.022526585 0.47047234 -0.87043524 -0.1477079 -0.19112258 -0.51460195 -0.89037734 -0.085448064 0.18848886 -0.16859989 0.040127728 -0.29550803 0.031873252 0.56816465 -0.05351739 -0.19251497 -0.3713256 -0.53176326 0.3073035 0.46833706 0.23617475 0.16108334 0.48687238 0.674499 -1.0557041 -0.03394582 -0.39731136 -0.08884737 -0.10325972
2 0.49145973 -0.26725414 -0.40756184 -0.4903722 -0.22853146 -0.17779833 -0.11364815 0.4259107 0.04683904 -0.07471923 -0.0027224212 0.10694164 0.27948838 -0.3819492 -0.097062014 -0.07239591 -0.042160656 -0.23391771 -0.57128966 0.01441871 0.43533447 0.022824313 0.08379787 -0.08055577 0.08990643 -0.061853334 0.40989715 0.049129613 0.36991918 0.094156526 0.2831871 0.45633355 0.14349203 0.40966403 0.97299075 0.18677267 -0.343232 0.13181563 0.3012817 -0.4459175 -0.47113833 -0.38982186 -0.34933737 -0.0010087499 0.20257284 -0.458373 0.09595162 -0.22072291 0.22579974 -0.11585816 -0.22566988 -0.50065213 0.36684108 0.47437966 -0.18325329 -0.060052358 0.15149236 0.24931858 -0.24705574 -0.44939372 0.048690274 0.12200466 -0.29315993 -0.13899998
ratio 0.46627748 0.30739534 -0.39106196 0.24080442 0.08107693 0.034258578 -0.3125111 -0.3866989 0.32564706 0.16037193 0.096875355 0.118495636 -0.062945 0.32157618 0.121621706 -0.17536959 -0.5728697 0.16849376 0.20221637 0.45850813 -0.13866404 0.018092467 -0.023188697 0.18171257 0.30456603 -0.020251373 -0.19412868 0.7105314 -0.43174484 0.073343255 0.08409484 0.26454753 0.22482675 0.6355768 0.5146181 0.22816648 0.3878201 -0.8647838 -0.26004276 0.2029062 -0.5433972 -0.5350436 -0.33636937 0.008260705 0.06734978 -0.6225272 -0.03076149 -0.30724022 0.36211735 0.1293729 -0.10954571 -0.16684291 0.4039335 -0.16871385 0.17909186 -0.48195368 0.16876346 0.0016479013 -0.046196975 0.7776025 -0.0021144073 -0.116692185 0.05524666 0.12414429
isotopic -1.0369993 -0.57296675 0.0808157 0.08136375 -0.40824348 0.13168675 0.45242542 0.41924345 0.26575553 -0.21542563 0.023210185 -0.14090602 0.16210446 -0.05315183 0.18805039 -0.60974646 -0.016145276 0.3935389 0.06431127 -0.037796535 -0.22118871 0.39266598 -0.17099433 -0.6798747 -0.198942 -0.06641031 0.78935623 0.43978655 -0.28321612 -0.0995617 -0.6029141 0.5932231 0.3027744 1.1997683 -0.0014286354 0.25088736 0.3225668 -0.30968204 -0.18924263 0.20453328 -0.47049108 -0.6673449 0.30124584 -0.18286996 0.5383888 -0.33199984 -0.5266883 -0.11940514 0.059935093 -0.071452305 -0.15737563 0.3242261 -0.2732168 0.82546717 -0.066339485 0.45190063 0.08057274 -0.17507505 -0.42872775 0.6017677 -0.10256084 -0.2638304 -0.11803392 -0.10323406
1 -0.22277114 -0.14757667 0.18188111 -0.20575123 -0.2073703 -0.20392996 -0.06579494 0.16825935 0.1275064 -0.055894315 -0.35665658 -0.23691086 0.13387454 -0.29377002 0.8404353 -0.23324671 -0.10050808 -0.16916265 -0.61815906 -0.20075318 -0.33797073 0.17984894 0.29300815 0.4666318 -0.011660905 0.117615186 -0.29008147 0.13363168 0.5241977 0.36205482 -0.1713586 -0.009084633 -0.21191518 0.35374486 0.67118007 0.14781064 0.124423996 0.07854704 0.3509923 0.43135622 -0.0007921101 -0.8651006 -0.28622273 0.27880144 0.14193478 -0.19611642 -0.12875861 -0.0838797 0.33237895 0.2830516 -0.5761518 -0.13803186 0.2094148 0.22701016 0.03602136 0.14761913 0.19941702 0.49148715 0.22638176 0.15404876 -0.4364689 0.41839066 -0.35514286 0.11287009
fractionation -0.70182604 -0.021426022 0.4381677 0.11548368 -0.29418164 -0.302785 -0.40610224 0.49986878 0.051801253 -0.19669838 0.40745547 -0.054989643 0.1271439 0.22809023 0.46168214 0.23381765 -0.28869054 -0.4070086 0.57458645 -0.34150192 0.19370139 -0.03297509 -0.2538076 -0.74042714 -0.37327117 0.10998971 0.43910536 0.47496578 -0.10320328 -0.18522218 -0.51883465 0.42419598 0.435962 0.8549997 -0.046609614 0.22112797 0.4294482 -0.2770942 -0.054990567 -0.12396788 -0.48011807 -0.72252095 -0.09860356 0.5717453 0.6420212 -0.5305681 -0.4593774 -0.18786652 -0.9017639 -0.030315138 -0.19784686 0.2032975 -0.47230154 0.25085106 0.019921655 0.10768713 0.3144592 -0.2264182 -0.67588747 0.59599686 -0.13160145 0.0899198 0.13929006 -0.06352534
unit 0.34147242 0.28495505 0.012209358 0.30590212 0.2696623 -0.6347348 -0.20381032 0.34676895 -0.031798236 0.25032333 0.1535525 0.63311404 -0.17933053 -0.5671725 0.15064847 -0.19383547 -0.22493903 -0.19232328 0.2809172 0.050772406 0.13771506 0.80339193 -0.22032008 -0.12295248 0.10533196 0.57475173 0.2581167 -0.11785902 0.36231592 0.33361846 -0.21354836 0.22053787 -0.35788164 0.58394784 0.12306789 0.76266986 0.048980627 -0.87897515 -0.18965991 0.06970368 -0.57547015 0.077236496 -0.25076059 0.060880974 -0.24066333 -0.63986313 -0.820811 -0.55471146 0.3254272 0.046101317 -0.26485702 0.33902526 -0.41992807 -0.41036078 0.0608345 -0.009701654 0.117315866 0.28971007 0.42872694 -0.98147494 0.62276256 0.24183701 0.35517105 -0.67709136
wad 0.29012048 0.42664152 -0.53116286 0.42095172 0.47303122 -0.30699113 -0.017289538 0.08715374 0.4808298 0.69284505 0.07165908 0.14122514 0.059833102 -0.7450819 0.5734181 0.23725437 0.62357634 0.3068267 0.6556119 0.36095312 -0.11326172 0.7254825 0.32515278 -0.06423148 0.38479438 0.39863244 0.6672599 -0.12064099 -0.04086995 0.5076216 -0.50585765 0.07894417 0.20760866 0.35311416 0.31777266 0.044988085 0.65437025 -0.8729657 -0.22161147 -0.21281777 -0.58481693 -1.0232522 0.03704065 0.007168483 -0.2503651 0.045531556 -0.4950703 0.2259034 0.55134046 -0.12722921 -0.1477604 -0.51429164 -0.49881873 -0.054953955 0.5720675 0.21327525 0.13664614 0.39247146 0.58474153 -1.00939 -0.34265956 -0.46124044 0.1738542 -0.24904297
range -0.46862903 0.80497634 0.012984446 -0.0630482 -0.73339516 -0.23027492 -0.18198045 -0.29078758 0.1724439 -0.41278973 -0.27312216 0.40530488 -0.2762192 0.14810541 0.23635346 -0.33009994 -0.028635876 0.39305574 0.35975146 0.16718589 0.14514677 0.21311939 -0.31752172 0.17350598 0.40981203 0.045369446 -0.23888032 -0.007879827 -0.41414618 -0.11386638 0.07214168 0.47880152 0.5172955 0.48994744 0.3526436 0.16016187 0.4436472 -0.42575666 0.13389118 0.6912725 -0.001223335 -0.27020743 -0.15953007 -0.7507453 0.2863611 -0.22584933 -0.017355438 -0.22087675 0.030630048 -0.09908956 -0.1217721 -0.14062713 0.22645213 0.45031986 -0.008714442 0.05330441 -0.124907956 -0.3715926 0.04369978 0.083540015 -0.28977025 -0.07938689 -0.3106451 -0.6234728
content 0.8081365 0.6651376 -0.22666949 0.011614798 -0.090352766 0.1430275 0.70985514 -0.85623145 0.05727177 0.09395273 0.014491958 0.17977902 0.1933121 -0.8540955 0.2733158 0.011683404 -0.3893177 0.009608993 -0.044491086 -0.17463453 0.64901423 -0.008513544 -0.00013985038 -0.06677152 0.04403914 0.2381235 -0.021229168 -0.015949506 0.368795 0.12067379 -0.4082969 0.42600036 -0.3345745 0.2061443 0.10590106 0.069020584 0.17754123 0.1008882 -0.17976987 0.03869309 -0.32245648 -0.17547813 -0.3402085 0.119334795 0.14142686 -0.11376198 -0.50625706 -0.3898421 0.5923646 0.15650703 -0.56596553 -0.1470319 -0.46180373 0.6458824 0.026684092 0.056645025 -0.38398552 0.2612394 0.49404168 -0.24213335 0.3403011 0.35074654 -0.11929051 0.27732038
table -0.10491085 0.14045121 0.37530097 -0.23754333 -0.11700501 -0.58628714 -0.6058572 0.34472802 -0.14707693 0.2611466 -0.2053015 0.04467102 -0.11133822 -0.01177622 0.033643533 -0.43423733 -0.11114649 0.2421503 -0.5895797 -0.18105048 0.98167914 -0.045670033 0.047951706 0.052634176 0.17973079 0.054277103 -0.25650254 0.33423495 0.34611756 -0.109199554 -0.042423125 0.1987423 -0.34554046 -0.07714208 0.27248365 0.20212775 -0.029211398 -0.20441976 -0.29092455 -0.030187441 -0.4697975 -0.3741427 -0.1372453 0.34938413 0.13407438 -0.35167512 -0.2681886 0.22903453 0.3113011 -0.37336785 -0.031757914 0.33065277 0.021668963 -0.094674475 0.07418474 -0.30141076 -0.2147425 0.44049373 0.25226864 0.30399156 -0.4434199 -0.30176643 0.4028632 -0.16420346
chalcopyrite -0.8081254 -0.07421857 0.3596647 -0.514809 -0.41451886 0.07225111 0.27364412 -0.15425675 -0.22424586 -0.014408877 -0.3053654 -0.23216304 0.22833738 0.30413753 0.58918136 -0.63359565 -0.07808047 0.3782862 0.66890526 -0.32131964 0.03427805 0.7502866 0.5231408 -0.0005712092 -0.31459343 0.028865578 0.16269225 0.81531256 0.05579 -0.4065387 -0.60211116 0.40185326 0.3410281 0.3827679 0.2592515 0.3629866 0.18820252 -0.12580796 0.22727504 0.13429292 -0.37783763 -0.6723131 -0.50111717 0.026544321 0.004169388 -0.5844912 0.51005626 -0.30355743 -0.8256222 -0.51997596 -0.6162842 -0.36452755 -0.4230597 0.18737249 0.70517725 0.24274778 0.19899572 -0.42681578 -0.51811004 0.22427164 -0.20951095 -0.23594724 0.8102189 -0.15985905
sulfide 0.20842102 -0.13157672 0.273024 -0.41753405 -0.3111629 0.19804548 0.6376578 -0.17265315 0.041170258 -0.017572733 0.15972973 1.0186032 -1.1424046 -0.42407843 0.26866522 -0.29964736 0.1625259 -0.09526765 0.017510556 0.0135439215 0.31800058 0.57455873 0.27404344 0.06939152 -0.30053645 0.14705572 0.4250956 -0.2299882 0.0114987595 0.06930702 -0.36899707 0.1161264 -0.058511738 0.40781727 0.4232121 -0.15405339 0.06722219 -0.4561593 -0.11055199 0.19358543 -0.37880924 -0.1614859 0.038581666 -0.8023487 0.6019947 0.19370255 -0.5583005 0.0970748 -0.0523403 0.020078192 -0.6355087 0.6779162 0.28012633 -0.109166555 -0.3687056 -0.10685339 -0.04041179 -0.020778293 -0.049919583 0.45785016 -0.40744168 -0.13867292 0.29447633 0.21317333
fe -0.09759725 -0.22809266 -0.098284386 -0.3058822 -0.75671905 0.05599756 0.3503339 -0.1843877 -0.09020063 -0.18209456 0.42025 0.35562173 -1.0022874 -0.092849776 -0.08970021 -0.38218388 -0.2921176 -0.061904863 0.31513786 -0.0025141519 0.28434917 0.7096426 -0.15968896 -0.36319897 -0.12231629 -0.18964194 0.41501948 -0.483182 0.023131909 -0.061733782 -0.46747467 0.24038857 -0.5070982 -0.14791599 -0.051465474 0.49065018 -0.12680618 -0.29552335 -0.22598769 -0.0049724327 -0.57762396 -0.40044898 0.07599946 -0.36294985 0.28241187 -0.08279197 0.12785083 -0.12017989 -0.3665418 0.116099834 -0.3926427 0.12437942 -0.24672583 0.51846266 -0.13161945 0.033924952 -0.48139095 -0.06128353 -0.22711135 0.58880025 -1.0527887 -0.14779681 0.74864244 -0.17656144
indicate 0.119287245 0.32422528 0.037449513 0.17242219 -0.15862958 -0.7898301 0.3170491 -0.24043459 0.43648818 -0.32566252 -0.42805818 0.23793574 -0.44404587 -0.054317802 0.00022695248 0.44895446 -0.10739055 0.28352132 0.61977816 -0.034968205 0.33709764 0.20346865 0.011590376 -0.39738014 -0.38472393 -0.11188403 0.12962213 0.45495093 -0.8158019 -0.2030985 -0.2790035 0.121204644 0.20069604 0.6927178 -0.009913964 -0.16649468 -0.123191446 -0.29567257 0.34091914 -0.16984355 0.0683916 -0.27076322 -0.047892436 -0.24784873 0.07176433 0.087546825 -0.3826016 0.39644456 0.3629849 -0.08027109 0.608476 -0.10192733 0.68688285 -0.23985164 -0.043748364 -0.77677727 0.3354283 -0.14215668 0.055085752 0.7565581 0.3216234 -0.65833783 0.10393751 -0.25696108
system 0.20919268 0.036473274 -0.0769235 -0.3661651 -0.3052423 0.15661892 0.041101024 -0.13364531 0.6245144 -0.4020618 -0.58106875 -0.0047924905 -0.08626427 -0.56994927 -0.34111118 -0.13281073 0.4085126 -0.6022249 0.026083892 0.19110927 -0.23737232 0.13761452 0.6721795 -0.34815153 0.0024855977 0.67666817 -0.10588155 0.620423 0.27393326 -0.14992297 -0.51864195 0.15137461 0.16341667 0.7670976 0.14118794 0.27882555 0.16094825 0.751579 0.2401591 0.26894307 0.48780942 -0.18636493 0.5639593 0.0791899 0.34912804 -0.21861291 -0.78550947 -0.55264217 0.40384808 0.34549376 0.028761052 0.07703253 0.05962985 -0.27245507 -0.2620066 -0.23254755 0.41823456 -0.026295781 -0.11362193 0.2658623 0.13240965 -0.2782933 0.044766605 -0.27735487
chlorine 0.23439 0.56674594 -0.42998436 -0.10852602 0.01627555 -0.6807435 -0.122118235 -0.6010841 -0.19089144 0.24835026 -0.025497025 0.07415925 -0.49561492 -0.23985635 0.2973172 0.32230705 -0.5300277 -0.07770101 0.46467492 0.49560913 0.08373672 0.4834077 -0.47445905 -0.36842534 -0.09879589 0.82998425 -0.10127096 0.10277187 0.57848674 0.42263868 -0.2226711 0.3485334 0.47194818 0.5398208 0.63516 0.103732795 0.12767354 -0.7553599 -0.11717026 0.38698867 -0.5384384 0.11265381 -0.016506795 0.45031315 -0.06628766 -0.14857854 -0.56683815 0.069097355 0.045468647 -0.051366195 0.011886953 0.11379533 -0.449563 -0.06147586 0.07986943 -0.24170423 -0.4987447 0.34750974 0.9647129 -0.78254634 -0.0058632474 -0.47609526 0.27356148 0.04584615
occur 0.40350705 0.4352964 0.30667993 -0.24419238 -0.40311646 -0.3858788 0.103582315 0.3906779 -0.11396335 -0.34588927 0.05496439 0.12173428 0.12823528 -0.11097581 0.1989478 -0.01772438 -0.43733814 0.30988744 0.6107145 -0.005890767 0.08457485 -0.55203813 0.096054375 -0.051860526 0.28461018 0.05362567 0.60038763 0.327818 -0.010611583 -0.113256834 -0.49898303 -0.058460776 0.12204607 0.5157122 -0.40026376 0.09902703 0.58376426 -0.10842441 0.23190355 -0.14074872 0.29715762 -0.5571079 0.19985788 -0.029127184 0.26706988 0.33336774 -0.34904942 0.5210911 0.1905717 -0.5593457 -0.048526555 -0.7856158 -0.08627627 -0.16798896 -0.105848566 -0.43429995 -0.01806382 0.24594742 -0.26695275 0.08177678 0.14505306 -0.33507824 0.24561024 -0.3268741
/ 1.181922 -0.015118617 -0.03642892 0.29796928 -0.25649485 -0.24095958 -0.72595716 -0.621658 0.32008758 -0.2408263 -0.00847397 0.09087359 0.021014724 0.21893878 0.7765701 -0.213377 -0.7814541 0.35209647 -0.034496963 0.54916024 -0.17323649 0.013023372 -0.023552237 -0.12208741 0.0064545083 0.019564062 -0.23863348 0.021198642 -0.57370377 0.5126425 -0.23732263 1.0693693 0.194548 0.70832014 0.5345346 0.68295157 0.79317683 -0.41634613 -0.098668665 0.15628158 -0.45036313 -0.3880221 -0.85219 0.109302856 -0.4888528 -0.089591555 -0.017168127 -0.19861305 0.0027122053 -0.07997444 -0.039714668 -0.17873718 0.62563753 0.016803902 -0.3574604 -0.47078 -0.2956861 0.46992904 0.14519255 0.21247995 -0.2853471 -0.073569 0.19643071 0.1989422
temperature -0.15747796 0.14656526 0.42212212 -0.2593759 0.166463 0.35593942 0.5426969 0.65843296 0.4378946 -0.6337913 0.18988436 0.075805314 0.01690638 -0.29127634 0.19717011 0.043452486 0.10839068 0.21641374 0.38720092 -0.03227648 -0.21620056 -0.037132524 -0.10636911 -0.42480603 -0.33918586 0.8503345 0.32615933 0.19742878 0.28477746 0.30326468 -0.5497559 -0.287032 0.071052186 1.0434588 -0.100862 0.22000061 -0.27008513 0.157181 -0.21778086 0.1272875 -0.21918975 -0.9144295 0.16532496 0.16927737 0.22363192 -0.19457622 0.06726143 -0.059049927 -0.57972234 -0.32891667 -0.60147 -0.18863648 -0.20617902 0.8067426 -0.111237995 -0.094316535 -0.3254557 0.014445539 0.016234227 0.68475777 0.15109631 -0.13942215 -0.2136522 0.06618167
upper 0.03832544 0.17074664 -0.24561024 0.08043429 0.32953066 -0.5195954 -0.018399121 0.3538216 -0.07551777 0.50370467 0.0051199743 0.087884404 -0.064593315 -0.53704655 0.23237854 0.31863695 0.11983021 -0.038835783 0.20552377 0.28241083 0.14431871 0.53810555 0.14341424 -0.26507726 -0.057219133 0.6406571 0.2784634 -0.23641893 0.6809303 0.33512646 -0.02442536 -0.10504692 -0.2855219 0.44357136 0.12915659 0.57069653 0.33625865 -0.97882986 -0.1146834 0.13701189 -0.5485883 -0.41947386 -0.24905904 0.081755176 0.07384009 -0.37819675 -0.97842133 -0.5431017 0.28578845 -0.15445115 -0.44331756 0.15363085 -0.6561142 -0.4062267 0.18115157 0.15907274 -0.06880926 0.45789722 0.5702691 -0.904587 0.10559877 0.040588446 0.21046548 -0.6410336
type 0.55948806 0.4841129 -0.5171436 0.0060825595 -0.6058564 0.025899552 0.21860474 0.07730927 0.049143244 0.054259 -0.08866841 -0.006351495 -0.4789057 0.10742777 -0.4542054 -0.5602798 -0.029720748 -0.14406678 0.12927213 -0.524825 0.51105815 0.10239947 0.17375325 -0.040657807 -0.14674357 0.10053482 0.3618568 -0.566467 -0.072260454 0.20607144 0.096278764 0.49133432 -0.13877484 0.39612484 0.6787865 0.8200644 -0.49498567 0.0017192359 0.7758732 -0.2847955 -0.16492712 -0.5569895 -0.12625918 0.6888533 0.12348047 -0.33863944 0.35786888 0.089378566 -0.24084575 0.22526042 0.15189359 -0.5857764 0.8343826 0.07944675 -0.9016228 0.31590563 0.10598619 0.5397998 -0.06690862 -0.48252007 -0.09389719 0.2901284 -0.34046948 0.022220394
age -0.15365408 -0.5278175 -0.2712692 -0.024895258 -0.21629448 -0.8430492 -0.3127475 -0.9350134 0.33435884 -0.6116785 -0.95991623 0.047576685 -0.53666556 0.20605065 0.35437205 0.46369806 0.50334066 0.30277672 0.17273034 -0.09020201 1.1120936 -0.58304673 -0.075863965 0.408076 0.15344398 -0.35470107 -0.06612196 0.14670055 0.82698953 0.45418417 -0.14468497 -0.48690656 -0.09406676 0.56995726 -0.31198144 -0.4940034 -0.5307611 0.22265452 0.09533996 -0.21614236 -0.20443912 -0.78488356 -0.16222286 0.4736372 0.22812718 -1.2234327 0.2599371 0.12674333 0.21020679 0.14868447 0.17421237 0.16680361 -0.1405266 -0.18111765 -0.2639533 -0.45349753 0.17273726 0.08728225 0.27914456 -0.44723707 0.20339827 -0.34468368 0.29201257 -0.2575419
suggest -0.1381546 0.47524768 0.63403445 -0.00018721704 0.025951553 -0.08610871 -0.110090815 -0.119485706 0.57580423 -0.068849064 -0.28503004 0.018616207 -0.39407074 0.24753338 0.3741389 0.6870274 -0.011213946 0.019130163 -0.009284011 0.1899447 0.3286355 -0.89028114 0.18869852 0.011735395 -0.3814003 -0.17244153 0.18912607 -1.134294 0.22944185 -0.03631951 -0.20307171 0.056644592 0.017573101 0.48834848 0.30933195 0.5888136 0.27045262 0.15037593 0.03173667 0.32287583 0.16111737 0.11273634 0.17355546 0.7876459 0.30138958 -0.9393281 -0.06651574 0.19675156 -0.5342093 -0.27924064 0.1359876 -0.19954354 -0.117669314 -0.43869394 -0.011080925 -0.29715464 -0.094518706 0.04156209 0.19710569 0.10133499 0.13410214 0.25938788 0.039134894 -0.41258168
distribution 0.58021075 0.08044577 -0.33285573 0.01342674 0.16673024 -0.32313877 0.7753338 0.34825078 0.036903616 0.79389024 0.099427745 0.36569384 0.63689977 0.29631454 0.4748722 -0.09092075 -0.26681802 0.026702195 0.29874748 0.47398847 0.19002959 0.31763583 0.0935709 -0.25045973 -0.16941477 0.40231392 -0.008403732 0.26842737 -0.0023980658 0.495785 -0.26834238 0.043351352 0.1721745 0.050137103 0.48652697 0.44717416 0.88794285 -0.76458895 -0.31064114 -0.1810262 -0.016591284 -0.25302678 -0.2796637 0.03221621 -0.24885538 -0.643026 -0.5183378 -0.18227611 0.37074918 0.43553564 -0.050741244 -0.3160312 -0.19842698 -0.30531806 0.3495368 0.006911435 -0.15444346 0.33884758 0.21983331 -0.5164085 -0.09392882 0.06198654 0.4400032 -0.12738265
form -0.108555295 0.75908405 -0.2125254 -0.09178987 -0.09017082 -0.46110624 0.8048226 0.039708838 0.066296384 -0.21060221 0.47847965 0.108793154 0.25661126 -0.20463942 -0.2668813 0.812628 0.053452592 0.4608032 0.3834722 -0.04898168 0.35255733 -0.15347971 -0.20818847 -0.35299736 0.07174313 0.8816258 -0.11046734 -0.029010113 -0.14429736 0.009445135 -0.32465678 -0.13189206 0.10933202 -0.4203909 0.57886034 0.6685218 0.20594619 0.30140418 0.71581066 -0.12849502 0.5776183 -0.15537661 0.36330122 0.3224897 0.026455248 -0.5856282 -0.982504 -0.20995688 -0.19083333 -0.09584018 0.16344781 0.1795983 -0.26650193 -0.66911936 -0.068273105 0.037277132 0.12074545 0.10892246 0.37480935 -0.02217979 -0.44609123 0.2247253 0.45217195 -0.15754102
present 0.017705679 0.35130823 -0.20907553 0.012165689 -0.00096245226 -0.22179879 -0.28681454 0.27671748 0.35284302 0.3294787 -0.4333496 -0.18832222 0.49547756 -0.02424784 0.33265612 0.3835945 0.6055569 0.20697872 0.46494672 -0.22944362 0.21576518 0.77026343 -0.019616123 -0.311114 -0.12635958 0.83130383 0.39619765 -0.02548979 -0.31975687 -0.24943516 0.11829674 -0.067615 -0.41010964 0.39612517 0.29891893 0.07149698 0.33225846 -0.5810029 -0.080867104 -0.047059793 -0.0807459 -0.44574416 0.10157908 -0.09079717 0.32152683 0.0031572136 -0.9422353 -0.010122335 -0.07436369 -0.19311866 0.25570658 -0.36571768 0.023832262 0.16071053 0.21618712 0.036627125 0.11979541 0.6006458 -0.3129531 -0.42104048 0.2300535 0.16838335 0.61061126 0.22751082
: 0.6439262 0.34009802 -0.4541301 -0.5308953 0.062493887 0.08553786 -0.053082768 0.1776982 0.056563094 0.43042818 -0.36606026 0.14871341 0.63933796 0.17903101 0.0937901 -0.3320605 -0.053640112 0.2156848 -0.16848488 -0.022262359 0.044770792 0.033040226 0.33155346 -0.23399557 0.20046183 0.373432 -0.30922803 0.7786479 0.49804398 0.40960714 -0.19469659 0.17841947 -0.14773205 0.91104144 0.6961526 0.82770115 0.6525947 -0.3714263 -0.24912113 -0.5009274 -0.44726172 -0.5506836 0.44935873 -0.30383435 -0.15347323 0.29948497 -0.4557818 -0.04771207 0.73063475 0.7435404 0.46500248 0.06607675 0.351481 -0.5848272 -0.11532928 0.15236616 1.164741 0.03793254 -0.06353359 -0.44424763 -0.5300842 0.08834659 0.5343965 0.17524801
mo 0.5860237 0.113273725 -0.3394618 -0.18597692 -0.2670303 -0.5505641 0.25683632 0.35622522 -0.3894469 -0.32223845 0.56499916 0.25122887 -0.21147119 -0.29770973 0.4088121 0.20695083 -0.4119758 -0.26431686 -0.12883627 -0.5605226 -0.16553226 -0.2090333 -0.037750307 0.37019032 -0.04457623 -0.33425865 -0.20426835 -0.26569226 -0.26057574 -0.05938323 -0.45630115 0.07828107 -0.34410587 0.10781391 0.028771272 -0.035635542 -0.5060751 0.29641023 0.9054757 -0.015539606 0.23080824 -1.0252762 -0.7949355 -0.046651512 0.38103196 -0.45864603 -0.49329498 -0.12528262 0.020594517 0.049084794 0.17000823 -0.23502636 0.098665066 0.19851547 -0.0069446596 0.35188922 -0.35375193 0.4290098 0.4809088 -0.11556974 -0.30845687 -0.42577562 0.23507404 -0.5151965
variation -0.3983145 -0.32289872 0.10875536 -0.00037491057 -0.44012967 0.06739845 0.31095782 0.38284487 0.3460171 0.4149657 0.27584714 0.35511807 -0.111471616 0.09211697 0.36177385 0.04120059 -0.14927213 0.14291899 0.49807256 -0.3004541 -0.019100985 0.7853719 -0.25338796 -0.21412858 -0.5274973 0.20184785 0.50448155 0.6648299 -0.60983086 0.03474836 -0.26362124 0.5377659 0.42725408 0.99060845 0.09096297 0.19025993 0.3561979 -0.19357117 -0.33308 0.03103281 -0.3732926 -0.71651065 0.13355221 0.106456436 0.20044017 -0.45852333 -0.50781447 -0.123764336 -0.21571438 -0.39155456 -0.16081163 0.15168943 -0.30094424 0.20573454 0.26450604 -0.008561567 0.0547012 -0.021032577 -0.3921217 0.6811362 -0.3527364 0.027753394 -0.08620241 0.027364071
late 0.1390794 0.25248346 0.0723191 -0.046400834 -0.24364813 0.11885858 0.08057319 -0.14390007 -0.17272462 -0.24519101 0.118680015 0.11284269 -0.57406455 0.19149445 0.15588869 -0.41037196 0.012489478 -0.62508196 -0.004718981 -0.4655547 -0.06391929 0.09084717 0.26980275 -0.64427793 0.78854275 -0.017446073 -0.33198208 -0.752293 -0.02089341 -0.17540896 -0.41043723 0.3445181 0.13117981 0.47795287 -0.20967937 0.044773668 0.13388018 -0.17579629 0.6411182 0.20411678 0.414755 -0.8333613 -0.2201186 -0.6826271 0.78320587 -0.26909047 -0.21245198 0.2655878 -0.19666451 -0.10818971 0.1068056 -0.037791733 0.37205234 -0.45491102 -0.007947694 0.03147045 0.046044346 -0.14829223 -0.13887884 0.40442735 -0.1827472 -0.81588465 0.4359286 0.3442471
composition -0.4305745 0.1492696 0.20955059 0.3273259 -0.16087729 0.4112074 -0.22871746 0.20456627 -0.09933007 -0.84346414 -0.5146422 -0.27286065 -0.15918355 -0.06734864 0.38764215 -1.1073015 -0.31784615 0.32390183 -0.28405097 -0.18409437 0.06281843 -0.19548233 0.089879856 -0.17265844 -0.1254284 -0.14683607 0.21323368 0.20124985 0.4873013 -0.01453312 -0.72077966 0.5705224 -0.1670335 0.7459409 0.2475454 0.43196276 0.4331913 -0.028003504 0.24485244 0.16782627 -0.49654916 -0.7031406 -0.34592345 0.2279614 0.2543593 0.18826841 -0.013141651 0.20403133 0.38871598 -0.43067256 0.35955065 0.27516496 -0.22114597 0.3634909 -0.4773068 0.18155473 -0.36399263 0.4877719 -0.5089764 0.45852754 -0.14574897 -0.16931567 -0.12055731 -0.57551444
part -0.071467295 0.1339314 -0.55677533 0.2814801 0.19657058 -0.50522184 -0.052768975 -0.50419253 0.031697366 0.00062045426 -0.32791242 0.39638907 -0.4886203 -0.3028795 -0.7097407 0.27645984 0.27237272 -0.02128331 -0.04187063 -0.37399292 0.59161705 0.66455877 0.835336 0.43499562 0.2511245 -0.005784063 0.3556992 -0.107727505 0.37435025 -0.32838675 0.43212906 0.056767646 0.022980714 0.46313104 -0.15008295 0.3690708 0.3724528 -0.50761425 0.023225619 0.9507437 0.16075112 -0.20520952 -0.29730493 -0.27885926 0.5585849 -0.45141676 -1.0522536 0.18182728 0.39936152 -0.5854102 -0.32014084 -0.05015782 0.15319715 -0.6528581 -0.24513954 -0.46016902 0.675683 0.2769943 -0.035991594 0.21158609 0.22708735 0.091890134 0.659224 -0.5357397
au 0.43938196 -0.019636387 0.37497163 -0.42123872 -0.15272579 -0.9087454 0.07603736 -0.2210615 -0.23554018 -0.53349036 -0.3694654 0.5411371 0.4528849 -0.08085011 -0.21061996 -0.6527066 0.0645355 -0.04556846 0.59805477 0.07188586 -0.24088797 -0.7603001 -0.26075205 -0.024115143 -0.0043764617 -0.4005508 0.6466241 -1.020613 -0.34098443 0.0058153234 -0.55723524 0.16720138 -0.38177574 0.5374391 -0.3163489 0.39655843 -0.16952753 0.23624314 -0.23330663 -0.530777 -0.106100716 -0.7236623 -0.3875346 0.14291656 -0.14676705 -0.9675017 -0.21443224 -0.1978783 -0.18966539 -0.1289633 0.33121222 -0.030959208 0.37890947 0.3762517 0.301374 0.09879829 -0.26512337 0.09516905 0.8633322 0.39485618 -0.2665527 -0.28461498 0.0809504 -0.65283126
coroccohuayco -0.7086107 0.84417623 0.16611387 -0.2091637 -0.3351562 -0.0520225 0.45631462 0.43892184 0.12096359 0.2931939 -0.06588154 0.44859505 -0.2774985 0.46214983 0.39769527 -0.19679916 -0.26612094 -0.0038235795 0.49403304 -0.40876138 0.28777504 0.5436563 -0.3222251 0.077755824 -0.20146163 0.05983186 0.5100894 0.14616373 0.03238487 -0.58228564 -0.27573964 0.3545159 0.9479799 0.63416183 0.35940164 0.09984651 -0.033230674 0.21567893 -0.603301 -0.020339528 -0.41650853 -0.40978277 -0.26407364 -0.41435805 0.40145373 -0.46085107 -0.39075065 -0.15067063 -0.44442832 -0.83526886 -0.15928328 -0.2313735 -0.3193594 -0.12100254 0.25135878 0.004085532 0.09763275 0.15334149 -0.5601007 0.8591845 -0.0029060657 0.034944627 0.060822185 -0.27019417
3 -0.14336492 -0.10120898 0.5274047 -0.2980623 -0.3231179 -0.21230376 -0.22482587 0.38017517 -0.21565181 0.29208305 0.4453031 0.012557004 -0.3680222 -0.53630346 0.5491695 -0.62483174 -0.6618232 -0.23378281 0.078716435 0.088515066 0.46449533 0.7292499 0.18262182 -0.28969583 0.13865283 0.028470604 0.53000987 0.5319237 0.6647802 0.75553226 0.10516649 0.085572064 -0.33185175 0.22231068 1.0402137 -0.7405774 -0.03231129 0.1996949 -0.00973653 -0.075798556 0.24668889 -0.17880705 0.61315364 0.23697451 -0.41235343 -0.7963376 0.25363398 0.08868046 0.43080404 0.099305294 0.21229944 -0.12536354 0.7141554 0.30268052 0.09426836 -0.47310963 -0.035373095 0.56447804 -0.055778418 -0.7008179 0.35629487 0.8655384 0.29281476 -0.1919077
wt 0.7715191 0.81509525 0.34791297 -0.5010989 0.33566242 0.2399941 0.24159487 -0.19521238 0.27924448 0.1424953 -0.44281828 -0.10505724 -0.82199585 -0.21904288 1.2103652 -0.1493455 -0.6469565 0.11633948 -0.66392195 -0.21596517 0.862292 -0.12966333 0.35413 -0.12611492 0.07860532 0.41025952 -0.24274355 0.17962848 0.35121357 0.43196532 0.40495542 0.4009397 0.24796715 0.2323344 0.32147723 -0.68172455 -0.6843514 -1.0160083 0.42283142 -0.17651442 -0.24422532 -0.2056675 -0.04416404 0.02881478 0.68723863 0.009229556 -0.414223 0.009403263 0.5944321 -0.046661507 -0.31969795 -0.86737895 0.3657684 0.21755344 -0.052360296 0.6562883 0.3008889 -0.010798435 0.040154383 -0.33247435 0.031033736 0.35548222 0.09318954 0.14644189
6 -0.03549142 0.46022376 0.12558706 -0.24097653 0.288643 0.13242888 0.86557716 -0.4774716 0.88821095 -0.049768887 -0.081811346 0.47457537 0.72889847 -0.4622135 0.5324792 -0.6532015 0.280007 0.15593308 0.620168 -0.43671 -0.11823826 0.20527339 0.35165694 -0.6354177 1.158782 0.18718824 0.090376005 0.14759004 -0.6592504 -0.47225356 0.15268494 0.77420795 -0.8325842 0.8138932 -0.33696344 0.0811483 -0.15233596 -0.34964323 0.19201383 0.7756534 -0.4485712 -1.0437064 -0.00073273055 -0.10478 -0.3611231 -0.04734517 0.14290042 -0.58264446 1.0478017 -0.5418437 -0.26145813 0.14954022 0.6345584 0.2867347 0.068274766 -0.65416497 -0.4052934 -0.33705518 -0.000275344 -0.09874903 0.122173995 0.20436285 0.6109384 -0.01593633
solution -0.7051195 -0.25444773 -0.41189015 0.3000215 0.087317474 -0.80366975 -0.24679641 0.4434451 0.64896566 -0.3026699 -0.25763088 -0.63543904 -0.25539285 -0.7030423 0.64978623 0.3377645 0.5860549 -0.36283427 0.12829661 0.16138195 0.12771788 0.15124317 -0.48471472 -0.58815575 -0.21292602 -0.005861743 0.67106044 -0.51137894 0.75620174 -0.55794835 -0.4003489 -0.52134943 0.09001101 0.4319631 0.5017049 0.62916875 0.6853344 -0.5208206 -0.26506686 0.27458757 -0.72433937 0.16987774 0.124100134 -0.12946683 0.46481156 -0.22808847 0.1333662 -0.7198259 0.3472759 0.5064206 0.8355082 -0.027698893 0.004398033 0.62599045 0.09818548 0.27808404 0.021871518 -0.033473104 -0.52508885 -0.43624684 0.102875605 0.71333104 0.6401102 -0.51480234
intrusion 0.50833607 -0.12734653 -0.18030995 -0.2694789 -0.33644193 -0.5750348 -0.08210547 -0.10673476 0.4708483 -0.29055157 -0.0801139 0.26689693 -0.37072447 -0.44701487 0.26987728 -0.0627006 -0.26982868 0.351402 0.3497771 -0.07507166 0.01184842 -0.38496432 0.23159035 0.107959524 -0.09788156 -0.19515614 0.11357138 -0.49562988 0.07389576 0.3513056 -0.28474358 -0.69823205 0.3588499 0.17059985 -0.42171422 0.14946997 -0.34907264 0.7350683 0.111478634 -0.25323597 0.009461018 -0.6911313 -0.51266503 -0.24402551 0.09475072 -0.6620804 0.17742197 -0.27752903 -0.26700974 0.047893237 -0.35939574 -0.14775662 0.44567353 0.18135044 0.67846584 -0.54348016 -0.0028392524 -0.16153651 0.48209774 0.49400923 -0.37191677 -0.5799488 0.38647854 -0.27008933
show 0.18207105 -0.086623736 -0.07379589 0.20674306 -0.05139588 0.84857714 0.7967961 -0.062257424 -0.21502386 0.22991242 -0.60452634 0.7097278 -0.13486722 0.5905334 0.116665 -0.49939743 0.40985557 0.25129864 0.27925524 0.69829696 0.5720637 0.37302262 -0.018573834 -0.12892208 0.3165923 0.24543308 -0.40342608 -0.08121337 0.22241685 0.5144608 0.15149666 0.2978109 0.60330987 0.115292735 -0.25125375 0.9119621 0.575485 0.30003285 -0.186841 0.07502916 -0.75410753 0.0014666687 -0.40838784 0.37003806 0.10209401 -0.9614225 -0.3797397 -0.14518724 0.34616882 -0.073729 -0.4439678 -0.5949501 0.4019859 0.58625567 -0.097141676 0.04649177 -0.29224122 0.04747134 0.29186586 0.27665493 0.1547626 0.107843995 -0.017350808 -0.31572744
skarn -0.69303936 0.9894234 0.11332221 -0.34511968 -0.24404353 -0.25652465 0.4413416 -0.00973508 0.21162276 0.105382994 -0.1348088 -0.06627894 -0.103620395 0.3903268 0.28987783 -0.11703873 -0.43322164 -0.12179997 0.4392274 -0.5194234 0.28934425 0.82919556 -0.15267228 -0.011535982 -0.36441904 -0.23220913 0.3424284 -0.09154486 -0.1400472 -0.53320354 -0.26970416 0.41780448 0.66701686 0.7838611 0.5207576 -0.15495138 -0.077378616 0.18730535 -0.62471986 0.20419367 -0.13628387 -0.5606796 -0.36101708 -0.4416405 0.40686134 -0.30763078 -0.23270114 -0.51053476 -0.40443167 -0.7931496 -0.418864 -0.066751555 -0.19933368 -0.44307157 0.19908762 -0.11938739 0.07419401 -0.03170113 -0.3597746 0.5498502 0.12513097 -0.31320488 -0.17984995 -0.033169523
tintaya -0.7160132 0.49718177 -0.19507101 -0.20651199 -0.18142675 -0.03162737 0.7249004 0.1965512 0.36638615 0.1393568 -0.015191177 -0.06169369 -0.26488993 -0.2991147 0.21574348 0.07900489 -0.62049776 0.0179411 0.55187714 -0.73392963 0.19884034 0.7241305 -0.60517555 0.29613546 -0.09449689 0.101724096 0.36192393 0.1412191 -0.6128034 -0.17481229 -0.019847326 0.26323357 0.4934182 0.20662174 0.5066803 0.27251077 -0.09254084 0.10794185 -0.5308483 0.25138956 -0.15828885 -0.6627869 -0.0949936 -0.7596066 0.6630019 -0.64130026 -0.2402556 -0.09332833 -0.04622693 -0.73865247 -0.35147622 -0.09828459 -0.3735654 -0.08525745 0.07243854 -0.04909536 0.3783474 0.081570685 -0.16546679 0.80060387 0.0168679 -0.085007966 0.30737728 0.0029751186
per -1.0398042 0.46461856 0.4560354 -0.20158201 -0.77540964 0.17378573 0.009658011 0.3953918 0.31190896 -0.34796014 -0.12991977 -0.19338828 -0.011514075 0.71664095 0.58997285 -0.30138612 -0.18332182 -0.06808394 1.1741388 -0.44168553 0.41055948 1.0871719 0.4292314 0.49626392 -0.06801813 -0.37639505 -0.22100082 0.7480257 0.5734762 -0.8031415 -0.45259836 0.30662525 0.5955827 0.28604066 0.74403423 -0.35955647 0.29326004 -0.5943642 -0.53749 0.90980804 0.11979019 -0.059136733 -0.65116143 -0.13062398 0.13188991 -0.66685563 -0.66066784 -0.27315804 -0.004971621 0.6033919 -0.13722335 -0.27914613 -0.226369 -0.26356897 0.04502172 -0.018921103 0.20091434 -0.36665034 -0.3278637 0.07616212 -0.39291877 -0.27232146 0.21412516 -0.10734272
similar -0.4375736 0.13984773 0.73022515 -0.118745506 -0.23535775 0.41560498 0.060720168 -0.06123212 0.061117213 -0.68018764 0.15944622 0.17813392 -0.17790234 -0.55705106 -0.16791373 -0.42139187 -0.23679483 0.8499219 -0.21437335 0.13390298 -0.27121902 -0.41506627 -0.27337092 0.16066743 0.44281033 0.5258737 0.086164765 -0.505921 -0.48112848 -0.1834399 -0.19332595 0.109908946 0.22945222 0.063523926 0.7928435 0.215585 -0.51725924 -0.585323 -0.16893965 -0.11160133 0.17345227 -0.459713 0.072086394 -0.38312083 0.45467058 -0.7350753 0.14801332 0.065819174 0.6809237 0.12090217 0.15739605 -0.20340016 -0.045188032 -0.6382494 0.18925442 0.47846407 0.75750315 -0.16390215 0.14970227 0.16496968 -0.024347045 0.09874875 0.447679 -0.2550408
cl 0.40314198 0.20785595 -0.68805814 0.6789773 -0.03259302 -0.120727316 -0.4272832 -0.09761253 -0.10203398 -0.011773671 0.20949237 -0.14684278 -0.42178118 0.1871051 0.67166215 -0.28543574 -0.44571432 0.07670678 0.6849102 0.3142896 0.036054872 -0.08413254 -0.05275471 -0.37879083 0.2902375 0.34652942 0.16378565 0.28897282 -0.1296963 0.8439683 0.25274798 0.051773846 0.68190616 0.41895398 1.1178094 0.35154644 0.8902543 -0.6425232 -0.2189876 0.011087231 0.08520768 0.100585215 -0.6821865 -0.048283115 -0.23011877 -0.722001 -0.21127948 0.04373765 0.9667608 0.29185367 0.025254209 -0.29873523 0.13430801 -0.34558496 -0.020616373 -0.4018188 -0.15316994 0.18670712 0.6431208 0.29843104 0.17995453 0.4536168 0.46797103 -0.4022881
main 0.09494288 0.5426223 -0.06470668 0.63647664 0.0590743 -0.53554416 0.55283725 -0.53879076 0.00078270055 0.17559332 0.3580313 0.24586232 0.386873 0.2769566 0.07609017 -0.16460668 0.25447655 0.18207198 0.5757266 -0.25147724 -0.1382206 -0.08534 0.59417355 -0.17676543 0.23157598 -0.058943216 0.19113387 0.04896878 0.3741784 0.16275579 -0.013555618 -0.26710668 -0.08973818 0.86851907 0.20859462 0.42463875 0.26260406 -0.9417412 -0.34056804 -0.46413848 0.17402658 0.46286246 -0.81493145 -0.2344301 0.17446508 -0.6733871 -0.38367313 0.0027843914 0.54113424 -0.13332464 -0.25376567 0.2776371 0.5617006 0.50187695 -0.011939922 0.24598923 -0.34581473 -0.15205866 0.35948685 -0.03348266 0.06695059 0.04175681 0.19887407 -0.29951495
quartz 0.7373417 -0.7638372 0.07784221 0.09318316 -0.3532142 0.44813964 0.28266636 -0.18282852 0.0776339 -0.66819364 -0.2227845 -0.035169665 -0.50672853 -0.2707764 0.3728542 -0.43159926 0.15075348 -0.092208005 -0.30403483 0.13632943 0.35841918 0.23507383 0.4832016 0.25391108 0.052902684 0.51524687 0.028768161 -0.26264918 0.6783537 -0.53634655 -0.5645494 0.040876955 -0.39887255 0.1504786 -0.101266794 0.50102544 -0.16902046 0.9286619 -0.020969389 -0.6313591 0.2532036 -0.7428426 0.65299344 0.21840991 -0.2685549 -0.60225224 -0.70914876 -0.3525776 -0.34871894 0.021835754 -0.98519236 -0.884909 0.20992401 0.13937208 0.27248916 -0.17749172 -0.106900685 0.3191877 -0.010509533 0.024467302 -0.72186255 -0.26827082 -0.025125105 -0.5177406
5 0.20373072 0.27006608 0.055118088 0.036160275 -0.33207995 -0.18001285 0.32977468 -0.46087402 0.15039733 0.23823018 0.34761786 0.45500588 0.14757401 -0.13988502 0.5476059 -0.5928709 0.39446712 -0.42157885 -0.5671356 0.37102357 0.7293656 0.11292666 -0.5339662 -0.116440475 -0.04291142 -0.09447095 0.8795813 -1.0276293 0.20097789 0.46961087 -0.070832096 0.010265397 0.13724257 0.037901763 0.75438493 0.11597642 -0.57777935 0.16448374 0.2115566 0.14126758 -0.3106706 -0.019085009 0.13744107 -0.23402487 0.28047326 -0.77651936 0.016182512 -0.11457194 0.06921949 -0.023138775 0.117762536 -0.5644412 0.6214968 0.68053234 0.1548119 -0.4378387 -0.02272414 -0.41862172 0.047118373 -0.26282415 0.5054755 0.39544237 0.042881727 0.71351606
result -0.07445213 -0.30088025 0.24070698 -0.36354455 -0.16717875 -0.38020372 -0.0785279 0.5837757 -0.35851613 0.055159748 0.24718001 0.22864255 -0.096941195 0.74253714 0.21937233 0.14299013 -0.12070891 0.16608265 0.14715391 0.114110745 0.98313874 0.010466725 -0.3270514 -0.32255134 -0.53553826 -0.94105726 0.70475286 0.21794486 0.60050976 0.16536723 0.35707948 0.3231541 0.02000619 0.50025564 0.08719156 0.46206066 0.17385906 -0.43074787 -0.03405546 -0.115146525 -0.38898402 -0.66125643 0.03129108 -0.63539076 0.21553385 -0.5275157 -0.7294873 0.71750104 -0.5483238 0.02656492 0.831411 -0.098381415 0.12472866 0.3440004 -0.030022087 0.9933385 -0.06269935 0.35438356 0.26591435 0.4887621 0.068122186 0.5691158 1.0200671 -0.0395971
mil -1.0873077 0.48374167 0.6309712 -0.35110748 -0.80889803 0.14480309 0.01170946 0.510393 0.48401976 -0.37793693 -0.1430191 -0.13905148 0.122087754 0.81871474 0.37410855 -0.6202589 -0.119575314 -0.0038539993 1.2344537 -0.464124 0.75141674 0.90272015 0.26465532 0.5388932 -0.12444868 -0.5212237 -0.11262442 1.0211753 0.48611653 -0.80518854 -0.36822996 0.2464284 0.6358042 0.3560446 0.8682504 -0.18920508 0.38474506 -0.47305155 -0.60029596 0.80531275 0.061676487 0.05993253 -0.47631803 -0.09844928 0.26240107 -0.7092185 -0.5680701 -0.45150638 -0.15641733 0.39627767 -0.22296406 -0.35107747 -0.15756129 -0.34799337 0.11073972 0.11125724 0.3117158 -0.22390492 -0.3070905 0.14246525 -0.22396299 -0.45132762 0.3972278 -0.26035124
stage 0.5090781 -0.74305624 0.0025788748 -0.31840336 -0.13075376 -0.47958598 0.94420296 -0.3738878 -0.19452016 0.4307587 0.0978845 0.13051443 -1.1223836 0.0264715 0.3574799 -0.15101646 -0.06500116 -1.1877521 0.008687944 -0.6271707 0.48382714 0.53818697 0.8347457 -0.7611621 0.59672743 0.3230526 -0.14384088 -0.6645606 -0.5552376 0.32385388 -0.5682834 -0.108169876 0.6956704 0.09257145 0.12037754 0.99789673 0.16649981 0.062453713 0.7580826 0.077289954 0.5948723 -0.63686234 0.07263438 -0.48567107 0.4649802 -0.7354711 -0.20232883 0.126196 -0.20940448 0.67441285 0.63572055 -0.14754541 0.3016806 0.1721414 0.11690828 -0.06883638 -0.036371298 0.249131 0.14854139 0.7770433 -0.50039405 -0.78403187 0.31369504 0.021915477
sio2 0.55411565 1.5450307 0.0745229 0.47308382 0.47416094 -0.16450946 -0.506881 -0.20775609 -0.5142078 -0.008369471 -0.0664245 0.031426974 -0.37619242 -0.28818992 1.2105083 -0.58349264 -0.50955486 0.928905 -0.64942425 -0.9086364 0.6163808 -0.6128079 0.23745264 -1.0712031 0.4595539 0.25699222 0.032552768 0.087025315 0.29072046 0.47822902 -0.11443164 -0.42883492 -0.32938722 0.4879596 0.41041422 0.17092319 -0.0187959 0.4128038 0.06633157 0.1961669 -0.24454096 -0.47985744 -0.2556211 0.27369282 0.38741377 0.13391367 -0.20876132 0.63625264 0.74908787 0.22537263 -0.0104172975 -0.0891635 -0.17141 0.11741594 0.6093658 -0.21187846 -0.35498655 -0.1880046 0.66578037 0.47440267 -0.8046187 0.48549443 0.66061836 -0.85599923
gold 0.5884989 0.6057635 -0.77261686 -0.21093175 -0.057672378 -0.9514417 0.72297823 -0.579102 0.6999801 0.057952918 0.28223902 0.23196672 -0.25004247 -0.16208158 -0.52653635 -0.11721569 -0.45257443 -0.3793901 -0.54910016 0.35369915 0.48107114 -0.05380961 1.2034156 0.8843213 -0.07804352 -0.30867094 0.79746145 0.11941458 0.8698745 0.2562784 0.2976179 -0.18767454 -0.03644985 0.49563456 -0.14758733 0.9354906 -0.08867535 0.13978942 -0.38140675 0.3793403 0.14337915 -0.49060538 -0.13476858 0.022025388 -0.8047239 -0.9300329 -0.18526196 0.03208074 0.05184453 0.752045 -0.17510669 -0.29411238 0.043660954 0.7183409 0.26095355 0.5513365 0.19445677 -0.27174073 0.2475658 0.065482415 -0.6337768 -0.26820844 0.067958005 -0.27660283
h2o 0.32300794 0.53945535 0.13400792 -0.17508459 -0.64920795 -0.26410848 -0.041337818 0.19349551 0.440873 0.24828883 -0.339647 0.101596266 -0.11099582 -1.0876331 0.34192336 0.041817695 0.32474384 0.15515006 -0.63607216 0.19700168 0.23329075 -0.05945878 0.5545595 0.008058374 0.04938506 0.20186703 0.44196984 -0.09361273 0.38581687 0.22214958 -0.32627162 0.7653083 -0.59002125 0.827476 0.49255747 0.6197882 -0.56309533 -0.0592862 -0.19786797 0.48757198 -0.23761287 0.08945594 -0.8781771 0.342947 -0.043705184 -0.97952366 0.15332825 0.23086712 -0.029281259 0.11583564 -0.5741277 -0.83962065 0.88575196 0.45707843 -0.67803 1.2138544 -0.23520668 0.45954242 0.08735086 0.5120404 0.029713895 -0.020469008 -0.67776346 0.05054137
may 0.39778158 0.8073843 -0.1565315 -0.37626484 0.18661729 0.72703546 0.12938169 -0.35332808 0.8385293 -0.19185333 0.24469519 0.2833215 -0.25204566 0.36424065 -0.6814852 0.037018918 0.01712337 -0.7992217 -0.16498302 -0.03508782 -0.16286224 0.38915217 -0.40143338 -0.74254304 -0.2612787 0.1631841 0.17576179 -0.047566958 0.3347597 0.45593092 0.088576004 0.061920784 -0.15619794 0.81430167 0.47162744 0.66721314 0.4282469 0.34733218 0.3534567 0.018718997 0.3493003 -0.47866872 0.58494467 0.17616321 0.267041 -0.405837 -0.16457783 0.21441185 -0.5509765 -0.34087592 0.39705697 -0.10711097 -0.2999947 -0.35077727 -0.20387416 -0.41418216 -0.06916273 0.2117836 -0.27336282 0.61627764 0.40533486 0.061239302 0.9107615 -0.28448305
relative 0.54098374 0.14545812 0.42952114 -0.7137072 -0.23513535 -0.66064507 -0.33860102 -0.5820189 -0.33417562 -0.22076981 -0.32516333 0.33464524 -0.33414403 -0.013859489 -0.11546207 0.28494626 -0.41422352 0.22605193 0.937192 -0.074668266 -0.35364002 0.4497649 -0.43681154 -0.4281559 0.3277986 -0.49499184 -0.25180826 0.20893985 -0.024645722 0.2518789 -0.59662646 0.20634657 0.48989636 0.47860968 0.73648673 -0.111676194 0.6096947 -0.6647868 -0.043860644 -0.4404871 -0.4613692 -0.035421394 -0.13327917 -0.8649614 0.25992337 -0.65861726 -0.49282843 0.22478601 -0.6025002 0.09291416 0.17417659 -0.6664777 -0.48096022 0.25162968 0.0809683 0.2133289 0.35839245 -0.9659716 -0.47476366 0.34371877 0.5924802 0.08906742 0.5191724 -0.3947659
2004 -0.15102182 -0.07768051 0.22141556 0.2624902 -0.9983017 0.038763776 -0.036427185 0.76535136 0.5093628 -0.21778889 -0.060085807 0.36789736 -0.23864369 0.045971956 0.39534485 0.59260297 -0.25777522 0.2133161 0.6469631 -0.6038752 0.76766217 0.31426984 -0.51300776 -0.1659597 -0.17157422 0.73268867 0.3802424 0.50599223 -0.4228063 0.2584403 -0.32357103 -0.8926333 -0.122265354 0.74889314 0.36393046 0.7627754 -0.079714425 -0.6908227 -0.12598976 0.34018385 -0.38314077 -0.04204235 -0.76469797 -0.07479039 0.12382954 -0.21276404 0.09769913 0.13110577 -0.37810126 0.20895107 0.2581875 0.15605398 0.010834132 0.70325035 0.52531415 -0.30347064 0.44337264 -0.27306578 -0.29271984 0.41276938 -0.65829194 -0.4125613 0.48684078 0.80885774
data -0.16991983 1.0999258 0.07060072 0.21414858 -0.29635718 0.4841465 -0.5613741 0.5032575 0.14271131 -0.21675763 -0.5642188 -0.4425092 -0.2600111 0.4136134 0.09414628 0.3385559 0.10121577 0.15906763 0.2758498 -0.61674494 -0.04239768 0.564964 0.07403765 -0.13731056 -0.22331393 1.0206457 -0.03621624 -0.1740086 -0.54906416 -0.2076531 0.1593601 0.62197006 0.46375728 0.2929439 0.55107 0.2978635 -0.21860534 -0.2109182 0.041572403 0.32835892 0.13526504 -0.8957455 -0.44316357 -0.46722597 -0.12703125 -0.4821967 -0.63140166 0.45746654 0.19963446 0.028379189 0.45844853 -0.029181695 -0.31173176 0.49698964 -0.018264828 -0.32275644 -0.03163353 -0.27662376 0.18286967 0.48677295 -0.3341801 0.087346114 0.29533824 0.3899295
concentration -0.06277317 0.19235054 -0.2744366 0.46455392 -0.3485523 0.063564524 -0.011878567 0.540534 -0.29445753 -0.19022985 0.43656442 -0.3104424 -0.0686807 -0.071369864 0.9525876 -0.36420777 0.20717514 -0.1369245 0.60206306 0.2714185 0.79166937 0.5258995 0.24071263 -0.24751635 0.09086786 -0.31005457 0.59715915 -0.40070802 -0.0016711858 0.6905362 0.32695773 -0.11841609 -0.22187938 0.0028075925 1.4475617 0.12000391 0.55395263 0.22551063 -0.77985996 0.46213472 -0.5926158 0.36064672 -0.029649561 0.55015266 1.251775 -0.7167813 -0.5019332 -0.26360315 0.35534415 -0.64065236 -0.061985083 0.7283281 0.54128647 0.6202056 -0.3727849 -0.75276244 -0.47899908 0.011372771 -0.00047157466 -0.101174295 -0.08162767 -0.2301986 -0.35712028 0.38562584
grade 1.015403 0.3777617 -0.057882413 -0.40952006 -0.64612526 -0.54779875 0.065714285 0.023504717 0.11105529 0.24279332 0.8632562 -0.052087776 -0.24680287 0.26290703 0.116589434 0.022011545 0.19289269 -0.26348227 -0.039228138 0.019645112 -0.015939677 0.033126615 0.64018214 0.046057668 -0.027514989 -0.16431063 0.15766144 -0.18152264 0.39876187 -0.13215268 -0.7607985 -0.29102293 -0.009890244 0.53029674 0.1520298 -1.2193062 -0.2719577 -0.5966984 0.5711174 0.31975004 0.54058415 -0.3339764 0.07861793 -0.51688176 0.45106497 -0.12614724 -0.750982 0.043470982 0.4413781 -0.48724124 -0.38539279 -0.16890073 0.16143622 -0.85846764 0.5664042 0.12757266 0.36817345 0.5080516 -0.12723637 -0.3872003 0.04413798 0.48144528 0.6052217 -0.1616496
inclusion 1.1641421 0.98044926 0.33979276 0.5839125 -0.48672813 0.52354354 -0.23158738 -0.23760583 0.6469762 -0.06820228 -0.28047603 0.20109797 -0.51563925 -0.31441072 -0.17767328 -0.22159216 0.527158 -0.21621603 0.024831295 -0.4776681 1.0492986 -0.07652484 0.3545019 -0.28814545 -0.4793143 0.11374671 1.0687017 -0.56165135 -0.08134702 0.068678625 -0.30472475 0.5592127 0.21490496 0.2134369 0.7162167 0.6233016 -0.040847745 0.28418675 0.2680714 -0.17238943 0.05022448 -0.14707884 -0.35350809 0.6915987 0.3220392 -0.3890184 0.2432816 -0.11326108 0.090215765 0.11358816 0.4724892 -0.4821834 0.53409374 0.15804936 -0.46234092 0.10456307 -0.07536421 0.9469411 0.23632002 -0.2778774 0.46646458 0.22046556 -0.64617026 0.222138
caldera -0.1636518 0.22915329 0.065911286 -0.53780943 -1.3490025 -0.66165495 -0.14820085 -0.60508823 0.7356416 -0.43792278 -0.532063 0.10340669 0.13181713 -0.23437475 0.4073615 -0.31188923 -0.5114254 -0.17189924 0.10704301 -0.40130377 -0.124280185 -0.34339222 -0.09198217 -0.31984317 0.015735824 -0.4937369 0.115969874 -0.30193752 -0.22629127 0.32089463 -0.29776984 -0.44883612 0.17988062 0.7336542 -0.16467594 -0.22558004 -0.7716264 0.32380745 -0.7257547 -0.3219363 0.50178474 -0.73615485 0.4803623 0.41276726 0.23398522 -0.8732087 -0.0733718 0.7673725 0.043628603 0.2703998 0.018784225 0.31971025 0.057047624 0.48307985 0.039178792 0.20622635 0.05719907 0.16761221 1.2312498 -0.1996427 0.45391428 0.49821773 0.99722356 -0.9212671
contain 0.16111544 0.20618406 0.046222713 -0.7630425 -0.1493519 -0.2366016 0.07682585 -0.34880292 0.110512644 0.12348032 -0.14497316 0.20469876 -1.221161 -0.27779505 -0.17621371 -0.8710878 -0.54213125 -0.36971846 -0.64398843 0.06710978 -0.0069972165 0.11312746 0.31362155 0.05819577 -0.52253854 0.83490777 0.29017127 -0.4398212 0.4066283 0.41873872 -0.37192795 0.45842382 0.115108185 0.23524435 0.85372496 0.82491887 0.030936474 -0.48924342 -0.7320866 -0.539803 -0.66212344 -0.15629803 0.12789842 0.45973235 0.615215 0.20005022 -0.183288 0.46210378 0.25607118 0.4745663 0.6806714 -0.6556505 0.61256087 -0.970099 0.3002104 -0.29063895 0.08821208 -0.5925771 0.11738623 -0.03684873 -0.25767735 -0.3511356 -0.4451372 0.17549999
e.g. 0.3652099 0.09526784 0.1577301 0.270447 -0.69011295 0.35858992 0.2945916 -0.053242628 0.2902199 -0.39521942 1.0095582 0.13063467 0.17547277 0.48232985 0.61444294 0.2803545 0.70964086 -0.08080324 -0.46181643 -0.058310833 0.67820925 0.5370185 -0.19862233 0.4352819 0.7337281 -0.2349211 -0.3035341 -0.2865601 -0.115015656 0.6318777 -0.41258448 0.43194845 -0.054092932 -0.11462816 0.8925625 0.55370677 -0.14271197 0.3110717 0.36388275 -0.60738564 -0.43429703 -0.7828383 0.011004282 0.54161775 0.35765466 -0.5837749 0.55296767 -0.08387225 -0.40974113 0.01569553 0.8157593 0.37751484 -0.06472429 -0.79555595 0.42338368 0.3401642 -0.11819093 0.6343228 -0.47424096 0.59696007 -0.5895067 0.20326978 0.30612284 -0.2540262
rich 0.45926997 0.54305357 -0.1690964 -0.23085722 0.31283635 0.09586385 -0.22938502 0.044366222 0.9648909 -0.032615546 -0.27434796 0.3427659 -0.5267977 -0.08824142 0.25056964 0.7283699 0.40799892 -0.5043277 -0.1342739 -0.20923264 -0.36767632 0.9932095 0.3644258 0.29344648 -0.1472169 0.057597198 0.09680788 -0.1464152 0.21623692 -0.46098852 -0.48389304 0.057063114 -0.5205058 0.6320805 0.8052667 0.7075754 0.16627717 0.113329925 0.25890407 0.33594882 0.08250572 -0.77506566 -0.16959512 0.26221353 -0.34006917 -0.2625665 0.8922531 0.25315934 0.22955991 -0.17341834 0.22732183 -0.3766136 0.64886194 0.2963058 -0.4114125 -0.033399813 -0.1427664 0.4892575 -0.27270895 0.094255276 0.43175304 -0.6120671 0.0029978724 -0.30455056
give -0.19338857 -0.19046389 0.1488468 -1.144009 -0.48359826 -0.3912999 -0.37815633 -0.83528537 0.2971191 -0.7501211 -0.7320456 -0.031599976 -0.27619964 0.31935495 0.6445942 0.36464667 0.75554395 0.28128934 1.1771313 -0.09046006 0.81933236 -0.096937 -0.34759474 -0.3072139 -0.23758237 -0.3197192 -0.112316474 0.48325142 1.0357188 0.111961246 -0.13027021 -0.32227585 -0.12823528 -0.5563165 0.1822172 -0.6681666 0.27167144 -0.52335733 -0.27750468 -0.31425995 -0.3389575 -0.16874674 0.07721193 0.5592668 0.7860543 -1.2905772 0.27852035 -0.20714644 0.4237415 0.2216183 -0.46199164 -0.010088598 -0.048347898 0.7555145 -0.0029600523 -0.14470561 0.17485644 0.3765309 0.078267425 -0.21258794 0.5655243 -0.41877067 0.14091675 -0.07957995
biotite 0.028362384 -0.7004158 -0.010553926 0.25465742 -0.4404306 -0.36025944 0.5555034 0.03391858 0.064946406 -1.005147 -0.51766944 0.46588808 -0.5575762 0.805956 0.10993959 -1.5091522 -0.3319526 -0.48387703 -0.30436787 -0.6370485 0.27442557 -0.054178074 0.9899467 -0.6812096 -0.106776364 0.27516362 0.47180822 -0.035242885 0.45861956 -0.08224469 -1.0404587 -0.35959387 0.11131364 0.16043454 0.28791556 0.006356494 -0.09304165 0.082095355 -0.0841523 -0.73071265 -0.29804263 0.019536642 0.2632613 -0.9910638 0.52715546 -0.8595756 0.5323255 -0.059520695 0.05402345 0.10681369 -1.1585838 -0.14096431 0.21954024 0.32611912 -0.10766305 -0.2565014 0.2973094 0.37607542 0.4171649 0.5956695 0.01929008 -1.2638692 -0.04247111 -0.150162
9 -0.0026727344 0.47900674 0.5134383 -0.19164987 -0.32393447 -1.1535742 0.6586546 -0.6027963 -0.5550748 -0.38929063 -0.04570173 0.14989519 -0.16338375 0.04307966 -0.6375407 -0.037402295 -0.9007508 0.6466208 0.22219089 -0.6047841 0.58358836 0.18515629 0.0071335607 -0.34511378 -0.10908607 0.31304163 0.14667079 -0.56941366 0.4245346 -0.016367834 0.010962647 -0.33681682 0.6580439 -0.07534298 0.4194198 0.9037787 -0.22531314 -0.4514771 0.053540867 0.4539527 -0.35589382 0.46394685 -0.8156336 -0.33989277 0.20340063 -0.1516579 -0.24071449 0.053980805 0.32477108 -0.68700844 -1.1893176 0.2654873 0.5317693 -0.7427716 0.35243413 -0.63642055 -0.12363748 0.19779675 0.6869744 -0.7790418 0.30821684 -0.32734758 0.6542405 0.21998028
+ -0.16916534 0.23249893 0.2872235 0.88416994 0.4086575 -0.6381986 0.6101532 -0.041546166 -0.6681284 -0.48300755 -0.3424479 -0.3379856 -0.10477348 -0.27647662 0.75819767 -0.56080616 0.016308064 0.4093888 0.61602587 -1.0040493 0.7525307 -0.35155764 0.8718689 -0.76567346 0.16306604 -0.18072923 0.5510806 0.18883717 -0.40282664 0.3605287 0.4264297 -1.2309647 0.0018023275 0.70572966 1.7685239 0.3472359 0.6818369 0.45274195 -0.039852016 1.28166 -0.14421612 -0.38296112 -0.7207362 0.45256463 0.7765559 -0.5563811 -0.7577046 0.43099645 0.5940005 -0.088148355 -1.0854049 -0.44261032 0.68251085 0.4152512 0.33391485 -0.091117494 -1.0490153 0.4168777 0.72854465 0.7299486 -0.86912143 -0.07840535 -0.16838823 -0.2021423
dacite 0.7363811 0.4482859 -0.70934016 -0.45882696 -0.1319832 -0.047708355 -0.7045421 -0.2540809 -0.516887 -0.101970054 1.179772 0.12464035 -0.2432707 0.5902041 -0.2730412 -0.33973867 -0.4680213 -0.12948729 0.3946356 -0.6821443 0.94185185 -0.30926123 0.68597233 -0.3673969 0.8080945 0.3330606 -0.39805818 -0.32021648 -0.05279859 0.034519866 -0.7846072 -0.8535452 -0.22264872 0.42332608 -0.1706023 0.12070802 -0.6658287 -0.45311084 0.30304372 0.8511214 0.31316006 -0.63767666 -0.030099258 -0.2214108 0.09399143 -0.5481323 -0.44313523 -0.17393151 -0.22583705 -0.0062668677 0.52320415 -0.41372436 0.39368546 -0.115945086 0.76642025 -0.4517423 0.477375 0.00064441934 0.426826 0.1310858 -0.5228299 -0.97293705 0.94725275 0.27630982
4 -0.37833437 -0.30009887 1.104902 0.37179682 -0.14114359 -0.7735817 0.12310337 0.24083626 0.3579608 -0.56339455 -0.6994518 -0.0065436945 0.45086423 -0.37311384 -0.024796456 -0.24657406 0.16767101 0.4215613 -0.30608755 -0.016023243 -0.040856697 0.37794352 -0.3712853 0.42914632 0.5494075 0.3816303 0.25955048 -0.2987876 0.72363293 -0.13141128 -0.0551835 0.26729557 -0.7412157 0.6071393 0.85156846 -0.76027054 -0.20065524 -0.15705918 0.4362565 0.039846383 -0.10498563 0.070290454 -0.57170796 -0.31270012 -0.37981105 -0.88036156 -0.24399957 0.25455642 -0.37640512 -0.11943196 0.11842794 -0.060309116 -0.29397133 0.19883704 0.9897283 -0.037768904 0.2285225 0.5483003 0.5624873 0.10137225 -0.6519072 -0.079536855 0.091011815 0.20940064
hypogene 0.046721425 0.62953925 0.08108645 -0.14099713 -0.5805288 -0.51511866 0.9159299 -0.046509374 -0.3204312 0.46844012 0.21955495 0.5296776 0.15922362 0.13371103 0.32848182 0.30657497 -0.50255454 -0.16393188 0.2582585 -0.0036382626 0.584782 0.54303706 -0.84008986 0.053467628 -0.65302324 0.5674901 0.39738315 0.9332276 -0.64043874 0.5169477 -0.7854666 -0.07328842 0.24529095 0.61884815 0.10831226 -0.33641228 0.4726869 0.38350278 0.027540162 0.72935796 0.07621454 -0.20043516 -0.4295769 -0.49373007 0.311234 -0.45437592 -0.14551845 -0.53682494 0.04682225 -0.9030403 -0.12544803 0.11191646 0.17049882 -0.47381842 0.5760554 0.06821763 0.17483842 0.03385336 -0.52819103 -0.0043271873 0.1274176 -0.046787884 -0.057975262 -0.057106983
bornite -0.6872576 0.10971861 0.25874755 -0.61816144 -0.21361536 -0.1847816 0.15737158 -0.33378688 -0.32739314 0.025335666 -0.08601902 -0.2359363 -0.082714155 0.20372932 0.28527004 -0.17959364 -0.3886141 -0.036331378 0.90804976 -0.47417516 0.29483396 0.4308161 0.32470542 -0.15625481 -0.51280576 0.15994804 0.24070552 1.2467358 -0.31352553 -0.30972353 -0.7107079 0.2246235 0.35953063 0.32730156 0.47915342 0.3149194 0.696696 -0.2250742 0.21153533 0.21768911 -0.40900764 -0.70468855 -0.5422827 0.006285391 0.53370976 -0.9683892 0.6872905 -0.23461547 -1.0327907 -0.27229378 -0.6375624 -0.4332141 -0.98069 0.2062227 0.34528455 0.36995456 0.2509582 -0.4762519 -0.7725092 0.27110678 0.318722 -0.4292204 0.816374 -0.28609145
use -0.80851424 0.2918139 -0.058038194 0.10003372 0.53704536 -0.8892587 0.026395928 -0.10799584 -0.07282857 -0.7855485 0.18383726 -0.9318308 0.25011963 0.5838661 0.12865433 -0.04840163 -0.58308285 0.6942931 0.34570998 0.07511749 1.1466572 0.016974658 -0.48824933 -0.26313815 0.03368826 -0.6466222 0.6696393 0.10840884 0.414873 0.21438706 -0.74397534 -0.040803336 0.6921711 0.80039084 1.5779377 -0.3906191 0.36028984 1.2066658 0.018505823 -0.1238896 -0.27315748 0.3082392 -0.5825455 -0.50209075 0.3000741 -0.31577757 0.4034542 0.46097443 -0.016739512 -0.090273894 0.25058886 0.21012226 0.7086891 -0.26981083 0.44956 -0.51660204 0.051709943 -0.023695044 -0.46680185 -0.41383865 -0.5731542 0.34193698 0.5204059 -0.24004179
process 0.40411657 0.5417621 0.27369025 0.44981638 -0.31355664 -0.26084536 0.6082357 -0.6309645 0.4805744 0.14300421 0.40545875 -0.16032623 -0.10053749 0.10261844 0.77413917 0.01904951 0.49306762 0.011290731 0.0713227 -0.1097632 0.57463235 -0.575109 0.11134184 0.016047504 -0.2472173 0.6622478 0.34314588 -0.05658175 -0.44986373 -0.3834252 -0.7747776 -0.40649956 -0.09256717 0.57905084 0.27101868 0.2880142 0.88550645 -0.41353464 0.6280329 -0.11878986 -0.5517099 0.066623464 -0.6172934 0.11200049 0.40477732 -0.57881844 -0.4931775 0.7989776 -0.096298635 -0.21322499 0.17017703 0.9547785 -0.2860497 -0.70622224 0.110403895 -0.61096257 -0.17472287 -0.18708648 -0.16717516 0.03025758 0.6599079 0.24438366 -0.24054088 0.28834948
base 0.7031452 0.17234254 0.31759518 -0.48916218 -0.65641546 0.12682782 -0.1438817 0.4027388 0.42303237 0.22490968 -0.6347213 0.05426383 0.14306435 -0.6050288 -0.22552606 0.09064189 0.36377737 -0.2863368 0.7068399 0.31477702 -0.11138784 -0.35188165 0.43690047 -0.10719745 -0.5788445 0.71405923 -0.21623519 0.22951716 0.043191005 -0.6741018 -0.67490727 -0.14069958 -0.6750519 -0.16274452 -0.1830066 -0.07248187 0.882098 0.50027907 0.21484056 -0.019018184 0.0040620393 -0.69135046 -0.43250817 0.053545102 0.6200337 -0.72960204 -0.54751456 -0.23766625 -0.49155504 -0.538019 0.3181758 -0.13339926 0.17239538 -0.28839046 -0.38526207 0.23165937 0.4408446 -0.15309064 0.1583123 -0.07078044 0.09563799 -0.3840866 0.48760232 -0.3146171
phase 0.7745617 -0.46611503 0.5361654 -0.10699675 -0.5001769 0.076834194 -0.4235425 -1.0508777 0.57523644 0.69073904 -0.3044462 -0.18629217 0.3593125 -0.12027874 0.55484384 0.38746253 1.4529636 0.21703565 -0.29083964 -0.05763815 0.050806932 0.47901183 0.22215903 -0.16885823 -0.018612629 -0.057168722 -0.033385765 -0.023773346 -0.2690729 -0.2956908 -0.4890887 0.21201748 -0.98372126 0.7900241 0.3789212 0.09333213 -0.24334611 -0.16038173 0.32367733 0.30355647 -0.9730017 -0.7978145 -0.5503689 -0.22808646 -0.10865353 -0.4058477 -0.8398647 0.5092048 -0.077458605 -0.2530613 0.36670163 -0.7390241 0.2674991 0.23090336 0.014562475 -0.32599327 -0.62368363 0.9610748 -0.33303484 0.060246956 0.41949892 -0.29657003 0.12009079 0.5285602
rock 0.98258996 0.5543889 0.032951333 0.4321452 -0.6466159 -0.88654107 -0.06515962 0.011154263 -0.5625562 -0.531139 0.25606835 -0.18961856 0.09885845 -0.39002147 -0.50542665 -0.8168714 0.39785516 0.44515002 -0.07227673 -0.45708743 -0.15879004 -0.68548393 -0.089772075 -0.21117318 -0.015180223 0.27031025 0.4845524 -0.4590013 0.73682153 -0.033924706 0.09589626 -0.41127694 -0.45142588 0.54513127 0.55888146 0.23076102 0.52279115 0.178334 0.10211856 0.50308627 0.5507147 -0.9285645 -0.0046144878 -0.4991156 0.28876904 -0.06784805 0.034636635 0.1499806 0.20822974 -0.17607251 -0.56075895 -0.18286754 0.27232632 -0.027684884 -0.054414105 -0.44035488 -0.45013383 0.198173 0.113824576 -0.067475505 -0.7460006 0.72823757 0.3503224 -0.6087515
gravel -0.14032966 0.58043766 -0.63008714 0.18798482 -0.3797086 -0.8857939 -0.41293812 -0.20486155 -0.24030219 0.5713364 -0.11053921 -0.2453551 -0.27708492 0.4594249 0.18779193 0.58340067 -0.16661389 0.2152975 0.3365215 0.6394055 -0.08757829 0.13396211 0.13458666 -0.4416069 -0.7801145 0.7537349 0.033236407 0.28091633 0.29987505 0.27978015 -0.22276972 -0.15887985 -0.052681528 0.7861172 0.38181546 -0.20142779 0.49850762 -0.6708616 0.078030966 0.30099973 -0.5363776 -0.4067143 0.6117834 -0.14016546 0.21521598 -0.5458712 -0.27426776 -0.5491078 0.041328836 -0.14449562 0.402302 -0.11696731 -0.34034684 -0.45990232 0.13528 0.31194493 0.05182403 0.4545013 0.6642926 -0.80903465 -0.069733545 -0.3659437 0.34958157 -0.72258264
metal 1.2034104 0.71183085 -0.61767274 -0.55947804 -0.9935643 0.05357387 0.7526251 0.30809256 0.3853353 -0.018236207 0.14293268 0.05708304 0.24923989 0.023955721 -0.50789726 -0.1487054 0.114410765 -0.74232525 0.15048656 0.5181498 0.3183693 -0.49468035 0.5786199 -0.037608165 0.18433556 0.11005861 0.1783183 -0.608367 0.18156841 0.0077145197 0.08908507 0.34633538 0.05190724 0.10944891 0.06632242 0.65059185 -0.08376316 0.52717376 0.7257143 0.046401948 0.058903728 -0.101054326 -0.6206568 0.11279097 0.18319117 -1.2046124 -0.17009589 -0.17844397 -0.15880388 -0.5176462 0.8022164 0.6116955 0.72169113 0.31031916 0.20814888 0.3442347 0.09848897 -0.41877574 0.4416752 0.20090193 -0.23342195 -0.24189596 0.29744253 -0.15140787
elevation 0.81121236 0.7047741 0.03399455 0.6337704 0.009265723 -0.64558905 0.6031126 -0.20588143 0.13243522 0.4106871 0.40780106 0.39513257 0.3800803 -0.32708257 0.008990377 -0.09469476 0.05517835 -0.21462508 -0.053246457 0.3437588 0.2045572 0.20508303 -0.37674418 -0.16135313 0.31971547 0.20662561 0.55431277 -0.15011641 0.6624277 0.49852806 -0.10953088 0.41048405 0.8825863 0.14268172 0.119636126 0.29962835 0.34354645 -0.7538399 0.1114255 0.17177509 -0.58350694 -0.08284963 -0.15759225 -0.069798395 -0.70532966 -0.8305265 -0.4454945 0.2179286 1.0881106 -0.2973653 -0.6613701 -0.10654954 -0.5556119 0.34265724 0.046312876 -0.4884662 0.2488763 0.2339895 0.51519054 -0.56119287 -0.22960961 -0.41148928 0.08818335 0.0016969066
element 0.78930044 0.8294532 -0.35007015 -0.21043646 -0.16446589 0.07837302 0.10759305 -0.16198166 0.11216148 0.0010701914 0.77744466 -0.5947075 0.34010053 0.032269925 1.251363 -0.17401275 0.2695334 0.027458154 -0.24014783 -0.49451047 0.394691 -0.34069592 0.26439416 -0.2096596 0.07623462 0.06775368 0.54949206 -0.24202536 0.051554922 -0.33679232 -0.6460003 0.39724815 -0.87960696 0.0153373275 0.5908899 0.5967269 -0.4390485 -0.6781279 0.66565835 0.5337533 -0.4547393 0.004688392 0.12662677 -0.033987097 -0.319058 -1.1585988 -0.13606888 -0.8719247 0.14430831 -0.017770533 0.35465604 1.110869 -0.112004496 0.64345324 0.06468075 -0.15053357 -0.5247623 -0.039399277 0.433642 -0.6221309 -0.38258457 -0.4872146 0.055409253 0.38200748
association 0.14187893 0.49246755 0.09368234 0.43843615 -0.09902245 -0.52094615 0.3839109 0.52689457 0.38039154 0.07447428 0.45184046 -0.36304057 0.863931 0.17423293 -0.12942202 -0.2086319 0.2839928 -0.31617266 0.29722416 0.027334781 0.35448018 0.4003129 0.47964594 -0.17632407 0.035522595 0.42757714 0.08420418 -0.20337445 0.39209405 0.31268054 -0.36812907 -0.9497259 0.06817659 0.31915662 0.14380123 0.34399614 -0.11463242 -1.1781682 0.43242905 -0.10294681 -0.16920924 0.047176853 -0.045552038 -0.2542659 -0.66438997 -1.2475702 -0.6433954 -0.4863905 0.91781354 0.36494845 0.28730193 -0.67611605 0.10151085 -0.36314112 0.84227896 -0.67110914 0.19583562 0.32369626 0.41271356 -0.84108114 0.6469782 -0.026572417 0.86934114 0.56808895
source -1.069831 -0.28064504 0.08247707 -0.15764089 -0.06823415 -0.12919699 0.3727657 -0.95334244 0.8224691 -0.17332825 0.5160681 -0.07582947 -0.42760196 0.047130655 0.1398755 0.122181304 -0.6266823 -0.09074873 0.22711134 0.76259923 0.3550757 0.28933764 -0.67639536 -0.5786194 -1.0423708 0.11717551 0.19563594 -0.034740057 0.08540066 0.07791568 -0.2230257 0.106433876 -0.6227919 1.1399473 0.29652378 0.24515145 0.8848877 0.008951549 0.17113987 0.81704193 0.4512176 -0.08723249 0.42132825 0.38504782 0.5866107 -0.61461633 -0.5180644 -0.31845352 0.07030656 -0.15567404 0.28335354 0.39331663 0.08640131 -0.7751949 -0.1853649 -0.4347401 0.49827948 0.23262228 -0.4783266 -0.05719881 -0.24534626 -0.3591689 -0.81295013 -0.58393186
locate 0.4225551 0.20677476 -0.14383642 0.7563122 -0.5389158 -0.71703917 -0.029329501 0.20762868 -0.17785478 0.6606291 0.22812274 -0.06578001 -0.87616336 -0.0032675096 0.120684765 0.79187024 -0.20029879 -0.41602585 -0.046867423 0.25819382 -0.9318041 0.23725425 -0.17196175 -0.31213775 -0.30214065 0.22137937 -0.512808 0.36733636 0.29239854 0.17416832 -0.28339142 0.3218714 0.35820723 -0.09539611 0.21513198 0.48034438 -0.115316786 -0.294706 -0.19961241 0.24011512 -0.25674576 -0.51255685 -0.19718578 0.09146983 0.58559763 -0.35622203 -0.89005786 -0.49600223 0.4711981 -0.44415912 -0.6037951 -0.6231263 0.3403482 -0.48514614 0.1497858 0.03797187 0.11962428 0.5672801 0.15896843 -0.44091156 -0.37365282 -0.2186195 -0.09192968 -0.5152765
produce 0.36085975 0.3519174 0.88622457 0.03999541 0.039446402 -1.0041429 0.1938106 -0.41630256 0.5282871 0.4955109 0.036266174 -0.23939249 0.04314561 -0.4403654 0.7446181 0.55481845 0.24574032 0.60430694 0.31000942 0.40813327 0.61132854 -0.295865 -0.30988133 -0.45390347 -0.35500643 0.79435676 0.11138478 -0.34961993 0.47187638 -0.49098477 -0.0326015 0.5217895 0.39677873 0.53424376 -0.49830028 0.779035 0.46757966 0.92344624 0.29071495 0.105326295 -0.33801946 -0.19757323 -0.12124336 0.50489277 0.47321898 0.3168056 -0.4482616 -0.37159875 -0.010746425 -1.171785 0.67362416 -0.10393932 0.6681603 -0.45579484 0.9302657 0.42581853 0.23358785 0.38774365 -0.6967632 0.36781663 0.61600375 -0.15958616 0.55117536 -0.0823177
°c 0.03249203 0.27499834 0.49470064 -0.7990644 0.37598786 -0.08202908 0.28642812 0.3820697 0.35392755 -0.49631062 0.30315343 -0.28730258 0.51618403 -0.24549823 0.3482194 0.008597608 0.12261085 0.7825428 0.3160929 0.012247742 -0.22895397 -0.36596543 0.7247018 -0.3988543 -0.15803044 0.72767305 0.49219564 0.3737161 0.56945443 0.5903179 -0.5844718 -0.41683272 0.112569764 1.0200101 0.38892582 0.57607085 -0.5269746 0.27715188 0.19942762 -0.19511834 -0.027082028 -0.6029585 0.5563593 0.5656114 0.3825472 -0.5402156 0.35483584 0.32423607 -0.42464477 0.2485731 -0.9259263 -0.5583868 0.67425734 0.27023232 0.01775256 -0.5977759 -0.39929345 0.13024643 -0.037429716 0.41651487 -0.51618135 0.432204 -0.61874944 -0.069459446
include 0.6185969 0.10054609 -0.24524616 -0.050686613 -0.44365147 -0.4136639 -0.27553028 -0.35463807 1.1646525 -0.14333074 0.8028306 -0.17888077 -0.3606869 -0.8720926 -0.21550764 -0.6157876 -0.88760364 -0.45838842 0.16158603 -0.17935866 0.4976389 -0.48377407 0.21212421 -0.37091005 0.043151524 -0.014183117 0.02490617 0.90269834 -0.062819935 -0.701387 -0.290161 0.31475672 -0.21191789 0.88574183 0.18205915 0.30210042 0.05546381 0.8727456 0.06789435 0.044158764 0.559848 -0.89016765 -0.013629356 0.05402908 -0.15275928 0.25489104 0.030412152 -0.16806133 0.02967667 0.198893 0.16575626 0.7637289 0.33508167 0.15762688 -0.6269625 -0.43313143 0.17605603 0.10972294 -0.00020478849 -0.74134094 -0.20794235 -0.09694421 0.5647156 0.5097733
analysis 0.6614538 0.5024153 0.28441373 0.027362633 -0.47647047 0.25136107 0.25796703 0.16613111 0.036944717 -0.13844852 -0.519247 -0.19981338 -0.28205594 0.4928805 0.89793766 -0.09543347 0.28419682 0.47983542 0.3544188 -0.0076173916 1.1296984 0.71834373 -0.0004835219 -0.3633316 0.16945963 -0.8006132 0.7003329 0.09976602 0.12629414 -0.049776297 0.1323336 0.5672411 0.24612862 0.247494 0.5329328 -0.26524597 -0.07260435 -0.14608288 -0.30451855 -0.38325962 -1.1245234 0.27504322 0.053817116 -0.26768228 0.7707309 0.47585002 -0.084414355 -0.113893084 0.20569338 0.20420644 0.78160685 -0.31247243 0.73530746 1.0312824 -0.24027783 -0.17742403 0.032379642 0.016800173 -0.36319038 -0.27132276 -0.42500347 -0.74298716 0.5357901 0.16610362
large -0.25240678 -0.028129792 -0.24616049 0.044873167 -0.20679086 -0.69640815 0.6887801 -0.6561144 0.16952708 0.06750872 -0.33410037 0.78200775 -0.5571315 0.057033587 0.36719915 0.39525032 0.2498965 0.4910583 0.34190422 -0.35268384 -0.4416267 0.13690324 0.25169381 -0.1731674 0.8793225 -0.109398775 -0.14482345 -0.24747251 -0.68981445 -0.67881876 0.2746054 -0.06521492 -0.23869309 0.88002986 -0.04542552 0.23397212 0.038092725 0.28529802 0.11106173 0.33979765 -0.2855382 -0.35977605 -0.9243049 -1.046897 0.5244317 -0.23863378 -0.7127333 -1.2034028 -0.13557647 0.41747728 -0.103060156 -0.69220066 0.21640101 0.0560483 -0.30623335 -0.78888476 0.44081455 -0.01610969 -0.6212005 -0.2859118 0.33618242 -0.3380275 0.21862674 -0.43899393
condition 0.82724285 0.4620598 0.31543717 0.004318279 -0.09959737 -1.2241801 0.95485926 0.028967924 0.35268655 -0.0025979602 0.55504894 0.35341516 0.023421733 -0.6979524 -0.032511342 0.6708631 0.90499216 -0.32295182 0.0056312606 -0.23688209 -0.0020766472 0.17581712 -0.49455377 -0.74146533 -0.05769906 0.27788177 0.17141548 0.30464196 -0.4271007 -0.55933034 -0.48129112 -0.2695431 0.4804029 0.54903406 0.102346934 1.2862581 -0.4180469 -1.0716637 -0.703221 -0.57688916 -0.1796834 -0.64860165 -0.101112425 -0.0009679892 -0.1554337 0.06626299 0.4209295 -0.056239948 0.59777033 0.11448411 -0.19474754 -0.089062005 -0.033408046 -0.39958963 0.17781082 0.11725231 0.20440838 0.14448515 -0.86574894 0.36436146 0.1918061 0.42260343 0.9917218 0.4739452
1998 0.39716655 1.0044353 0.39111823 -0.022117635 -0.22051159 1.0372453 -0.14249013 0.043728758 -0.26411098 -0.26224315 0.30310166 -0.22974253 0.20151144 -0.13619484 -0.26374924 0.24668793 0.31598797 0.40143797 -0.09575021 0.28663003 0.2907062 -0.06797274 0.3527325 -0.79439604 0.10730239 -0.028159183 0.025877891 0.33794144 0.26471326 -0.13548431 -0.3285286 -0.16070412 0.6082866 0.52466017 0.19236574 0.44747344 0.19644675 -0.5595773 0.08901651 -0.7375874 -0.181214 -0.8418551 0.44036743 0.4656332 0.54683745 -0.2531277 -0.14013757 -0.51694447 1.3541641 0.21669517 0.3259141 0.12845999 -0.50870055 -0.36202917 0.12959756 0.63088113 0.40378597 0.5505299 1.241436 -0.2540011 -0.8138207 -0.24946918 -0.029124534 -0.38975996
feldspar 0.78406864 0.06660352 0.8725156 0.2833785 -0.53709596 -0.39309114 -0.46207407 -0.19064444 0.18649855 -1.3147734 -0.13294245 0.5006226 -0.5492452 0.06419912 -0.17909867 -0.7660808 -0.20657419 0.64575255 -0.014135015 -0.5070129 0.63921386 0.083631225 0.53242534 -0.15841354 -0.031366415 -0.07034784 0.30034804 -0.09329138 0.2987056 0.26061732 -0.6198687 0.121382125 -0.060258776 0.01375216 0.06541393 0.0458563 0.47608373 -0.2039785 0.47028863 -0.45398095 -0.46446237 -0.5068487 0.33108804 -0.62632525 0.3020015 0.098817036 0.3510842 -0.46676442 -0.0880591 -0.03754112 -0.7402174 -0.42458 -0.20846123 0.86668795 0.69329077 0.08742754 -0.03243165 1.2054139 0.45789948 -0.85683113 -0.3215967 -0.34888166 -0.23060386 0.0722633
- -0.094389595 0.22106043 -0.48117903 0.16509147 -0.4916513 -0.34252694 -0.21789671 0.2404208 -0.7478285 -1.2737266 0.1351536 0.731055 -0.07140275 0.54241455 0.30214208 -0.29350063 0.4574452 0.21990189 0.0013440027 -0.37374923 -0.9188336 -0.65541196 -0.14318343 -0.24046443 0.21309331 -0.002870614 0.1685717 -0.31583083 -0.13378125 -0.5191489 -0.61167145 -0.34341916 0.3507468 0.45239365 0.2887976 0.4618452 0.1779153 0.5856214 -0.33708683 -0.08486362 0.7269178 -0.39088452 0.6742005 0.40690935 0.37925607 -1.3616157 -0.72410655 0.15378167 0.67863965 -0.023561519 -0.46689153 -0.56363136 0.066366196 -0.067994125 -0.2314651 0.1028189 -0.5313573 0.67798257 -0.0423768 -0.65195745 0.20552433 0.005047425 0.1568419 -1.3273743
two 0.1267589 -0.4911524 0.89029795 0.08273762 0.5998649 -0.1751561 0.8427475 0.7811413 -0.6288179 0.052411184 -0.35352674 -0.17309427 -0.5445712 0.37180012 0.2719297 -0.27701178 0.543804 -0.9009681 0.9577134 -0.37384784 1.2825543 0.10137023 0.42327705 -0.15891397 0.71176904 0.03142419 -1.1332653 0.4460875 0.02754347 0.47244027 0.06293504 0.07651177 -0.68688816 0.63464254 -0.056825627 0.521753 0.12783037 0.07523759 0.39093256 -0.6856841 -0.5138052 -1.0768642 -0.42635885 1.0542425 -0.34933978 -1.2097514 0.48203534 -0.4611834 0.27464038 0.25892144 -0.09043511 -0.3282185 0.040064428 -0.009453808 -0.6394324 -0.04534187 0.7915829 -0.15834577 -0.4628776 -0.43386394 0.7834679 0.15128098 0.13600768 -0.3181332
respectively 0.47332016 0.57835656 -1.0311198 -0.76748955 -0.1436011 -0.5078448 0.7124179 0.2608145 0.6394846 -0.17349526 0.108507425 -0.6865511 0.9040062 0.6558306 0.117770225 -0.20874801 -1.0282751 0.70493287 0.2371372 0.3239776 0.9991652 0.41895798 0.73560375 -0.09895149 0.13053995 0.3739571 0.3451108 -0.3263228 1.2453086 -0.027289111 0.11662471 -0.010803992 -0.18967137 0.44462803 0.46595567 -0.2308326 -0.976467 0.54961985 -0.84809846 -0.19578211 -0.709676 -0.120322384 0.0022276987 -0.060309876 -0.14570712 -1.4853745 0.8921347 0.51178735 -0.27607757 -0.3478534 -1.0524476 0.26254413 0.6247417 0.47692195 -0.22049709 0.53641254 0.40631816 -0.16599993 -0.6536778 -0.16204596 0.11020531 -0.17684971 -0.2676264 0.4079304
control 0.34786907 0.5693561 0.09603128 -0.03212717 -0.87962365 -0.9405213 0.856873 -0.38978592 0.09944644 0.07414073 -0.38252068 0.673281 -0.22006822 -0.18860273 -0.12187317 0.62790614 -0.41423666 0.17234379 0.35936475 -0.28179708 -0.3277807 0.27178305 0.08600273 -0.5044469 0.34444952 -0.3176609 0.54112583 0.60492474 -0.79665655 -0.6463143 -0.49785897 0.15267664 0.69215494 0.2498054 -0.01712538 0.54801345 0.093183056 -0.08623883 -0.45742685 -0.23634864 0.3252531 -0.40662095 0.8792245 -0.90477574 0.55765456 -0.56926125 -0.75338703 -0.09949874 -0.32936493 -0.025169063 -0.3051309 0.22278789 -0.32386184 -0.4786217 -0.09016263 -0.4195449 0.4233471 0.30531266 -0.5214497 0.10293263 0.36166993 0.1422164 0.13218506 -0.011224102
disseminated -1.1769785 0.67991316 0.7953271 -0.38337883 -0.9376685 -0.12598065 0.60795414 0.038133714 0.6204803 -0.09762 -0.554982 0.041135937 -0.3538271 0.35207152 0.50472206 -0.76827085 -0.12450003 -0.12299963 0.56292903 -0.5680004 0.5312988 0.8017335 0.10764441 0.08830102 0.45783204 -0.63304365 0.5111245 0.13128775 0.003378698 -0.88989764 0.17870799 0.57791275 0.8158186 0.6533931 0.6247457 -0.22981493 -0.1835259 -0.36880165 -0.5807256 0.6825371 -0.3544705 -0.13784038 -0.26798955 -0.32269636 -0.18863341 -0.35231206 -0.758372 -0.5477428 -0.050575137 -0.26997796 -0.26975775 -0.14516991 0.28704977 -0.49207014 -0.11874716 -0.39929733 0.12703276 -0.20767878 -0.16142751 0.085577734 -0.0332988 -0.29987726 0.57373726 -0.33256805
precipitation 0.1118076 0.6234445 0.9012752 0.6474882 0.1921142 -0.2747378 0.41627866 -0.67088914 0.0074555976 0.1829286 0.4338132 0.91627866 -0.70463073 0.32073787 0.19736496 -0.30802375 0.37694564 -0.5643819 -0.0201507 0.20198487 0.28553674 -0.019899204 -0.23256937 -0.6185031 -0.46541867 0.62840706 0.31730354 0.40960947 0.42591897 -0.34670505 -0.14171396 -0.6289243 0.57382953 0.29248154 0.025506476 1.1889528 0.56509507 -0.57621574 0.14779292 -0.5384556 -0.23139492 -0.34717432 -0.36578125 0.18502128 0.18193176 -0.0575601 -0.0008629754 0.8783419 0.2936144 0.09205461 -0.08794276 0.3575386 0.6123811 -0.10133524 0.5534091 -0.015060507 -0.1749345 0.1294166 -0.44125688 0.33863154 -0.15787354 0.1708654 0.2630525 0.017144522
study 0.47148842 -0.038574316 0.05343034 0.46890405 -0.48588806 0.27989215 0.46717584 0.1181052 0.3858007 0.46193448 -0.11157844 0.004583482 -0.2578483 0.28110546 -0.33344772 0.41922173 -0.13046618 -0.41188002 1.2221968 -0.09254187 0.15702495 0.6171775 -0.0037137382 -0.8725411 -0.4659247 0.5725 0.01987651 0.24033557 -0.18364933 -0.22192241 -0.4489444 0.007941231 -0.094404 0.4682062 -0.6251881 0.053273868 0.6356014 -0.46368292 -0.18450694 -0.7350908 -0.6333635 -0.55767715 -0.24342513 0.16921023 1.0930864 -0.21249749 -0.6125221 0.4969949 0.23199372 0.382415 0.3883038 -1.1471962 0.27460617 -0.21732318 -0.28455222 -0.25272128 -0.7281344 -0.25599763 0.9209425 0.46407986 -0.22052047 0.19525991 0.3188324 1.0072378
± 0.07481938 -0.13612728 -0.35608312 0.4432428 -0.84536624 -0.26957873 0.4402954 0.3630236 -0.3811781 -0.6621121 0.07039754 -0.36347145 0.6146111 0.4635803 0.38192979 -0.5530078 -0.2253474 -0.1912814 0.87405086 -0.92498505 0.11035974 -0.2321554 -0.14097182 0.1500229 0.1903534 -0.87549084 -0.15518604 0.02840871 1.0001878 -0.7154741 -0.32324892 -0.39895433 0.09544345 0.55985475 0.8423945 -0.6899409 0.19520918 0.0591489 -0.065162994 0.157116 -0.36259618 -0.5905491 0.06242038 -0.18880834 1.3295754 -0.08499201 -0.7232186 -0.22895075 -0.05956921 -0.18885615 -0.36734965 -0.6502642 0.27954748 0.34072587 0.3513547 1.0495423 -0.20479633 -0.20276065 -0.22907859 -0.31266174 0.13325408 -0.34465382 0.25233486 -0.11016347
< 0.8056421 0.15673019 0.007277454 -0.27052656 -0.5630053 -0.23967665 -0.34296793 0.87526006 1.2370183 -0.6136953 0.27048564 -0.13043238 -0.5140028 -0.69865036 -0.049705125 -0.30050138 0.004635096 0.010840671 0.26949742 0.5382227 0.2855728 0.72916234 0.7560535 -0.6841999 -0.256447 0.41350102 -0.17119479 -0.19190921 0.52939993 0.44173503 -0.16422023 -0.26844588 -0.058146767 0.3384056 1.005344 -0.06815412 -0.84523606 0.020779917 -0.34253946 0.27718338 -0.3669019 0.15857688 0.45365018 0.21762097 -0.39745727 -0.5961801 -0.16466929 -0.48696086 -0.0036157276 0.077918686 -0.35774136 -0.7858779 0.0747629 1.0825822 -0.61845905 -0.81030244 -0.73905283 -0.18837218 -0.31954342 0.5636108 0.033081338 -0.35719532 -0.12844968 0.05670991
11 -0.07868086 0.89032733 0.43411073 -0.06881956 -0.26546913 -0.9556159 0.766409 0.47557738 -0.6291756 -0.07076202 -0.95372814 0.42678204 0.20681314 0.21917036 0.115605496 0.2311451 -0.4465015 0.5167996 -0.77871686 -0.63107413 0.9930701 0.47220415 -0.019674707 0.17512472 0.32049996 0.33597848 0.7566632 0.731562 -0.015137856 -0.39749113 -0.045647223 0.4811897 0.38602725 0.20135123 0.034325264 0.6325519 -0.42636177 0.14192681 -0.36746764 -0.32083422 -0.33286947 -0.025574181 -0.6521465 -0.20149377 0.22024126 0.18642436 0.22295369 0.50029033 0.4493961 -0.18838179 0.25335222 0.19269976 0.7398204 -0.2996659 0.30869102 -0.15542486 0.6453492 0.120779164 -0.56947654 -0.5978675 -0.17952967 0.111304104 0.9505965 -0.24074411
associate 0.12780866 0.4599869 0.6209583 0.03718385 -0.46225858 -0.3943123 0.20196024 0.25770932 -0.21340291 -0.71951056 -0.26972663 0.7968485 -0.03813233 0.7526303 -0.038955644 -0.37121633 0.011194619 -0.33079937 0.5798796 -0.28644794 -0.02308004 -0.50201744 0.296084 0.06804052 -0.14502674 0.21852826 0.21028198 -0.91856956 0.0860681 -0.8021867 -0.27461913 -0.7182547 -0.08806539 0.32120964 0.1414687 -0.23683897 0.88432515 -0.6715456 0.31903496 -0.34973383 0.48271927 -0.8152165 0.16138433 0.0644488 0.33143625 -0.5289139 -0.40318158 -0.5570308 0.14108983 0.08556284 -0.17766593 0.293786 -0.14894603 -0.37582615 -0.22342208 0.2108522 -0.67866015 0.6647661 0.30668962 -0.28329584 -0.4050248 0.070192955 0.052645434 0.26191357
k 0.13991846 -0.44801545 0.29162344 -0.27221105 0.11463917 -0.5316454 -0.23351018 -0.29340303 0.25047484 -0.82195663 0.3496168 -0.15521608 0.106776275 0.054553166 0.074865825 -0.8209655 -0.23930313 0.9597023 -0.01731321 -0.8768205 0.4890911 -0.23934709 0.6396485 0.09941285 0.23093088 -0.1588964 -0.5078418 0.25128165 0.085645206 0.4238759 -0.12261606 -0.14255956 -0.19700597 0.32694593 0.29201898 0.66096056 0.15042908 0.07992424 0.23076905 0.35832146 -0.7170509 -0.74244606 -0.41052103 -0.40796715 0.28896448 -0.6777124 -0.018920586 0.07059726 0.16772449 0.10902842 -0.6064995 0.04646883 0.51577127 0.27000725 0.1373413 -0.7366526 -1.1592772 0.72545576 0.7058505 -0.035488732 -0.35957044 -0.49997348 -0.40930617 -0.4556674
2002 0.03784752 0.84570634 0.10186107 0.12244598 -0.13114442 0.40152436 0.07338674 0.14752385 1.40141 0.018898027 0.27744922 -0.3810709 -0.7235399 0.6124115 0.3326344 -0.07690521 -0.61832345 0.14576901 -0.45484978 -0.81819963 0.8769595 -0.49941817 -0.6082552 -0.22758466 -0.0658387 0.573143 -0.27834198 -0.25119933 0.05622277 -0.09706832 -0.3887293 -0.18993427 -0.44666553 0.86563593 -0.37102506 -0.028324028 -0.23413943 -0.90814555 -0.21970582 0.08637755 0.07255425 -0.46879753 -0.13800547 -0.030707922 0.18912345 -0.11729269 -0.599522 -0.51930684 0.4047456 0.49880734 0.24265772 0.36858463 -0.9976277 0.1223237 -0.3840792 -0.012181655 0.6496223 0.27054703 -0.08912735 0.77571464 -1.7695215 0.4142347 0.34587044 0.15836962
