1373 64
, -0.017281344 0.2043319 0.047137134 -0.036365632 -0.03616547 -0.13310114 0.008891704 0.029181685 0.14849676 -0.34616178 -0.09755064 -0.069907025 -0.054466806 -0.2750186 -0.2447135 0.033202004 -0.23042001 0.19788027 0.08065674 0.1802658 0.047104884 -0.055915624 0.27976707 -0.18257491 0.050319817 0.19925596 0.022847278 0.0002446138 0.1287414 -0.18259351 0.08193889 -0.05009343 0.008987271 -0.065501906 0.19953907 -0.02750898 -0.14940247 0.16250895 0.20020254 -0.04443115 -0.22978984 -0.08516486 0.00858848 -0.077788435 0.072692804 -0.09457348 -0.14034592 0.14795527 -0.01415812 0.010450721 0.22004808 -0.0034002739 0.09280572 0.14134222 -0.24197651 0.15481369 0.062023018 -0.096040316 -0.079054385 -0.0063102185 -0.08087851 -0.26799715 0.24035841 -0.0067825015
. -0.1429925 0.083510496 0.10599846 -0.056569517 0.082252234 -0.03600899 -0.019619072 0.08701902 -0.030339636 -0.2739878 -0.010714549 -0.17650414 -0.14768589 -0.15003197 -0.17663254 0.07501532 -0.049599674 0.110330366 0.025993839 0.051802818 -0.031487525 0.14880915 0.13140291 -0.3451978 -0.0103695905 0.18838818 -0.15703757 0.12499603 0.03299822 -0.059672754 0.09795937 0.08702331 -0.1626746 -0.14182955 0.13500974 -0.056281775 -0.08273977 0.051701725 0.20894724 0.035456885 -0.1458898 -0.2471667 0.010736037 -0.0017337649 0.13060978 -0.16365853 -0.10459108 0.2405724 -0.05661868 -0.010090712 0.0028989937 -0.014633445 0.13292152 -0.06335164 -0.1764902 0.11763703 0.099675 -0.16189916 0.072318494 0.06448309 -0.1460603 -0.13443641 0.26598293 -0.032225873
et -0.23423131 0.3573792 0.2898563 -0.45280954 -0.13932939 -0.36757696 -0.10890203 0.119873635 0.19792923 -0.16232654 -0.08415915 0.08039063 -0.06481091 -0.21119197 -0.100382425 -0.42306447 -0.15076251 0.34771943 0.04837988 0.00028654488 0.112096354 -0.010795057 0.24298292 -0.07486329 -0.1251378 0.04186146 0.10890238 -0.26125365 0.020334192 -0.07107577 -0.062347062 -0.08798621 0.08697786 0.23528582 0.24162787 -0.09928163 -0.21295616 0.48831302 0.05193634 -0.1508418 -0.4211499 -0.13996091 0.3755642 0.07066401 -0.091477126 -0.16217194 -0.4462771 0.12316963 0.19279765 0.013311257 0.34655032 -0.24427442 0.008782148 -0.0274909 -0.058532577 0.2771521 0.13714758 -0.32150123 -0.043714695 -0.2979172 -0.084950626 -0.4587563 0.3788733 0.31452432
al. -0.31227562 0.2533169 0.32131842 -0.54673105 -0.23859987 -0.36924523 -0.11434842 0.18555939 0.18167731 -0.113470115 -0.04639417 0.15915878 -0.02747342 -0.31548536 -0.024348358 -0.4789956 -0.15371548 0.3129529 -0.04775736 -0.01219851 0.07220938 -0.06423436 0.16099407 -0.11297859 -0.073272556 0.044717036 0.13121735 -0.27979738 -0.028534805 -0.18054242 -0.028944038 -0.09094092 0.15387712 0.22057049 0.23244919 -0.0982077 -0.10173791 0.47273237 0.04159391 -0.12654364 -0.40354884 -0.20644659 0.32053757 0.060482163 -0.08476625 -0.27088165 -0.23457596 0.21568301 0.103519015 0.079254285 0.4313682 -0.21765487 0.10909408 -0.090270005 -0.047966935 0.2855724 0.18286832 -0.35179812 -0.065979294 -0.2800265 -0.10907846 -0.4598703 0.32710114 0.29340306
; -0.23427829 0.15125594 0.15385745 -0.20750709 -0.35687923 -0.4159581 0.03368321 0.044883218 0.21479222 -0.26707065 -0.0753264 0.10834618 -0.15006088 -0.24461693 -0.33434856 -0.17011765 -0.21342257 0.01947843 0.1714056 -0.07406212 0.19977367 0.0682447 -0.1363893 0.026968354 -0.26669925 0.20731117 -0.043280847 -0.09489607 0.1563954 -0.14249492 -0.030360607 0.1576087 0.16713272 0.07027601 0.15394764 0.09756035 -0.42673755 0.23008661 0.11989522 -0.31799826 -0.45174393 -0.051964577 0.011987055 0.082131565 -0.17787315 -0.3244777 -0.33246872 0.45498332 0.34796977 -0.17400421 0.48109552 -0.27432448 0.1579479 0.26835635 -0.17347348 0.102706075 0.10268772 -0.13989235 0.17571908 -0.236353 -0.2066394 -0.40811875 0.34017846 0.20126297
date -0.42670798 0.013040364 0.2078895 -0.12403624 -0.061084095 0.25295413 -0.2144491 0.33445755 -0.0038733839 -0.5510657 -0.24100822 -0.48310974 -0.6043907 -0.3975657 -0.31272453 -0.14269738 0.22381592 -0.21906416 0.010225948 0.2523006 0.087998874 0.029042901 0.22136714 0.15106244 -0.22376525 0.7064589 -0.14389493 0.43565452 0.16167171 -0.5221015 0.32407328 0.1960133 -0.3187503 -0.5665102 0.3063344 0.043577246 -0.38575304 -0.06014494 0.016161006 -0.32434878 -0.111718036 -0.30905253 0.3734603 0.34461746 -0.019748477 0.04078937 -0.6662772 0.38188866 0.11485562 0.34930953 0.12008605 0.020776808 0.5143489 -0.040839158 0.19508663 0.02621209 0.04295026 -0.40528792 0.025715139 0.105761625 -0.24694419 0.0544807 -0.14299983 -0.054031305
deposit 0.28256342 0.09981454 0.28221232 0.41297218 -0.019070562 -0.28765646 -0.16846374 0.10869632 0.23746741 -0.46583623 0.002652604 0.21523689 -0.10270069 -0.08889162 -0.22529832 0.20949613 -0.06630608 0.022898257 -0.20738962 0.07724966 -0.17210187 0.17613289 0.49400535 -0.35973018 -0.03652302 0.19255278 -0.3029899 -0.21242356 0.1937559 -0.20519966 -0.01346686 0.09374868 -0.25534287 0.2330126 0.21358944 -0.6381556 0.14091738 0.22865139 0.10356568 -0.122907914 -0.22631477 -0.64192086 0.096889034 -0.10036378 0.60650647 0.056004554 -0.30256075 -0.075590305 0.06290963 -0.21067393 -0.059599224 0.100686505 -0.16297239 0.2498325 -0.17876999 -0.02895826 -0.21028945 -0.17867517 -0.18876971 0.06708528 -0.3013715 0.081047654 0.19742928 0.051253833
age -0.019348413 0.31620163 0.32803 -0.5146346 0.052355826 -0.24875383 0.24146247 -0.054436292 0.011308804 -0.16827999 0.04222647 -0.156837 -0.303905 -0.30233383 -0.2023407 -0.23681828 -0.03823915 0.06171781 -0.27509546 0.18813582 0.19171752 -0.041865434 0.22515956 -0.0820608 -0.10947835 0.3001553 -0.11725271 0.24602297 0.12364962 0.1895053 -0.11492615 -0.16083372 -0.34214252 -0.32670683 0.43192405 -0.06264618 0.18424074 -0.12659433 -0.102796726 -0.232047 0.4011283 -0.35887206 0.4291035 0.13265862 -0.03769471 -0.133227 0.17527275 0.05036221 0.054578256 0.24446286 -0.3038064 -0.20145476 0.31950775 0.16564733 -0.4950495 -0.0016100935 0.17535299 -0.53369313 0.20555438 0.22591634 -0.13757296 -0.33652472 0.49946105 -0.086229764
porphyry 0.24781707 0.12739371 0.21520825 -0.1263046 -0.15608798 0.1947397 0.18270661 0.30028975 0.18465313 -0.41356185 -0.016949927 -0.27187663 -0.15302901 0.038615145 -0.48097885 0.00074235426 -0.14875852 0.13047457 0.13211185 0.14017779 0.010872023 -0.15652557 0.26507568 -0.47640714 0.10936944 0.31879485 0.010659029 -0.14996178 0.58702064 -0.16484433 0.29272237 0.2074163 0.00704788 0.08693924 -0.049815465 -0.14214417 0.1271401 0.3271659 0.35412526 -0.06593267 0.22333613 -0.23167822 -0.09006603 0.21747802 0.24605282 -0.20223005 -0.14478916 0.46454883 0.0037100557 -0.12126153 0.014196076 -0.00087541726 -0.18098792 0.47519416 -0.29299593 0.37389714 0.40825802 0.025291782 -0.0349889 0.20845445 -0.07256897 -0.1820079 0.3642652 -0.24074419
mineralization -0.3935382 -0.07436049 0.33079675 -0.14984629 0.08102385 -0.39223355 0.14516592 -0.021992965 -0.15375821 -0.8255026 0.017894408 -0.14929906 -0.4384094 -0.052584138 -0.33892846 0.022837749 -0.07660912 -0.16261137 -0.026761215 0.24136844 -0.027236864 -0.10976075 -0.0510466 -0.21811102 0.055189986 0.59666747 -0.013621417 0.01211028 0.10399591 -0.23806387 -0.07680794 -0.26710367 -0.26167852 -0.1357042 0.06002135 -0.25139403 0.17975995 0.2285324 0.1663976 0.045821935 0.5127416 -0.29118952 -0.11539004 0.24881491 0.2679297 -0.03338346 0.18978511 0.12301872 0.04525011 0.31552964 0.0309484 0.2205809 0.18616338 0.060429163 -0.5876599 0.22406851 0.060542963 -0.0035935394 -0.1873476 0.6543354 -0.01179391 -0.2166116 0.13585337 -0.1665944
late -0.29230034 0.1599458 0.037506886 0.03607107 0.13393669 -0.24598 -0.46972087 0.15731454 0.14598386 -0.4255907 0.012951324 -0.44429168 -0.27456766 -0.25718486 -0.007426127 -0.2647328 -0.22946674 0.0846166 -0.11435175 0.5368368 -0.15322842 0.051730774 0.3974784 0.003997298 -0.012817462 0.14743717 -0.28514186 0.030812455 0.35164434 -0.15253226 -0.11228502 -0.08119836 0.012817489 -0.24383634 0.123918444 -0.16476722 -0.13710272 -0.237461 0.2960241 0.32442576 0.25692597 -0.4765341 -0.22508307 0.19392692 -0.22992656 0.02948026 0.39870003 0.16912588 -0.58011407 0.06006237 0.24160036 -0.032855958 0.3368311 -0.048714906 -0.39988384 0.37246498 0.09525669 0.036287066 -0.07546374 0.23084757 -0.13846344 -0.18788487 0.085480094 -0.013069438
cretaceous -0.12475699 -0.3965367 0.07637716 -0.16427833 0.51141745 -0.28275433 -0.49685073 0.1671747 -0.15725781 -0.37349048 0.1632015 0.16723686 -0.38649252 -0.43317127 0.0029677993 0.13436013 -0.50378674 -0.08353559 -0.0044597425 0.31677982 -0.24461822 0.012683253 0.14979725 -0.23476501 0.11373956 0.4219279 -0.32177967 -0.158026 0.62691283 -0.25643602 -0.40251637 0.0009563875 -0.6297942 -0.3920377 0.11066493 0.14935243 -0.46986526 0.11283103 0.06799741 -0.019116303 0.09725811 -0.7318096 -0.1266471 -0.13345625 -0.41789016 0.04967352 0.06224022 0.12709194 -0.25102964 0.0102433665 -0.67269176 0.524056 0.59252757 -0.19722156 -0.48870704 -0.27190012 0.6494635 0.06957769 -0.13675457 0.25259995 0.14640284 -0.040280942 -0.0398973 -0.57650304
molybdenite -0.7353075 -0.07401253 -0.11040849 -0.13672513 0.051829387 0.045379672 -0.2987569 0.41505 0.13490295 -0.4782181 -0.14630537 -0.58281934 -0.31452364 -0.3013029 -0.5236009 0.12535158 0.14952444 0.099821635 -0.22226276 0.6850819 0.45568973 -0.39660993 0.5378928 -0.002955927 -0.26495698 0.90349424 -0.41465244 0.30261475 0.15516831 -0.5205284 0.013843912 0.16603418 -0.28231958 -1.0776938 -0.13668591 0.5891597 -0.26085606 0.16593222 -0.2690569 -0.42839184 -0.17625658 -0.6247621 0.2666715 -0.11557687 -0.2040048 -0.10156656 -0.45817205 0.22889143 -0.13252768 0.4245695 -0.055721134 0.19887035 0.8019301 -0.07215141 0.22786203 0.062363364 0.13295852 -0.120156944 0.018439442 0.094399884 -0.16271569 0.19069992 -0.11042411 -0.31473383
re-os -0.64882445 0.04440669 -0.05224677 -0.17682874 0.08444373 0.22029586 -0.34989288 0.4207528 0.15947427 -0.42894423 -0.101478435 -0.33048797 -0.2663322 -0.46440348 -0.45595047 0.13679045 0.055467717 0.0127716735 -0.11382719 0.67047995 0.28804827 -0.33650765 0.39666846 0.0023637966 -0.064429685 0.7116269 -0.08002737 0.4448031 -0.03507401 -0.30496395 -0.007091863 0.098014094 -0.13806684 -1.0566841 -0.08647094 0.691191 -0.45177305 0.13686334 -0.38583246 -0.2799312 -0.13536325 -0.56019163 0.32454 -0.17551671 -0.1872716 -0.021533208 -0.68735886 0.029556619 -0.10288229 0.37183988 -0.08764728 0.10619194 0.6624792 0.07723125 0.32560465 -0.06541705 0.13383038 -0.21114197 -0.17397112 0.23525319 -0.3551874 0.059433833 -0.036336582 -0.31226337
hydrothermal -0.3874003 -0.04353636 0.18336558 0.25169003 -0.35288265 0.2562466 -0.0027430006 -0.13993494 -0.2844788 -0.8230953 0.20246315 -0.88541305 -0.61497664 0.20047279 -0.0117002055 -0.13846423 -0.2667338 0.21522745 -0.20453936 0.028736994 -0.06978073 0.22318597 -0.3841003 -0.355732 0.23613384 0.22807825 -0.03787942 0.19774593 -0.28849044 -0.13321452 0.37997803 -0.16172116 -0.40428954 -0.59835917 0.023398066 -0.38473243 -0.0068127937 -0.17990544 0.24751034 0.01454686 0.34935522 -0.3736842 -0.075794384 0.15426332 0.558674 0.13876703 -0.33708265 -0.20785223 -0.4299316 0.17461428 0.059086 0.046344213 -0.19369496 0.020006232 -0.16704498 0.23106532 -0.05246674 0.0066499626 0.09745587 0.56516564 -0.18211685 -0.19802494 0.49575695 -0.17126748
rock 0.064966 0.20948674 -0.666507 0.06815281 0.3222049 -0.19448133 0.08363503 -0.10019669 0.19942191 -0.72497934 -0.5386078 0.026230924 -0.1901722 -0.18112342 -0.025605658 0.16792466 0.075532965 0.13883775 0.29921734 0.054189358 -0.37432876 -0.06978765 0.39443064 -0.023136249 -0.25943056 -0.02620998 0.021756742 -0.42382717 0.26822478 -0.23342976 -0.45609954 -0.19586934 -0.39320147 0.3750384 0.4955574 0.20505588 0.40362608 -0.2577853 0.13490124 -0.17329237 -0.41417146 0.06146104 -0.24828973 0.0019169126 0.08006121 -0.41943896 -0.6550293 -0.16452071 -0.1529996 0.2745079 -0.28639433 0.23887154 -0.2699979 0.077855796 0.029220741 -0.28026852 0.7133473 -0.33532846 -0.37467277 0.41391033 0.45481256 -0.36854962 0.41855794 0.16206174
alteration -0.53878087 -0.013092591 0.47180635 0.06356776 -0.068645395 -0.16344835 0.25602627 -0.23653394 -0.2575131 -0.74967694 0.054381967 -0.2009557 -0.6602449 0.053932797 -0.35676256 -0.36071745 0.2636536 -0.3234436 -0.1349421 0.16813886 -0.25521064 0.38416973 -0.3041692 -0.6780417 -0.12890488 0.49743018 -0.36210746 0.16415639 -0.22779039 0.089602225 0.3112254 -0.0307696 -0.23495902 -0.0969662 0.29081154 -0.55383307 -0.29616046 -0.28811142 0.22196378 0.23631848 0.37750638 -0.053993527 0.04920974 0.16058159 0.45760122 -0.16461834 -0.09865563 -0.2821895 -0.013934474 0.33684346 -0.0011261529 -0.037507605 -0.23464736 0.02343829 -0.0028687338 -0.024540748 -0.073460214 -0.11359578 0.5177114 0.6194065 -0.2583806 0.01215076 0.06043029 -0.2988583
intrusion -0.17423835 0.014496468 0.18870442 -0.18589596 0.28583068 0.07196886 0.25083765 0.13566847 0.0899435 -0.7094866 0.05421483 -0.069729835 0.014137083 -0.051787376 0.11975123 0.15592898 0.1867085 -0.15936482 0.17007811 -0.28091237 0.10883227 -0.04445448 -0.39374575 -0.28984436 -0.096073896 0.6592728 0.20505884 -0.056164313 -0.100606985 0.08034061 0.27040863 0.264223 0.092383176 -0.120861344 0.38892677 -0.17617466 0.34467274 -0.19556046 0.06294154 0.13299833 0.0025893464 -0.1710505 0.0125372065 0.75789887 0.2636955 -0.15453689 -0.4008389 -0.07387391 0.2835129 0.12417299 0.49232215 0.20763943 -0.22926286 0.05183409 0.12755442 0.108582474 -0.12361635 -0.23700476 -0.48127806 0.70437646 -0.008929262 -0.32279223 0.5503551 -0.60559946
fig. -0.1734645 0.0010081818 -0.03832494 -0.09844241 -0.119573005 -0.5118484 0.1381236 0.43444005 0.04375104 -0.42335057 0.13883923 -0.15520003 -0.44656846 -0.09857328 -0.13109824 0.10263054 -0.35819268 0.4520627 0.47795475 0.14418466 -0.22042112 -0.12490974 0.1831849 -0.043730143 0.36208716 0.44516203 0.33658424 0.52339107 -0.14189579 0.26203156 0.05722282 -0.1527926 0.22955756 0.122189984 0.41187832 0.07883658 0.5668845 0.10177398 0.07369862 -0.33612752 -0.28787538 -0.09340367 0.007388075 0.17415687 0.016727686 -0.04092304 -0.51969635 0.15534939 -0.1708973 -0.14954141 0.2586069 -0.15269719 0.12212956 -0.05863746 -0.28189287 0.11038934 0.4559632 0.039458062 0.52962685 0.11567053 -0.4053695 -0.3506747 0.14141953 0.46099854
formation -0.5488846 -0.26768863 -0.043357134 0.14294145 -0.21947989 -0.71391 -0.4626568 -0.15605325 0.04793191 -0.37334993 -0.23484299 0.24651162 0.35463968 -0.4022213 0.30997083 -0.20731685 0.21907717 0.20610307 -0.05481749 0.42838773 0.12823468 0.7028445 -0.12967902 -0.5112449 -0.59555787 -0.32793963 0.10787603 -1.1133155 0.2727925 0.4687169 0.06308501 0.62908304 -0.18597226 0.5627975 0.6641595 -0.059402734 0.07378646 0.07295876 -0.37274033 0.5771515 -0.47665823 -0.1629589 -0.4576948 -0.12723152 0.37182483 -0.15794268 -0.66855186 0.19001909 -0.23357403 0.15491948 0.43285364 0.42055547 0.055476576 0.236168 -0.4369437 -0.073806114 0.33097276 -0.007876448 0.13504069 -0.5495595 -0.18262446 -0.062765226 0.41367546 -0.1308358
casino 0.04220108 -0.1972059 0.10526675 -0.10439197 -0.34367883 0.030110696 -0.25430113 0.43550998 -0.36428335 -0.36158866 -0.11695852 -0.6448014 -0.5075392 -0.52365625 -0.4239861 0.041424725 -0.30333236 0.31696916 0.02707565 0.044950284 0.9153257 -0.30487153 0.55546993 -0.31268895 0.008516121 0.63841623 -0.3669811 -0.31579232 0.2878693 -0.7589476 0.20233172 0.32228294 -0.075475655 -0.96757483 0.2777999 0.3551781 -0.31597343 0.25122297 -0.32842672 -0.45223758 -0.16695902 -0.7655768 0.050981347 -0.2623103 -0.3651163 0.016314397 -0.2030283 0.29206303 -0.10390505 -0.072081685 -0.18949887 0.45654365 1.1885725 -0.07266568 0.19228742 0.13446751 0.150048 -0.26673728 0.004741896 0.04420284 0.2054906 -0.03481817 -0.1886022 -0.6067944
~ -0.39330676 -0.11645141 0.124151886 -0.59399414 0.029307935 0.60514665 0.23638374 -0.14503853 -0.52396405 -0.4930081 0.02361549 0.023575883 -0.13142675 -0.16626707 -0.30202243 0.15899226 -0.5188264 0.0061071976 -0.08343875 0.24958289 0.2175844 -0.7008992 0.23801431 -0.318864 0.10350946 0.3993975 -0.16845636 -0.27852613 0.1742446 -0.6446446 -0.23076178 0.10690541 -0.13372363 -0.62716293 -0.4238415 1.1153983 -0.3727616 0.18112911 -0.3477073 -0.37774462 -0.14955103 -0.5808489 -0.22813585 -0.17361827 0.63417536 0.07926621 -0.5660822 0.16381444 -0.18603119 0.22693029 0.16359806 0.6172085 0.94850653 0.22718652 0.4358936 -0.057543177 0.26786622 -0.04404192 -0.3878132 0.063256904 -0.2892034 -0.6372302 0.35871154 -0.7903395
volcanic 0.0036405139 0.09783786 -0.097456224 0.011414754 0.21996623 -0.43117744 -0.18784401 0.4673671 0.15705392 -0.66793865 -0.23948735 -0.2304603 -0.13791348 -0.27899665 0.24521707 0.41438842 -0.035277266 0.21352251 -0.033232853 0.5325038 -0.6542386 0.2182605 0.3155475 0.25194064 -0.29537976 0.35740894 0.015937546 -0.33121246 0.039811235 -0.11687408 -0.2408886 0.37288445 -0.6032452 0.3388402 0.5136079 0.23989828 0.5039308 -0.39986342 0.70614475 -0.20492816 -0.22960706 -0.24458559 -0.15065658 -0.06484221 0.14010692 -0.2582781 -0.44275174 -0.13024087 0.04844431 -0.2872887 -0.113616884 -0.00258881 -0.6231492 0.69051933 0.0026204523 -0.4728706 0.841623 0.058109816 -0.34803733 0.41935116 -0.22604224 0.3666419 0.17315482 0.5648049
associate -0.4321249 0.41288376 0.104564115 0.2302253 -0.38999802 -0.47725323 -0.28576893 0.21939123 0.15835866 -0.5909915 0.101104446 -0.6160301 -0.5309796 0.03880123 -0.3173311 -0.418181 0.18366888 0.270159 0.1615689 0.24889098 -0.35451722 0.39603287 -0.1768012 -0.50492543 -0.5077732 0.44595614 -0.21854934 -0.03951222 0.027320577 -0.30996364 -0.002335289 0.061734077 0.32599348 -0.08645919 0.06704111 -0.35360506 -0.55284697 0.02429558 -0.036676828 0.32334036 0.1017735 -0.41319638 0.054431185 -0.25162262 0.623199 0.2600933 0.04729395 -0.10827323 -0.08019497 -0.058134325 -0.326031 -0.00577757 0.524608 -0.21444464 -0.37496215 0.20690855 -0.010381575 0.40071654 0.7587322 -0.077974424 -0.35731652 0.34517825 -0.07340447 -0.21342097
host -0.51345354 0.18451999 0.090931095 -0.091675974 0.24398375 -0.2994838 -0.29985613 0.2759287 -0.13330695 -0.22351868 -0.27820858 -0.19605221 -0.51412576 -0.7866704 -0.6649287 -0.24945396 0.31518802 -0.13472629 0.2146139 0.72601646 -0.09140508 -0.2916722 0.35829768 -0.06309286 0.11979064 0.7171659 -0.25276902 -0.10328346 0.6257725 0.00994296 -0.40642375 -0.4802985 -0.29593995 0.26279765 -0.10465107 -0.6284467 0.4209859 0.12146304 -0.016578292 0.084950194 -0.13056493 -0.49757603 -0.21451698 0.3334572 -0.4762821 -0.04862511 0.30771977 -0.008845348 -0.2218881 0.54218644 -0.2534179 0.2160003 0.57811344 -0.16323638 -0.30002698 -0.15929233 -0.0785634 0.32014593 0.2343074 0.05077103 -0.17893611 -0.16702643 0.5417483 -0.12008568
system -0.09404234 0.48629037 0.49696782 0.33722937 -0.5811154 0.6315893 0.19884466 -0.02380926 -0.3582447 -0.8554014 -0.13733463 -0.50220317 -0.7398882 0.08609758 -0.0909998 0.015756419 -0.47768676 -0.028352043 -0.55367756 0.07050274 -0.13407284 -0.3702074 0.3084209 -0.87176675 0.6392425 0.23847593 0.17975703 -0.24764551 -0.22814581 -0.19947995 0.26441565 -0.33754808 -0.24639925 0.16354914 -0.20717658 -0.13927168 -0.2971283 0.3365415 -0.14146173 0.31987885 0.04538913 -0.26596677 -0.26047197 -0.3508544 0.5350455 0.07172031 -0.6733975 -0.14520189 -0.17273124 0.14271788 0.024023188 0.05649238 -0.46670637 0.16999857 0.08525509 0.032931324 -0.0977519 -0.011751888 0.20273852 0.7498657 -0.15998888 -1.0304921 0.38144544 -0.44348404
magmatic -0.027095797 0.15657143 0.051038865 0.14852417 0.11808601 -0.14648692 -0.21636695 0.24674436 0.015089863 -0.39261714 -0.022554193 -0.7116047 -0.00753577 -0.23750809 0.50302774 -0.14923392 -0.261511 0.25268948 0.00061379164 0.65082896 -0.3902522 -0.399992 0.05414995 0.34401459 -0.58462477 0.6350662 0.113971 0.060492516 -0.1003498 0.037195362 0.17217018 0.2306091 0.0057711564 0.09820481 0.3112435 -0.046090726 0.043360207 0.14200774 0.40619597 0.3168347 0.19139121 -0.26881775 -0.018713877 0.46135563 0.24614637 0.0891358 0.11361863 0.32999226 -0.19815348 0.0066907546 0.17941356 -0.16053511 0.34716642 0.11728075 -0.5906863 0.22134429 0.6647514 0.27419373 0.023016963 0.18820718 -0.186478 0.07731102 0.5829171 0.014541688
stage -0.403159 -0.4174381 -0.49981132 0.33473402 0.42119682 0.9590715 -0.5633764 0.09536413 -0.20907257 -1.245397 0.07396144 -0.37171566 -0.7699491 0.15148917 0.52684546 0.06140859 -0.1337604 0.71637505 0.23474059 -0.16618538 -0.2367851 0.3994159 -0.1276581 -0.25546733 0.32552195 0.45355523 -0.052871272 0.06834759 0.091875635 0.8570322 0.087984584 -0.2607034 0.4357209 -0.15764073 0.4480963 0.34249642 0.34375602 -0.15949158 0.15356483 0.24912778 -0.32666233 0.0990849 0.09784071 -0.14047311 0.45543125 0.39995134 -0.64355725 0.79980224 -0.9297404 -0.21017966 0.38117728 0.46791148 0.112537116 -0.14558166 -0.061306812 0.2297372 0.0022803512 -0.452494 0.104112305 0.18853779 -0.095881104 0.29222172 0.6146976 -0.581893
range -0.28742835 0.1550077 0.054838367 -0.7449735 0.4077154 -0.22376616 -0.3717912 0.89417094 0.4076289 -0.38070172 -0.24965496 -0.22906396 -0.36407176 -0.2446084 -0.21298309 0.6256923 -0.5169977 0.24761605 0.26282403 -0.16371341 0.0071077226 -0.061672326 0.28276646 0.24420553 0.5764061 0.38332817 -0.31556913 -0.10084996 0.69063276 -0.544962 0.2057162 -0.17455342 -0.54642534 -0.36057398 0.04364996 0.14087124 -0.05476938 -0.034924015 0.39407456 0.09684878 -0.15787055 -0.0020412726 0.18394688 0.023428317 -0.5608892 -0.21880773 -0.0030343987 -0.029316803 0.3377875 0.48594967 -0.20510669 0.19261286 -0.15210222 0.11192853 0.11383519 0.16716032 0.082330815 -0.5319771 -0.25126427 0.53748983 0.037819006 -0.17967573 0.30776042 0.13824838
cu -0.25545132 0.042475984 -0.025388572 0.19855714 -0.55682546 -0.538513 -0.5831144 0.20185919 0.114669695 -0.99542254 -0.021028938 0.025574071 -0.11801898 0.12382426 -0.3598397 -0.33977616 -0.43021128 0.613089 0.021371394 0.31692988 0.3066042 0.23252088 -0.5369553 0.1870411 -0.11837644 -0.5780998 -0.18433739 -0.5743832 0.36056063 -0.18116483 0.020395817 -0.1952054 0.47142106 0.28475833 -0.47060516 -0.2511419 0.2162595 -0.3311034 0.7216874 0.2932246 0.42632824 -1.319438 -0.4751577 0.10422949 0.7374032 0.0184094 -0.39497054 0.2795957 -0.28241453 -0.7201053 0.26684004 -0.3388448 0.4754897 0.2952002 -0.12484298 0.21484458 -0.05544141 0.18506196 -0.28343797 0.047986466 -0.6984948 0.5191582 0.03154518 -0.36862195
mid 0.42743468 -0.13011256 0.5533217 -0.4517329 -0.11059096 -0.49614173 -0.6116858 0.4817702 -0.45148006 -0.5508462 0.5145494 -0.1583135 -0.46918964 -0.6806542 0.1692913 -0.0589536 -0.4924518 -0.09358952 -0.16534027 0.22328351 -0.06693679 0.44977814 0.13424997 0.2950964 0.40747353 0.6127618 -0.009931414 -0.09371127 1.1603137 -0.30655766 -0.34262475 0.3350485 -0.28466454 -0.50024736 0.49719915 -0.0067979656 -0.77681184 -0.0590649 0.2217614 -0.021512628 0.013411386 -0.5565489 0.07261947 -0.20170526 -0.3270613 0.36605874 -0.38073912 0.08428451 -0.04883599 0.41945618 -0.559989 0.790418 1.124646 -0.52215505 -0.43098333 -0.36231098 0.6381847 0.023691561 0.03739014 -0.41303933 -0.01068769 0.054446593 -0.30943656 -0.7296246
: -0.21082601 -0.4672114 0.5158361 0.07749809 0.17481329 -0.28259578 -0.60447156 -0.070953965 0.76658857 -0.60969836 0.5137326 -0.42853597 0.02927754 0.3304961 0.1765028 -0.24584922 -0.25450557 -0.5127866 -0.41563174 0.33608624 -0.27663317 -0.1426319 0.15619081 -0.7677507 -0.07952894 0.40003425 0.46805903 0.10772306 1.0954337 -0.109296255 -0.41636956 -0.068388924 0.29745364 -0.412589 0.5759465 0.32928658 -0.4004682 -0.34341568 0.36037084 -0.07078596 -0.17053947 0.03628923 0.3982939 0.6508372 0.6202089 -0.120278545 -0.09185781 0.22309342 0.34208894 -0.50281674 0.41098756 -0.24992466 0.32384747 0.25038576 -0.06622858 0.3552597 -0.10287005 -0.2539024 -0.22401072 0.1473172 -0.4745426 -0.024196798 -0.27183962 0.4949812
ore -0.19101644 0.82916325 0.25151134 0.44731292 0.1150254 -0.8213665 0.16921262 0.010482067 0.27060878 -0.43793234 -0.38665622 -0.24459788 0.077612646 0.2403174 0.25636718 0.58227164 0.5882857 0.054190937 -0.10464881 0.18078752 -0.38145894 -0.3344044 0.402015 -0.24754553 0.07208591 0.15825048 -0.50317234 -0.5196711 -0.14724319 0.047564942 0.031510897 -0.36593133 -0.028230373 0.17465508 0.62432957 -0.17823036 -0.40182474 0.25528136 0.40314013 -0.04012261 -0.8774508 -0.46110353 -0.6686699 0.6788556 0.85698515 -0.17399015 -0.15517236 0.007720666 0.30328456 -0.09481789 -0.6816726 -0.07051482 0.0502247 -0.15185535 0.30872804 -0.73521084 0.24393365 0.48096108 -0.7165814 0.5661284 0.045541856 -0.0039001142 0.30353037 0.03171614
tianshan -0.539717 -0.061049473 -0.041163918 0.34610566 0.5852942 -0.5208966 -0.12524812 0.39996985 0.3778944 -0.4341314 -0.54964226 -0.18931359 0.65524936 -0.75557584 0.81634885 -0.17699365 -0.08619506 0.36155495 -0.44429234 0.33195934 0.58111686 0.34853232 0.12905398 -0.46866715 0.054091662 -0.45899484 -0.56931424 -0.7283807 0.6539474 0.06151984 -0.036920417 0.03508873 0.005180933 -0.28813213 0.82244796 0.6096016 -0.23667361 -0.09208627 0.34851226 0.10635574 -0.5892563 0.2413442 -0.7778193 0.18048654 0.5910454 0.070630856 -0.3355349 -0.11216215 -0.48360166 -0.28227687 0.16569763 -0.25047508 0.13033623 0.24019381 -1.124083 -0.19380371 -0.8520247 0.23654245 -0.3633507 0.26077318 -0.6095516 0.5010077 0.10887951 0.2221575
carboniferous -0.2651976 -0.40317124 -0.2987023 0.19751908 0.11659288 -0.73724544 0.10975597 0.2118088 -0.5786006 -0.007861046 -0.25243133 -0.19787267 0.43917587 -0.49902976 0.6510757 -0.39250493 -0.22597514 0.73703986 -0.59759873 0.5538604 0.25376642 0.06958422 0.5696625 -0.28987077 -0.43633503 0.4646695 0.049420666 -0.4514639 0.6516883 0.036547408 -0.15632248 -0.058281798 0.122009724 0.0873963 0.35997334 0.29547998 -0.10213377 0.28693202 -0.0604808 1.0859154 -0.61977345 -0.06518809 -0.46928984 0.00039224658 0.3062034 -0.8695973 -0.9784614 -0.13984989 -0.35017964 0.1385963 -0.41576746 -0.052030392 -0.2462883 0.29029942 -0.54500693 -0.17239632 -0.045709807 -0.25780928 0.26295954 0.34900367 -0.09954834 0.07131523 0.5802691 0.73786986
dacite -0.40835625 -0.0052120327 0.15472844 -0.084038414 0.59096 0.5040988 -0.6406386 -0.22349405 0.70059305 -0.521109 0.32320413 -0.9849421 0.5179065 0.6966405 0.13879746 -0.03642482 -0.05568568 -0.26899746 0.07697683 0.2534008 0.2826352 -0.2533991 -0.39892823 -0.5493403 -0.22832753 0.49886218 0.41138792 -0.2088243 1.0448467 0.6005482 0.57631135 0.13039187 -0.24279681 -0.3221944 0.86025876 0.12867439 0.1300938 0.33207193 0.17462549 0.19220436 0.07298076 0.3024621 0.022020755 0.71002144 0.011688152 -1.0198175 -0.2641941 0.5568845 0.06877521 -0.7572742 0.17959097 0.16172883 -0.42063454 0.38096693 -0.41627395 -0.0132188685 0.8374735 -0.3773967 -0.34129727 0.1311576 0.3615099 -0.010925778 0.72703236 -0.4325288
au -0.5609028 0.0005648764 0.76571584 -0.18308803 -0.49976605 -1.2477391 -0.355481 -0.74265003 0.09743545 -0.44216654 0.2722391 -0.44893822 -0.66088396 0.4614845 -0.2631142 -0.40891913 0.056722965 0.9537418 0.2231856 -0.34637612 -0.46820018 -0.051854387 -0.644809 -0.35935295 0.107688695 0.070389524 -0.49805596 -0.5352125 -0.012434809 -0.44444308 -0.13005808 -0.24425359 0.17160106 0.1857844 0.16637947 -0.36884663 -0.35836735 0.4511057 0.32586083 0.2681181 0.054312594 -0.9174917 -0.038094625 -0.28591487 0.49252433 0.015669268 -0.43795407 -0.36941049 0.5430638 -0.14623587 -0.3155636 -0.3362926 0.14620735 -0.11761686 -0.17564 -0.056503523 -0.14867638 0.4045266 -0.3015042 0.29655835 -0.71042633 0.06890878 -0.19129175 -0.0778519
- 0.65001494 0.33981737 0.73991793 -0.56774896 0.284369 0.1610254 -0.3485048 -0.15600502 -0.0753639 -0.7179593 0.034854293 0.12915543 -0.4792564 -0.30583858 -0.27741396 0.15988985 -0.86373866 -0.36546928 0.466586 -0.40215653 0.058478035 -0.083706245 1.5275047 -0.18002391 0.12283537 0.728648 0.16950285 -0.6310075 0.05926017 0.1447064 0.31171152 0.43986928 -0.82016367 0.309013 -0.08207848 -0.07367989 -0.30025458 -0.43692246 0.4275234 -0.123254925 -0.9121779 -0.20605819 -0.1133597 0.17765145 0.6531058 -0.08091225 0.26947203 0.35710964 -0.2060501 0.6260266 0.6459668 0.38489008 0.09122257 0.32820055 0.6995576 -0.53895175 -1.3470354 0.18080099 0.6577283 0.20108847 -0.2080749 -0.28369114 -0.00091176457 -0.1519047
40ar/39ar -0.21965438 0.6919158 0.19353344 0.3185231 -0.4466693 0.17325844 -0.3392406 0.1502787 -0.36837906 -0.41293177 -0.08910718 -0.5300534 -0.6249389 -0.24084525 0.20604457 -0.49572423 -0.15839207 -0.28430185 -0.37505418 -0.27657795 0.41379136 -0.28387406 0.20845316 -0.6570038 0.237395 0.7438939 -0.32168892 0.31606993 -1.0094825 -0.4217519 -0.57653266 0.38780367 -0.5236558 -0.78281283 0.39550093 -0.15411907 -0.031076772 -0.38143066 -0.10947957 -0.17533652 -0.023975661 -0.2780082 0.24778415 -0.1824421 -0.5255134 -0.22111705 -0.4768808 0.05179547 0.47178918 0.43372634 0.36895308 -0.41731736 0.27522013 -0.2431574 0.033438135 0.17592523 0.4376993 -0.35731018 0.366215 -0.04016031 -0.17698507 -0.20739268 0.39326712 0.25483254
early -0.02669704 0.33745316 -0.39480832 -0.08613224 -0.13142227 0.19918732 0.09931774 0.284202 0.42908594 -0.78643364 -0.5802145 -0.60514224 0.40416592 0.096093625 0.90970176 -0.23199068 0.22995281 0.27475348 0.36231095 0.01598093 -0.2544659 0.18486628 0.4988747 0.020061467 -0.15803072 -0.2991606 -0.081106134 -0.17707501 0.46561983 -0.16549382 -0.12444574 0.04958504 -0.45812848 0.37356788 0.51447076 -0.08603486 0.24917664 0.42105505 0.2676739 0.570106 0.04621002 -0.25594655 -0.040188573 0.019847784 -0.088368565 0.12121241 -0.30110937 0.022441598 -0.23192516 0.61064047 -0.08416941 0.09997407 0.41181064 0.08612588 -0.64421344 0.51299274 0.3894517 -0.176593 0.3165288 0.20750503 0.46384597 -0.08633212 0.57681155 0.53548795
suggest -0.4571744 -0.07492531 0.15213937 -0.6866066 0.19842769 -0.48219013 0.28850415 -0.1781105 -0.4756621 -0.17692508 0.14055623 -0.12905745 -0.6747723 0.26543337 -0.69007486 -0.25681534 -0.050022695 -0.058947563 -0.30692166 0.28466746 -0.029963106 -0.19354808 -0.028690582 -0.6282166 0.15167569 0.20782985 -0.39733943 0.43474075 -0.056420203 -0.6489544 -0.038827527 -0.608518 -0.56421953 -1.1002419 0.17673616 0.37636426 -0.07463688 0.36619285 -0.15174498 -0.15180334 0.08869516 -0.82154584 0.06332333 0.45897648 0.11828319 -0.10883445 0.19073306 -0.49972785 -0.3811483 0.08330638 -0.9341801 0.41074806 0.2969101 -0.037004508 -0.5307964 -0.16071793 0.15116076 -0.5375906 -0.013701071 0.38544366 -0.48351222 -0.14090681 0.6633505 -0.79039615
1 0.3368665 0.2190318 0.009807834 -0.3338208 0.12777899 -0.33874357 0.48117954 0.95814496 -0.29064694 -0.5080257 0.26450494 0.001063566 -0.36324918 0.09650433 -0.23847365 -0.14978288 -0.36359635 -0.06884652 0.22202559 0.2560346 0.02367093 0.33999515 0.29840776 0.18871845 0.4594217 -0.4212056 -0.21708277 0.0581501 0.23014204 0.18856339 -0.16980907 0.031369355 0.06770822 -0.28660607 0.0862715 0.31374422 0.4331219 -0.8546235 0.25938547 -0.290031 -0.6944844 -0.065408245 -0.4832693 -0.0356184 -0.09897623 -0.28795758 -0.84290653 -1.0005363 0.62264115 -0.4866162 0.34522563 0.2602683 0.727919 -0.3638421 -0.14952926 0.35560232 0.71839935 0.22411576 -0.09594988 0.5484474 -0.64112455 0.043094985 -0.0942464 -0.45854637
two -0.7228477 -0.12563348 0.36121157 -0.65654737 0.14060451 0.47056952 0.06932162 0.31943095 0.20280129 0.1680619 0.11720487 0.050168723 0.111955285 -0.08969219 -0.4113091 -0.8209904 -0.5880584 -0.05081446 -0.056042545 0.5144984 0.12993735 -0.026964664 0.24572921 -0.031943277 -0.118760176 0.85065496 -0.18118905 0.44037515 0.532592 0.17753075 0.19944622 -0.4972088 0.19739608 -0.49326172 0.10564164 0.008062048 -0.029647611 -0.2686814 1.2168965 0.40602607 -0.33050632 -0.33062795 0.14876483 0.35859165 -0.07346758 -0.2004775 0.30649614 0.08505362 0.16490188 -0.39371228 0.5628475 -0.24457943 -0.063067734 0.3048405 -0.42995155 -0.16070417 0.49161685 0.33588105 0.3015885 0.16388284 -0.5473204 0.009488023 -0.15853396 -0.14361207
young -0.08441714 0.23404703 0.031158905 -0.20592433 0.049685813 -0.063610576 0.18689533 -0.04607017 0.46017438 -0.028573638 0.1737819 -0.123761594 -0.2736293 -0.094483756 -0.31905833 -0.041850567 0.5322855 -0.03341257 -0.061489794 -0.28244746 0.6290481 -0.4090975 -0.19182962 -0.4587733 -0.14904736 1.2543523 -0.021717016 0.5268442 0.008432519 -0.28671116 0.32872093 0.06903637 -0.06467756 0.0052559995 0.6100438 -0.58649766 0.285467 -0.23651521 -0.16265862 -0.18776171 -0.4859309 -0.47007737 0.3946655 1.1092341 0.30072656 -0.5689956 -0.15578187 -0.08644098 0.49336144 0.091207035 0.51672375 0.04322902 0.6841046 -0.02319415 -0.19315326 0.58223367 -0.04748711 -0.066845186 0.3369611 0.33546618 -0.0010013026 0.18248454 0.07819637 -0.585595
fault -0.36641845 0.06526274 -0.11486904 -0.20104599 -0.81509775 -0.30776498 -0.021146726 -0.35835823 -0.62596375 -0.21175781 -0.18725127 0.74901044 0.4268655 -0.31142062 0.34376112 0.10433722 -0.16395777 0.3783504 -0.42435926 -0.011443848 -0.24310473 0.19620739 0.25199577 -0.5767758 -0.9951187 -0.52531415 0.30971712 -0.5614316 0.45360294 0.9110226 -1.1023157 0.4075229 0.33858302 0.31227547 0.8985597 0.18575764 0.33834282 -0.65998036 -0.17309168 0.2045266 -0.27685708 -0.5082527 -0.42134044 -0.10268354 -0.26922864 -0.6534851 -0.558765 0.8450392 -0.028628604 0.47370264 -0.19457887 -0.56259686 -0.3201735 0.24635907 -0.507377 -0.039093927 0.08204035 -0.4493638 0.26875994 0.41011998 -0.4839293 -0.40301096 0.22217572 0.118251726
stock -0.2096423 -0.1985934 -0.22137475 -0.6025267 0.7241633 0.6192905 0.64461786 0.5834522 -0.33194268 -0.68350875 -0.18825479 0.17424433 -0.32094696 0.122589484 0.6468821 0.19631103 -0.29292428 0.23250687 0.5342623 0.66436446 -0.6168984 0.31062162 -0.2052173 -0.3109721 -0.5659861 0.36177063 0.20634323 -0.05149866 0.058462225 0.06462197 0.55242324 0.62121046 -0.14568949 0.5079104 0.92499626 0.22520164 0.26839885 -0.4168723 0.5257632 0.26640782 -0.31954497 -0.1913462 -0.6076156 0.25083923 -0.20120622 -0.8807676 -0.37156263 -0.13314836 0.15850425 -0.50634056 0.4367427 -0.67290604 0.058009375 -0.57202166 0.21764673 0.21080582 0.3677575 0.11967443 -0.3831517 -0.082484044 0.37048206 -0.1746385 0.89249766 -0.53251964
east -0.7433989 0.01320946 -0.42282012 0.19032408 0.35948995 -0.33337933 0.49085298 0.6149336 0.039839495 -0.47711107 -0.03724848 -0.21808872 0.66705126 -0.9250477 0.62874675 0.14183661 0.15767393 0.23287205 -0.10622063 0.30362916 0.41067624 0.24059235 0.3307906 -0.5904106 0.2725669 -0.71943283 -0.23642144 -0.62596995 0.85515654 -0.0055128294 0.5988669 0.16042615 -0.123258695 -0.08414214 0.9732356 0.79871035 0.28220522 -0.20512761 0.4534417 -0.6640134 -0.3446539 5.2565025e-05 -0.7136751 0.39947736 -0.0012574373 -0.16245565 -0.38600144 -0.00617511 -0.027057612 0.17208774 0.08875551 -0.15549016 -0.1392653 -0.13941029 -0.46788898 -0.39808056 -0.7538555 -0.22119166 -0.49648732 0.34585777 -0.26999965 0.45402095 0.1547071 0.22239117
2 -0.51276684 0.074595824 0.07346914 -0.4912595 -0.24668959 0.010441355 0.34001788 0.49833438 -0.22830616 -0.43561366 -0.61438715 0.10885263 -0.5253464 -0.029728217 -0.27581576 0.10136864 -0.017385768 -0.6536558 0.28699556 -0.41006866 -0.13302264 0.021239689 -1.0033202 -0.465018 0.45145452 0.35807198 -0.1308783 -0.19698203 0.0061618565 -0.45631188 0.27767092 0.4973947 0.6427242 -0.20821694 0.06737247 -0.6879553 -0.08310186 0.22464183 0.027512154 -0.22180216 -0.97433645 -0.72746223 -0.37862417 0.18296735 -0.26327822 -0.65757585 -0.7857532 -0.5692245 0.9389677 0.2566953 0.56025255 -0.025724132 0.42652544 0.29801467 -0.20451228 0.5361208 -0.31405377 0.19348188 0.21654889 0.32420683 0.13785394 0.40464827 0.43481898 0.3011376
3 -0.5646257 0.116971254 0.40675807 -0.18615162 -0.2990358 -0.27881965 0.012881457 0.18084097 0.21070391 -0.50286317 0.55279636 -0.3788221 0.22853437 0.4462893 -1.4140613 0.67815226 -0.42798224 -0.8479649 0.5623027 -0.934693 0.41450155 -0.14223298 -0.4944548 0.1555906 0.058943436 0.46352425 0.5421942 0.33575496 0.9263786 0.13806657 -0.42282525 -0.133694 1.0542012 -0.17178825 -0.18584989 0.5465072 -0.47697747 0.5672606 0.10907516 -0.41862765 0.08004075 -0.61422616 -0.6670616 0.58431834 0.39593077 -0.33319795 -0.6591493 0.00362547 -0.20312002 -0.2655916 -0.079303436 -0.30544937 0.25339705 0.90942127 -0.65220535 -0.37175092 0.26089865 -0.27536353 0.3666735 -0.10156618 -0.111513026 -0.44642553 1.0243517 0.26534626
2002 0.15321203 0.08413445 0.44329172 -0.038980346 -0.05172596 -0.45667472 -0.5063615 0.6601468 -0.07470447 -0.088003546 0.08793144 -0.07083509 0.4050697 -0.21680135 -0.0072505823 -0.8334835 -0.2518442 0.14737178 -0.6165869 0.4763899 0.16891412 0.3398607 0.6360204 0.06282601 -0.29733244 0.17590593 -0.0013010424 0.057077788 0.09293818 0.8070914 -0.22359885 -0.27911767 0.7323577 0.3023299 0.4328367 -0.2609468 0.24273053 -0.07949132 -0.44446924 0.038672924 -0.46600482 -0.56622374 0.6784008 0.15832922 -0.13281272 -0.7641245 -0.3414447 0.2573268 -0.8161827 -0.3301751 0.61025393 -0.2815227 0.28006184 0.06679038 0.2984793 0.08609025 0.24757458 -0.4562346 0.04004515 0.0793975 -0.25919697 -0.19053596 0.5527854 0.39168018
1997 -0.5917502 0.34008792 0.08455062 -0.52622956 -0.90168214 0.20381431 0.11572035 -0.12932645 -0.021030422 -0.4495271 -0.11646912 -0.31906065 0.5131246 -0.90322894 0.75851697 -0.9630785 0.035054613 0.30949476 0.14324194 0.07790498 -0.3017827 -0.07771814 0.097308435 -0.7237697 0.37467378 -0.055341315 0.15435779 -0.88110864 0.3110501 -0.52759206 -0.16803995 -0.30325755 -0.3387915 0.7777141 0.068838805 0.23660858 0.11061808 0.26956084 0.1532172 -0.46677843 -0.32378787 0.037277594 0.19143815 0.5412126 -0.23388697 -0.66478753 -0.36995092 -0.5215667 0.29980597 0.49566072 0.47299862 -0.3980905 0.54975796 -0.05117122 -0.7782047 0.22120203 -0.23248644 0.103960544 0.6181522 0.24606468 -0.12770106 0.02863089 0.35833043 0.98242104
plutonic -0.13684553 -0.10609461 0.37816066 -0.56861854 0.12210317 -0.2753653 -1.0722095 0.6169606 -0.159923 -0.77186036 0.44456556 -0.25070363 -0.29839936 -0.95590717 -0.12943646 -0.00046837082 0.01420035 -0.2792883 0.05850847 0.2997682 0.53982776 -0.14475755 0.75077546 0.16727208 -0.196204 0.8304945 0.036783148 -0.4946394 0.5153058 -0.5099553 -0.13995169 0.24848723 -0.26264095 -0.4652369 0.7200836 0.2276257 -0.47256827 -0.59119254 -0.18561079 -0.44581482 0.22553752 -0.45627204 -0.45327178 -0.16205734 -0.55227524 0.076985136 0.22647364 0.11327404 -0.10063005 -0.37459958 -0.69434 0.35087433 1.3033036 -0.4795046 -0.08854543 -0.49700528 0.21999393 -0.34094346 0.4380019 0.12297133 0.6970624 -0.45564428 -0.11446656 -0.5614289
18 -0.76797354 -0.03477425 0.1731994 -0.17474742 0.1509586 -0.00038174307 -1.0045894 0.586475 0.31920558 -0.5067542 -0.1213712 -0.24853884 -1.5376749 0.90776193 0.4665369 -0.08456647 -0.3107739 0.45794556 0.59270364 0.101668954 0.33433264 -0.23429976 0.6882598 -0.4053756 0.33238155 0.67035127 -0.13471633 0.5010464 0.34601897 1.2025801 -0.27006087 -0.7016578 0.44109204 -0.011680294 0.6763582 0.1807492 -0.040886093 0.06700846 -1.5032362 -0.021520577 -0.18811533 -0.4389214 0.8316235 0.46149382 0.22003101 0.03942523 -1.0242374 0.8574954 0.04018741 -0.015456758 0.9166816 -0.070862986 -0.1923698 -0.100813106 0.04519449 0.2122838 -0.45042434 -0.01311451 0.4035628 0.39961323 -0.0229689 -0.04405873 0.51624906 0.54260594
copper -0.3087842 -0.57936764 0.93205917 0.32259342 0.89809495 -0.08168773 -0.39337048 0.32933626 0.10965606 -0.44242463 -0.3752973 -0.07079634 0.051169362 0.500546 -0.30044854 0.37220332 -0.05591838 0.24878097 -0.16428323 0.2101716 -0.60995305 0.39949498 0.13349825 -0.099207886 0.8018306 -0.12938209 -0.44118974 -0.20326898 0.24731502 -0.5041182 -0.15260352 0.17779557 -0.8485578 0.26017335 0.47431308 -0.56017524 0.82506037 0.3317953 -0.2679769 0.08879686 -0.432752 -0.37131777 0.07443516 -0.45716333 0.25975296 -0.33582988 -0.37485647 -0.51149154 -0.69253325 -0.19075906 0.35864335 0.11820648 0.3528393 0.2518408 -0.022816174 0.10137244 0.50855917 -0.71048236 -0.46908724 0.48535737 -0.14761204 1.2522973 0.8896034 -0.006960502
caldera -0.42982867 0.044569187 0.88434625 0.14728017 0.39614475 -0.14474317 -0.12946647 -0.45794165 -0.19160129 -1.0713362 0.71718246 -0.28150567 -0.12010272 0.67635345 0.091401845 0.3115163 -0.17304966 0.3076446 0.40824035 -0.8658318 0.28304034 0.40670767 0.22040375 -0.4378173 -0.04545333 0.5172082 0.35763744 -0.5791383 -0.04191794 0.11266836 -0.7422902 0.42964038 -0.51584595 -0.0052034063 0.0822539 0.57625556 -0.09571828 -0.18914384 0.5225302 -0.37570217 -0.19596343 -0.63360685 -0.481075 -0.6386718 -0.052601423 0.30791312 0.0024931526 -0.2902337 0.8283714 0.24412428 -0.2926293 -0.74445194 -0.65432066 0.20878026 -0.5372924 -0.40391418 0.06319242 0.18487838 -0.1702131 0.96210015 -0.038440373 0.3415294 0.26526487 -0.18886885
along -0.500595 0.25707856 -0.21476153 -0.14684711 -0.969809 -0.9283942 0.108364955 -0.209285 0.15933238 -0.16877864 -0.11452577 0.6966374 -0.009242391 -0.58749604 0.5920673 -0.23694938 0.14631265 0.34276795 0.32562733 -0.379946 -0.996578 0.501664 0.8053445 -0.38243887 -0.49105054 -0.17383075 0.016313402 -0.3318308 0.29652426 0.9587712 -0.60655606 0.39460522 -0.26460248 0.41287175 0.947263 0.6799128 0.392578 -0.31719905 0.401963 -0.27344385 -0.43180662 -0.57356477 -0.82452685 -0.06915817 -0.17922679 -0.81095827 -0.27360934 0.0062185233 0.2437898 0.059182882 -0.18223202 0.24505766 0.121470235 -0.36269444 -0.14462213 -0.08607081 0.07627005 -0.09915412 -0.28294158 0.4592318 -0.6412681 0.21046442 0.018001772 0.46988174
district -0.31503618 0.066814534 1.2386532 -0.5230453 0.1771051 0.04078422 -0.45032403 -0.25984347 0.4103037 -0.5789391 0.11486432 0.12994047 0.26454872 -0.4639184 0.1986684 0.35657167 0.35740748 -0.23818888 -0.06885717 0.51697236 -0.5911159 -0.69373304 0.29662585 0.06650882 0.06525096 0.17445435 0.25827026 -0.75531876 -0.085147075 0.2387828 -0.81293666 0.7346563 -0.8353279 0.53603905 1.0341939 -0.77322096 -0.13399072 0.78515154 -0.45438212 -0.08751916 0.32155398 -0.4714388 -0.24041158 -0.28761247 0.86692303 0.37554342 -0.5382691 0.18983218 0.8249437 0.7997665 -0.0028607463 -0.37912214 0.13268858 -0.076074794 0.083287455 0.02616435 -0.057904027 0.0112804845 0.5347451 -0.24398606 -0.33742055 0.011061676 0.44903576 -0.031627502
1999 -0.9513381 0.49796948 0.4005036 -0.5746216 -0.100706585 -0.013360831 -0.8338208 -0.102745965 0.21677755 -0.31653634 -0.32998553 0.04818855 0.29229194 -0.37369734 0.4911207 -0.18054631 -0.44220346 -0.2339923 0.109889485 -0.5720661 -0.07419347 -0.4551167 1.040723 -0.042006776 -0.15737034 0.25337824 0.29106343 -0.54964757 -0.5811639 -0.046240993 -0.618537 0.07428145 0.49348372 0.07709549 0.47994158 0.033833664 -0.72727346 0.48069128 -0.13012274 0.73311543 -1.0112315 -0.24728298 0.08856213 -0.5966779 -0.94724905 0.06722298 -0.057313677 -0.23780604 -0.27123883 -0.22200985 0.664287 -0.15707004 0.14881696 -0.07715958 -0.038418163 0.71084136 1.0976632 0.31230077 -0.38246816 -0.24992636 -0.16873595 -0.7103097 0.3980452 -0.71261066
similar -0.05029516 0.4350705 -0.005122746 -0.7454155 -0.60436994 -0.20016122 -0.7634749 -0.4291465 0.34497356 -0.3647951 0.31940767 -0.3447576 -0.42879292 -0.6150935 -0.7129584 -0.3655832 -0.40843683 0.36474532 0.6926634 -0.7966409 0.6808327 -0.5139798 0.2111213 0.17224872 -0.020339834 0.3241961 -0.264268 -0.37047046 0.3735879 -0.43135613 0.21332312 -0.90320736 0.08846332 -0.14992167 -0.084157236 0.11845851 0.35903654 0.8443353 -0.47722238 0.43981618 -0.1289574 -0.8567502 -0.041994702 -0.49793932 -0.6623641 -0.2448218 0.3529178 -0.22831568 -0.69212204 0.27365032 0.48784775 -0.043219127 0.27319497 -0.72313076 -0.679668 0.30705306 0.32984865 -0.29367566 0.10344609 -0.027638856 0.09903584 -0.02449147 -0.07677521 -0.34474686
dike 0.06766738 -0.6152535 0.22358347 -0.4514651 0.44171765 0.2956205 -0.051392935 -0.5693438 0.28124413 -0.95233107 0.5557102 0.14178795 -0.3529159 0.09527802 0.12866731 0.5072108 -0.055929534 0.2610221 0.5983116 -0.4426486 0.15611097 -0.47811705 -0.35591945 -0.27976745 0.15417916 0.6226078 0.7912166 -0.042340506 0.12505789 0.3331904 0.059434976 0.025029192 0.58812785 -0.79863936 0.56410414 0.24117965 0.58265626 -0.22994289 0.11097574 0.24547945 0.11373687 -0.6223931 -0.47234932 0.62047154 1.2246492 -0.1431903 -0.2809617 0.40472856 -0.107715555 -0.13222422 0.5498011 -0.036546696 -0.279662 0.11846792 0.124311045 0.23655643 -0.3740222 -0.24351239 0.11579188 0.4134677 0.18239383 0.4052713 0.6415751 -0.40464088
old -0.46320212 0.28052416 0.78471386 -0.824979 -0.53120303 0.7489071 0.25891 0.58623415 -0.90883505 -0.3624211 -0.14195587 0.10391398 -0.05340625 0.07790392 -0.64517534 -0.62656 0.45199668 -0.93650144 -0.1201782 0.45606974 0.34424978 0.221043 -0.02124875 -0.37745652 -0.9148183 0.70974606 -1.1584897 0.11918921 0.7050597 0.03597767 0.58506584 0.11209596 0.0640052 -0.44532833 0.18248019 -0.14329103 -0.3875885 -0.20129625 -0.5311818 0.35619897 -0.45546803 -0.8541515 0.3652797 0.37949696 -0.07959 -0.63958645 -1.084453 0.2604333 0.33906454 0.30560422 -0.2693209 -0.057494096 -0.2314406 0.10321653 -0.07586815 0.55726314 0.2038361 -0.23625378 0.053063866 -0.76939803 -0.37355465 0.9048914 -0.44419685 -0.5506965
suite -0.28956324 -0.16971679 0.14788334 -0.5388429 -0.097706355 -0.40157902 -1.0835987 0.7421114 -0.16388535 -0.6910438 0.41480708 -0.2602611 -0.3855975 -0.81511706 -0.12728901 0.072655015 -0.2969776 -0.02563898 0.1785635 0.20478709 0.6294036 -0.24537545 0.771886 0.2988889 -0.024090692 0.8275847 -0.16306345 -0.45442155 0.45004088 -0.7043865 -0.038863897 -0.07817281 -0.358187 -0.7332613 0.66750276 0.43053955 -0.56887805 -0.37898216 -0.26728156 -0.6941281 -0.03822366 -0.6797568 -0.27746862 -0.18048787 -0.6271077 0.020797277 0.042701863 0.28700012 -0.28654987 -0.14156719 -1.0809131 0.49354556 1.6791538 -0.32081908 -0.121491484 -0.54039896 -0.015172293 -0.20866351 0.08368716 0.37464383 0.70646083 -0.34320146 -0.17416528 -0.5188858
occur -0.057820246 -0.12373454 0.05193006 0.49677926 0.22083397 0.1056349 -0.4595809 0.058805343 0.6889621 -0.48260498 0.086267926 0.20762569 -0.14846969 -0.13360868 0.51848394 -0.24130383 -0.024681192 1.0991898 0.0547533 0.19425067 0.29593575 0.566565 0.12125563 -0.41988477 -0.29216066 0.12592058 -0.12745842 -0.2966746 -0.011455188 0.8813162 -0.026095798 0.05406977 -1.2400216 0.83077276 0.36556113 -0.087676555 0.20263888 -0.01286368 0.024344739 0.32614312 -0.10834347 -0.8512944 -0.01619749 -0.12577328 0.60409653 -0.23013695 -0.02579883 -0.07404369 -0.22067486 0.8626149 0.06624109 0.57785684 0.020921787 -0.119317956 -0.71737486 0.39854395 -0.13696039 0.26047552 0.55840456 0.07850347 0.16843306 0.11314992 -0.018329734 -0.0788639
low -0.25539392 -0.07577543 -0.5414509 -0.17921285 -0.3299063 -1.2505102 0.28198817 -0.65915644 -0.11079021 -0.7144508 0.5171195 -0.29952276 -0.016004954 -0.06181132 -0.014057361 -0.17823179 0.51282 0.4126077 -0.6233592 -0.5938529 -0.47881484 0.084667675 -0.3014232 -0.82430553 -0.023677943 0.14298806 0.44585937 -0.6737271 -0.52782243 -0.3342084 -0.15169606 -0.94477236 -0.62442064 -0.6545057 1.0017852 0.2949309 0.5647627 -0.08936315 -0.049033284 0.50191927 -0.5331363 0.03118341 -0.96443605 0.55812573 0.1769628 -0.90369755 -0.41952357 -0.6957551 -0.31188977 -0.08795821 -0.10216781 -0.58534014 -0.029811202 0.18569037 -0.30885175 -0.111774124 0.14923769 -0.7155171 -0.27574027 0.31246126 0.63778996 0.025185747 0.15051332 0.25270694
table -0.51980066 0.19112761 0.4322131 -0.6365481 0.03402376 -0.09482158 -0.894763 0.26797605 0.98227227 -0.6023239 0.006433936 -1.1763972 -0.57173836 0.20085171 -0.40228093 0.81979674 -0.55539584 -0.65630674 0.42611703 -0.033659372 0.3314014 -0.05308587 0.018681973 -0.6763382 0.72107786 0.24224694 0.74006987 0.1665443 0.5528731 0.5277169 0.06471095 0.54602295 0.021246605 -0.49926007 0.7382271 -0.0020071159 -1.1427443 -0.33849177 -0.9241569 0.07301042 0.3659406 -0.5380835 0.4058822 0.8693257 -0.2428222 -0.6640268 -0.26673886 -0.4171639 -0.0070898756 -0.04321691 -0.38554183 0.43956146 0.029631998 0.20973133 -0.48478466 0.10942745 -0.24661984 0.36066824 0.40471807 0.029946316 -0.29534647 0.5817159 0.26947016 0.19746336
mineral -0.05249978 -0.037246 -0.32830337 -0.07642924 -0.13448611 0.27542248 0.3862417 -0.075934514 -0.61900496 -0.45278078 0.044348564 -0.65449053 -0.57075363 0.060344886 -0.1446615 0.14406689 -0.18244325 -0.46007335 -0.822752 0.29064488 0.1893452 0.35220256 0.7354091 -0.36195233 0.7613924 0.122749984 -1.6415495 -0.0056415447 -0.11348199 -0.29550916 -0.94136626 -0.27885225 0.10129405 -0.16495797 -0.36259392 -0.3781779 0.00035117983 -0.9192574 0.5055568 -0.04501694 -0.89835167 -0.43836993 -0.5980984 0.45212087 0.1580102 -0.6096244 -0.23309964 -0.641595 0.20677876 -0.17633563 -0.33410302 -0.5826176 0.32356665 -0.2223476 -0.88682884 -0.16518722 -0.352193 0.15840961 0.26653713 -0.18683651 0.117699005 -0.28221634 0.57499677 -0.6179432
block -0.023067506 -0.18471763 0.48582372 -0.0854861 0.1253888 -0.5270826 0.14637136 -0.43344402 0.66908467 -0.3963039 -0.71960574 -0.17253518 -0.309558 -1.238799 1.5182745 -1.2408817 -0.75891817 0.18425438 -0.33517417 -0.22126587 -0.38923258 0.11520721 0.22609703 0.13390805 -0.43403766 0.6092002 -0.63757396 0.9580505 1.0877073 -0.11914915 -0.44907326 0.07578885 0.521752 -0.8340838 0.6548149 0.3332003 -0.30560756 -0.1175816 0.0872346 0.57629466 -0.63253564 -0.01264843 -1.1478134 -0.8489773 0.6888324 -0.25045612 0.007775217 -0.20476508 -0.73039937 -0.15548152 -0.097754665 -0.061780393 -0.51636344 0.6101069 -1.0852112 0.07589702 -0.95424956 0.65378416 -0.50035036 0.44499263 -0.6512178 0.42458725 0.3792174 -0.10088545
arc 0.04454502 -0.54610497 0.025870975 -0.32691365 0.24845502 -0.67663723 -0.13366988 0.6435756 0.01889954 -0.47935027 -0.17475522 -0.75305545 0.23080316 -0.3986427 0.50129485 -0.1764807 -0.67718786 1.115799 -0.23572613 0.99914974 -0.20465247 -0.48686025 0.6130669 0.12590958 -0.88720566 0.21289751 0.313479 -0.21616536 -0.22147185 0.030668307 -0.27564824 0.6794458 0.14003427 -0.39998773 0.096370995 0.01665917 0.013474642 -0.24480277 -0.09165419 0.5452938 -0.8523483 0.5817651 -0.8440564 -0.43755436 0.612435 -0.06834859 -0.5709289 0.19661163 -0.6515773 0.045661684 0.4477352 -0.39457664 -0.45172969 0.22234419 -0.2022136 0.06576857 -0.210337 0.25291055 0.07912122 0.1647752 -0.93402004 0.9625858 0.4631122 0.0037975488
1998 -0.30364567 0.64615226 0.70787436 -0.8045272 -0.35348177 0.23258351 -0.026855204 0.26587722 0.30068907 0.2134518 -0.4994621 0.8513196 -0.07711841 -0.839297 0.040748138 -0.32039505 -0.56610066 0.6701694 -0.16381247 -0.6019619 0.21022026 -0.24415998 0.28191447 -0.2555819 -0.13691187 0.0049695787 -0.0907752 -0.24115738 0.072861716 0.5487207 -0.006807194 -0.93365425 0.264493 0.50000477 0.095642306 0.39220384 -0.34336755 1.0947628 0.54707766 -0.26724574 -0.94168407 -0.572793 0.114596546 -0.39246637 0.25576243 -0.07361314 -0.30783483 0.03708959 -0.32957366 -0.09908114 0.07144067 0.13928616 0.661927 -0.4230582 0.91872954 -0.49589324 0.471629 -0.27593106 0.2691169 0.24575754 -0.088660575 -0.7213411 0.06421708 0.13061868
include 0.5502175 0.5885818 0.23078847 0.4560102 0.29932 0.11692231 -0.08518539 -0.34710053 0.7569044 -0.93481493 -0.31894577 0.00013196126 -0.12731676 0.07826444 0.19380566 -0.2153584 -0.011163746 -0.10065132 0.635695 0.1199955 -0.021736795 -0.0815059 0.41740704 -1.190122 -0.93138474 -0.19651707 0.118148 -0.85066855 0.13497691 -0.9719977 -0.49046385 0.28433588 -0.07501068 -0.35450372 0.55972475 -0.1279744 0.18186922 -0.16943483 0.044974547 0.21922126 0.391853 -0.025363272 -0.67707866 -0.49257004 0.012463201 0.06178109 -0.34439445 -0.42598295 0.45107132 -0.3867734 0.47521287 -0.9809502 -0.08375944 -0.40508807 -0.31328115 0.7237833 -0.078427136 -0.2874752 1.1437002 -0.13107876 -0.01510729 0.022987898 0.28726512 0.16837792
yield 0.23110671 0.47132725 -0.50017464 -0.045072664 0.20131747 -0.14785635 -0.29112977 0.43387687 -0.0019077034 -0.63510686 -0.2611683 -0.38256925 -0.20791647 -1.0062625 -0.60185677 -0.38481814 -0.1022682 -0.42567554 0.4125714 0.46826845 0.7882876 0.49184352 0.20162155 0.18999368 -0.15143663 0.22887416 0.0077139386 0.4389624 0.8519093 -0.016910281 -0.22258219 -0.0125323525 0.20976472 -0.4901871 0.19439778 1.2281097 -0.3815755 -0.013504876 -1.0890093 -0.41793662 0.09640025 0.22169186 0.2504107 -0.048578355 0.88224906 -0.27960902 -0.9462615 -0.25462368 0.06385938 0.43129265 -1.6751089 -0.6309571 0.8918661 0.71733886 0.8128774 -0.5255905 -0.13860518 -0.37357786 0.28715995 0.5208304 -0.15079805 -0.42118526 1.2024336 -0.49752393
dawson -0.038641147 0.046856664 0.38454783 -0.7891569 -0.00583733 -0.16295053 -0.7027938 0.78898585 0.09685987 -0.42592686 -0.37937754 -0.09670738 -0.44509903 -0.3590294 -0.24964713 0.40656266 -0.42341298 0.4308903 0.08292367 -0.26354834 0.10975551 -0.4586281 0.380035 -0.19951235 0.3181251 0.47131014 -0.61095387 -0.39443058 1.0758967 -0.73074704 0.1580445 -0.6740298 -0.1938691 -0.6049013 -0.12500559 0.22282934 -0.15644999 -0.008766685 0.18409371 0.30609414 -0.08717426 -0.4529788 -0.038921475 -0.43834957 -0.85636014 -0.002245631 -0.15156838 -0.03176175 -0.09632227 0.084223606 -0.30829555 0.35917115 0.32851514 0.04334039 -0.1421792 0.28123078 0.13289805 -0.5857905 -0.42881638 0.49101543 0.37246737 -0.18872106 -0.27793512 -0.8659847
relate -0.7646407 -0.4175527 0.5698199 -0.07935027 0.14640503 -0.15725918 -0.44867718 0.13243383 0.11584064 -0.33369705 0.21244583 0.7885008 0.060985148 0.21360366 -0.5166284 0.3314485 -0.56538045 0.0635373 0.0027925393 -0.79735804 -0.017340558 -0.2591596 0.18306811 -0.36521173 -0.23566346 0.3664865 -0.5863115 -0.813621 -0.034890734 0.015938256 0.31493992 -0.069978274 -1.1660413 0.5616988 0.035649378 -0.53889245 -0.060997996 1.0097424 0.3872497 -0.1179282 0.12622568 -0.501714 -0.68766886 -0.24221796 0.42458883 -0.8446258 -0.118455976 0.17459032 0.40584466 -0.22472273 -0.45646638 0.31049743 -0.22179095 -0.027011087 -0.73457587 -1.2100496 -0.310845 -0.79964894 -0.22422443 0.71281266 -0.4990699 0.3411306 0.1301482 -0.8243058
paleozoic -0.39812633 0.2415489 -0.4941808 0.39356157 0.24186796 -0.817499 0.24246037 -0.3324805 0.45931506 -1.0764345 -0.20740412 -0.09430825 0.1981011 -0.799765 0.5854617 0.14309643 0.033098012 0.05522757 -0.5493238 0.08223094 0.4658011 0.19241032 0.14293933 -0.08755542 0.49845514 -0.6454263 -0.8015462 -0.72817713 0.63680255 -0.31266323 0.17475875 -0.02141798 -0.24466664 0.07109105 1.0172628 0.74625987 0.252421 -0.31968394 0.45796776 -0.5738757 -0.4257247 -0.28624672 -0.75346076 0.4756261 0.2759642 0.027154125 -0.6289738 -0.3366821 -0.62404233 -0.5701502 0.24492048 -0.48933724 0.3113125 0.3288185 -0.8358484 -0.34002104 -0.48447585 0.1317245 -0.48142084 0.11285063 -0.18136854 0.36251393 -0.23847926 0.763897
craton -0.082520925 -0.039512794 0.23849799 -0.384953 0.36102414 -0.42727333 0.06325794 -0.4050779 0.342387 -0.16078469 -0.55825514 -0.29277542 -0.24973305 -1.1365923 1.0867321 -1.1550621 -0.42211276 0.40603793 -0.2885055 -0.39164123 -0.5037642 0.019144848 0.008967597 0.009650828 -0.42924017 0.5402743 -0.45304358 0.53812575 0.8929945 -0.54534125 -0.6865076 -0.016959246 0.7066497 -0.411927 0.55292565 0.5160694 -0.17140515 -0.0013063888 -0.22310662 0.8061763 -0.43392923 -0.371979 -1.1948185 -0.7393157 0.6133109 -0.47637156 -0.036447443 -0.31418025 -0.5239222 -0.40800512 -0.07986442 -0.29931492 -0.20070797 0.22588998 -1.0164514 0.28056315 -1.0384104 0.3352145 -0.3274079 0.14417855 -0.5439548 0.38000548 0.5462295 0.10162714
middle -0.20779492 0.026787087 -0.9960844 -0.010301847 -0.30304065 -1.0224566 0.12234341 0.8709335 -0.101127595 -0.24078244 -0.5256292 -0.1737741 0.73915017 -0.7734085 0.714882 -0.34348103 -0.46128574 0.9506309 -0.25138327 0.6879009 -0.31043667 0.3763425 0.36363095 -0.5999546 -0.20588687 0.22758892 0.18940495 -0.80634296 0.84304047 0.15258221 0.43667978 0.5439486 0.17186832 -0.1619984 0.6503154 0.8237394 0.2855177 0.115600266 0.10112079 0.6561108 -0.2661718 0.003989747 -0.773996 0.10669055 0.05612934 -0.35554987 -0.99674904 -0.027133048 0.24400765 0.08349412 0.015015264 -0.3099599 -0.10718666 0.07756686 0.1609867 -0.5267662 0.14621629 -0.3258681 0.0034107007 -0.24922505 0.007397 -0.027831942 -0.14822993 0.28783607
2000 0.6358767 0.90567124 -0.019318124 -0.5998562 0.35615313 -0.70570755 -0.8408439 0.48843414 0.17771055 -0.2417666 -0.40436155 0.2790254 0.107063144 0.09429683 -0.793329 -0.57038885 -0.7179511 0.13672909 -0.29692745 0.007072008 -0.45558298 -0.38966504 0.8360065 0.656571 -0.38062146 0.008759131 0.3847147 -0.24172652 0.64299214 0.3241553 -0.07265524 0.41918197 0.17594776 -0.42292327 0.5830275 -0.06383115 -0.58115864 -0.264458 -0.59558964 -0.53143877 -0.8430109 -0.12402351 -0.092382155 -1.006651 -0.5190349 -0.9934495 0.26121232 0.908947 -0.91752243 1.0033026 0.21178892 -1.8352218 0.3277056 0.0139456205 0.12797901 -0.31422934 0.31410137 -0.38842607 1.1317315 0.016546307 -1.0575299 -0.25526434 0.30558556 0.34991962
pluton 0.46139628 -0.007821543 0.04637648 -0.28393117 0.5765852 -0.40177172 -1.1077833 0.95001197 -0.13450281 -0.87907845 -0.16910243 -0.4539942 -0.9790367 -1.2449713 0.33273768 -0.45816034 0.58343357 0.32133773 0.23046735 0.6653145 0.3654192 0.7647547 0.23820631 -0.5989576 -0.5658503 -0.0357272 -0.49231938 0.09915094 0.49550065 -0.25608698 0.30062833 -0.6188204 0.40139148 0.18688853 0.29014838 0.43917373 -0.20908783 0.36406156 -0.37316862 -0.020175627 0.23516142 -0.65832704 0.50970584 -0.24214378 -0.8614791 -0.40370405 0.38652664 -0.11388895 -0.56644607 0.43481255 -0.6406159 -1.0117518 0.4991274 0.5526041 1.304442 0.21700853 0.11147189 -0.3729837 0.56219774 1.4110943 0.25228587 -0.044715457 0.01950398 -0.1869245
zircon -0.22395942 0.08310963 0.17590176 -0.69433105 0.67347574 -0.379622 -0.005779603 0.90038526 0.5452438 -0.18757203 -0.13634668 -0.77880126 -0.2584156 0.10795872 -0.43396434 -0.20830998 0.45193353 -0.18969467 -1.1556538 0.7838474 0.40861395 -0.1902259 0.6890304 0.23888092 -0.48868686 0.1945925 -0.528499 0.29668102 0.7376403 0.7773176 0.12455043 -0.6060143 0.27154586 -0.8366004 0.26797947 0.29388928 -0.014848902 -0.460204 -0.24871428 -0.9063815 -0.22817144 -0.10417518 0.5745275 -0.39607793 0.04305678 -0.6349989 -0.2914124 0.25888833 0.13272576 0.49960792 -0.85931796 -0.765552 0.423084 0.5214641 0.31012326 0.15882616 -0.45360965 -0.42923695 0.765229 0.5304554 -0.4712014 0.13383132 0.8803907 -0.89082843
u-pb 0.023336042 0.033316318 0.2420163 -0.6682142 0.59742165 0.015909635 0.22788103 0.6298155 0.5379251 -0.44075355 0.03375116 -0.75483793 -0.103443295 0.19657733 -0.27773133 -0.3084808 0.29113683 0.041113622 -1.4233233 0.7013352 0.41144493 -0.4363813 0.33446693 0.13269931 -0.5991912 0.25709403 -0.3222193 0.23752932 0.7350519 0.8868401 0.17539595 -0.6976202 0.049754433 -0.50057924 0.29364616 0.045130618 0.20858355 -0.35786352 -0.3391774 -0.63058406 -0.06733354 -0.101997994 0.6388827 -0.19681428 0.16866633 -0.3506739 -0.41465586 0.37019798 0.099147856 0.24706867 -0.24874093 0.05441193 0.12148591 0.18587941 0.16578451 0.2583609 -0.43657672 -0.43845165 0.49442914 0.5415936 -0.43446398 -0.32741702 0.52602154 -0.8188885
indicate 0.043300893 0.18196326 -0.23471111 -0.58601993 0.14667523 -1.0340555 0.49715897 0.4832115 -0.038358014 -0.52589935 -0.041862912 -0.03625596 -0.44599453 0.7113593 0.17917526 -0.39246178 0.16899538 -0.105390206 -0.03712706 -0.33410245 -0.5140949 -0.485432 -0.1621036 0.37946358 0.43503097 0.29396018 -0.09196672 -0.22259824 -0.23323174 0.03588568 -0.747992 -0.16689721 0.33880457 0.29699686 0.5815291 0.05364768 -0.28429034 0.012622354 0.02214931 -0.23350742 -0.46917227 -0.2681377 -0.15632758 -0.40182918 0.017870463 -0.2806634 -0.6004612 -0.10073261 0.87229115 0.65288 -0.31793106 -0.6614221 0.32211867 -0.34288007 -0.9506132 0.1649458 1.0582204 -0.47676378 0.3932386 0.5698434 -0.22083256 -0.5695705 0.012927689 -0.18724106
tertiary -0.49367842 0.23632772 -0.15822867 -0.12694499 -0.21941456 -0.6659956 0.66644853 0.06864653 -0.6236593 -0.80452645 -0.27520856 -0.20202552 0.16623554 -0.6451326 0.3115064 0.5163154 -0.13057649 -0.6358144 0.032829862 -0.47660077 -0.39123774 -0.12016201 0.35366163 -1.0877739 -0.6572837 0.22217894 0.4328782 0.26995465 0.17653662 0.21339616 0.19751465 0.352457 0.47847903 0.1946415 0.57504696 0.43398836 1.2662472 0.30011284 0.10723345 -0.073041245 0.2712255 -0.4588764 -0.48327944 0.08943235 -0.5357692 0.35091138 -0.09554742 0.1672295 0.4297601 0.21928717 0.4427008 -0.014225578 0.5369229 -0.8941124 0.394416 0.4790643 0.101581685 0.49330422 -0.2947184 -0.09683753 -0.24222763 0.22729121 1.5574677 -0.20437817
teniente -0.3042577 -0.108637474 0.44245857 -0.12545931 0.17718504 -0.2791863 -0.79747796 0.035126746 -0.27451572 -0.9904351 0.5051092 -0.16285577 -0.80640876 -0.3194376 0.13315976 -0.109479114 -0.20534311 -0.41722524 0.4886211 0.44124708 0.44383878 -0.2811504 0.5468846 -0.22036567 0.53313607 0.10834658 0.8114612 -0.12540737 0.71047 0.9955986 -0.28765696 0.50509745 0.10454867 0.10100252 0.4914156 -0.36821452 0.40960282 -0.09307884 -0.87047213 0.6345785 -0.009077852 -0.15246733 0.023807008 -0.03697567 0.5781596 0.4577075 -0.76563 0.772359 0.01348071 -0.20519434 1.1862078 0.40869603 0.059446443 -0.65290385 0.43624943 0.056620587 0.12120616 -0.22359711 0.43065152 -0.06385758 -0.39802012 0.5434873 0.3363 -0.9147485
emplace 0.0023663382 0.35322803 0.115943946 -0.55154413 -0.21518753 -0.1648797 -0.5993975 0.40517178 -0.14055094 -0.9271059 0.26561725 -0.14182964 -0.32687277 0.14055195 0.25141403 0.42388242 0.44689485 0.92595255 0.024429074 -0.1070259 -1.1737119 0.5534265 0.2487384 -0.3244457 0.039361198 0.4473637 -0.18084258 0.43510115 0.63963675 -0.25746873 0.12689948 0.23473275 0.13213941 -0.6102244 0.4574245 -0.16296281 0.6700155 0.42530513 0.31333268 0.36914346 0.117652334 0.08200725 0.14367157 0.40120596 -0.40800354 0.13183057 -0.04428294 -0.49983224 -0.2974506 0.027001396 0.80576324 0.26645103 0.056082744 0.035170544 0.22510014 0.6461279 0.5028046 -0.010908083 -0.767005 0.47722375 -0.10887011 0.6547168 0.5458057 -0.35195136
complex -0.36361307 0.61609536 0.8025253 -0.32061517 0.5470501 -0.113625646 -0.78550965 -0.10119538 0.40015158 -1.2300261 0.14642404 0.092906445 -0.2046336 -0.029559879 0.5375597 -0.40533996 0.085786164 -0.03253097 0.034610145 0.3891965 -0.49692985 0.3171558 0.55482894 -0.22861199 -0.56439006 0.54617393 0.18610083 -0.4589348 0.08581632 -0.79843885 -0.2446206 0.6915055 0.7211516 0.20513602 0.4889307 0.39528713 0.8421119 0.00048299087 0.34979793 -0.18477273 -0.21145424 0.18691805 -0.18336836 0.31543013 -0.1690547 0.347364 -0.13065633 -0.18138376 -0.33605567 -0.35553524 0.53812456 -0.008451179 -0.2448763 -0.46835017 0.2775223 0.43524188 0.84455866 0.45417494 0.34302863 -0.15895534 0.07660206 0.43064627 0.30063847 -0.3262584
phyllic -1.4668728 -0.5480486 0.09012199 -0.23358871 0.18835337 0.39296365 -0.26841062 0.15036015 -0.29571334 -1.0503774 -0.07497756 -1.0029536 -0.36463326 0.37964243 -0.8238292 -0.053793136 0.13470215 0.19404496 -0.10303592 0.85475874 0.10731619 -0.21337038 0.21139151 0.24531242 -0.42199504 0.44843775 -0.3873163 0.20585293 0.5250257 -0.31597012 0.86875457 0.19063228 -0.007391579 -0.60608774 -0.27479094 0.13423617 -0.8551144 -0.5803207 0.022197252 0.541889 0.28681862 -0.4938169 -0.4068956 0.08500807 -0.06594713 -0.4487745 -0.4822161 -0.25911275 -0.4509694 0.12226939 -0.3339565 -0.12140886 1.2105808 -0.15207209 0.19310778 0.20108172 0.41238835 0.3229469 0.7719959 0.27148485 -0.107836865 0.8317792 -0.12375551 -0.6941884
vein -0.7827639 0.38270023 -0.26977 -0.29218343 -0.68501973 -0.0079797525 0.29904246 0.06299549 -0.27145407 -0.88277596 0.10943806 -0.6267507 -0.64513695 0.18269941 -0.6155904 -0.25521255 0.42751765 1.2470835 -0.1480708 0.518246 -0.048202455 -0.21496214 -0.36076495 0.2781659 -0.051665895 0.3339706 -0.2736045 0.45757028 0.41279528 0.7884514 0.27260867 -0.024082867 -0.77320385 -0.7458651 0.28969315 -0.9814668 0.30933544 -0.1495317 -0.015971225 0.13560809 0.575154 -0.030746775 -0.046415687 0.04500291 0.19052997 -0.51536787 -0.12509866 -0.33800396 -0.22373322 0.29281422 0.53425413 0.026638146 1.3935493 0.5311621 -0.06867562 1.078732 -0.065920636 0.6569025 0.10969287 0.6749326 0.21002194 0.044596348 0.33477852 -0.75210476
margin -0.07424734 -0.046170175 0.6345393 0.5419139 0.92630357 -0.4820931 -0.33644894 0.6534517 0.21646078 -0.05094637 -1.1227378 -0.32760954 0.3552956 -0.19260846 0.85635275 -0.2281648 -0.88527334 0.37083519 -0.25126836 -0.26086518 0.27747673 0.48030457 -0.12708685 -0.22237189 -0.95313555 0.122145176 -0.26113787 -0.5183231 0.75319177 0.15835816 -0.6810909 0.15169786 -0.8024648 0.47298452 0.597719 0.7391651 -0.06515231 -0.022474501 -0.30953458 0.7454994 -0.25871825 0.097228624 0.043213736 -0.08340855 0.97104204 -0.6761875 -0.43496653 0.10514199 -0.20855807 -0.078826666 0.10815118 -0.3160722 0.2695852 0.5753111 -1.1175069 0.5431783 0.10156605 0.30121335 0.47218665 0.76573586 0.14057015 0.61626744 -0.010090646 0.6663396
intrude 0.0917593 0.17111763 0.076121785 -0.29135785 0.64719695 0.024433708 -0.25932992 -0.11945544 0.10412054 -1.2656809 -0.50116926 0.49672204 -0.5998104 -0.27562425 0.43551907 -0.071669236 0.066769466 -0.032968216 0.344297 0.07548761 -0.6801201 0.14370547 0.055977125 -0.4714505 -0.5174527 0.013733252 0.22829933 -0.36168647 -0.46653578 -0.16126293 0.03605096 0.22201547 -0.48628193 0.7265292 0.6851926 -0.24267194 0.74391806 -0.61005557 -0.04376343 0.22966456 0.31771848 -0.017460752 -0.78789634 0.062941045 0.08443285 -0.82201004 -0.31814206 -0.034136385 -0.5248651 0.0003071352 0.09111369 0.4119435 -0.06438284 0.19198053 0.4208394 -0.14873882 0.7352652 -0.2737602 -0.08334501 -0.10008644 0.3997216 0.5928011 0.5484806 -0.35108978
= -0.72166735 0.07379525 0.29046214 -0.12356892 0.6838946 0.5196045 -0.79075384 0.89668405 0.043559104 -0.32247168 -0.25069603 0.42237416 -0.061295103 -0.59127605 -0.8634848 -0.10763749 -0.28481966 -0.66498303 -0.6974589 -0.00406707 -0.27124864 -0.3497567 -0.50244695 -0.37533224 -0.423268 0.3138286 -0.3120685 0.27692002 -0.39445996 0.21388139 -0.082216345 0.510565 -0.77544695 -1.77109 0.6112736 -0.00062920037 -0.74297357 0.62615585 -0.51761705 0.1995423 -0.13969749 -1.0138929 -0.14535555 0.07339695 -0.63434994 -0.86446613 -0.7411707 -0.63807744 -0.03852858 0.10727442 -0.2290388 -0.25443345 0.7570302 0.26905128 -0.024255421 -0.20597285 0.852815 0.20914854 -0.37777615 0.30894244 0.16947396 0.932607 -0.22872731 -0.58190733
4 0.22955096 -0.490508 1.0956593 -0.1198405 -0.8491522 -0.5064785 -0.14450814 -0.27108446 0.2601093 -0.48822212 0.32708794 -1.1408502 -0.40717295 0.44489262 -0.044326287 0.34317493 0.07101037 -0.4893139 -0.2978235 -0.51971775 -0.52124494 0.042545795 -0.8842087 -0.28278977 0.6219406 -0.3202864 0.14512771 0.1495664 0.20185268 0.48770916 0.7997595 -0.53787667 -0.34012058 -0.45461956 0.8202948 1.0876684 -0.60360205 0.17683712 -0.031023663 -0.029523 -0.6246183 -1.1277112 0.16561936 0.46045765 0.40525833 -0.82693297 -0.85951096 -1.238956 0.20890306 -0.44924393 -0.3517665 0.34351698 0.034172405 -0.13079111 -0.66573346 -0.19038087 0.72609526 0.6654534 0.6406787 0.566094 -0.38032946 0.123841316 0.3301419 0.8491347
epithermal -0.2341764 -0.18575521 0.17134526 -0.033240676 -0.69148403 -0.4093457 -0.21874404 -0.23464938 -0.24159993 -0.7848491 0.04100468 -0.032418806 -0.5445922 0.20597655 -0.2579012 0.33541566 -0.5526857 0.43418238 -0.11359469 -0.4656607 -0.34839 -0.38189617 -0.22926404 -0.7729974 0.35204324 0.09163338 0.20312232 -0.52467185 -0.00635545 -1.0460209 -0.5975961 -0.48767307 0.6480115 0.5792789 -0.23916252 -0.027183603 -0.2664239 0.31231079 0.513853 -0.044456493 0.10977166 -1.3133005 -0.72578853 -0.48617792 0.50945854 0.22063826 -0.43099084 0.24865738 0.11767329 -0.20897277 -0.09077082 -0.4842974 -0.28991753 0.5091148 -0.46995294 0.27963609 -0.041699294 0.61127335 0.077810235 0.49052942 0.033708066 -0.31537294 0.17465268 0.41814375
northern 0.20733379 -0.45488584 0.1412341 -0.2136128 0.5237874 -0.7689459 -0.03861593 0.48415926 -0.18329643 -0.31943163 -0.5484301 -0.25105888 -0.23598441 -0.4009313 0.37461063 -0.4282611 -0.9277442 -0.007809102 -0.5978582 0.2867933 -0.4453631 0.49421006 0.5028146 -0.2942888 -0.77651787 0.9051884 -0.74904245 -0.15323468 0.83714557 -0.605762 -0.70594305 -0.26833028 -0.0696318 0.31101996 -0.073626816 0.49605945 0.016551591 0.07239562 0.2216706 0.78976977 0.28988 -0.59818316 -0.13735831 -0.030102298 0.44556725 -0.05653049 0.037004724 0.030410994 -0.4000256 0.5684352 -0.23190713 -0.2425301 0.35140654 0.78406554 -0.508383 0.9522158 -0.28202233 0.5175509 0.08874648 0.44627014 0.1443461 0.12436824 -0.16010287 0.6379229
within 0.15409139 -0.5395805 0.26740366 0.24552867 0.032075696 0.3775271 -0.4074664 0.7418187 -0.45457214 -0.578495 -0.010338282 -0.14494245 -0.05966441 -0.029852485 -0.48231655 -0.52840513 -0.14981233 0.29915655 -0.53228897 0.19774179 0.41105717 0.41493404 1.1701121 0.28354985 -1.194755 0.15513723 -0.050722674 0.2620582 -0.3409903 0.12241874 0.1104613 -0.42327806 0.01412656 0.270482 0.3123357 0.08593628 0.35777086 -1.1377326 0.1856135 0.26811156 -0.6472879 -0.036525678 -0.557974 -0.38451687 -0.3839368 0.050375637 -0.16843101 -0.22002232 -0.27922624 -0.17690377 -0.5784246 0.4465395 0.03278107 0.13932924 -0.5119236 0.5526558 -0.47412112 -0.35855144 0.45726082 1.4578255 -0.9940594 0.6313595 0.6170166 0.086207926
consist -0.12925853 0.27984008 -0.06644383 0.5703579 -0.1508527 -0.84832805 -0.050193507 -0.14974238 0.11859288 -0.3893749 -0.51956993 0.24335027 0.033625722 0.17582947 0.68379086 -0.75942284 -0.19350271 0.04293929 -0.04161428 0.5199423 -0.47994715 -0.37584335 1.1225706 -0.15032725 -0.30734965 0.28258038 0.18298572 -0.020151244 0.80366826 -0.46333194 0.07501788 0.24340087 0.22163026 -0.43167356 0.87857497 -0.25936937 -0.011285397 -0.11778528 0.14978442 0.64205015 -1.2020267 -0.4219636 -0.16475564 -0.09758008 0.41866672 -0.39581412 -0.05186903 -0.47186953 -0.7632576 0.60363436 -0.34303984 0.009314216 -0.44216427 0.34941256 -0.24294719 -0.22562416 -0.14158472 0.104441985 0.06203483 -0.5682883 -0.3880755 -0.007617842 -0.003434155 0.48972902
form 0.48255682 -0.047857434 1.1918143 0.22418839 -0.23440744 -0.90089566 -0.12537147 0.3351239 -0.4928032 0.09416129 0.094172254 -0.100483 0.7515475 0.4223437 -0.14507991 -0.6337637 0.2718263 -0.39589953 -0.680404 0.08146283 -0.32187092 0.4514644 0.5624842 0.33039704 0.19356693 0.24067323 -0.22712192 -0.3923555 -0.20023395 0.89364034 -0.048410505 -0.21648793 -0.36772752 0.09570093 1.2134178 -0.63675183 0.015807122 0.26320946 -0.0069469153 -0.05042337 -0.35759965 -0.9257198 0.097802 -0.15891306 0.6422852 -0.21544549 -1.0883362 0.4404822 -0.5817228 0.26114458 0.11851127 0.03625675 -0.53986156 -0.20403238 0.6306469 -0.59326994 -0.27159375 -0.5501059 0.8270685 0.36437327 -0.39084414 -0.28962156 0.75314325 0.32278606
area 0.49511892 -0.20716234 0.30898497 -0.27626777 0.07008888 -0.6651169 0.06269036 0.59108436 -0.3318303 -0.7123479 -0.2285683 -0.3839907 -0.43151107 -0.17519139 0.26757154 -0.5129702 -1.3351492 0.4087348 0.11216342 0.5466752 0.6991655 0.47738227 0.17927022 -0.23439457 -0.65537333 0.4028339 -0.57673407 -0.34945056 0.29943767 -0.7071678 -0.16100594 -0.5798144 0.23970594 0.101418026 -0.04805685 0.7466219 -0.21740273 -0.11783703 0.17983826 -0.2090912 -0.641461 -0.34989032 0.11382436 0.17353293 -0.06365535 0.5203411 -0.14972143 -0.2147521 -0.19683798 0.15294872 -0.28070566 0.56752455 0.50933087 -0.5827537 0.25939417 -0.44314632 0.776438 -0.43083405 0.09742 -0.04111871 0.14050883 -0.5375881 -0.69713604 -0.4734912
temperature -0.62131304 -0.34783337 -0.5299626 -0.41960388 -0.35046658 0.5607272 -0.6462309 0.17831266 -0.20347658 -1.2058948 0.24234857 0.404575 0.55399555 -0.8078878 0.4060772 -0.010110155 -0.49276656 -0.3083788 0.6201027 0.030317111 -0.03293081 -0.33357543 -0.4899408 -0.47520912 -0.10638827 0.46801597 -0.66240525 -0.2723884 0.15325285 -0.5349898 -0.68919784 -1.1125941 -0.43883952 0.286057 -0.34033713 0.0020808575 -0.4802704 -0.0105974935 -0.24595475 -0.27481493 -0.7968175 -0.22212775 -0.0033997113 -0.0015683734 0.57877916 -0.056436863 -0.20263645 -1.6903996 -0.4107903 0.47869822 0.806 0.3367856 0.35051927 -0.7456519 0.22738014 -0.4648183 0.3085752 -0.6398152 -0.401556 0.05827913 0.31707215 -0.712273 0.6892141 -0.48438787
miocene -0.29491568 0.3486173 0.41601416 0.13312724 0.21834803 -0.743861 -0.77709913 -0.06554654 -0.20758215 -0.8920992 0.56713337 0.08276357 -0.34549668 -0.007150328 -0.015678123 -0.047869783 -0.16799416 0.12622875 0.41158152 0.015004579 0.06276131 0.63188577 0.6891171 -0.14353594 -0.06360837 -0.37643722 0.20678703 -0.58985716 0.16649401 0.26442114 -0.061038934 0.58812803 0.4897835 0.06250739 0.40913385 -0.3510411 0.5319492 0.36968884 -0.74043614 0.03064247 -0.46892905 -0.41652018 -0.023386337 -0.5122158 0.1128785 0.64891744 -0.8486943 0.4835718 -0.9083978 -0.031963684 0.81175977 -0.09468441 0.17331918 -0.35360506 0.6905249 0.034467097 0.48075908 0.062565 0.18895233 -0.2881185 -0.15078817 0.55623937 0.28837103 -0.7269112
maksaev 0.09275694 -0.0453513 0.39687198 -0.6781371 0.659499 0.030922905 -1.1181378 0.10792143 0.20265564 -0.6607582 0.4499513 -0.30638984 -0.5037503 0.59354436 0.2707297 -0.3231434 -0.23388791 0.100877345 -0.113992944 0.28197715 -0.15512155 -0.33395013 0.65969497 -0.3828434 -0.03992977 0.74677646 -0.008063454 0.071736805 0.42022017 0.99910235 0.12901485 -0.38945463 0.48154843 -0.12479577 1.0824178 0.14685827 -0.39212385 -0.30234736 -0.8122221 -0.2692313 -0.05789123 -0.20051482 0.5169415 0.231801 0.18274802 -0.027770732 -0.8041889 0.9210111 0.017712327 -0.51418614 0.73045474 -0.062357433 -0.24187285 -0.5373241 0.5058985 0.463457 -0.5592629 -0.13244613 -0.13399078 0.22184339 0.12670995 -0.15582033 0.5874571 0.2783113
2004 0.020465378 -0.08464321 0.4295994 -0.72886664 0.48969105 -0.10751775 -1.0953424 0.17955849 0.20127207 -0.48669836 0.45966578 -0.30558598 -0.4963451 0.69491744 0.09790341 -0.3403316 -0.17511907 0.14140339 -0.24414772 0.18539733 -0.13037181 -0.4601358 0.615727 -0.39850757 -0.14783226 0.6078795 -0.006665472 0.09016937 0.18455881 1.1010537 0.08342376 -0.42556608 0.5064841 -0.067584686 1.2090948 -0.0069324975 -0.42465803 -0.1954932 -0.8932571 -0.30857095 -0.21208134 -0.1373664 0.55056965 0.2751625 0.16827847 -0.16933075 -0.8577513 0.9525923 0.11947409 -0.6265467 0.8595023 -0.13720512 -0.06938019 -0.5284219 0.5385736 0.46202996 -0.31468424 -0.17657453 -0.07870577 0.13524054 -0.027245326 -0.31192842 0.64029926 0.4053259
cash 0.1727884 -0.113381155 -0.12494488 -0.12886505 -1.0440605 0.5726273 -0.29825726 -0.32940894 -0.6314273 0.06997831 -0.40726578 -0.71154934 -0.98391336 -0.7185629 -0.52731735 -0.8038136 0.24088214 0.08207544 0.15408769 0.5237963 0.30339903 -0.28905463 0.31967154 -0.68994004 -0.3150669 0.5125163 -1.077508 -0.22125947 0.3964686 -0.6530922 0.37760216 0.17321652 -0.10040406 -0.7086626 0.8366437 0.6137411 -0.5557075 -0.14488259 0.15980726 -0.60154337 0.03382094 -0.77353936 -0.2592074 -0.32449782 0.20441115 0.16934277 -0.6537157 -0.13481696 0.33230227 0.18438649 -0.1798076 -0.051437408 0.87113 0.19893874 0.25322545 0.45881352 0.15300255 -0.40454525 0.40435618 0.5628041 -0.1751739 0.38821152 -0.15755773 -0.90004086
zappa -0.124970436 -0.2650227 0.35144442 -0.26233223 -0.21263543 -0.17371927 -0.52638924 0.069236726 -0.55284506 -0.54245055 -0.2815786 -0.48862648 -0.521986 -0.1699798 -0.89469534 -0.28391445 -0.4323963 -0.11127537 0.22290382 0.01915086 0.6008287 -0.29712006 0.83134705 -0.21876986 -0.36368454 0.6080759 -0.6125009 -0.588686 0.39053488 -0.6984613 -0.11210182 0.0048844614 -0.33615953 -0.5976751 0.23601897 0.2691542 -0.42603353 -0.5112041 -0.0077971793 -0.010121838 0.32692868 -0.90060014 -1.0536308 0.2464844 -0.7718724 0.12467928 -0.033389837 0.10409154 -0.9023199 -0.5622443 -0.3615967 0.17961687 1.5992931 -0.24644484 -0.17054722 0.025019601 0.16154516 0.28315973 0.4765885 0.28805587 0.031190153 -0.45286524 -0.1353692 -0.44539553
koffee -0.17320274 -0.2613307 0.38757193 -0.2849212 -0.08934561 -0.12615748 -0.5127876 0.19533291 -0.49502987 -0.4983997 -0.4427183 -0.5382794 -0.36662218 -0.19465078 -0.8784779 -0.29009098 -0.37324145 -0.031295463 0.21218 -0.07332064 0.66613173 -0.23417923 0.8665275 -0.2960447 -0.25122002 0.6398776 -0.56282836 -0.49227968 0.37282848 -0.81176543 -0.14540547 0.002232107 -0.32177114 -0.48094454 0.23013946 0.12120075 -0.27735522 -0.46024778 0.031814415 -0.05966672 0.43374857 -0.9456136 -1.1313308 0.24793227 -0.67303586 0.047979556 -0.057047702 0.2788864 -0.8243167 -0.4526074 -0.36008292 0.065895006 1.6249031 -0.103861034 -0.19892648 -0.014540689 0.11581984 0.2940851 0.51373386 0.17234509 0.15526457 -0.42460755 -0.27876195 -0.3965477
k 0.36326307 0.23375125 -0.28946337 -0.53568697 -0.8692247 0.02443975 -0.051564116 0.31212944 0.14997357 -0.12841755 -0.09673229 0.17892645 -0.12829444 0.044117995 0.5554717 -0.22016098 -0.072975285 -0.05867862 0.10322411 -0.8871454 0.5175602 0.45644918 -0.51178026 -0.8678466 -0.42425436 1.2284648 -1.5406321 0.025468636 -0.37564233 -0.24049425 0.19358127 0.50780106 -0.34186074 -0.29359594 0.03931362 -0.59987444 -0.45810002 0.64403623 0.047549196 -0.5327449 -0.8344693 -0.12105657 -0.92815465 0.5727864 -0.27951145 -0.20069319 -0.6490646 0.069347486 0.30810562 0.021042738 0.32065374 0.37769768 -0.104967 0.14575532 0.21639048 0.77072 0.23023862 -0.18276535 0.46627834 -0.049677745 0.00025292698 0.20293842 0.89257413 -0.85380465
fluid -0.5915644 0.09818142 0.8932396 0.16096318 0.29291743 0.108934484 -0.30595723 0.33037415 -0.6177392 -0.9801873 0.63452524 -1.0216352 -0.14258873 0.4882205 -0.2680871 0.26834896 -0.7621688 0.23629794 0.161529 -0.571544 0.10475519 -0.27902994 0.14196964 -0.7215932 0.6183427 0.14768206 -0.5044439 0.1771816 -0.1053515 -0.22776495 0.023896392 0.31247658 -0.43881428 -0.22753376 -0.5621316 -0.2840065 -0.8709715 0.124444805 -0.6900052 0.605541 0.7274221 -0.93056834 -0.89109606 -0.49182618 0.66530335 -0.80671984 0.3076365 -0.6559998 -0.447874 -0.08076589 -0.826618 0.025666881 -0.14577036 -0.2539066 -0.12965672 -0.35694984 0.315692 0.94063383 0.5078969 0.69966274 0.09536122 -0.5873285 0.3843417 -0.2826957
intrusive -0.45745122 0.51364505 0.16215004 -0.3679817 0.3068479 -0.23799361 -0.5480919 0.34500152 0.40416154 -0.5070435 -0.21159522 0.60821104 -0.17789781 -0.20026962 0.18734042 -0.314432 0.42771077 0.3648166 -0.74622875 0.5146674 -0.42311057 0.23378037 0.1582839 -0.29231486 -0.43724126 0.08621544 0.027532905 -0.19051716 0.3793794 -0.6490644 -0.52957416 0.1822825 0.7031686 0.6293287 0.55481017 -0.72792506 0.806188 -0.2887854 0.35324773 -0.87580544 -0.1991061 0.1304651 -0.018122058 -0.10068502 0.016830472 -0.13022408 -0.9528711 0.20756628 -0.14267868 -0.7211123 0.17875022 0.27130336 -0.80178875 0.22748233 0.032758504 -0.08648028 0.44365036 0.06508621 0.33837742 0.56153333 0.587998 0.0041518454 0.94429386 -0.4908889
sericite -0.07746436 -0.3445362 0.50076765 0.42230648 -0.4809854 -0.68883944 0.61939114 0.38264823 0.451415 -0.9791768 -0.55560994 0.066142105 -0.59750754 1.0696636 0.21307352 0.03653299 0.55045015 0.44766298 0.059678778 -0.33692694 0.4259389 -0.07344085 -0.326627 -0.4049605 -0.49598595 0.493844 0.07148758 -0.3144139 -0.1631127 0.41817224 0.18807235 -0.06982816 -0.9742624 -0.21765369 0.85934055 -0.4858927 -0.3762408 0.24437517 0.7203322 0.37615892 0.571915 -0.9745629 -0.12209649 0.4936719 0.8702519 -0.35824686 -0.124716006 0.015074917 -0.7520226 0.5737786 0.2018774 0.18625131 -0.66396654 0.5735491 0.33941135 -1.3919711 -0.068993315 0.07758615 0.54820764 0.6427799 0.11843139 -0.5336235 0.24109748 0.05763805
china -0.13879715 0.24763851 0.953406 0.84176856 0.76063585 -0.28116336 0.26508358 -0.24711382 0.9391422 -0.192647 0.2137941 0.025664067 -0.35274896 -0.952048 0.55435467 0.07883097 -0.56361634 -0.15186875 -0.31187093 -0.14923403 0.33127365 -0.30228397 0.6029055 0.106139906 -0.3297272 -0.16573203 -0.74951386 0.778079 1.0053496 -0.2738126 0.05182502 -0.4994103 0.48975047 -0.12012511 1.1971065 0.30778506 -0.8325152 -0.4455362 -0.45881262 0.29715052 -0.7617883 -0.017717166 -1.2578918 -0.31407458 -0.12874466 -0.9972578 0.09852979 -0.1096609 -0.6409855 -0.32928178 1.0039715 -0.3445639 -0.093009464 0.3147483 -0.21598852 -0.06459977 0.37096775 0.49125946 -0.65830815 0.54705304 -0.52499145 0.34582645 0.33067796 0.03709288
mo -0.049738895 0.1536084 -0.05230658 -0.13810632 -0.23521174 -0.60245407 -0.45588607 -0.18424699 0.30889356 -0.7884463 -0.207571 0.15093449 -0.24524027 -0.0010614656 -0.20789337 -0.7950211 -0.8574725 0.8558365 0.49049464 -0.18565279 0.3724343 -0.20466577 -0.76992166 -0.43161076 0.012401734 -0.099803075 0.043745957 -0.82921165 0.5155976 0.14323537 0.49398127 -0.50759655 0.78917783 0.6763832 -0.53999513 -0.44396544 -0.17855243 -0.25872064 0.6329709 1.013848 0.5270434 -1.4575057 -0.67836756 0.083585724 0.56563354 0.085265085 -0.32106906 0.09531043 0.019674173 -0.18772887 0.009281614 0.28840044 0.34639898 0.7908058 0.21734215 0.21133997 0.06523603 0.2023142 -0.12881157 0.58542985 -1.0379449 0.1222104 -0.5631032 -0.44060996
devonian -0.087219335 -0.026334733 -0.32818887 0.005080608 0.25528756 -1.3854536 -0.7523768 0.018982913 -0.3564476 0.010888117 -0.17580518 0.06610923 0.6978946 0.028429894 0.41443834 -0.49067816 -0.17486084 0.6001487 -0.82265186 0.5662058 -0.08976503 -0.29644737 0.4836904 0.14769867 0.53660417 0.53448933 -0.23374484 -0.3533904 0.64499915 -0.2412402 -0.1041786 0.10215794 -0.11819095 -0.2830149 0.5884769 -0.15772402 -0.09204144 0.11904355 0.29469657 0.7293373 -1.1713896 -0.40514404 -0.6470692 -0.24809846 0.3691031 -0.627011 -1.0480242 -0.79867893 -0.5423398 0.021187918 -0.59000635 -0.25454846 -0.09896343 0.18086869 -0.18408798 -0.4004433 -0.30561948 -0.81454307 -0.41256854 -0.23481455 0.020435708 0.42875966 0.64792717 0.5893042
result -0.25795585 0.3423865 0.12893026 -0.29394054 0.18992373 -0.22745384 -0.81594145 0.5684382 0.22330776 -0.5624427 -0.9196679 -1.0087527 -0.0066658165 -0.24939151 0.021837695 -0.341139 -0.15677637 0.46466932 -0.30356076 -0.757988 -0.030881083 0.29325053 -0.6533791 -0.453906 0.2570586 0.19674659 0.6893537 0.21737616 -0.008021384 0.34691745 -1.0930866 -0.4367003 0.2548366 -0.22067823 0.27164337 0.15821047 -0.31648004 0.15365759 0.4032648 0.57641995 -0.5933606 -0.31715956 -0.5790187 -0.22876346 -0.16325727 0.79611564 -1.2641757 -0.6046444 0.6050203 0.24570139 -0.17454475 -0.3791446 -0.052459694 0.12496663 -0.13691215 -0.24694636 0.8430537 0.8615553 -0.22141586 0.13298842 -0.23817977 0.3250243 -0.62187827 0.0030618485
1987 -0.3072857 0.048354782 0.3293501 0.32354835 -0.23082493 -0.5288153 0.12784864 0.7648086 -0.054463882 -0.48726183 -0.5931539 0.37452757 -0.3272563 -0.5627891 0.63718694 -0.66641533 -1.4529973 -0.16641928 -0.8478433 0.113347284 -0.43628287 0.2896539 -0.09432665 -0.16055262 0.26856905 0.38659504 -0.36399645 -0.11711716 0.6331074 -0.19136019 -0.88664067 -1.088811 0.39661232 -0.40132654 0.58593017 0.50317925 0.034364477 -0.4078391 0.86636794 0.64811087 -0.15372191 -0.19959892 0.14185812 -0.36058494 0.16357988 -0.49423745 0.39057678 1.1245027 0.62655693 0.45220855 -0.29007506 0.0637054 0.4985769 0.21532822 0.80435264 -0.28591523 0.45634177 -0.18090174 0.35380462 -0.17629278 0.43369526 -0.42082813 -0.014707686 -0.0619739
north 0.2983585 0.26762068 -0.19597167 -0.823822 0.2742164 -0.45579705 0.61168957 0.31423572 0.17051259 -0.110368244 -0.6313556 0.24364749 0.28343406 -0.59357166 -0.063202664 -0.29410312 -0.73898625 0.4907051 -0.36612052 -0.15003806 -0.5692893 -0.33661032 0.73645055 0.26410106 0.24647787 0.063337445 -0.13677798 0.30896485 0.19748557 0.21280774 -0.31331953 0.42406392 0.3591303 -0.91558033 0.3073079 0.5788089 0.8923283 -0.49153462 -0.457797 0.3423223 -0.96830004 0.15904354 -0.92475766 -0.61134887 -0.8853428 -1.3056124 -0.4105161 0.24923977 -0.48461643 0.5870376 0.5998387 -0.14464866 0.34343663 -0.12654766 1.0814126 -0.3737919 0.5080892 0.17995624 0.0458604 0.20334394 -1.0283748 0.078807704 0.6037852 -0.08743058
also -0.7030552 0.41215083 -0.11894633 0.014099643 -0.8478569 -1.0132517 -0.65122736 -0.09075776 0.06085901 -0.56193024 0.23071621 -0.49169293 0.149075 -0.43669412 -0.7596487 -0.21120785 -0.6347643 0.63383716 0.55730927 -0.9087453 0.18938965 0.039364304 0.3691671 -0.597417 -0.17866081 1.1639667 0.30513084 0.13880047 0.98371416 -0.3434587 -0.7138841 -0.2553409 0.111641064 -0.118568785 0.12543924 0.0022515936 0.2439551 0.6715176 -0.33498248 0.40789306 -0.5332154 0.775939 -1.1635822 0.01711764 -1.0633616 -0.082245186 0.21213764 0.2792909 0.067983195 0.25211304 -0.2726936 0.0002662171 0.31821403 -0.16224527 -0.61975324 -0.026569847 0.25557518 0.26351216 -0.1617994 -0.43784034 0.07198869 0.007071284 -0.09412467 -0.108793676
1994 -0.5056118 -0.39090163 -0.09866965 0.5147708 -0.5594235 -0.93806154 -0.021486893 -0.004933241 -0.6872448 0.38336483 -0.087426506 -0.18500003 0.39693347 0.07221605 0.53140897 -0.94611967 -1.0119677 1.0262713 -0.6268733 0.15676427 0.69500023 -0.23955716 0.2690607 -0.27326152 -0.25122595 1.1537951 0.23039722 -0.6886572 0.97246045 0.1575733 0.05856766 0.65938884 -0.2683632 -0.7285643 0.29773188 0.1554195 0.15357222 0.5203568 0.622991 0.35958958 -0.9285771 0.55621 -0.72353673 -0.12805049 0.54737276 -1.1558416 -0.40451473 0.4609515 0.21460652 0.5813137 0.6380069 -0.42132914 -0.19712888 0.5147049 -0.46562475 -0.27539328 -0.65458274 -0.3993999 0.295837 -0.5909634 -0.7035109 0.19188434 0.7012299 0.77744764
sequence -0.14003359 0.09863511 -0.81813794 0.64302206 -0.2448139 -1.0271678 -1.0575202 0.38792104 0.09463917 -0.1645804 -0.44556674 0.36078733 0.8932149 -0.50837094 0.06424105 -0.8901587 0.10743895 0.2627504 -1.1935532 -0.33584028 0.029482603 -0.027277406 0.61579835 -1.1549296 0.07313589 0.5576668 0.18574968 -0.20251372 0.20901631 -0.009878251 -0.027948365 0.22357643 -0.27238053 -0.3826664 0.1389321 -0.15385374 0.21007325 -0.47184354 0.170054 0.047273837 -0.5947689 -0.22483973 -1.316505 0.7281328 -0.5621152 -0.6879227 -0.4457153 -0.5640138 0.07711416 -0.006717886 0.44012228 0.12431287 0.7306132 0.55514514 0.21996778 0.82968485 -0.36742988 -0.61557674 -0.060141634 -0.18571739 0.18964611 0.82235605 1.0068313 0.485148
pipe -0.5158354 -0.51785773 0.20051251 -0.12990926 0.16851772 0.5125786 -0.95261866 0.09752477 0.44566894 -0.63360244 0.52266914 -1.1780227 0.17726848 0.6978479 0.25854263 -0.7290699 -0.2924187 -0.2000624 -0.084636174 -0.08381776 -0.55432266 -0.19672401 0.32669237 -0.15403636 0.49085358 0.6935332 0.21952398 0.1396636 0.5805751 0.9616287 0.17103776 -0.64812714 0.919415 -0.5976408 0.9212201 -0.47681028 0.40311572 0.06651142 -0.049018506 -0.15701325 -0.18986261 -0.8193228 0.49284688 0.57488817 0.39152092 -0.37597132 -0.5111104 0.71271664 -0.8390445 -0.5836106 -0.11639721 0.13249125 0.13765639 -0.4311658 -0.1613057 0.3235259 0.028093332 0.08729517 0.38429877 0.071294926 0.2208043 0.10770523 0.55099934 -0.2721239
breccia -0.116419874 -0.343142 0.39513752 -1.0565464 -1.2453249 -0.29632053 -0.33898294 1.0577725 0.71382934 -0.68111515 -0.11095967 0.13225439 -0.6795234 0.2857207 -0.15387681 -1.3460909 -0.20284368 -0.6522874 0.3478029 -0.2846795 -0.3174552 0.69226205 0.42493713 0.14475323 0.14953814 -0.32616168 0.79414636 -0.32425022 1.1153277 -0.37100697 0.78313786 0.5479091 0.23319617 -0.0034869025 0.42649394 -0.3431729 0.9169778 -0.14317088 0.027552068 -0.30732638 -1.2332659 -0.13663603 0.47986054 0.30103335 0.53278977 -0.069874264 -0.86427546 -0.10454439 -0.99780613 -0.105869226 0.16599753 -0.30578116 0.06804747 0.6911972 -0.33568937 0.1669507 0.2716749 -0.26128224 -0.28053647 -0.34412318 0.14498466 0.3994772 -0.016653309 -0.5888574
33 -0.16288742 -0.03761021 0.54901904 -0.8157153 -0.6374561 0.3973566 -0.7220779 -0.062851034 1.0835243 -0.5699831 0.22764514 -0.771821 -0.15082747 0.27093318 -0.07508002 0.6776227 -0.79848886 -0.1435549 0.32804585 0.43149075 -0.17359474 -0.8193066 0.6252104 -0.8370886 0.9020287 0.20897172 1.1072938 0.12880321 0.46374005 0.6387504 -0.30380923 -0.17482698 0.32031196 0.116090484 0.95464325 0.0786736 -0.94000024 0.0068542743 -0.30722526 0.27092487 0.07958029 -0.40298656 0.4773023 0.6524348 0.69756854 -0.799874 -0.5105568 0.2856803 0.05226562 -0.35700136 -0.14457943 0.30199096 0.4396229 0.15088418 -0.024563838 0.725216 -0.54008794 0.077026285 0.49571514 -0.24633725 -0.24348019 0.20494519 0.71607417 -0.009855928
duration 0.71060336 0.1209241 0.076619804 0.82556117 -0.13348232 0.20551303 -0.03616625 0.43515137 -0.13544796 -0.5846763 -0.019660894 -1.3607832 -0.98597264 0.45016876 -0.55405116 0.2192293 -0.16197926 0.86707693 -0.0025930179 0.062480625 0.30489114 -0.39002666 0.2369093 -1.4479983 -0.03717614 0.6823919 0.19774279 0.4300448 -0.3735897 -0.63743657 -0.94417715 -0.00088670093 -0.083797246 -0.13394403 0.22200288 0.490294 -0.45611915 0.1040987 0.20186348 -0.5590895 0.38485897 -0.8900555 0.04969439 -0.09146367 0.35259882 0.39712378 -0.5389199 -0.37614504 -1.1158245 0.2316463 0.3067365 -0.022551661 0.15708017 0.15547656 0.20722096 -0.37643403 -0.31057605 -0.4937622 0.34839895 0.4641656 -0.11681148 -0.83530307 0.20205714 -0.3334056
activity -0.11445484 0.2690822 -0.05753572 0.12106853 -0.036686722 -0.37795264 -0.5762481 0.15493985 -0.26396722 -0.9608419 1.0894127 -1.0026592 -0.13975471 0.28168103 -0.16989559 -0.90475076 -0.7418832 -0.28810227 0.4378385 -0.17277324 0.55764824 -0.01755278 -0.43986535 0.16880974 -0.30810386 0.7239836 0.6239299 0.06386442 -1.0651673 -0.45819253 0.0042303535 -0.17832959 -0.103994325 -1.0663897 0.5085621 -0.04432332 -0.061149217 -0.4133861 -0.11138035 -0.2949468 0.30657703 -0.5632112 -0.37472388 -0.06571 0.2963583 0.60179484 -0.6175335 -0.42346352 -0.4987976 -0.20310628 0.1736259 -0.09067799 -0.2358108 -0.27072123 -0.18384781 0.34806147 0.29829633 0.03632767 0.38873756 1.2586042 -0.41791588 -0.50124055 0.4322041 -0.051582426
pattison 0.15922998 -0.035558358 0.50329787 -0.65335923 -0.31248546 0.79257494 -0.3865295 -0.029481651 -0.520087 -0.19612506 -0.4823518 -0.5650562 -1.0386585 -0.9657615 -0.10348277 0.4545766 -0.23344672 0.09843174 -0.15784425 0.18068416 0.51058424 -0.41751537 -0.16490015 -0.021765098 0.13411832 0.44898105 0.5274213 0.2985091 0.44134417 -0.82044834 0.04843823 -0.11859353 -0.37506872 -0.26688346 0.37483737 -0.09937815 -1.0698199 -0.48200178 0.06869584 0.24311227 0.2674965 -0.95765394 -1.5336792 0.7997745 -0.63591915 0.24130325 -1.0049717 -0.063538104 -0.72538227 0.16249633 -0.7851328 -0.43792054 1.1126957 0.3170944 -0.40959653 -0.75466114 0.6021497 0.33800733 0.45623636 0.22143172 -0.28157565 -0.09200061 0.0803544 -0.6497462
1995 -0.24346879 -0.2805215 0.27156842 -0.8453714 -0.24242656 -0.18423948 0.19069993 0.6228765 0.3085003 -0.12872685 0.21802023 -0.2238054 -0.11029827 -0.31508127 0.18577969 0.2450051 -1.4621279 0.23225838 -0.014865998 -0.59591824 0.37016827 -0.67457074 0.2371734 0.16152877 0.39320078 0.114586025 -0.71765584 -0.8700888 0.70612305 -0.6056632 0.24556363 0.44125536 0.3350504 0.33800036 -0.065302014 0.68563133 -0.72630394 0.08778945 0.27418733 -0.7235117 0.04469899 -0.06205164 -0.14923692 -0.049736705 0.293418 0.40713477 -0.7614475 0.80561954 -0.23315188 0.6820985 0.34393498 0.50866765 0.84598595 0.08417165 -0.037270203 -0.00404454 0.48780355 -0.21500207 0.20917207 0.5563085 0.42502323 -0.7839598 0.3153388 -0.36456954
km -0.49412304 0.22065814 -0.32298538 -0.21501124 -0.7325194 0.12637815 -0.037005298 -0.06228688 -0.4456612 -1.0402168 0.40252352 -0.024295855 0.11206664 -0.39280108 -0.38182598 -0.272953 -0.9796433 0.1982936 0.7497783 -0.76460654 0.2944765 -0.26161087 -0.43900773 0.2032857 -0.27917188 0.2919134 0.061819725 0.44316658 0.112691425 -0.50087184 -0.65215117 -0.05039947 0.13609327 -0.17259005 -0.3128119 0.6928708 0.3281256 -0.38267565 -0.123087294 -0.4547022 -0.5611156 0.2731314 -0.26085147 -0.10146284 0.07265969 -0.080764875 -0.48879877 -1.0594952 -0.040489927 -0.06301366 0.7637569 0.54340947 0.90498424 -0.80446494 -0.42047107 0.029220378 0.42254317 0.2711548 0.72507596 0.35949126 -0.1906417 -0.33902326 1.0395457 -0.4807152
gold -0.40301874 -0.58429325 0.20606425 0.46936747 -0.076246865 -0.0083163055 -0.3591356 0.19592497 -0.29154083 -1.2614589 -0.4413007 -0.5209366 -0.2287295 0.18417017 0.019596472 0.68363935 -0.6463861 0.09567795 -0.7451202 -0.21360667 -0.0017314106 0.46837115 -1.0140117 0.18889552 -0.42577112 -0.7318615 -0.1202106 -0.8181226 0.46346617 -0.35779533 -0.7727172 0.1262868 -0.6655564 0.004483338 0.62026465 0.6190089 0.23547423 0.51781714 -0.22367093 -0.10396773 -0.5059843 -1.2761631 0.27246574 -0.14231703 0.2979747 -0.8101561 0.15884766 -0.25233266 0.2610655 -0.97219396 0.29602224 -0.09385919 0.36779 0.5750505 -0.5823878 -0.43704945 0.11309962 0.037834954 -0.39698863 0.24861324 -0.30083638 1.063032 0.47851673 0.45693475
one -1.2337027 -0.37840843 0.7279766 -0.08573114 0.539705 0.31105646 -0.36067858 -0.05427552 -0.26307994 -0.007980536 0.9091912 0.838508 -0.20594828 0.13318557 -0.6906816 0.0381324 -0.35436335 0.85714626 -0.30647397 0.20634939 -0.27549517 0.55012876 0.3408453 -0.18603621 -0.21905395 -0.01093836 -0.77839077 0.17474386 1.0441029 -0.0017187563 -0.5629855 -0.41003135 -0.66233635 0.03383609 0.46704835 -0.04140643 -0.14591375 -0.685425 0.955373 -0.40802872 -0.4882223 0.21537268 -0.19554716 -0.6781414 0.11603504 -0.11292901 -0.29893455 0.0075120972 0.02132916 -0.82715917 0.15893947 0.12646924 0.96370775 0.27010813 -0.063760266 0.057128098 0.18261798 0.025808122 0.060565133 1.0455744 -0.40252393 0.47091457 -0.4826002 -0.5020962
batholith -0.041841816 0.45652574 0.31385952 -0.08309417 -0.08937087 -0.017652439 -1.8072724 0.5620402 0.18753435 -1.2111384 -0.28682736 0.37810484 -0.5779084 -0.6284796 -0.052904855 -0.0025528504 0.110424034 0.43078983 0.66125745 -0.7611704 0.055502776 -0.4595723 0.108164504 0.4576544 -0.0080785155 0.56508136 0.111219294 0.15758908 0.7719564 -0.7468075 0.38186803 -0.40236157 -1.3886919 0.39616072 0.12395489 -0.59974545 0.83068883 0.37216964 -0.023039574 0.464458 0.24472135 -0.23170939 -0.41929144 -0.7680651 -0.2616641 -0.52327263 -0.3895972 0.053320408 0.47704715 0.3456686 -0.77438194 0.48047766 0.2901526 -0.19621167 -0.66468394 0.29241928 0.30485165 -0.40912408 -0.054092366 -0.19581261 0.11225568 0.5775388 -0.6271955 -0.97758836
major -0.61004204 0.08092472 0.75408345 0.50327945 0.35641494 -0.23884472 -0.33607742 -0.40168586 -0.35361117 -0.58045703 0.22014304 -0.02091947 0.3961717 -0.7265352 0.26105824 -0.42897376 -0.6885879 -0.59006786 0.18106619 -0.0066891355 -0.12664434 -0.33843544 0.4247792 -0.35846353 0.46294084 -0.012377682 -0.88514316 -0.3177447 0.669371 0.39368203 -0.37659994 -0.46621147 0.28658035 0.28254277 0.85912806 0.6176312 -0.07681363 -0.2716654 0.19769204 -0.6204495 -0.9547094 -0.07479662 -0.34945622 -0.07999155 0.30758995 0.04429776 -0.49572903 -0.25094807 -0.3405666 -0.37495694 -0.31923392 0.12310025 -0.56647956 0.29307094 -0.76610565 -0.5763928 0.046440583 0.96297634 -0.81775224 1.0740291 -0.9648992 0.29075408 -0.55598944 0.7351386
type -0.40408692 0.17337556 0.63663375 0.69460624 0.2693216 -0.1348195 -0.3247234 0.7363101 -0.005192655 -0.5286787 -0.49724856 -0.2679484 0.062873706 -0.26202458 -0.0056177876 0.3438697 -0.92125016 0.42296982 -0.32523176 0.007792545 0.7991033 0.6719163 -0.42716128 0.27415442 0.68963194 0.13670368 -0.93085593 -0.17313443 0.5547713 -0.10783515 -0.18941464 0.28123578 -0.14125429 -0.020105185 0.87773263 0.76071954 -0.33282906 0.16700263 0.6460244 -0.2476127 -0.7163238 0.14658031 -0.5665834 0.31808195 0.5781842 0.046529733 0.10412628 0.021794759 0.52751887 -0.45090508 0.0006490739 -0.10783064 -0.45472658 0.74916327 -0.36045912 -0.6262239 -0.7769678 0.2623335 -0.32912275 0.17071712 -1.8207579 0.90765536 0.5353374 0.57234657
northwest 0.09823474 0.21667515 -0.035365578 -0.81788653 0.35100362 -0.4353338 -0.34564745 -0.28781405 0.010699943 -0.8398441 0.0422356 -0.086349845 0.98254293 -0.4521822 0.55292135 0.5819679 -0.78640026 -0.12897004 0.15121795 0.96384025 -0.3629237 0.16229212 0.61762404 -0.69710445 -0.02343029 -0.37418425 -0.29750502 -0.160101 0.44106513 0.10798281 0.52118236 0.09686059 0.13668296 0.0038590734 1.0299333 0.6865335 -0.23436546 -0.8415721 0.11958088 0.50041497 -0.8422905 0.006157074 -0.53201187 -0.33797055 0.023818731 -0.26594242 -0.3371464 1.0578246 -0.11638872 -0.06725915 0.8094756 -0.4624124 -0.67882174 -0.28218156 0.350429 -0.5587667 -0.23804563 0.19723396 0.11756957 0.2204922 -0.95191544 0.17681447 -0.48621306 -0.052312974
high 0.2705067 -0.13601504 -0.4197581 -0.58736426 0.39206243 -0.18960324 -0.37174872 0.114302784 -0.047906652 -0.9546874 0.3791578 0.59438217 -0.08355225 -0.13280092 0.4145958 0.35206515 -0.61082655 -0.27481937 1.1391157 1.251629 0.51750416 0.549729 0.26177505 -1.4231036 0.13401684 -0.1130514 -0.34343705 0.98553705 -0.54978526 -0.16047287 0.48824295 -0.7928361 -0.114776075 0.27771452 0.43304798 0.74748677 -0.72853327 0.33039153 -1.2984772 0.237958 -0.45884275 -0.59823483 -0.43296865 0.4494799 0.03479253 0.14496896 -0.39973968 0.08514655 -0.28886932 -0.1883124 0.4632377 -0.10906047 -0.17633595 -0.08990911 0.5053054 0.2800838 -0.09846597 -0.0069389683 -0.26917478 -0.010000529 -0.49663264 -0.3327963 0.549449 0.12817135
metal -0.47180143 0.24785367 -0.32991403 0.15011133 -0.45842698 -0.52954006 0.5891055 -0.48214176 0.24671172 -1.3558282 0.24657612 0.45384124 -0.27766278 0.164989 0.05461325 0.17612651 0.51461214 0.8510707 -0.0620699 0.042801525 -0.1375941 -0.18282466 -0.71819526 0.44298267 0.40965003 0.014330951 -0.23384725 -0.6590073 0.38087574 0.34526145 -0.090482086 -0.2355217 0.4075673 0.62444764 0.9380142 -0.3872915 0.29772714 -0.048234325 0.77642876 -0.6716761 -0.1703771 -0.33602828 -1.2285061 0.45141023 0.80080974 -0.23828557 -0.7896264 0.24789868 0.3131549 -0.04642677 0.08242564 -0.53616166 0.5509398 0.5146226 -0.5049874 -0.7040715 -0.046555728 0.8244724 -0.40912727 0.9029107 -0.60355604 0.2165334 -0.30307665 0.12848565
report -0.030927245 -0.1272504 0.3549938 -0.8166816 0.49460924 -0.10859175 -0.632483 -0.016583301 0.57305616 -0.9370353 0.31369638 -0.032301325 -1.1833012 -0.61692286 -0.4269125 1.2981395 -0.5506975 -0.7024115 -0.7233247 -0.1410481 1.1795098 0.24318336 -0.29402792 -0.27044025 -0.006822455 -0.025696987 0.6470474 0.07460857 0.39053217 0.5379814 -0.5036516 0.22025481 0.13886304 -0.33000848 0.13497314 -0.24586976 -0.7507336 0.23708896 0.114009306 0.012865055 0.13525811 -0.22514528 -0.37372804 -0.34438893 0.089338474 0.15191697 -1.830535 -0.12688066 0.26254046 -0.36420074 0.08707908 -0.5683683 0.3522038 -0.52043766 -0.20861313 -0.4752301 -0.8049102 0.099934675 -0.6276004 0.08947723 0.015190441 0.5964581 0.3741519 0.46438187
series 0.14421256 0.6213194 -0.4625692 -0.19663638 -0.7687746 -0.5896513 -0.27854958 1.2301836 0.23691285 -0.81698966 -0.9214157 0.052031 -0.60649574 0.16432756 0.4211901 -0.34921825 0.25202787 0.4171207 0.23498568 0.55426407 -0.52925754 0.8271461 1.6068102 -0.3471626 -1.2962308 -0.68802565 0.35618228 -0.65732443 0.5940666 0.050552096 -0.06373783 0.84531045 0.2462378 0.2982948 0.58401567 -0.012192697 0.050349925 -0.6239468 0.11766651 0.70546615 0.025742661 -0.7950798 -0.5921881 0.42172435 0.18919338 -0.08203863 -0.34105396 -0.42531565 -0.16252872 0.16731864 0.11762261 0.5502289 -0.24144171 -0.19029164 0.76397085 -0.4681666 -0.12223301 0.11756685 0.31185058 -0.675651 0.09370434 0.32466635 0.53854525 -0.12928939
quartz -0.5584724 0.050253265 -0.84115726 -0.04246808 -0.38848627 -0.9516197 0.11124693 0.14657539 0.84125483 -0.87013215 0.13494104 -0.3239139 -0.18053825 0.4659978 -1.0620393 -0.21000336 -0.28978735 -0.67192 0.35966456 -0.16941588 0.009516331 -0.36373442 1.3404111 -0.0057308255 -0.32387406 0.27852297 0.19819257 -0.1694985 0.9793022 0.2841526 0.67422557 0.18023002 -0.34158948 -0.41131198 -0.033975355 0.042414453 0.46458906 -0.3160683 0.45120922 0.16355233 0.025399227 0.444791 -1.4131966 0.24530418 0.40645668 -0.6082189 -0.05678089 -0.28482404 -0.05120792 -0.70517737 -0.23290242 -0.45528114 1.4809153 0.2161377 -0.3735572 0.35112494 0.15707837 -0.07249341 0.53497076 0.10587554 0.33664498 -0.30106363 0.027563943 0.04661738
